{"learner":{"attributes":{"best_iteration":"499","best_ntree_limit":"500"},"feature_names":[],"feature_types":[],"gradient_booster":{"model":{"gbtree_model_param":{"num_parallel_tree":"1","num_trees":"1000","size_leaf_vector":"0"},"tree_info":[0,1,0,1,0,1,0,1,0,1,0,1,0,1,0,1,0,1,0,1,0,1,0,1,0,1,0,1,0,1,0,1,0,1,0,1,0,1,0,1,0,1,0,1,0,1,0,1,0,1,0,1,0,1,0,1,0,1,0,1,0,1,0,1,0,1,0,1,0,1,0,1,0,1,0,1,0,1,0,1,0,1,0,1,0,1,0,1,0,1,0,1,0,1,0,1,0,1,0,1,0,1,0,1,0,1,0,1,0,1,0,1,0,1,0,1,0,1,0,1,0,1,0,1,0,1,0,1,0,1,0,1,0,1,0,1,0,1,0,1,0,1,0,1,0,1,0,1,0,1,0,1,0,1,0,1,0,1,0,1,0,1,0,1,0,1,0,1,0,1,0,1,0,1,0,1,0,1,0,1,0,1,0,1,0,1,0,1,0,1,0,1,0,1,0,1,0,1,0,1,0,1,0,1,0,1,0,1,0,1,0,1,0,1,0,1,0,1,0,1,0,1,0,1,0,1,0,1,0,1,0,1,0,1,0,1,0,1,0,1,0,1,0,1,0,1,0,1,0,1,0,1,0,1,0,1,0,1,0,1,0,1,0,1,0,1,0,1,0,1,0,1,0,1,0,1,0,1,0,1,0,1,0,1,0,1,0,1,0,1,0,1,0,1,0,1,0,1,0,1,0,1,0,1,0,1,0,1,0,1,0,1,0,1,0,1,0,1,0,1,0,1,0,1,0,1,0,1,0,1,0,1,0,1,0,1,0,1,0,1,0,1,0,1,0,1,0,1,0,1,0,1,0,1,0,1,0,1,0,1,0,1,0,1,0,1,0,1,0,1,0,1,0,1,0,1,0,1,0,1,0,1,0,1,0,1,0,1,0,1,0,1,0,1,0,1,0,1,0,1,0,1,0,1,0,1,0,1,0,1,0,1,0,1,0,1,0,1,0,1,0,1,0,1,0,1,0,1,0,1,0,1,0,1,0,1,0,1,0,1,0,1,0,1,0,1,0,1,0,1,0,1,0,1,0,1,0,1,0,1,0,1,0,1,0,1,0,1,0,1,0,1,0,1,0,1,0,1,0,1,0,1,0,1,0,1,0,1,0,1,0,1,0,1,0,1,0,1,0,1,0,1,0,1,0,1,0,1,0,1,0,1,0,1,0,1,0,1,0,1,0,1,0,1,0,1,0,1,0,1,0,1,0,1,0,1,0,1,0,1,0,1,0,1,0,1,0,1,0,1,0,1,0,1,0,1,0,1,0,1,0,1,0,1,0,1,0,1,0,1,0,1,0,1,0,1,0,1,0,1,0,1,0,1,0,1,0,1,0,1,0,1,0,1,0,1,0,1,0,1,0,1,0,1,0,1,0,1,0,1,0,1,0,1,0,1,0,1,0,1,0,1,0,1,0,1,0,1,0,1,0,1,0,1,0,1,0,1,0,1,0,1,0,1,0,1,0,1,0,1,0,1,0,1,0,1,0,1,0,1,0,1,0,1,0,1,0,1,0,1,0,1,0,1,0,1,0,1,0,1,0,1,0,1,0,1,0,1,0,1,0,1,0,1,0,1,0,1,0,1,0,1,0,1,0,1,0,1,0,1,0,1,0,1,0,1,0,1,0,1,0,1,0,1,0,1,0,1,0,1,0,1,0,1,0,1,0,1,0,1,0,1,0,1,0,1,0,1,0,1,0,1,0,1,0,1,0,1,0,1,0,1,0,1,0,1,0,1,0,1,0,1,0,1,0,1,0,1,0,1,0,1,0,1,0,1,0,1,0,1,0,1,0,1,0,1,0,1,0,1,0,1,0,1,0,1,0,1,0,1,0,1,0,1,0,1,0,1,0,1,0,1,0,1,0,1,0,1,0,1,0,1,0,1,0,1,0,1,0,1,0,1,0,1,0,1,0,1,0,1,0,1,0,1,0,1,0,1,0,1,0,1,0,1,0,1,0,1,0,1,0,1,0,1,0,1,0,1,0,1,0,1,0,1,0,1,0,1,0,1,0,1,0,1,0,1,0,1,0,1,0,1,0,1,0,1,0,1,0,1,0,1,0,1,0,1,0,1,0,1,0,1,0,1,0,1,0,1,0,1,0,1,0,1,0,1,0,1,0,1,0,1,0,1,0,1,0,1,0,1,0,1,0,1,0,1,0,1,0,1,0,1,0,1,0,1,0,1,0,1,0,1,0,1,0,1,0,1,0,1,0,1,0,1,0,1,0,1,0,1,0,1,0,1,0,1,0,1,0,1],"trees":[{"base_weights":[-1.2554744E-1,1.9437939E-1,-4.0616438E-1,3.8407078E-1,4.4630405E-2,-2.6852402E-1,-5.9352225E-1],"categories":[],"categories_nodes":[],"categories_segments":[],"categories_sizes":[],"default_left":[0,0,1,0,0,0,0],"id":0,"left_children":[1,3,5,-1,-1,-1,-1],"loss_changes":[2.4606763E2,3.6371063E1,3.7491104E1,0E0,0E0,0E0,0E0],"parents":[2147483647,0,0,1,1,2,2],"right_children":[2,4,6,-1,-1,-1,-1],"split_conditions":[6.0963047E-1,4.3563306E-1,7.81545E-1,3.8407077E-3,4.4630404E-4,-2.6852402E-3,-5.9352224E-3],"split_indices":[106,106,106,0,0,0,0],"split_type":[0,0,0,0,0,0,0],"sum_hessian":[2.739E3,1.28E3,1.459E3,5.64E2,7.16E2,8.425E2,6.165E2],"tree_param":{"num_deleted":"0","num_feature":"109","num_nodes":"7","size_leaf_vector":"0"}},{"base_weights":[1.2554744E-1,-1.9437939E-1,4.0616438E-1,-3.8407078E-1,-4.4630405E-2,2.6852402E-1,5.9352225E-1],"categories":[],"categories_nodes":[],"categories_segments":[],"categories_sizes":[],"default_left":[0,0,1,0,0,0,0],"id":1,"left_children":[1,3,5,-1,-1,-1,-1],"loss_changes":[2.4606763E2,3.6371063E1,3.7491104E1,0E0,0E0,0E0,0E0],"parents":[2147483647,0,0,1,1,2,2],"right_children":[2,4,6,-1,-1,-1,-1],"split_conditions":[6.0963047E-1,4.3563306E-1,7.81545E-1,-3.8407077E-3,-4.4630404E-4,2.6852402E-3,5.9352224E-3],"split_indices":[106,106,106,0,0,0,0],"split_type":[0,0,0,0,0,0,0],"sum_hessian":[2.739E3,1.28E3,1.459E3,5.64E2,7.16E2,8.425E2,6.165E2],"tree_param":{"num_deleted":"0","num_feature":"109","num_nodes":"7","size_leaf_vector":"0"}},{"base_weights":[-1.2429519E-1,1.9244021E-1,-4.0211627E-1,3.747063E-1,3.966894E-2,-2.658438E-1,-5.8761734E-1],"categories":[],"categories_nodes":[],"categories_segments":[],"categories_sizes":[],"default_left":[0,0,1,0,0,0,0],"id":2,"left_children":[1,3,5,-1,-1,-1,-1],"loss_changes":[2.4118262E2,3.5654377E1,3.6749985E1,0E0,0E0,0E0,0E0],"parents":[2147483647,0,0,1,1,2,2],"right_children":[2,4,6,-1,-1,-1,-1],"split_conditions":[6.0963047E-1,4.4106233E-1,7.81545E-1,3.747063E-3,3.966894E-4,-2.658438E-3,-5.8761733E-3],"split_indices":[106,106,106,0,0,0,0],"split_type":[0,0,0,0,0,0,0],"sum_hessian":[2.7389639E3,1.2799916E3,1.4589723E3,5.829917E2,6.969999E2,8.4249396E2,6.164783E2],"tree_param":{"num_deleted":"0","num_feature":"109","num_nodes":"7","size_leaf_vector":"0"}},{"base_weights":[1.2429522E-1,-1.9244021E-1,4.0211633E-1,-3.747063E-1,-3.966894E-2,2.6584393E-1,5.8761734E-1],"categories":[],"categories_nodes":[],"categories_segments":[],"categories_sizes":[],"default_left":[0,0,1,0,0,0,0],"id":3,"left_children":[1,3,5,-1,-1,-1,-1],"loss_changes":[2.4118266E2,3.5654377E1,3.6749954E1,0E0,0E0,0E0,0E0],"parents":[2147483647,0,0,1,1,2,2],"right_children":[2,4,6,-1,-1,-1,-1],"split_conditions":[6.0963047E-1,4.4106233E-1,7.81545E-1,-3.747063E-3,-3.966894E-4,2.6584393E-3,5.8761733E-3],"split_indices":[106,106,106,0,0,0,0],"split_type":[0,0,0,0,0,0,0],"sum_hessian":[2.7389639E3,1.2799916E3,1.4589722E3,5.829917E2,6.969999E2,8.424939E2,6.164783E2],"tree_param":{"num_deleted":"0","num_feature":"109","num_nodes":"7","size_leaf_vector":"0"}},{"base_weights":[-1.2305867E-1,1.9052285E-1,-3.9812353E-1,3.765183E-1,4.369992E-2,-2.6319417E-1,-5.818115E-1],"categories":[],"categories_nodes":[],"categories_segments":[],"categories_sizes":[],"default_left":[0,0,1,0,0,0,0],"id":4,"left_children":[1,3,5,-1,-1,-1,-1],"loss_changes":[2.3640286E2,3.4964695E1,3.603012E1,0E0,0E0,0E0,0E0],"parents":[2147483647,0,0,1,1,2,2],"right_children":[2,4,6,-1,-1,-1,-1],"split_conditions":[6.0963047E-1,4.3563306E-1,7.81545E-1,3.765183E-3,4.369992E-4,-2.6319416E-3,-5.8181146E-3],"split_indices":[106,106,106,0,0,0,0],"split_type":[0,0,0,0,0,0,0],"sum_hessian":[2.7388567E3,1.2799667E3,1.45889E3,5.639675E2,7.1599915E2,8.4247595E2,6.16414E2],"tree_param":{"num_deleted":"0","num_feature":"109","num_nodes":"7","size_leaf_vector":"0"}},{"base_weights":[1.2305875E-1,-1.9052275E-1,3.981236E-1,-3.765182E-1,-4.369983E-2,2.631943E-1,5.818115E-1],"categories":[],"categories_nodes":[],"categories_segments":[],"categories_sizes":[],"default_left":[0,0,1,0,0,0,0],"id":5,"left_children":[1,3,5,-1,-1,-1,-1],"loss_changes":[2.3640283E2,3.4964687E1,3.6030106E1,0E0,0E0,0E0,0E0],"parents":[2147483647,0,0,1,1,2,2],"right_children":[2,4,6,-1,-1,-1,-1],"split_conditions":[6.0963047E-1,4.3563306E-1,7.81545E-1,-3.7651819E-3,-4.369983E-4,2.631943E-3,5.8181146E-3],"split_indices":[106,106,106,0,0,0,0],"split_type":[0,0,0,0,0,0,0],"sum_hessian":[2.7388567E3,1.2799667E3,1.45889E3,5.639675E2,7.159992E2,8.4247595E2,6.16414E2],"tree_param":{"num_deleted":"0","num_feature":"109","num_nodes":"7","size_leaf_vector":"0"}},{"base_weights":[-1.2183761E-1,1.8862689E-1,-3.941848E-1,3.6735636E-1,3.8836442E-2,-2.6057455E-1,-5.7610184E-1],"categories":[],"categories_nodes":[],"categories_segments":[],"categories_sizes":[],"default_left":[0,0,1,0,0,0,0],"id":6,"left_children":[1,3,5,-1,-1,-1,-1],"loss_changes":[2.3172571E2,3.4278637E1,3.5330643E1,0E0,0E0,0E0,0E0],"parents":[2147483647,0,0,1,1,2,2],"right_children":[2,4,6,-1,-1,-1,-1],"split_conditions":[6.0963047E-1,4.4106233E-1,7.81545E-1,3.6735635E-3,3.8836442E-4,-2.6057453E-3,-5.7610185E-3],"split_indices":[106,106,106,0,0,0,0],"split_type":[0,0,0,0,0,0,0],"sum_hessian":[2.7386807E3,1.2799258E3,1.4587549E3,5.8292694E2,6.969989E2,8.424464E2,6.163085E2],"tree_param":{"num_deleted":"0","num_feature":"109","num_nodes":"7","size_leaf_vector":"0"}},{"base_weights":[1.2183759E-1,-1.8862692E-1,3.941848E-1,-3.6735624E-1,-3.8836557E-2,2.6057455E-1,5.7610184E-1],"categories":[],"categories_nodes":[],"categories_segments":[],"categories_sizes":[],"default_left":[0,0,1,0,0,0,0],"id":7,"left_children":[1,3,5,-1,-1,-1,-1],"loss_changes":[2.3172571E2,3.4278595E1,3.5330643E1,0E0,0E0,0E0,0E0],"parents":[2147483647,0,0,1,1,2,2],"right_children":[2,4,6,-1,-1,-1,-1],"split_conditions":[6.0963047E-1,4.4106233E-1,7.81545E-1,-3.6735623E-3,-3.8836556E-4,2.6057453E-3,5.7610185E-3],"split_indices":[106,106,106,0,0,0,0],"split_type":[0,0,0,0,0,0,0],"sum_hessian":[2.7386807E3,1.2799258E3,1.4587549E3,5.8292694E2,6.969989E2,8.424464E2,6.163085E2],"tree_param":{"num_deleted":"0","num_feature":"109","num_nodes":"7","size_leaf_vector":"0"}},{"base_weights":[-1.206316E-1,1.8675213E-1,-3.902988E-1,3.6915523E-1,4.278876E-2,-2.5798437E-1,-5.704854E-1],"categories":[],"categories_nodes":[],"categories_segments":[],"categories_sizes":[],"default_left":[0,0,1,0,0,0,0],"id":8,"left_children":[1,3,5,-1,-1,-1,-1],"loss_changes":[2.2714851E2,3.3619015E1,3.4650818E1,0E0,0E0,0E0,0E0],"parents":[2147483647,0,0,1,1,2,2],"right_children":[2,4,6,-1,-1,-1,-1],"split_conditions":[6.0963047E-1,4.3563306E-1,7.81545E-1,3.6915522E-3,4.2788757E-4,-2.5798436E-3,-5.704854E-3],"split_indices":[106,106,106,0,0,0,0],"split_type":[0,0,0,0,0,0,0],"sum_hessian":[2.738438E3,1.2798694E3,1.4585685E3,5.638727E2,7.1599677E2,8.424057E2,6.161628E2],"tree_param":{"num_deleted":"0","num_feature":"109","num_nodes":"7","size_leaf_vector":"0"}},{"base_weights":[1.20631635E-1,-1.8675208E-1,3.9029884E-1,-3.6915523E-1,-4.278867E-2,2.579845E-1,5.704853E-1],"categories":[],"categories_nodes":[],"categories_segments":[],"categories_sizes":[],"default_left":[0,0,1,0,0,0,0],"id":9,"left_children":[1,3,5,-1,-1,-1,-1],"loss_changes":[2.2714851E2,3.3619034E1,3.465074E1,0E0,0E0,0E0,0E0],"parents":[2147483647,0,0,1,1,2,2],"right_children":[2,4,6,-1,-1,-1,-1],"split_conditions":[6.0963047E-1,4.3563306E-1,7.81545E-1,-3.6915522E-3,-4.278867E-4,2.5798448E-3,5.7048528E-3],"split_indices":[106,106,106,0,0,0,0],"split_type":[0,0,0,0,0,0,0],"sum_hessian":[2.738438E3,1.2798694E3,1.4585685E3,5.638727E2,7.1599677E2,8.424057E2,6.1616284E2],"tree_param":{"num_deleted":"0","num_feature":"109","num_nodes":"7","size_leaf_vector":"0"}},{"base_weights":[-1.1944041E-1,1.8489821E-1,-3.8646442E-1,3.6018842E-1,3.802149E-2,-2.5542337E-1,-5.649594E-1],"categories":[],"categories_nodes":[],"categories_segments":[],"categories_sizes":[],"default_left":[0,0,1,0,0,0,0],"id":10,"left_children":[1,3,5,-1,-1,-1,-1],"loss_changes":[2.2266884E2,3.2961803E1,3.398976E1,0E0,0E0,0E0,0E0],"parents":[2147483647,0,0,1,1,2,2],"right_children":[2,4,6,-1,-1,-1,-1],"split_conditions":[6.0963047E-1,4.4106233E-1,7.81545E-1,3.6018842E-3,3.802149E-4,-2.5542337E-3,-5.649594E-3],"split_indices":[106,106,106,0,0,0,0],"split_type":[0,0,0,0,0,0,0],"sum_hessian":[2.7381304E3,1.2797979E3,1.4583325E3,5.8280096E2,6.9699695E2,8.423541E2,6.159784E2],"tree_param":{"num_deleted":"0","num_feature":"109","num_nodes":"7","size_leaf_vector":"0"}},{"base_weights":[1.1944035E-1,-1.8489826E-1,3.8646436E-1,-3.6018842E-1,-3.802158E-2,2.5542334E-1,5.649593E-1],"categories":[],"categories_nodes":[],"categories_segments":[],"categories_sizes":[],"default_left":[0,0,1,0,0,0,0],"id":11,"left_children":[1,3,5,-1,-1,-1,-1],"loss_changes":[2.2266885E2,3.2961784E1,3.3989716E1,0E0,0E0,0E0,0E0],"parents":[2147483647,0,0,1,1,2,2],"right_children":[2,4,6,-1,-1,-1,-1],"split_conditions":[6.0963047E-1,4.4106233E-1,7.81545E-1,-3.6018842E-3,-3.802158E-4,2.5542334E-3,5.6495927E-3],"split_indices":[106,106,106,0,0,0,0],"split_type":[0,0,0,0,0,0,0],"sum_hessian":[2.7381304E3,1.2797979E3,1.4583324E3,5.8280096E2,6.969969E2,8.4235406E2,6.159784E2],"tree_param":{"num_deleted":"0","num_feature":"109","num_nodes":"7","size_leaf_vector":"0"}},{"base_weights":[-1.1826369E-1,1.8306477E-1,-3.8268036E-1,3.6197403E-1,4.189663E-2,-2.5289086E-1,-5.595213E-1],"categories":[],"categories_nodes":[],"categories_segments":[],"categories_sizes":[],"default_left":[0,0,1,0,0,0,0],"id":12,"left_children":[1,3,5,-1,-1,-1,-1],"loss_changes":[2.1828423E2,3.2330864E1,3.3346725E1,0E0,0E0,0E0,0E0],"parents":[2147483647,0,0,1,1,2,2],"right_children":[2,4,6,-1,-1,-1,-1],"split_conditions":[6.0963047E-1,4.3563306E-1,7.81545E-1,3.6197403E-3,4.189663E-4,-2.5289084E-3,-5.5952133E-3],"split_indices":[106,106,106,0,0,0,0],"split_type":[0,0,0,0,0,0,0],"sum_hessian":[2.7377603E3,1.2797119E3,1.4580483E3,5.637191E2,7.1599286E2,8.4229193E2,6.1575635E2],"tree_param":{"num_deleted":"0","num_feature":"109","num_nodes":"7","size_leaf_vector":"0"}},{"base_weights":[1.1826369E-1,-1.8306476E-1,3.8268036E-1,-3.6197403E-1,-4.189663E-2,2.5289086E-1,5.595213E-1],"categories":[],"categories_nodes":[],"categories_segments":[],"categories_sizes":[],"default_left":[0,0,1,0,0,0,0],"id":13,"left_children":[1,3,5,-1,-1,-1,-1],"loss_changes":[2.1828423E2,3.2330864E1,3.3346725E1,0E0,0E0,0E0,0E0],"parents":[2147483647,0,0,1,1,2,2],"right_children":[2,4,6,-1,-1,-1,-1],"split_conditions":[6.0963047E-1,4.3563306E-1,7.81545E-1,-3.6197403E-3,-4.189663E-4,2.5289084E-3,5.5952133E-3],"split_indices":[106,106,106,0,0,0,0],"split_type":[0,0,0,0,0,0,0],"sum_hessian":[2.7377603E3,1.2797119E3,1.4580483E3,5.637191E2,7.1599286E2,8.4229193E2,6.1575635E2],"tree_param":{"num_deleted":"0","num_feature":"109","num_nodes":"7","size_leaf_vector":"0"}},{"base_weights":[-1.1710119E-1,1.45559E-1,-4.1459778E-1,3.5319534E-1,6.49348E-3,-2.853177E-1,-5.5416846E-1],"categories":[],"categories_nodes":[],"categories_segments":[],"categories_sizes":[],"default_left":[0,0,1,0,0,0,0],"id":14,"left_children":[1,3,5,-1,-1,-1,-1],"loss_changes":[2.1403479E2,4.2012466E1,2.3014984E1,0E0,0E0,0E0,0E0],"parents":[2147483647,0,0,1,1,2,2],"right_children":[2,4,6,-1,-1,-1,-1],"split_conditions":[6.4619756E-1,4.4106233E-1,7.81545E-1,3.5319533E-3,6.49348E-5,-2.8531768E-3,-5.5416846E-3],"split_indices":[106,106,106,0,0,0,0],"split_type":[0,0,0,0,0,0,0],"sum_hessian":[2.737329E3,1.4540536E3,1.2832755E3,5.8261755E2,8.714361E2,6.677777E2,6.1549786E2],"tree_param":{"num_deleted":"0","num_feature":"109","num_nodes":"7","size_leaf_vector":"0"}},{"base_weights":[1.1710119E-1,-1.4555904E-1,4.145978E-1,-3.5319534E-1,-6.4935507E-3,2.853177E-1,5.541686E-1],"categories":[],"categories_nodes":[],"categories_segments":[],"categories_sizes":[],"default_left":[0,0,1,0,0,0,0],"id":15,"left_children":[1,3,5,-1,-1,-1,-1],"loss_changes":[2.1403485E2,4.201245E1,2.3015015E1,0E0,0E0,0E0,0E0],"parents":[2147483647,0,0,1,1,2,2],"right_children":[2,4,6,-1,-1,-1,-1],"split_conditions":[6.4619756E-1,4.4106233E-1,7.81545E-1,-3.5319533E-3,-6.4935506E-5,2.8531768E-3,5.5416855E-3],"split_indices":[106,106,106,0,0,0,0],"split_type":[0,0,0,0,0,0,0],"sum_hessian":[2.737329E3,1.4540536E3,1.2832755E3,5.8261755E2,8.7143604E2,6.677777E2,6.154978E2],"tree_param":{"num_deleted":"0","num_feature":"109","num_nodes":"7","size_leaf_vector":"0"}},{"base_weights":[-1.1595258E-1,1.7962529E-1,-3.7540436E-1,3.5496736E-1,4.1321803E-2,-2.4816251E-1,-5.4889876E-1],"categories":[],"categories_nodes":[],"categories_segments":[],"categories_sizes":[],"default_left":[0,0,1,0,0,0,0],"id":16,"left_children":[1,3,5,-1,-1,-1,-1],"loss_changes":[2.1002814E2,3.103798E1,3.2057907E1,0E0,0E0,0E0,0E0],"parents":[2147483647,0,0,1,1,2,2],"right_children":[2,4,6,-1,-1,-1,-1],"split_conditions":[6.0963047E-1,4.3563306E-1,7.81545E-1,3.5496734E-3,4.1321802E-4,-2.481625E-3,-5.4889875E-3],"split_indices":[106,106,106,0,0,0,0],"split_type":[0,0,0,0,0,0,0],"sum_hessian":[2.7368484E3,1.2794993E3,1.4573491E3,5.635104E2,7.1598883E2,8.421451E2,6.1520404E2],"tree_param":{"num_deleted":"0","num_feature":"109","num_nodes":"7","size_leaf_vector":"0"}},{"base_weights":[1.1595257E-1,-1.7962529E-1,3.7540436E-1,-3.5496747E-1,-4.1321717E-2,2.4816245E-1,5.488989E-1],"categories":[],"categories_nodes":[],"categories_segments":[],"categories_sizes":[],"default_left":[0,0,1,0,0,0,0],"id":17,"left_children":[1,3,5,-1,-1,-1,-1],"loss_changes":[2.1002814E2,3.1038021E1,3.205797E1,0E0,0E0,0E0,0E0],"parents":[2147483647,0,0,1,1,2,2],"right_children":[2,4,6,-1,-1,-1,-1],"split_conditions":[6.0963047E-1,4.3563306E-1,7.81545E-1,-3.5496748E-3,-4.1321717E-4,2.4816245E-3,5.4889885E-3],"split_indices":[106,106,106,0,0,0,0],"split_type":[0,0,0,0,0,0,0],"sum_hessian":[2.7368484E3,1.2794993E3,1.4573491E3,5.635104E2,7.159889E2,8.4214514E2,6.15204E2],"tree_param":{"num_deleted":"0","num_feature":"109","num_nodes":"7","size_leaf_vector":"0"}},{"base_weights":[-1.1481764E-1,1.4285082E-1,-4.067844E-1,3.4637025E-1,6.5949066E-3,-2.800538E-1,-5.437096E-1],"categories":[],"categories_nodes":[],"categories_segments":[],"categories_sizes":[],"default_left":[0,0,1,0,0,0,0],"id":18,"left_children":[1,3,5,-1,-1,-1,-1],"loss_changes":[2.0598708E2,4.034031E1,2.2119873E1,0E0,0E0,0E0,0E0],"parents":[2147483647,0,0,1,1,2,2],"right_children":[2,4,6,-1,-1,-1,-1],"split_conditions":[6.4619756E-1,4.4106233E-1,7.81545E-1,3.4637025E-3,6.594906E-5,-2.800538E-3,-5.4370956E-3],"split_indices":[106,106,106,0,0,0,0],"split_type":[0,0,0,0,0,0,0],"sum_hessian":[2.7363025E3,1.4537977E3,1.2825046E3,5.823801E2,8.714176E2,6.676288E2,6.148759E2],"tree_param":{"num_deleted":"0","num_feature":"109","num_nodes":"7","size_leaf_vector":"0"}},{"base_weights":[1.14817664E-1,-1.4285077E-1,4.067844E-1,-3.4637025E-1,-6.594836E-3,2.800538E-1,5.437096E-1],"categories":[],"categories_nodes":[],"categories_segments":[],"categories_sizes":[],"default_left":[0,0,1,0,0,0,0],"id":19,"left_children":[1,3,5,-1,-1,-1,-1],"loss_changes":[2.0598705E2,4.0340332E1,2.2119873E1,0E0,0E0,0E0,0E0],"parents":[2147483647,0,0,1,1,2,2],"right_children":[2,4,6,-1,-1,-1,-1],"split_conditions":[6.4619756E-1,4.4106233E-1,7.81545E-1,-3.4637025E-3,-6.5948356E-5,2.800538E-3,5.4370956E-3],"split_indices":[106,106,106,0,0,0,0],"split_type":[0,0,0,0,0,0,0],"sum_hessian":[2.7363025E3,1.4537977E3,1.2825046E3,5.823801E2,8.7141766E2,6.676288E2,6.148759E2],"tree_param":{"num_deleted":"0","num_feature":"109","num_nodes":"7","size_leaf_vector":"0"}},{"base_weights":[-1.1369616E-1,1.7625777E-1,-3.6831108E-1,3.4812865E-1,4.075351E-2,-2.4353322E-1,-5.385988E-1],"categories":[],"categories_nodes":[],"categories_segments":[],"categories_sizes":[],"default_left":[0,0,1,0,0,0,0],"id":20,"left_children":[1,3,5,-1,-1,-1,-1],"loss_changes":[2.0210689E2,2.9801495E1,3.0837479E1,0E0,0E0,0E0,0E0],"parents":[2147483647,0,0,1,1,2,2],"right_children":[2,4,6,-1,-1,-1,-1],"split_conditions":[6.0963047E-1,4.3563306E-1,7.81545E-1,3.4812863E-3,4.075351E-4,-2.4353322E-3,-5.3859875E-3],"split_indices":[106,106,106,0,0,0,0],"split_type":[0,0,0,0,0,0,0],"sum_hessian":[2.7357102E3,1.279234E3,1.4564762E3,5.632499E2,7.159841E2,8.419614E2,6.145148E2],"tree_param":{"num_deleted":"0","num_feature":"109","num_nodes":"7","size_leaf_vector":"0"}},{"base_weights":[1.1369611E-1,-1.7625786E-1,3.6831108E-1,-3.4812877E-1,-4.0753603E-2,2.435332E-1,5.385988E-1],"categories":[],"categories_nodes":[],"categories_segments":[],"categories_sizes":[],"default_left":[0,0,1,0,0,0,0],"id":21,"left_children":[1,3,5,-1,-1,-1,-1],"loss_changes":[2.0210696E2,2.9801483E1,3.0837463E1,0E0,0E0,0E0,0E0],"parents":[2147483647,0,0,1,1,2,2],"right_children":[2,4,6,-1,-1,-1,-1],"split_conditions":[6.0963047E-1,4.3563306E-1,7.81545E-1,-3.4812875E-3,-4.0753602E-4,2.435332E-3,5.3859875E-3],"split_indices":[106,106,106,0,0,0,0],"split_type":[0,0,0,0,0,0,0],"sum_hessian":[2.73571E3,1.2792339E3,1.4564761E3,5.632499E2,7.15984E2,8.4196136E2,6.145148E2],"tree_param":{"num_deleted":"0","num_feature":"109","num_nodes":"7","size_leaf_vector":"0"}},{"base_weights":[-1.1258785E-1,1.4019835E-1,-3.9917108E-1,3.397067E-1,6.690458E-3,-2.7490178E-1,-5.335642E-1],"categories":[],"categories_nodes":[],"categories_segments":[],"categories_sizes":[],"default_left":[0,0,1,0,0,0,0],"id":22,"left_children":[1,3,5,-1,-1,-1,-1],"loss_changes":[1.982676E2,3.8739403E1,2.1273407E1,0E0,0E0,0E0,0E0],"parents":[2147483647,0,0,1,1,2,2],"right_children":[2,4,6,-1,-1,-1,-1],"split_conditions":[6.4619756E-1,4.4106233E-1,7.81545E-1,3.3970668E-3,6.690458E-5,-2.7490177E-3,-5.335642E-3],"split_indices":[106,106,106,0,0,0,0],"split_type":[0,0,0,0,0,0,0],"sum_hessian":[2.7350564E3,1.4534893E3,1.2815671E3,5.8209204E2,8.7139716E2,6.674456E2,6.1412146E2],"tree_param":{"num_deleted":"0","num_feature":"109","num_nodes":"7","size_leaf_vector":"0"}},{"base_weights":[1.1258783E-1,-1.4019834E-1,3.9917102E-1,-3.3970657E-1,-6.6904817E-3,2.7490178E-1,5.335641E-1],"categories":[],"categories_nodes":[],"categories_segments":[],"categories_sizes":[],"default_left":[0,0,1,0,0,0,0],"id":23,"left_children":[1,3,5,-1,-1,-1,-1],"loss_changes":[1.9826755E2,3.8739388E1,2.1273392E1,0E0,0E0,0E0,0E0],"parents":[2147483647,0,0,1,1,2,2],"right_children":[2,4,6,-1,-1,-1,-1],"split_conditions":[6.4619756E-1,4.4106233E-1,7.81545E-1,-3.3970657E-3,-6.690482E-5,2.7490177E-3,5.3356406E-3],"split_indices":[106,106,106,0,0,0,0],"split_type":[0,0,0,0,0,0,0],"sum_hessian":[2.7350564E3,1.4534893E3,1.2815671E3,5.8209204E2,8.7139716E2,6.674456E2,6.1412146E2],"tree_param":{"num_deleted":"0","num_feature":"109","num_nodes":"7","size_leaf_vector":"0"}},{"base_weights":[-1.1149243E-1,1.729602E-1,-3.6139283E-1,3.4145135E-1,4.0191945E-2,-2.390003E-1,-5.286037E-1],"categories":[],"categories_nodes":[],"categories_segments":[],"categories_sizes":[],"default_left":[0,0,1,0,0,0,0],"id":24,"left_children":[1,3,5,-1,-1,-1,-1],"loss_changes":[1.9450502E2,2.8618423E1,2.9680222E1,0E0,0E0,0E0,0E0],"parents":[2147483647,0,0,1,1,2,2],"right_children":[2,4,6,-1,-1,-1,-1],"split_conditions":[6.0963047E-1,4.3563306E-1,7.81545E-1,3.4145133E-3,4.0191945E-4,-2.390003E-3,-5.2860365E-3],"split_indices":[106,106,106,0,0,0,0],"split_type":[0,0,0,0,0,0,0],"sum_hessian":[2.7343591E3,1.2789192E3,1.4554401E3,5.629408E2,7.159784E2,8.4174286E2,6.1369714E2],"tree_param":{"num_deleted":"0","num_feature":"109","num_nodes":"7","size_leaf_vector":"0"}},{"base_weights":[1.1149242E-1,-1.7296025E-1,3.613928E-1,-3.4145147E-1,-4.019192E-2,2.3900029E-1,5.286037E-1],"categories":[],"categories_nodes":[],"categories_segments":[],"categories_sizes":[],"default_left":[0,0,1,0,0,0,0],"id":25,"left_children":[1,3,5,-1,-1,-1,-1],"loss_changes":[1.9450507E2,2.8618454E1,2.9680237E1,0E0,0E0,0E0,0E0],"parents":[2147483647,0,0,1,1,2,2],"right_children":[2,4,6,-1,-1,-1,-1],"split_conditions":[6.0963047E-1,4.3563306E-1,7.81545E-1,-3.4145145E-3,-4.0191918E-4,2.3900028E-3,5.2860365E-3],"split_indices":[106,106,106,0,0,0,0],"split_type":[0,0,0,0,0,0,0],"sum_hessian":[2.7343591E3,1.2789192E3,1.4554401E3,5.629408E2,7.159784E2,8.417429E2,6.1369714E2],"tree_param":{"num_deleted":"0","num_feature":"109","num_nodes":"7","size_leaf_vector":"0"}},{"base_weights":[-1.1040974E-1,1.3760018E-1,-3.9174888E-1,3.331986E-1,6.78046E-3,-2.6985806E-1,-5.2371526E-1],"categories":[],"categories_nodes":[],"categories_segments":[],"categories_sizes":[],"default_left":[0,0,1,0,0,0,0],"id":26,"left_children":[1,3,5,-1,-1,-1,-1],"loss_changes":[1.9086064E2,3.7206245E1,2.0471786E1,0E0,0E0,0E0,0E0],"parents":[2147483647,0,0,1,1,2,2],"right_children":[2,4,6,-1,-1,-1,-1],"split_conditions":[6.4619756E-1,4.4106233E-1,7.81545E-1,3.331986E-3,6.78046E-5,-2.6985805E-3,-5.2371523E-3],"split_indices":[106,106,106,0,0,0,0],"split_type":[0,0,0,0,0,0,0],"sum_hessian":[2.7336045E3,1.4531312E3,1.2804733E3,5.817564E2,8.713749E2,6.6723047E2,6.132428E2],"tree_param":{"num_deleted":"0","num_feature":"109","num_nodes":"7","size_leaf_vector":"0"}},{"base_weights":[1.1040976E-1,-1.3760018E-1,3.9174893E-1,-3.331986E-1,-6.780467E-3,2.6985806E-1,5.237154E-1],"categories":[],"categories_nodes":[],"categories_segments":[],"categories_sizes":[],"default_left":[0,0,1,0,0,0,0],"id":27,"left_children":[1,3,5,-1,-1,-1,-1],"loss_changes":[1.9086069E2,3.7206238E1,2.0471786E1,0E0,0E0,0E0,0E0],"parents":[2147483647,0,0,1,1,2,2],"right_children":[2,4,6,-1,-1,-1,-1],"split_conditions":[6.4619756E-1,4.4106233E-1,7.81545E-1,-3.331986E-3,-6.780467E-5,2.6985805E-3,5.2371537E-3],"split_indices":[106,106,106,0,0,0,0],"split_type":[0,0,0,0,0,0,0],"sum_hessian":[2.7336045E3,1.4531312E3,1.2804733E3,5.817564E2,8.713749E2,6.6723047E2,6.132428E2],"tree_param":{"num_deleted":"0","num_feature":"109","num_nodes":"7","size_leaf_vector":"0"}},{"base_weights":[-1.09339476E-1,1.697306E-1,-3.5464218E-1,3.3492962E-1,3.9636817E-2,-2.3456079E-1,-5.1889706E-1],"categories":[],"categories_nodes":[],"categories_segments":[],"categories_sizes":[],"default_left":[0,0,1,0,0,0,0],"id":28,"left_children":[1,3,5,-1,-1,-1,-1],"loss_changes":[1.8720763E2,2.7486176E1,2.8581604E1,0E0,0E0,0E0,0E0],"parents":[2147483647,0,0,1,1,2,2],"right_children":[2,4,6,-1,-1,-1,-1],"split_conditions":[6.0963047E-1,4.3563306E-1,7.81545E-1,3.349296E-3,3.9636815E-4,-2.3456078E-3,-5.1889704E-3],"split_indices":[106,106,106,0,0,0,0],"split_type":[0,0,0,0,0,0,0],"sum_hessian":[2.7328093E3,1.2785582E3,1.4542512E3,5.625862E2,7.1597205E2,8.414919E2,6.1275934E2],"tree_param":{"num_deleted":"0","num_feature":"109","num_nodes":"7","size_leaf_vector":"0"}},{"base_weights":[1.0933952E-1,-1.6973053E-1,3.546422E-1,-3.3492962E-1,-3.96367E-2,2.345608E-1,5.1889706E-1],"categories":[],"categories_nodes":[],"categories_segments":[],"categories_sizes":[],"default_left":[0,0,1,0,0,0,0],"id":29,"left_children":[1,3,5,-1,-1,-1,-1],"loss_changes":[1.8720758E2,2.7486198E1,2.8581604E1,0E0,0E0,0E0,0E0],"parents":[2147483647,0,0,1,1,2,2],"right_children":[2,4,6,-1,-1,-1,-1],"split_conditions":[6.0963047E-1,4.3563306E-1,7.81545E-1,-3.349296E-3,-3.9636702E-4,2.345608E-3,5.1889704E-3],"split_indices":[106,106,106,0,0,0,0],"split_type":[0,0,0,0,0,0,0],"sum_hessian":[2.7328093E3,1.2785582E3,1.4542512E3,5.625861E2,7.1597205E2,8.414919E2,6.1275934E2],"tree_param":{"num_deleted":"0","num_feature":"109","num_nodes":"7","size_leaf_vector":"0"}},{"base_weights":[-1.0828157E-1,1.3505478E-1,-3.845097E-1,3.2684034E-1,6.8650753E-3,-3.017247E-1,-5.7249945E-1],"categories":[],"categories_nodes":[],"categories_segments":[],"categories_sizes":[],"default_left":[0,0,1,0,0,0,0],"id":30,"left_children":[1,3,5,-1,-1,-1,-1],"loss_changes":[1.8375153E2,3.573754E1,1.975119E1,0E0,0E0,0E0,0E0],"parents":[2147483647,0,0,1,1,2,2],"right_children":[2,4,6,-1,-1,-1,-1],"split_conditions":[6.4619756E-1,4.4106233E-1,8.3096385E-1,3.2684032E-3,6.865075E-5,-3.017247E-3,-5.7249945E-3],"split_indices":[106,106,106,0,0,0,0],"split_type":[0,0,0,0,0,0,0],"sum_hessian":[2.7319602E3,1.4527272E3,1.2792329E3,5.813762E2,8.7135095E2,8.899367E2,3.8929623E2],"tree_param":{"num_deleted":"0","num_feature":"109","num_nodes":"7","size_leaf_vector":"0"}},{"base_weights":[1.082816E-1,-1.3505475E-1,3.8450977E-1,-3.2684025E-1,-6.8650995E-3,3.017248E-1,5.7249945E-1],"categories":[],"categories_nodes":[],"categories_segments":[],"categories_sizes":[],"default_left":[0,0,1,0,0,0,0],"id":31,"left_children":[1,3,5,-1,-1,-1,-1],"loss_changes":[1.8375156E2,3.573752E1,1.975119E1,0E0,0E0,0E0,0E0],"parents":[2147483647,0,0,1,1,2,2],"right_children":[2,4,6,-1,-1,-1,-1],"split_conditions":[6.4619756E-1,4.4106233E-1,8.3096385E-1,-3.2684025E-3,-6.8650996E-5,3.017248E-3,5.7249945E-3],"split_indices":[106,106,106,0,0,0,0],"split_type":[0,0,0,0,0,0,0],"sum_hessian":[2.7319602E3,1.4527272E3,1.2792329E3,5.813763E2,8.7135095E2,8.8993665E2,3.8929623E2],"tree_param":{"num_deleted":"0","num_feature":"109","num_nodes":"7","size_leaf_vector":"0"}},{"base_weights":[-1.07235074E-1,1.6656695E-1,-3.480479E-1,3.2855755E-1,3.908809E-2,-2.2992645E-1,-5.098307E-1],"categories":[],"categories_nodes":[],"categories_segments":[],"categories_sizes":[],"default_left":[0,0,1,0,0,0,0],"id":32,"left_children":[1,3,5,-1,-1,-1,-1],"loss_changes":[1.8019878E2,2.6402164E1,2.7667618E1,0E0,0E0,0E0,0E0],"parents":[2147483647,0,0,1,1,2,2],"right_children":[2,4,6,-1,-1,-1,-1],"split_conditions":[6.0963047E-1,4.3563306E-1,7.81545E-1,3.2855754E-3,3.908809E-4,-2.2992645E-3,-5.098307E-3],"split_indices":[106,106,106,0,0,0,0],"split_type":[0,0,0,0,0,0,0],"sum_hessian":[2.731095E3,1.2781538E3,1.452941E3,5.621889E2,7.1596497E2,8.4118964E2,6.117514E2],"tree_param":{"num_deleted":"0","num_feature":"109","num_nodes":"7","size_leaf_vector":"0"}},{"base_weights":[1.0723512E-1,-1.6656685E-1,3.480479E-1,-3.2855743E-1,-3.9087974E-2,2.2992648E-1,5.0983065E-1],"categories":[],"categories_nodes":[],"categories_segments":[],"categories_sizes":[],"default_left":[0,0,1,0,0,0,0],"id":33,"left_children":[1,3,5,-1,-1,-1,-1],"loss_changes":[1.801987E2,2.6402168E1,2.7667618E1,0E0,0E0,0E0,0E0],"parents":[2147483647,0,0,1,1,2,2],"right_children":[2,4,6,-1,-1,-1,-1],"split_conditions":[6.0963047E-1,4.3563306E-1,7.81545E-1,-3.2855743E-3,-3.9087972E-4,2.2992648E-3,5.0983066E-3],"split_indices":[106,106,106,0,0,0,0],"split_type":[0,0,0,0,0,0,0],"sum_hessian":[2.731095E3,1.2781539E3,1.452941E3,5.6218896E2,7.1596497E2,8.411897E2,6.117514E2],"tree_param":{"num_deleted":"0","num_feature":"109","num_nodes":"7","size_leaf_vector":"0"}},{"base_weights":[-1.06201E-1,1.3256043E-1,-3.774394E-1,3.2062653E-1,6.943925E-3,-2.9591867E-1,-5.627874E-1],"categories":[],"categories_nodes":[],"categories_segments":[],"categories_sizes":[],"default_left":[0,0,1,0,0,0,0],"id":34,"left_children":[1,3,5,-1,-1,-1,-1],"loss_changes":[1.7692328E2,3.4330353E1,1.9156937E1,0E0,0E0,0E0,0E0],"parents":[2147483647,0,0,1,1,2,2],"right_children":[2,4,6,-1,-1,-1,-1],"split_conditions":[6.4619756E-1,4.4106233E-1,8.3096385E-1,3.2062652E-3,6.9439244E-5,-2.9591867E-3,-5.627874E-3],"split_indices":[106,106,106,0,0,0,0],"split_type":[0,0,0,0,0,0,0],"sum_hessian":[2.7301582E3,1.4522798E3,1.2778784E3,5.809544E2,8.713253E2,8.8932654E2,3.8855185E2],"tree_param":{"num_deleted":"0","num_feature":"109","num_nodes":"7","size_leaf_vector":"0"}},{"base_weights":[1.06200986E-1,-1.3256048E-1,3.7743944E-1,-3.2062653E-1,-6.9439956E-3,2.959187E-1,5.627874E-1],"categories":[],"categories_nodes":[],"categories_segments":[],"categories_sizes":[],"default_left":[0,0,1,0,0,0,0],"id":35,"left_children":[1,3,5,-1,-1,-1,-1],"loss_changes":[1.7692334E2,3.4330334E1,1.9156937E1,0E0,0E0,0E0,0E0],"parents":[2147483647,0,0,1,1,2,2],"right_children":[2,4,6,-1,-1,-1,-1],"split_conditions":[6.4619756E-1,4.4106233E-1,8.3096385E-1,-3.2062652E-3,-6.943996E-5,2.959187E-3,5.627874E-3],"split_indices":[106,106,106,0,0,0,0],"split_type":[0,0,0,0,0,0,0],"sum_hessian":[2.7301582E3,1.4522797E3,1.2778784E3,5.809544E2,8.713253E2,8.8932654E2,3.8855185E2],"tree_param":{"num_deleted":"0","num_feature":"109","num_nodes":"7","size_leaf_vector":"0"}},{"base_weights":[-1.0517797E-1,1.3125773E-1,-3.7388486E-1,3.1754962E-1,6.874609E-3,-2.5684205E-1,-5.0100654E-1],"categories":[],"categories_nodes":[],"categories_segments":[],"categories_sizes":[],"default_left":[0,0,1,0,0,0,0],"id":36,"left_children":[1,3,5,-1,-1,-1,-1],"loss_changes":[1.7350436E2,3.3667355E1,1.8888565E1,0E0,0E0,0E0,0E0],"parents":[2147483647,0,0,1,1,2,2],"right_children":[2,4,6,-1,-1,-1,-1],"split_conditions":[6.4619756E-1,4.4106233E-1,7.81545E-1,3.1754961E-3,6.8746085E-5,-2.5684205E-3,-5.010065E-3],"split_indices":[106,106,106,0,0,0,0],"split_type":[0,0,0,0,0,0,0],"sum_hessian":[2.729208E3,1.4520542E3,1.2771538E3,5.8072864E2,8.7132556E2,6.665094E2,6.106444E2],"tree_param":{"num_deleted":"0","num_feature":"109","num_nodes":"7","size_leaf_vector":"0"}},{"base_weights":[1.0517793E-1,-1.3125774E-1,3.738848E-1,-3.175495E-1,-6.87468E-3,2.5684205E-1,5.010064E-1],"categories":[],"categories_nodes":[],"categories_segments":[],"categories_sizes":[],"default_left":[0,0,1,0,0,0,0],"id":37,"left_children":[1,3,5,-1,-1,-1,-1],"loss_changes":[1.7350433E2,3.366732E1,1.888855E1,0E0,0E0,0E0,0E0],"parents":[2147483647,0,0,1,1,2,2],"right_children":[2,4,6,-1,-1,-1,-1],"split_conditions":[6.4619756E-1,4.4106233E-1,7.81545E-1,-3.175495E-3,-6.87468E-5,2.5684205E-3,5.010064E-3],"split_indices":[106,106,106,0,0,0,0],"split_type":[0,0,0,0,0,0,0],"sum_hessian":[2.729208E3,1.4520542E3,1.2771538E3,5.807287E2,8.713255E2,6.665094E2,6.106444E2],"tree_param":{"num_deleted":"0","num_feature":"109","num_nodes":"7","size_leaf_vector":"0"}},{"base_weights":[-1.0416686E-1,1.6201808E-1,-3.385134E-1,3.1929165E-1,3.839519E-2,-2.2341686E-1,-4.9650308E-1],"categories":[],"categories_nodes":[],"categories_segments":[],"categories_sizes":[],"default_left":[0,0,1,0,0,0,0],"id":38,"left_children":[1,3,5,-1,-1,-1,-1],"loss_changes":[1.7030077E2,2.4844604E1,2.6287277E1,0E0,0E0,0E0,0E0],"parents":[2147483647,0,0,1,1,2,2],"right_children":[2,4,6,-1,-1,-1,-1],"split_conditions":[6.0963047E-1,4.3563306E-1,7.81545E-1,3.1929165E-3,3.8395188E-4,-2.2341686E-3,-4.9650306E-3],"split_indices":[106,106,106,0,0,0,0],"split_type":[0,0,0,0,0,0,0],"sum_hessian":[2.7281958E3,1.2774733E3,1.4507225E3,5.61521E2,7.159523E2,8.4068915E2,6.1003345E2],"tree_param":{"num_deleted":"0","num_feature":"109","num_nodes":"7","size_leaf_vector":"0"}},{"base_weights":[1.04166925E-1,-1.6201796E-1,3.385134E-1,-3.1929153E-1,-3.8395073E-2,2.234169E-1,4.9650306E-1],"categories":[],"categories_nodes":[],"categories_segments":[],"categories_sizes":[],"default_left":[0,0,1,0,0,0,0],"id":39,"left_children":[1,3,5,-1,-1,-1,-1],"loss_changes":[1.7030069E2,2.4844604E1,2.6287277E1,0E0,0E0,0E0,0E0],"parents":[2147483647,0,0,1,1,2,2],"right_children":[2,4,6,-1,-1,-1,-1],"split_conditions":[6.0963047E-1,4.3563306E-1,7.81545E-1,-3.1929153E-3,-3.839507E-4,2.2341688E-3,4.9650306E-3],"split_indices":[106,106,106,0,0,0,0],"split_type":[0,0,0,0,0,0,0],"sum_hessian":[2.7281958E3,1.2774733E3,1.4507227E3,5.61521E2,7.159523E2,8.406892E2,6.1003345E2],"tree_param":{"num_deleted":"0","num_feature":"109","num_nodes":"7","size_leaf_vector":"0"}},{"base_weights":[-1.03167005E-1,1.288378E-1,-3.6706918E-1,3.1154296E-1,6.945927E-3,-2.8721994E-1,-5.489803E-1],"categories":[],"categories_nodes":[],"categories_segments":[],"categories_sizes":[],"default_left":[0,0,1,0,0,0,0],"id":40,"left_children":[1,3,5,-1,-1,-1,-1],"loss_changes":[1.6708186E2,3.234648E1,1.8385391E1,0E0,0E0,0E0,0E0],"parents":[2147483647,0,0,1,1,2,2],"right_children":[2,4,6,-1,-1,-1,-1],"split_conditions":[6.4619756E-1,4.4106233E-1,8.3096385E-1,3.1154295E-3,6.945927E-5,-2.8721993E-3,-5.489803E-3],"split_indices":[106,106,106,0,0,0,0],"split_type":[0,0,0,0,0,0,0],"sum_hessian":[2.7271387E3,1.4515482E3,1.2755905E3,5.802495E2,8.7129877E2,8.8826746E2,3.8732297E2],"tree_param":{"num_deleted":"0","num_feature":"109","num_nodes":"7","size_leaf_vector":"0"}},{"base_weights":[1.03167035E-1,-1.2883776E-1,3.670692E-1,-3.1154296E-1,-6.9458787E-3,2.8721997E-1,5.489804E-1],"categories":[],"categories_nodes":[],"categories_segments":[],"categories_sizes":[],"default_left":[0,0,1,0,0,0,0],"id":41,"left_children":[1,3,5,-1,-1,-1,-1],"loss_changes":[1.6708188E2,3.2346493E1,1.8385391E1,0E0,0E0,0E0,0E0],"parents":[2147483647,0,0,1,1,2,2],"right_children":[2,4,6,-1,-1,-1,-1],"split_conditions":[6.4619756E-1,4.4106233E-1,8.3096385E-1,-3.1154295E-3,-6.945879E-5,2.8721998E-3,5.489804E-3],"split_indices":[106,106,106,0,0,0,0],"split_type":[0,0,0,0,0,0,0],"sum_hessian":[2.7271387E3,1.4515482E3,1.2755903E3,5.802495E2,8.712987E2,8.8826746E2,3.8732294E2],"tree_param":{"num_deleted":"0","num_feature":"109","num_nodes":"7","size_leaf_vector":"0"}},{"base_weights":[-1.0217774E-1,1.5901162E-1,-3.3229366E-1,3.1327093E-1,3.7862215E-2,-2.190257E-1,-4.880216E-1],"categories":[],"categories_nodes":[],"categories_segments":[],"categories_sizes":[],"default_left":[0,0,1,0,0,0,0],"id":42,"left_children":[1,3,5,-1,-1,-1,-1],"loss_changes":[1.6396025E2,2.3871433E1,2.547139E1,0E0,0E0,0E0,0E0],"parents":[2147483647,0,0,1,1,2,2],"right_children":[2,4,6,-1,-1,-1,-1],"split_conditions":[6.0963047E-1,4.3563306E-1,7.81545E-1,3.1327093E-3,3.7862215E-4,-2.190257E-3,-4.880216E-3],"split_indices":[106,106,106,0,0,0,0],"split_type":[0,0,0,0,0,0,0],"sum_hessian":[2.726071E3,1.2769727E3,1.4490984E3,5.610293E2,7.159434E2,8.4030975E2,6.087886E2],"tree_param":{"num_deleted":"0","num_feature":"109","num_nodes":"7","size_leaf_vector":"0"}},{"base_weights":[1.02177724E-1,-1.5901168E-1,3.3229366E-1,-3.1327105E-1,-3.7862215E-2,2.1902572E-1,4.880216E-1],"categories":[],"categories_nodes":[],"categories_segments":[],"categories_sizes":[],"default_left":[0,0,1,0,0,0,0],"id":43,"left_children":[1,3,5,-1,-1,-1,-1],"loss_changes":[1.639603E2,2.3871456E1,2.5471375E1,0E0,0E0,0E0,0E0],"parents":[2147483647,0,0,1,1,2,2],"right_children":[2,4,6,-1,-1,-1,-1],"split_conditions":[6.0963047E-1,4.3563306E-1,7.81545E-1,-3.1327105E-3,-3.7862215E-4,2.1902572E-3,4.880216E-3],"split_indices":[106,106,106,0,0,0,0],"split_type":[0,0,0,0,0,0,0],"sum_hessian":[2.726071E3,1.2769727E3,1.4490984E3,5.610293E2,7.159434E2,8.4030975E2,6.0878864E2],"tree_param":{"num_deleted":"0","num_feature":"109","num_nodes":"7","size_leaf_vector":"0"}},{"base_weights":[-1.011997E-1,1.264657E-1,-3.6040545E-1,3.0566868E-1,7.0119677E-3,-2.81728E-1,-5.3992486E-1],"categories":[],"categories_nodes":[],"categories_segments":[],"categories_sizes":[],"default_left":[0,0,1,0,0,0,0],"id":44,"left_children":[1,3,5,-1,-1,-1,-1],"loss_changes":[1.6090924E2,3.108017E1,1.785524E1,0E0,0E0,0E0,0E0],"parents":[2147483647,0,0,1,1,2,2],"right_children":[2,4,6,-1,-1,-1,-1],"split_conditions":[6.4619756E-1,4.4106233E-1,8.3096385E-1,3.0566868E-3,7.011968E-5,-2.81728E-3,-5.3992486E-3],"split_indices":[106,106,106,0,0,0,0],"split_type":[0,0,0,0,0,0,0],"sum_hessian":[2.7249402E3,1.4510059E3,1.2739343E3,5.797353E2,8.712706E2,8.875289E2,3.8640543E2],"tree_param":{"num_deleted":"0","num_feature":"109","num_nodes":"7","size_leaf_vector":"0"}},{"base_weights":[1.0119975E-1,-1.2646559E-1,3.6040545E-1,-3.0566856E-1,-7.0118895E-3,2.81728E-1,5.3992486E-1],"categories":[],"categories_nodes":[],"categories_segments":[],"categories_sizes":[],"default_left":[0,0,1,0,0,0,0],"id":45,"left_children":[1,3,5,-1,-1,-1,-1],"loss_changes":[1.6090918E2,3.1080162E1,1.785524E1,0E0,0E0,0E0,0E0],"parents":[2147483647,0,0,1,1,2,2],"right_children":[2,4,6,-1,-1,-1,-1],"split_conditions":[6.4619756E-1,4.4106233E-1,8.3096385E-1,-3.0566857E-3,-7.011889E-5,2.81728E-3,5.3992486E-3],"split_indices":[106,106,106,0,0,0,0],"split_type":[0,0,0,0,0,0,0],"sum_hessian":[2.7249402E3,1.451006E3,1.2739343E3,5.797353E2,8.712706E2,8.875289E2,3.8640543E2],"tree_param":{"num_deleted":"0","num_feature":"109","num_nodes":"7","size_leaf_vector":"0"}},{"base_weights":[-1.0023203E-1,1.5606537E-1,-3.2621396E-1,3.4912378E-1,6.2460892E-2,-2.1472745E-1,-4.7975415E-1],"categories":[],"categories_nodes":[],"categories_segments":[],"categories_sizes":[],"default_left":[0,0,1,0,0,0,0],"id":46,"left_children":[1,3,5,-1,-1,-1,-1],"loss_changes":[1.5786752E2,2.3062946E1,2.4689575E1,0E0,0E0,0E0,0E0],"parents":[2147483647,0,0,1,1,2,2],"right_children":[2,4,6,-1,-1,-1,-1],"split_conditions":[6.0963047E-1,3.8634273E-1,7.81545E-1,3.4912378E-3,6.246089E-4,-2.1472743E-3,-4.7975415E-3],"split_indices":[106,106,106,0,0,0,0],"split_type":[0,0,0,0,0,0,0],"sum_hessian":[2.723801E3,1.2764381E3,1.447363E3,4.15906E2,8.605321E2,8.3990283E2,6.074602E2],"tree_param":{"num_deleted":"0","num_feature":"109","num_nodes":"7","size_leaf_vector":"0"}},{"base_weights":[1.0023209E-1,-1.5606529E-1,3.26214E-1,-3.4912366E-1,-6.2460802E-2,2.1472745E-1,4.797542E-1],"categories":[],"categories_nodes":[],"categories_segments":[],"categories_sizes":[],"default_left":[0,0,1,0,0,0,0],"id":47,"left_children":[1,3,5,-1,-1,-1,-1],"loss_changes":[1.578675E2,2.3062948E1,2.468959E1,0E0,0E0,0E0,0E0],"parents":[2147483647,0,0,1,1,2,2],"right_children":[2,4,6,-1,-1,-1,-1],"split_conditions":[6.0963047E-1,3.8634273E-1,7.81545E-1,-3.4912366E-3,-6.24608E-4,2.1472743E-3,4.797542E-3],"split_indices":[106,106,106,0,0,0,0],"split_type":[0,0,0,0,0,0,0],"sum_hessian":[2.7238013E3,1.2764382E3,1.447363E3,4.1590604E2,8.6053217E2,8.399028E2,6.074602E2],"tree_param":{"num_deleted":"0","num_feature":"109","num_nodes":"7","size_leaf_vector":"0"}},{"base_weights":[-9.9274054E-2,1.11057825E-1,-3.6983415E-1,3.0021048E-1,-4.1092616E-3,-2.9205966E-1,-5.311102E-1],"categories":[],"categories_nodes":[],"categories_segments":[],"categories_sizes":[],"default_left":[0,0,1,0,0,0,0],"id":48,"left_children":[1,3,5,-1,-1,-1,-1],"loss_changes":[1.5503566E2,3.3399403E1,1.4789902E1,0E0,0E0,0E0,0E0],"parents":[2147483647,0,0,1,1,2,2],"right_children":[2,4,6,-1,-1,-1,-1],"split_conditions":[6.6150844E-1,4.4106233E-1,8.3096385E-1,3.0021046E-3,-4.1092615E-5,-2.9205966E-3,-5.311102E-3],"split_indices":[106,106,106,0,0,0,0],"split_type":[0,0,0,0,0,0,0],"sum_hessian":[2.7226274E3,1.53214E3,1.1904874E3,5.792167E2,9.529234E2,8.050617E2,3.8542575E2],"tree_param":{"num_deleted":"0","num_feature":"109","num_nodes":"7","size_leaf_vector":"0"}},{"base_weights":[9.927405E-2,-1.11057825E-1,3.6983415E-1,-3.0021048E-1,4.1092588E-3,2.9205966E-1,5.3111017E-1],"categories":[],"categories_nodes":[],"categories_segments":[],"categories_sizes":[],"default_left":[0,0,1,0,0,0,0],"id":49,"left_children":[1,3,5,-1,-1,-1,-1],"loss_changes":[1.5503566E2,3.33994E1,1.4789902E1,0E0,0E0,0E0,0E0],"parents":[2147483647,0,0,1,1,2,2],"right_children":[2,4,6,-1,-1,-1,-1],"split_conditions":[6.6150844E-1,4.4106233E-1,8.3096385E-1,-3.0021046E-3,4.1092586E-5,2.9205966E-3,5.3111017E-3],"split_indices":[106,106,106,0,0,0,0],"split_type":[0,0,0,0,0,0,0],"sum_hessian":[2.7226274E3,1.53214E3,1.1904874E3,5.792167E2,9.529234E2,8.050617E2,3.8542572E2],"tree_param":{"num_deleted":"0","num_feature":"109","num_nodes":"7","size_leaf_vector":"0"}},{"base_weights":[-9.8327056E-2,1.2298937E-1,-3.5068896E-1,2.9736E-1,6.9131823E-3,-2.7381715E-1,-5.2655303E-1],"categories":[],"categories_nodes":[],"categories_segments":[],"categories_sizes":[],"default_left":[0,0,1,0,0,0,0],"id":50,"left_children":[1,3,5,-1,-1,-1,-1],"loss_changes":[1.5209586E2,2.9370052E1,1.7055466E1,0E0,0E0,0E0,0E0],"parents":[2147483647,0,0,1,1,2,2],"right_children":[2,4,6,-1,-1,-1,-1],"split_conditions":[6.4619756E-1,4.4106233E-1,8.3096385E-1,2.9736E-3,6.913182E-5,-2.7381715E-3,-5.26553E-3],"split_indices":[106,106,106,0,0,0,0],"split_type":[0,0,0,0,0,0,0],"sum_hessian":[2.72143E3,1.450171E3,1.2712588E3,5.789323E2,8.712388E2,8.863736E2,3.8488522E2],"tree_param":{"num_deleted":"0","num_feature":"109","num_nodes":"7","size_leaf_vector":"0"}},{"base_weights":[9.832712E-2,-1.2298929E-1,3.5068902E-1,-2.973599E-1,-6.9130873E-3,2.7381715E-1,5.2655315E-1],"categories":[],"categories_nodes":[],"categories_segments":[],"categories_sizes":[],"default_left":[0,0,1,0,0,0,0],"id":51,"left_children":[1,3,5,-1,-1,-1,-1],"loss_changes":[1.5209581E2,2.9370054E1,1.7055496E1,0E0,0E0,0E0,0E0],"parents":[2147483647,0,0,1,1,2,2],"right_children":[2,4,6,-1,-1,-1,-1],"split_conditions":[6.4619756E-1,4.4106233E-1,8.3096385E-1,-2.9735991E-3,-6.9130874E-5,2.7381715E-3,5.2655316E-3],"split_indices":[106,106,106,0,0,0,0],"split_type":[0,0,0,0,0,0,0],"sum_hessian":[2.72143E3,1.450171E3,1.2712589E3,5.789323E2,8.712388E2,8.8637366E2,3.8488522E2],"tree_param":{"num_deleted":"0","num_feature":"109","num_nodes":"7","size_leaf_vector":"0"}},{"base_weights":[-9.7390436E-2,1.5188363E-1,-3.1745878E-1,3.402226E-1,6.0692836E-2,-2.0855503E-1,-4.6785042E-1],"categories":[],"categories_nodes":[],"categories_segments":[],"categories_sizes":[],"default_left":[0,0,1,0,0,0,0],"id":52,"left_children":[1,3,5,-1,-1,-1,-1],"loss_changes":[1.4932559E2,2.1904799E1,2.3578568E1,0E0,0E0,0E0,0E0],"parents":[2147483647,0,0,1,1,2,2],"right_children":[2,4,6,-1,-1,-1,-1],"split_conditions":[6.0963047E-1,3.8634273E-1,7.81545E-1,3.402226E-3,6.0692837E-4,-2.0855502E-3,-4.678504E-3],"split_indices":[106,106,106,0,0,0,0],"split_type":[0,0,0,0,0,0,0],"sum_hessian":[2.7201926E3,1.275607E3,1.4445857E3,4.152495E2,8.6035754E2,8.3924567E2,6.0533997E2],"tree_param":{"num_deleted":"0","num_feature":"109","num_nodes":"7","size_leaf_vector":"0"}},{"base_weights":[9.739045E-2,-1.5188356E-1,3.1745875E-1,-3.4022257E-1,-6.0692742E-2,2.08555E-1,4.6785036E-1],"categories":[],"categories_nodes":[],"categories_segments":[],"categories_sizes":[],"default_left":[0,0,1,0,0,0,0],"id":53,"left_children":[1,3,5,-1,-1,-1,-1],"loss_changes":[1.4932552E2,2.1904806E1,2.3578537E1,0E0,0E0,0E0,0E0],"parents":[2147483647,0,0,1,1,2,2],"right_children":[2,4,6,-1,-1,-1,-1],"split_conditions":[6.0963047E-1,3.8634273E-1,7.81545E-1,-3.4022257E-3,-6.0692744E-4,2.08555E-3,4.6785036E-3],"split_indices":[106,106,106,0,0,0,0],"split_type":[0,0,0,0,0,0,0],"sum_hessian":[2.7201926E3,1.275607E3,1.4445857E3,4.152495E2,8.6035754E2,8.3924567E2,6.0534E2],"tree_param":{"num_deleted":"0","num_feature":"109","num_nodes":"7","size_leaf_vector":"0"}},{"base_weights":[-9.646304E-2,1.0808529E-1,-3.600367E-1,2.9206875E-1,-3.781282E-3,-2.876579E-1,-5.262768E-1],"categories":[],"categories_nodes":[],"categories_segments":[],"categories_sizes":[],"default_left":[0,0,1,0,0,0,0],"id":54,"left_children":[1,3,5,-1,-1,-1,-1],"loss_changes":[1.4667984E2,3.1536434E1,1.4151566E1,0E0,0E0,0E0,0E0],"parents":[2147483647,0,0,1,1,2,2],"right_children":[2,4,6,-1,-1,-1,-1],"split_conditions":[6.6150844E-1,4.4106233E-1,8.3712214E-1,2.9206874E-3,-3.781282E-5,-2.8765788E-3,-5.2627684E-3],"split_indices":[106,106,106,0,0,0,0],"split_type":[0,0,0,0,0,0,0],"sum_hessian":[2.7189268E3,1.5312098E3,1.1877169E3,5.7837067E2,9.528392E2,8.293562E2,3.5836078E2],"tree_param":{"num_deleted":"0","num_feature":"109","num_nodes":"7","size_leaf_vector":"0"}},{"base_weights":[9.646303E-2,-1.0808526E-1,3.6003664E-1,-2.9206875E-1,3.781305E-3,2.876578E-1,5.262768E-1],"categories":[],"categories_nodes":[],"categories_segments":[],"categories_sizes":[],"default_left":[0,0,1,0,0,0,0],"id":55,"left_children":[1,3,5,-1,-1,-1,-1],"loss_changes":[1.4667978E2,3.1536432E1,1.4151566E1,0E0,0E0,0E0,0E0],"parents":[2147483647,0,0,1,1,2,2],"right_children":[2,4,6,-1,-1,-1,-1],"split_conditions":[6.6150844E-1,4.4106233E-1,8.3712214E-1,-2.9206874E-3,3.781305E-5,2.876578E-3,5.2627684E-3],"split_indices":[106,106,106,0,0,0,0],"split_type":[0,0,0,0,0,0,0],"sum_hessian":[2.7189268E3,1.5312098E3,1.1877169E3,5.7837067E2,9.528392E2,8.293562E2,3.5836078E2],"tree_param":{"num_deleted":"0","num_feature":"109","num_nodes":"7","size_leaf_vector":"0"}},{"base_weights":[-9.554608E-2,1.0702793E-1,-3.5673904E-1,2.8930616E-1,-3.7435486E-3,-2.8493163E-1,-5.218375E-1],"categories":[],"categories_nodes":[],"categories_segments":[],"categories_sizes":[],"default_left":[0,0,1,0,0,0,0],"id":56,"left_children":[1,3,5,-1,-1,-1,-1],"loss_changes":[1.4388396E2,3.093212E1,1.3932266E1,0E0,0E0,0E0,0E0],"parents":[2147483647,0,0,1,1,2,2],"right_children":[2,4,6,-1,-1,-1,-1],"split_conditions":[6.6150844E-1,4.4106233E-1,8.3712214E-1,2.8930616E-3,-3.7435486E-5,-2.8493162E-3,-5.2183745E-3],"split_indices":[106,106,106,0,0,0,0],"split_type":[0,0,0,0,0,0,0],"sum_hessian":[2.7176414E3,1.5309044E3,1.1867368E3,5.780658E2,9.528386E2,8.2893024E2,3.5780658E2],"tree_param":{"num_deleted":"0","num_feature":"109","num_nodes":"7","size_leaf_vector":"0"}},{"base_weights":[9.554608E-2,-1.0702792E-1,3.5673904E-1,-2.8930607E-1,3.7435186E-3,2.8493163E-1,5.218375E-1],"categories":[],"categories_nodes":[],"categories_segments":[],"categories_sizes":[],"default_left":[0,0,1,0,0,0,0],"id":57,"left_children":[1,3,5,-1,-1,-1,-1],"loss_changes":[1.4388394E2,3.0932095E1,1.39322815E1,0E0,0E0,0E0,0E0],"parents":[2147483647,0,0,1,1,2,2],"right_children":[2,4,6,-1,-1,-1,-1],"split_conditions":[6.6150844E-1,4.4106233E-1,8.3712214E-1,-2.8930607E-3,3.7435184E-5,2.8493162E-3,5.2183745E-3],"split_indices":[106,106,106,0,0,0,0],"split_type":[0,0,0,0,0,0,0],"sum_hessian":[2.7176414E3,1.5309045E3,1.1867368E3,5.780658E2,9.528387E2,8.2893024E2,3.5780658E2],"tree_param":{"num_deleted":"0","num_feature":"109","num_nodes":"7","size_leaf_vector":"0"}},{"base_weights":[-9.463894E-2,1.4787999E-1,-3.090353E-1,3.3160114E-1,5.9057754E-2,-2.0264655E-1,-4.5638442E-1],"categories":[],"categories_nodes":[],"categories_segments":[],"categories_sizes":[],"default_left":[0,0,1,0,0,0,0],"id":58,"left_children":[1,3,5,-1,-1,-1,-1],"loss_changes":[1.4133357E2,2.079821E1,2.2522308E1,0E0,0E0,0E0,0E0],"parents":[2147483647,0,0,1,1,2,2],"right_children":[2,4,6,-1,-1,-1,-1],"split_conditions":[6.0963047E-1,3.8634273E-1,7.81545E-1,3.3160113E-3,5.9057755E-4,-2.0264655E-3,-4.5638443E-3],"split_indices":[106,106,106,0,0,0,0],"split_type":[0,0,0,0,0,0,0],"sum_hessian":[2.7163262E3,1.2747155E3,1.4416108E3,4.1454062E2,8.6017487E2,8.385427E2,6.0306805E2],"tree_param":{"num_deleted":"0","num_feature":"109","num_nodes":"7","size_leaf_vector":"0"}},{"base_weights":[9.46389E-2,-1.4788E-1,3.0903524E-1,-3.3160114E-1,-5.905776E-2,2.026465E-1,4.5638436E-1],"categories":[],"categories_nodes":[],"categories_segments":[],"categories_sizes":[],"default_left":[0,0,1,0,0,0,0],"id":59,"left_children":[1,3,5,-1,-1,-1,-1],"loss_changes":[1.4133353E2,2.0798214E1,2.2522293E1,0E0,0E0,0E0,0E0],"parents":[2147483647,0,0,1,1,2,2],"right_children":[2,4,6,-1,-1,-1,-1],"split_conditions":[6.0963047E-1,3.8634273E-1,7.81545E-1,-3.3160113E-3,-5.905776E-4,2.0264648E-3,4.5638434E-3],"split_indices":[106,106,106,0,0,0,0],"split_type":[0,0,0,0,0,0,0],"sum_hessian":[2.7163264E3,1.2747156E3,1.4416108E3,4.1454062E2,8.601749E2,8.385428E2,6.0306805E2],"tree_param":{"num_deleted":"0","num_feature":"109","num_nodes":"7","size_leaf_vector":"0"}},{"base_weights":[-9.374063E-2,1.0511473E-1,-3.5046238E-1,2.8417382E-1,-3.594257E-3,-2.7962524E-1,-5.136419E-1],"categories":[],"categories_nodes":[],"categories_segments":[],"categories_sizes":[],"default_left":[0,0,1,0,0,0,0],"id":60,"left_children":[1,3,5,-1,-1,-1,-1],"loss_changes":[1.3868887E2,2.9807253E1,1.3562439E1,0E0,0E0,0E0,0E0],"parents":[2147483647,0,0,1,1,2,2],"right_children":[2,4,6,-1,-1,-1,-1],"split_conditions":[6.6150844E-1,4.4106233E-1,8.3712214E-1,2.841738E-3,-3.594257E-5,-2.7962523E-3,-5.1364186E-3],"split_indices":[106,106,106,0,0,0,0],"split_type":[0,0,0,0,0,0,0],"sum_hessian":[2.714978E3,1.5302471E3,1.184731E3,5.774655E2,9.527815E2,8.2800354E2,3.5672736E2],"tree_param":{"num_deleted":"0","num_feature":"109","num_nodes":"7","size_leaf_vector":"0"}},{"base_weights":[9.374066E-2,-1.0511471E-1,3.5046244E-1,-2.8417388E-1,3.5943086E-3,2.7962527E-1,5.13642E-1],"categories":[],"categories_nodes":[],"categories_segments":[],"categories_sizes":[],"default_left":[0,0,1,0,0,0,0],"id":61,"left_children":[1,3,5,-1,-1,-1,-1],"loss_changes":[1.3868887E2,2.9807278E1,1.3562454E1,0E0,0E0,0E0,0E0],"parents":[2147483647,0,0,1,1,2,2],"right_children":[2,4,6,-1,-1,-1,-1],"split_conditions":[6.6150844E-1,4.4106233E-1,8.3712214E-1,-2.8417388E-3,3.5943085E-5,2.7962525E-3,5.13642E-3],"split_indices":[106,106,106,0,0,0,0],"split_type":[0,0,0,0,0,0,0],"sum_hessian":[2.714978E3,1.5302471E3,1.184731E3,5.774655E2,9.5278156E2,8.280036E2,3.5672736E2],"tree_param":{"num_deleted":"0","num_feature":"109","num_nodes":"7","size_leaf_vector":"0"}},{"base_weights":[-9.285249E-2,1.4520864E-1,-3.035124E-1,3.2586333E-1,5.796576E-2,-1.9878776E-1,-4.4886047E-1],"categories":[],"categories_nodes":[],"categories_segments":[],"categories_sizes":[],"default_left":[0,0,1,0,0,0,0],"id":62,"left_children":[1,3,5,-1,-1,-1,-1],"loss_changes":[1.3618161E2,2.0077715E1,2.1837555E1,0E0,0E0,0E0,0E0],"parents":[2147483647,0,0,1,1,2,2],"right_children":[2,4,6,-1,-1,-1,-1],"split_conditions":[6.0963047E-1,3.8634273E-1,7.81545E-1,3.2586332E-3,5.7965756E-4,-1.9878775E-3,-4.4886046E-3],"split_indices":[106,106,106,0,0,0,0],"split_type":[0,0,0,0,0,0,0],"sum_hessian":[2.7136104E3,1.2740975E3,1.4395128E3,4.1402878E2,8.6006866E2,8.3805444E2,6.014584E2],"tree_param":{"num_deleted":"0","num_feature":"109","num_nodes":"7","size_leaf_vector":"0"}},{"base_weights":[9.285249E-2,-1.4520866E-1,3.0351242E-1,-3.2586333E-1,-5.7965774E-2,1.9878781E-1,4.4886047E-1],"categories":[],"categories_nodes":[],"categories_segments":[],"categories_sizes":[],"default_left":[0,0,1,0,0,0,0],"id":63,"left_children":[1,3,5,-1,-1,-1,-1],"loss_changes":[1.3618163E2,2.0077713E1,2.183757E1,0E0,0E0,0E0,0E0],"parents":[2147483647,0,0,1,1,2,2],"right_children":[2,4,6,-1,-1,-1,-1],"split_conditions":[6.0963047E-1,3.8634273E-1,7.81545E-1,-3.2586332E-3,-5.7965773E-4,1.987878E-3,4.4886046E-3],"split_indices":[106,106,106,0,0,0,0],"split_type":[0,0,0,0,0,0,0],"sum_hessian":[2.7136104E3,1.2740975E3,1.4395128E3,4.1402884E2,8.600687E2,8.3805444E2,6.014583E2],"tree_param":{"num_deleted":"0","num_feature":"109","num_nodes":"7","size_leaf_vector":"0"}},{"base_weights":[-9.197296E-2,1.0323741E-1,-3.4432042E-1,2.7914378E-1,-3.4490263E-3,-2.7442792E-1,-5.056469E-1],"categories":[],"categories_nodes":[],"categories_segments":[],"categories_sizes":[],"default_left":[0,0,1,0,0,0,0],"id":64,"left_children":[1,3,5,-1,-1,-1,-1],"loss_changes":[1.3369061E2,2.8724806E1,1.32074585E1,0E0,0E0,0E0,0E0],"parents":[2147483647,0,0,1,1,2,2],"right_children":[2,4,6,-1,-1,-1,-1],"split_conditions":[6.6150844E-1,4.4106233E-1,8.3712214E-1,2.7914378E-3,-3.4490262E-5,-2.744279E-3,-5.056469E-3],"split_indices":[106,106,106,0,0,0,0],"split_type":[0,0,0,0,0,0,0],"sum_hessian":[2.7122112E3,1.5295648E3,1.1826465E3,5.7684186E2,9.5272296E2,8.270425E2,3.556039E2],"tree_param":{"num_deleted":"0","num_feature":"109","num_nodes":"7","size_leaf_vector":"0"}},{"base_weights":[9.1972955E-2,-1.0323743E-1,3.4432042E-1,-2.791438E-1,3.4490076E-3,2.7442795E-1,5.0564677E-1],"categories":[],"categories_nodes":[],"categories_segments":[],"categories_sizes":[],"default_left":[0,0,1,0,0,0,0],"id":65,"left_children":[1,3,5,-1,-1,-1,-1],"loss_changes":[1.3369063E2,2.8724804E1,1.3207443E1,0E0,0E0,0E0,0E0],"parents":[2147483647,0,0,1,1,2,2],"right_children":[2,4,6,-1,-1,-1,-1],"split_conditions":[6.6150844E-1,4.4106233E-1,8.3712214E-1,-2.791438E-3,3.4490076E-5,2.7442793E-3,5.0564674E-3],"split_indices":[106,106,106,0,0,0,0],"split_type":[0,0,0,0,0,0,0],"sum_hessian":[2.7122114E3,1.5295648E3,1.1826465E3,5.7684186E2,9.5272296E2,8.2704254E2,3.556039E2],"tree_param":{"num_deleted":"0","num_feature":"109","num_nodes":"7","size_leaf_vector":"0"}},{"base_weights":[-9.110329E-2,1.4258799E-1,-2.9810494E-1,3.202426E-1,5.6893256E-2,-1.9500671E-1,-4.4150704E-1],"categories":[],"categories_nodes":[],"categories_segments":[],"categories_sizes":[],"default_left":[0,0,1,0,0,0,0],"id":66,"left_children":[1,3,5,-1,-1,-1,-1],"loss_changes":[1.3122415E2,1.938419E1,2.1179008E1,0E0,0E0,0E0,0E0],"parents":[2147483647,0,0,1,1,2,2],"right_children":[2,4,6,-1,-1,-1,-1],"split_conditions":[6.0963047E-1,3.8634273E-1,7.81545E-1,3.202426E-3,5.6893256E-4,-1.9500671E-3,-4.41507E-3],"split_indices":[106,106,106,0,0,0,0],"split_type":[0,0,0,0,0,0,0],"sum_hessian":[2.7107947E3,1.2734567E3,1.4373379E3,4.1349634E2,8.599604E2,8.3754736E2,5.997906E2],"tree_param":{"num_deleted":"0","num_feature":"109","num_nodes":"7","size_leaf_vector":"0"}},{"base_weights":[9.110327E-2,-1.42588E-1,2.981049E-1,-3.2024252E-1,-5.689331E-2,1.9500664E-1,4.4150707E-1],"categories":[],"categories_nodes":[],"categories_segments":[],"categories_sizes":[],"default_left":[0,0,1,0,0,0,0],"id":67,"left_children":[1,3,5,-1,-1,-1,-1],"loss_changes":[1.3122415E2,1.9384172E1,2.1179031E1,0E0,0E0,0E0,0E0],"parents":[2147483647,0,0,1,1,2,2],"right_children":[2,4,6,-1,-1,-1,-1],"split_conditions":[6.0963047E-1,3.8634273E-1,7.81545E-1,-3.202425E-3,-5.689331E-4,1.9500663E-3,4.4150706E-3],"split_indices":[106,106,106,0,0,0,0],"split_type":[0,0,0,0,0,0,0],"sum_hessian":[2.7107947E3,1.2734567E3,1.4373379E3,4.1349634E2,8.599603E2,8.375473E2,5.997906E2],"tree_param":{"num_deleted":"0","num_feature":"109","num_nodes":"7","size_leaf_vector":"0"}},{"base_weights":[-9.0241954E-2,1.01395175E-1,-3.3830827E-1,2.742129E-1,-3.3076098E-3,-2.6933643E-1,-4.9784264E-1],"categories":[],"categories_nodes":[],"categories_segments":[],"categories_sizes":[],"default_left":[0,0,1,0,0,0,0],"id":68,"left_children":[1,3,5,-1,-1,-1,-1],"loss_changes":[1.288808E2,2.7682945E1,1.2866287E1,0E0,0E0,0E0,0E0],"parents":[2147483647,0,0,1,1,2,2],"right_children":[2,4,6,-1,-1,-1,-1],"split_conditions":[6.6150844E-1,4.4106233E-1,8.3712214E-1,2.742129E-3,-3.3076096E-5,-2.6933642E-3,-4.9784263E-3],"split_indices":[106,106,106,0,0,0,0],"split_type":[0,0,0,0,0,0,0],"sum_hessian":[2.7093489E3,1.5288597E3,1.1804891E3,5.7619653E2,9.5266315E2,8.260496E2,3.5443958E2],"tree_param":{"num_deleted":"0","num_feature":"109","num_nodes":"7","size_leaf_vector":"0"}},{"base_weights":[9.024197E-2,-1.013952E-1,3.3830833E-1,-2.74213E-1,3.307617E-3,2.6933646E-1,4.9784273E-1],"categories":[],"categories_nodes":[],"categories_segments":[],"categories_sizes":[],"default_left":[0,0,1,0,0,0,0],"id":69,"left_children":[1,3,5,-1,-1,-1,-1],"loss_changes":[1.2888086E2,2.7682964E1,1.2866287E1,0E0,0E0,0E0,0E0],"parents":[2147483647,0,0,1,1,2,2],"right_children":[2,4,6,-1,-1,-1,-1],"split_conditions":[6.6150844E-1,4.4106233E-1,8.3712214E-1,-2.7421298E-3,3.307617E-5,2.6933646E-3,4.978427E-3],"split_indices":[106,106,106,0,0,0,0],"split_type":[0,0,0,0,0,0,0],"sum_hessian":[2.7093489E3,1.5288596E3,1.1804893E3,5.7619653E2,9.5266315E2,8.260497E2,3.544396E2],"tree_param":{"num_deleted":"0","num_feature":"109","num_nodes":"7","size_leaf_vector":"0"}},{"base_weights":[-8.93902E-2,1.400169E-1,-2.92809E-1,3.147351E-1,5.5839986E-2,-1.9130118E-1,-4.3431696E-1],"categories":[],"categories_nodes":[],"categories_segments":[],"categories_sizes":[],"default_left":[0,0,1,0,0,0,0],"id":70,"left_children":[1,3,5,-1,-1,-1,-1],"loss_changes":[1.2645316E2,1.871643E1,2.0545174E1,0E0,0E0,0E0,0E0],"parents":[2147483647,0,0,1,1,2,2],"right_children":[2,4,6,-1,-1,-1,-1],"split_conditions":[6.0963047E-1,3.8634273E-1,7.81545E-1,3.147351E-3,5.583998E-4,-1.9130118E-3,-4.3431697E-3],"split_indices":[106,106,106,0,0,0,0],"split_type":[0,0,0,0,0,0,0],"sum_hessian":[2.707887E3,1.2727947E3,1.4350923E3,4.1294473E2,8.5985004E2,8.37023E2,5.9806934E2],"tree_param":{"num_deleted":"0","num_feature":"109","num_nodes":"7","size_leaf_vector":"0"}},{"base_weights":[8.939023E-2,-1.4001685E-1,2.92809E-1,-3.147351E-1,-5.583992E-2,1.9130121E-1,4.3431696E-1],"categories":[],"categories_nodes":[],"categories_segments":[],"categories_sizes":[],"default_left":[0,0,1,0,0,0,0],"id":71,"left_children":[1,3,5,-1,-1,-1,-1],"loss_changes":[1.2645315E2,1.8716444E1,2.0545174E1,0E0,0E0,0E0,0E0],"parents":[2147483647,0,0,1,1,2,2],"right_children":[2,4,6,-1,-1,-1,-1],"split_conditions":[6.0963047E-1,3.8634273E-1,7.81545E-1,-3.147351E-3,-5.583992E-4,1.9130121E-3,4.3431697E-3],"split_indices":[106,106,106,0,0,0,0],"split_type":[0,0,0,0,0,0,0],"sum_hessian":[2.7078872E3,1.2727948E3,1.4350924E3,4.1294473E2,8.5985004E2,8.37023E2,5.9806934E2],"tree_param":{"num_deleted":"0","num_feature":"109","num_nodes":"7","size_leaf_vector":"0"}},{"base_weights":[-8.854656E-2,9.958728E-2,-3.3242148E-1,2.693784E-1,-3.1699112E-3,-2.608795E-1,-4.825395E-1],"categories":[],"categories_nodes":[],"categories_segments":[],"categories_sizes":[],"default_left":[0,0,1,0,0,0,0],"id":72,"left_children":[1,3,5,-1,-1,-1,-1],"loss_changes":[1.2425157E2,2.6680042E1,1.2539139E1,0E0,0E0,0E0,0E0],"parents":[2147483647,0,0,1,1,2,2],"right_children":[2,4,6,-1,-1,-1,-1],"split_conditions":[6.6150844E-1,4.4106233E-1,8.3096385E-1,2.693784E-3,-3.169911E-5,-2.6087947E-3,-4.825395E-3],"split_indices":[106,106,106,0,0,0,0],"split_type":[0,0,0,0,0,0,0],"sum_hessian":[2.7063982E3,1.5281333E3,1.178265E3,5.755312E2,9.526021E2,7.9982764E2,3.7843732E2],"tree_param":{"num_deleted":"0","num_feature":"109","num_nodes":"7","size_leaf_vector":"0"}},{"base_weights":[8.854657E-2,-9.9587284E-2,3.324215E-1,-2.693784E-1,3.1699028E-3,2.608795E-1,4.825396E-1],"categories":[],"categories_nodes":[],"categories_segments":[],"categories_sizes":[],"default_left":[0,0,1,0,0,0,0],"id":73,"left_children":[1,3,5,-1,-1,-1,-1],"loss_changes":[1.242516E2,2.668004E1,1.2539139E1,0E0,0E0,0E0,0E0],"parents":[2147483647,0,0,1,1,2,2],"right_children":[2,4,6,-1,-1,-1,-1],"split_conditions":[6.6150844E-1,4.4106233E-1,8.3096385E-1,-2.693784E-3,3.1699026E-5,2.6087947E-3,4.825396E-3],"split_indices":[106,106,106,0,0,0,0],"split_type":[0,0,0,0,0,0,0],"sum_hessian":[2.7063982E3,1.5281333E3,1.178265E3,5.755312E2,9.526021E2,7.9982764E2,3.7843732E2],"tree_param":{"num_deleted":"0","num_feature":"109","num_nodes":"7","size_leaf_vector":"0"}},{"base_weights":[-8.7712325E-2,9.861627E-2,-3.2942748E-1,2.6685363E-1,-3.1382241E-3,-2.6183647E-1,-4.8629755E-1],"categories":[],"categories_nodes":[],"categories_segments":[],"categories_sizes":[],"default_left":[0,0,1,0,0,0,0],"id":74,"left_children":[1,3,5,-1,-1,-1,-1],"loss_changes":[1.21901665E2,2.6171873E1,1.2364212E1,0E0,0E0,0E0,0E0],"parents":[2147483647,0,0,1,1,2,2],"right_children":[2,4,6,-1,-1,-1,-1],"split_conditions":[6.6150844E-1,4.4106233E-1,8.3712214E-1,2.6685363E-3,-3.1382242E-5,-2.6183645E-3,-4.8629753E-3],"split_indices":[106,106,106,0,0,0,0],"split_type":[0,0,0,0,0,0,0],"sum_hessian":[2.7048918E3,1.5277794E3,1.1771123E3,5.7517786E2,9.526016E2,8.2451886E2,3.525935E2],"tree_param":{"num_deleted":"0","num_feature":"109","num_nodes":"7","size_leaf_vector":"0"}},{"base_weights":[8.77123E-2,-9.8616295E-2,3.2942745E-1,-2.668537E-1,3.1382302E-3,2.6183644E-1,4.862975E-1],"categories":[],"categories_nodes":[],"categories_segments":[],"categories_sizes":[],"default_left":[0,0,1,0,0,0,0],"id":75,"left_children":[1,3,5,-1,-1,-1,-1],"loss_changes":[1.2190163E2,2.6171883E1,1.236422E1,0E0,0E0,0E0,0E0],"parents":[2147483647,0,0,1,1,2,2],"right_children":[2,4,6,-1,-1,-1,-1],"split_conditions":[6.6150844E-1,4.4106233E-1,8.3712214E-1,-2.6685367E-3,3.13823E-5,2.6183643E-3,4.862975E-3],"split_indices":[106,106,106,0,0,0,0],"split_type":[0,0,0,0,0,0,0],"sum_hessian":[2.7048918E3,1.5277794E3,1.1771124E3,5.7517786E2,9.526016E2,8.2451886E2,3.525935E2],"tree_param":{"num_deleted":"0","num_feature":"109","num_nodes":"7","size_leaf_vector":"0"}},{"base_weights":[-8.6886585E-2,1.7707849E-1,-2.5459993E-1,7.0055133E-1,1.4957514E-1,-1.5895993E-1,-4.2393982E-1],"categories":[],"categories_nodes":[],"categories_segments":[],"categories_sizes":[],"default_left":[0,0,1,0,0,0,0],"id":76,"left_children":[1,3,5,-1,-1,-1,-1],"loss_changes":[1.1976871E2,1.5030701E1,2.6721725E1,0E0,0E0,0E0,0E0],"parents":[2147483647,0,0,1,1,2,2],"right_children":[2,4,6,-1,-1,-1,-1],"split_conditions":[5.609362E-1,1.8395597E-1,7.81545E-1,7.005513E-3,1.4957514E-3,-1.5895992E-3,-4.239398E-3],"split_indices":[106,106,106,0,0,0,0],"split_type":[0,0,0,0,0,0,0],"sum_hessian":[2.7033682E3,1.0502761E3,1.653092E3,5.120557E1,9.9907056E2,1.0576755E3,5.9541656E2],"tree_param":{"num_deleted":"0","num_feature":"109","num_nodes":"7","size_leaf_vector":"0"}},{"base_weights":[8.688656E-2,-1.770785E-1,2.545999E-1,-7.0055133E-1,-1.4957517E-1,1.5895988E-1,4.2393985E-1],"categories":[],"categories_nodes":[],"categories_segments":[],"categories_sizes":[],"default_left":[0,0,1,0,0,0,0],"id":77,"left_children":[1,3,5,-1,-1,-1,-1],"loss_changes":[1.1976872E2,1.5030697E1,2.6721748E1,0E0,0E0,0E0,0E0],"parents":[2147483647,0,0,1,1,2,2],"right_children":[2,4,6,-1,-1,-1,-1],"split_conditions":[5.609362E-1,1.8395597E-1,7.81545E-1,-7.005513E-3,-1.4957517E-3,1.5895987E-3,4.2393985E-3],"split_indices":[106,106,106,0,0,0,0],"split_type":[0,0,0,0,0,0,0],"sum_hessian":[2.7033682E3,1.0502761E3,1.653092E3,5.120557E1,9.9907056E2,1.0576755E3,5.9541656E2],"tree_param":{"num_deleted":"0","num_feature":"109","num_nodes":"7","size_leaf_vector":"0"}},{"base_weights":[-8.606345E-2,9.696016E-2,-3.2384548E-1,2.6249835E-1,-3.057415E-3,-2.571759E-1,-4.78936E-1],"categories":[],"categories_nodes":[],"categories_segments":[],"categories_sizes":[],"default_left":[0,0,1,0,0,0,0],"id":78,"left_children":[1,3,5,-1,-1,-1,-1],"loss_changes":[1.1766165E2,2.5300991E1,1.2034676E1,0E0,0E0,0E0,0E0],"parents":[2147483647,0,0,1,1,2,2],"right_children":[2,4,6,-1,-1,-1,-1],"split_conditions":[6.6150844E-1,4.4106233E-1,8.3712214E-1,2.6249834E-3,-3.057415E-5,-2.5717588E-3,-4.78936E-3],"split_indices":[106,106,106,0,0,0,0],"split_type":[0,0,0,0,0,0,0],"sum_hessian":[2.7019182E3,1.5270908E3,1.1748275E3,5.745438E2,9.5254694E2,8.2348834E2,3.5133914E2],"tree_param":{"num_deleted":"0","num_feature":"109","num_nodes":"7","size_leaf_vector":"0"}},{"base_weights":[8.60635E-2,-9.69601E-2,3.2384548E-1,-2.624983E-1,3.0574712E-3,2.5717592E-1,4.78936E-1],"categories":[],"categories_nodes":[],"categories_segments":[],"categories_sizes":[],"default_left":[0,0,1,0,0,0,0],"id":79,"left_children":[1,3,5,-1,-1,-1,-1],"loss_changes":[1.1766161E2,2.5300987E1,1.2034676E1,0E0,0E0,0E0,0E0],"parents":[2147483647,0,0,1,1,2,2],"right_children":[2,4,6,-1,-1,-1,-1],"split_conditions":[6.6150844E-1,4.4106233E-1,8.3712214E-1,-2.6249827E-3,3.0574713E-5,2.5717593E-3,4.78936E-3],"split_indices":[106,106,106,0,0,0,0],"split_type":[0,0,0,0,0,0,0],"sum_hessian":[2.7019182E3,1.5270908E3,1.1748275E3,5.745438E2,9.5254694E2,8.2348834E2,3.5133914E2],"tree_param":{"num_deleted":"0","num_feature":"109","num_nodes":"7","size_leaf_vector":"0"}},{"base_weights":[-8.525446E-2,1.34066E-1,-2.8026447E-1,3.3149508E-1,6.291875E-2,-1.826672E-1,-4.171286E-1],"categories":[],"categories_nodes":[],"categories_segments":[],"categories_sizes":[],"default_left":[0,1,1,0,0,0,0],"id":80,"left_children":[1,3,5,-1,-1,-1,-1],"loss_changes":[1.1557385E2,1.7847826E1,1.9028496E1,0E0,0E0,0E0,0E0],"parents":[2147483647,0,0,1,1,2,2],"right_children":[2,4,6,-1,-1,-1,-1],"split_conditions":[6.0963047E-1,-6.3500004E0,7.81545E-1,3.3149507E-3,6.291875E-4,-1.8266719E-3,-4.171286E-3],"split_indices":[106,25,106,0,0,0,0],"split_type":[0,0,0,0,0,0,0],"sum_hessian":[2.7003591E3,1.2711061E3,1.429253E3,3.357532E2,9.353529E2,8.356728E2,5.935803E2],"tree_param":{"num_deleted":"0","num_feature":"109","num_nodes":"7","size_leaf_vector":"0"}},{"base_weights":[8.525445E-2,-1.3406597E-1,2.8026444E-1,-3.3149505E-1,-6.2918715E-2,1.8266718E-1,4.1712853E-1],"categories":[],"categories_nodes":[],"categories_segments":[],"categories_sizes":[],"default_left":[0,1,1,0,0,0,0],"id":81,"left_children":[1,3,5,-1,-1,-1,-1],"loss_changes":[1.1557381E2,1.7847836E1,1.9028488E1,0E0,0E0,0E0,0E0],"parents":[2147483647,0,0,1,1,2,2],"right_children":[2,4,6,-1,-1,-1,-1],"split_conditions":[6.0963047E-1,-6.3500004E0,7.81545E-1,-3.3149505E-3,-6.2918715E-4,1.8266718E-3,4.1712853E-3],"split_indices":[106,25,106,0,0,0,0],"split_type":[0,0,0,0,0,0,0],"sum_hessian":[2.7003591E3,1.2711062E3,1.429253E3,3.357532E2,9.3535297E2,8.356728E2,5.9358026E2],"tree_param":{"num_deleted":"0","num_feature":"109","num_nodes":"7","size_leaf_vector":"0"}},{"base_weights":[-8.445009E-2,1.7262724E-1,-2.4799946E-1,6.908496E-1,1.4546475E-1,-1.5482017E-1,-4.1363576E-1],"categories":[],"categories_nodes":[],"categories_segments":[],"categories_sizes":[],"default_left":[0,0,1,0,0,0,0],"id":82,"left_children":[1,3,5,-1,-1,-1,-1],"loss_changes":[1.1355817E2,1.46845875E1,2.540966E1,0E0,0E0,0E0,0E0],"parents":[2147483647,0,0,1,1,2,2],"right_children":[2,4,6,-1,-1,-1,-1],"split_conditions":[5.609362E-1,1.8395597E-1,7.81545E-1,6.908496E-3,1.4546474E-3,-1.5482017E-3,-4.1363575E-3],"split_indices":[106,106,106,0,0,0,0],"split_type":[0,0,0,0,0,0,0],"sum_hessian":[2.6988647E3,1.0493594E3,1.6495055E3,5.1045654E1,9.983137E2,1.0568855E3,5.926199E2],"tree_param":{"num_deleted":"0","num_feature":"109","num_nodes":"7","size_leaf_vector":"0"}},{"base_weights":[8.445008E-2,-1.7262727E-1,2.4799946E-1,-6.908496E-1,-1.4546478E-1,1.5482016E-1,4.1363582E-1],"categories":[],"categories_nodes":[],"categories_segments":[],"categories_sizes":[],"default_left":[0,0,1,0,0,0,0],"id":83,"left_children":[1,3,5,-1,-1,-1,-1],"loss_changes":[1.13558205E2,1.4684584E1,2.5409668E1,0E0,0E0,0E0,0E0],"parents":[2147483647,0,0,1,1,2,2],"right_children":[2,4,6,-1,-1,-1,-1],"split_conditions":[5.609362E-1,1.8395597E-1,7.81545E-1,-6.908496E-3,-1.4546477E-3,1.5482015E-3,4.136358E-3],"split_indices":[106,106,106,0,0,0,0],"split_type":[0,0,0,0,0,0,0],"sum_hessian":[2.6988647E3,1.0493594E3,1.6495055E3,5.1045654E1,9.9831366E2,1.0568855E3,5.926199E2],"tree_param":{"num_deleted":"0","num_feature":"109","num_nodes":"7","size_leaf_vector":"0"}},{"base_weights":[-8.365173E-2,9.455104E-2,-3.1571022E-1,2.5661716E-1,-3.2285461E-3,-2.502853E-1,-4.6842968E-1],"categories":[],"categories_nodes":[],"categories_segments":[],"categories_sizes":[],"default_left":[0,0,1,0,0,0,0],"id":84,"left_children":[1,3,5,-1,-1,-1,-1],"loss_changes":[1.1161652E2,2.4199791E1,1.1596001E1,0E0,0E0,0E0,0E0],"parents":[2147483647,0,0,1,1,2,2],"right_children":[2,4,6,-1,-1,-1,-1],"split_conditions":[6.6150844E-1,4.4106233E-1,8.3712214E-1,2.5661716E-3,-3.228546E-5,-2.5028528E-3,-4.684297E-3],"split_indices":[106,106,106,0,0,0,0],"split_type":[0,0,0,0,0,0,0],"sum_hessian":[2.6973635E3,1.5260607E3,1.1713027E3,5.736433E2,9.5241736E2,8.2185815E2,3.4944464E2],"tree_param":{"num_deleted":"0","num_feature":"109","num_nodes":"7","size_leaf_vector":"0"}},{"base_weights":[8.365173E-2,-9.455105E-2,3.1571022E-1,-2.5661716E-1,3.2285366E-3,2.5028527E-1,4.6842977E-1],"categories":[],"categories_nodes":[],"categories_segments":[],"categories_sizes":[],"default_left":[0,0,1,0,0,0,0],"id":85,"left_children":[1,3,5,-1,-1,-1,-1],"loss_changes":[1.1161655E2,2.4199787E1,1.1596016E1,0E0,0E0,0E0,0E0],"parents":[2147483647,0,0,1,1,2,2],"right_children":[2,4,6,-1,-1,-1,-1],"split_conditions":[6.6150844E-1,4.4106233E-1,8.3712214E-1,-2.5661716E-3,3.2285367E-5,2.5028526E-3,4.684298E-3],"split_indices":[106,106,106,0,0,0,0],"split_type":[0,0,0,0,0,0,0],"sum_hessian":[2.6973635E3,1.5260607E3,1.1713027E3,5.736433E2,9.5241736E2,8.2185815E2,3.494446E2],"tree_param":{"num_deleted":"0","num_feature":"109","num_nodes":"7","size_leaf_vector":"0"}},{"base_weights":[-8.28669E-2,1.04752265E-1,-2.992786E-1,2.5851452E-1,8.766992E-3,-2.3158567E-1,-4.5724827E-1],"categories":[],"categories_nodes":[],"categories_segments":[],"categories_sizes":[],"default_left":[0,0,1,0,0,0,0],"id":86,"left_children":[1,3,5,-1,-1,-1,-1],"loss_changes":[1.09527756E2,2.132745E1,1.3288139E1,0E0,0E0,0E0,0E0],"parents":[2147483647,0,0,1,1,2,2],"right_children":[2,4,6,-1,-1,-1,-1],"split_conditions":[6.4619756E-1,4.3563306E-1,8.3096385E-1,2.5851452E-3,8.766992E-5,-2.3158565E-3,-4.572483E-3],"split_indices":[106,106,106,0,0,0,0],"split_type":[0,0,0,0,0,0,0],"sum_hessian":[2.6957578E3,1.4442095E3,1.2515485E3,5.544011E2,8.898083E2,8.7784265E2,3.7370578E2],"tree_param":{"num_deleted":"0","num_feature":"109","num_nodes":"7","size_leaf_vector":"0"}},{"base_weights":[8.286689E-2,-1.04752265E-1,2.9927856E-1,-2.5851446E-1,-8.767005E-3,2.3158562E-1,4.5724827E-1],"categories":[],"categories_nodes":[],"categories_segments":[],"categories_sizes":[],"default_left":[0,0,1,0,0,0,0],"id":87,"left_children":[1,3,5,-1,-1,-1,-1],"loss_changes":[1.0952773E2,2.132744E1,1.3288155E1,0E0,0E0,0E0,0E0],"parents":[2147483647,0,0,1,1,2,2],"right_children":[2,4,6,-1,-1,-1,-1],"split_conditions":[6.4619756E-1,4.3563306E-1,8.3096385E-1,-2.5851445E-3,-8.767005E-5,2.315856E-3,4.572483E-3],"split_indices":[106,106,106,0,0,0,0],"split_type":[0,0,0,0,0,0,0],"sum_hessian":[2.6957578E3,1.4442094E3,1.2515485E3,5.544011E2,8.898083E2,8.7784265E2,3.7370578E2],"tree_param":{"num_deleted":"0","num_feature":"109","num_nodes":"7","size_leaf_vector":"0"}},{"base_weights":[-8.208993E-2,1.6828695E-1,-2.4157162E-1,6.8131626E-1,1.4146478E-1,-1.5059565E-1,-4.039343E-1],"categories":[],"categories_nodes":[],"categories_segments":[],"categories_sizes":[],"default_left":[0,0,1,0,0,0,0],"id":88,"left_children":[1,3,5,-1,-1,-1,-1],"loss_changes":[1.0765871E2,1.4342611E1,2.4264648E1,0E0,0E0,0E0,0E0],"parents":[2147483647,0,0,1,1,2,2],"right_children":[2,4,6,-1,-1,-1,-1],"split_conditions":[5.609362E-1,1.8395597E-1,7.81545E-1,6.8131625E-3,1.4146478E-3,-1.5059565E-3,-4.039343E-3],"split_indices":[106,106,106,0,0,0,0],"split_type":[0,0,0,0,0,0,0],"sum_hessian":[2.6941323E3,1.048303E3,1.6458293E3,5.0871883E1,9.974311E2,1.0560339E3,5.897954E2],"tree_param":{"num_deleted":"0","num_feature":"109","num_nodes":"7","size_leaf_vector":"0"}},{"base_weights":[8.208996E-2,-1.682869E-1,2.4157165E-1,-6.813162E-1,-1.4146474E-1,1.5059571E-1,4.0393424E-1],"categories":[],"categories_nodes":[],"categories_segments":[],"categories_sizes":[],"default_left":[0,0,1,0,0,0,0],"id":89,"left_children":[1,3,5,-1,-1,-1,-1],"loss_changes":[1.0765869E2,1.4342611E1,2.4264633E1,0E0,0E0,0E0,0E0],"parents":[2147483647,0,0,1,1,2,2],"right_children":[2,4,6,-1,-1,-1,-1],"split_conditions":[5.609362E-1,1.8395597E-1,7.81545E-1,-6.813162E-3,-1.4146473E-3,1.5059571E-3,4.0393425E-3],"split_indices":[106,106,106,0,0,0,0],"split_type":[0,0,0,0,0,0,0],"sum_hessian":[2.6941323E3,1.048303E3,1.6458293E3,5.0871883E1,9.974311E2,1.0560339E3,5.897954E2],"tree_param":{"num_deleted":"0","num_feature":"109","num_nodes":"7","size_leaf_vector":"0"}},{"base_weights":[-8.131534E-2,9.2130296E-2,-3.077123E-1,2.5012904E-1,-3.0308585E-3,-2.4363716E-1,-4.5786098E-1],"categories":[],"categories_nodes":[],"categories_segments":[],"categories_sizes":[],"default_left":[0,0,1,0,0,0,0],"id":90,"left_children":[1,3,5,-1,-1,-1,-1],"loss_changes":[1.0579892E2,2.294347E1,1.113195E1,0E0,0E0,0E0,0E0],"parents":[2147483647,0,0,1,1,2,2],"right_children":[2,4,6,-1,-1,-1,-1],"split_conditions":[6.6150844E-1,4.4106233E-1,8.3712214E-1,2.5012903E-3,-3.0308584E-5,-2.4363715E-3,-4.5786095E-3],"split_indices":[106,106,106,0,0,0,0],"split_type":[0,0,0,0,0,0,0],"sum_hessian":[2.6925862E3,1.5249191E3,1.1676672E3,5.7259503E2,9.5232404E2,8.202519E2,3.474153E2],"tree_param":{"num_deleted":"0","num_feature":"109","num_nodes":"7","size_leaf_vector":"0"}},{"base_weights":[8.131533E-2,-9.213035E-2,3.0771232E-1,-2.5012904E-1,3.0307916E-3,2.4363716E-1,4.578611E-1],"categories":[],"categories_nodes":[],"categories_segments":[],"categories_sizes":[],"default_left":[0,0,1,0,0,0,0],"id":91,"left_children":[1,3,5,-1,-1,-1,-1],"loss_changes":[1.0579896E2,2.2943466E1,1.1131973E1,0E0,0E0,0E0,0E0],"parents":[2147483647,0,0,1,1,2,2],"right_children":[2,4,6,-1,-1,-1,-1],"split_conditions":[6.6150844E-1,4.4106233E-1,8.3712214E-1,-2.5012903E-3,3.0307916E-5,2.4363715E-3,4.578611E-3],"split_indices":[106,106,106,0,0,0,0],"split_type":[0,0,0,0,0,0,0],"sum_hessian":[2.6925864E3,1.5249191E3,1.1676674E3,5.7259503E2,9.5232404E2,8.2025195E2,3.474153E2],"tree_param":{"num_deleted":"0","num_feature":"109","num_nodes":"7","size_leaf_vector":"0"}},{"base_weights":[-8.0553815E-2,1.653719E-1,-2.3733327E-1,3.4464765E-1,9.008314E-2,-1.4782062E-1,-3.9752892E-1],"categories":[],"categories_nodes":[],"categories_segments":[],"categories_sizes":[],"default_left":[0,1,1,0,0,0,0],"id":92,"left_children":[1,3,5,-1,-1,-1,-1],"loss_changes":[1.03829895E2,1.4122423E1,2.3520233E1,0E0,0E0,0E0,0E0],"parents":[2147483647,0,0,1,1,2,2],"right_children":[2,4,6,-1,-1,-1,-1],"split_conditions":[5.609362E-1,-6.3500004E0,7.81545E-1,3.4464763E-3,9.0083136E-4,-1.4782061E-3,-3.975289E-3],"split_indices":[106,25,106,0,0,0,0],"split_type":[0,0,0,0,0,0,0],"sum_hessian":[2.6909387E3,1.0476034E3,1.6433352E3,3.0877594E2,7.3882745E2,1.0554843E3,5.8785095E2],"tree_param":{"num_deleted":"0","num_feature":"109","num_nodes":"7","size_leaf_vector":"0"}},{"base_weights":[8.055382E-2,-1.6537188E-1,2.3733327E-1,-3.4464765E-1,-9.008311E-2,1.4782064E-1,3.9752892E-1],"categories":[],"categories_nodes":[],"categories_segments":[],"categories_sizes":[],"default_left":[0,1,1,0,0,0,0],"id":93,"left_children":[1,3,5,-1,-1,-1,-1],"loss_changes":[1.0382988E2,1.4122425E1,2.3520248E1,0E0,0E0,0E0,0E0],"parents":[2147483647,0,0,1,1,2,2],"right_children":[2,4,6,-1,-1,-1,-1],"split_conditions":[5.609362E-1,-6.3500004E0,7.81545E-1,-3.4464763E-3,-9.008311E-4,1.4782064E-3,3.975289E-3],"split_indices":[106,25,106,0,0,0,0],"split_type":[0,0,0,0,0,0,0],"sum_hessian":[2.6909385E3,1.0476034E3,1.6433352E3,3.0877594E2,7.3882745E2,1.0554843E3,5.878509E2],"tree_param":{"num_deleted":"0","num_feature":"109","num_nodes":"7","size_leaf_vector":"0"}},{"base_weights":[-7.979614E-2,9.058475E-2,-3.0255255E-1,2.501967E-1,-4.7929538E-4,-2.3931965E-1,-4.5111006E-1],"categories":[],"categories_nodes":[],"categories_segments":[],"categories_sizes":[],"default_left":[0,0,1,0,0,0,0],"id":94,"left_children":[1,3,5,-1,-1,-1,-1],"loss_changes":[1.0213577E2,2.2168186E1,1.0847E1,0E0,0E0,0E0,0E0],"parents":[2147483647,0,0,1,1,2,2],"right_children":[2,4,6,-1,-1,-1,-1],"split_conditions":[6.6150844E-1,4.3563306E-1,8.3712214E-1,2.501967E-3,-4.792954E-6,-2.3931966E-3,-4.5111007E-3],"split_indices":[106,106,106,0,0,0,0],"split_type":[0,0,0,0,0,0,0],"sum_hessian":[2.6893591E3,1.5241599E3,1.1651991E3,5.530527E2,9.7110724E2,8.191445E2,3.4605457E2],"tree_param":{"num_deleted":"0","num_feature":"109","num_nodes":"7","size_leaf_vector":"0"}},{"base_weights":[7.979617E-2,-9.058473E-2,3.0255258E-1,-2.5019664E-1,4.7929463E-4,2.3931965E-1,4.5111015E-1],"categories":[],"categories_nodes":[],"categories_segments":[],"categories_sizes":[],"default_left":[0,0,1,0,0,0,0],"id":95,"left_children":[1,3,5,-1,-1,-1,-1],"loss_changes":[1.0213578E2,2.2168175E1,1.0847008E1,0E0,0E0,0E0,0E0],"parents":[2147483647,0,0,1,1,2,2],"right_children":[2,4,6,-1,-1,-1,-1],"split_conditions":[6.6150844E-1,4.3563306E-1,8.3712214E-1,-2.5019662E-3,4.792946E-6,2.3931966E-3,4.5111016E-3],"split_indices":[106,106,106,0,0,0,0],"split_type":[0,0,0,0,0,0,0],"sum_hessian":[2.6893591E3,1.5241599E3,1.1651991E3,5.530527E2,9.7110724E2,8.191445E2,3.460546E2],"tree_param":{"num_deleted":"0","num_feature":"109","num_nodes":"7","size_leaf_vector":"0"}},{"base_weights":[-7.904959E-2,8.970365E-2,-2.9986462E-1,2.4373896E-1,-2.9018936E-3,-2.3708841E-1,-4.4756427E-1],"categories":[],"categories_nodes":[],"categories_segments":[],"categories_sizes":[],"default_left":[0,0,1,0,0,0,0],"id":96,"left_children":[1,3,5,-1,-1,-1,-1],"loss_changes":[1.0021619E2,2.1750854E1,1.069503E1,0E0,0E0,0E0,0E0],"parents":[2147483647,0,0,1,1,2,2],"right_children":[2,4,6,-1,-1,-1,-1],"split_conditions":[6.6150844E-1,4.4106233E-1,8.3712214E-1,2.4373897E-3,-2.9018935E-5,-2.3708842E-3,-4.4756425E-3],"split_indices":[106,106,106,0,0,0,0],"split_type":[0,0,0,0,0,0,0],"sum_hessian":[2.687689E3,1.5237721E3,1.163917E3,5.715136E2,9.522585E2,8.185971E2,3.4531982E2],"tree_param":{"num_deleted":"0","num_feature":"109","num_nodes":"7","size_leaf_vector":"0"}},{"base_weights":[7.904959E-2,-8.9703634E-2,2.998646E-1,-2.4373895E-1,2.9019048E-3,2.3708837E-1,4.475643E-1],"categories":[],"categories_nodes":[],"categories_segments":[],"categories_sizes":[],"default_left":[0,0,1,0,0,0,0],"id":97,"left_children":[1,3,5,-1,-1,-1,-1],"loss_changes":[1.0021617E2,2.1750854E1,1.069503E1,0E0,0E0,0E0,0E0],"parents":[2147483647,0,0,1,1,2,2],"right_children":[2,4,6,-1,-1,-1,-1],"split_conditions":[6.6150844E-1,4.4106233E-1,8.3712214E-1,-2.4373895E-3,2.9019047E-5,2.3708837E-3,4.475643E-3],"split_indices":[106,106,106,0,0,0,0],"split_type":[0,0,0,0,0,0,0],"sum_hessian":[2.687689E3,1.5237721E3,1.163917E3,5.715136E2,9.522585E2,8.185971E2,3.4531985E2],"tree_param":{"num_deleted":"0","num_feature":"109","num_nodes":"7","size_leaf_vector":"0"}},{"base_weights":[-7.831047E-2,1.6126163E-1,-2.3123355E-1,6.682488E-1,1.348549E-1,-1.4384212E-1,-3.8828787E-1],"categories":[],"categories_nodes":[],"categories_segments":[],"categories_sizes":[],"default_left":[0,0,1,0,0,0,0],"id":98,"left_children":[1,3,5,-1,-1,-1,-1],"loss_changes":[9.847868E1,1.3933603E1,2.2460495E1,0E0,0E0,0E0,0E0],"parents":[2147483647,0,0,1,1,2,2],"right_children":[2,4,6,-1,-1,-1,-1],"split_conditions":[5.609362E-1,1.8395597E-1,7.81545E-1,6.6824877E-3,1.3485489E-3,-1.4384211E-3,-3.8828787E-3],"split_indices":[106,106,106,0,0,0,0],"split_type":[0,0,0,0,0,0,0],"sum_hessian":[2.686005E3,1.0464939E3,1.6395111E3,5.0605465E1,9.958884E2,1.0546029E3,5.849082E2],"tree_param":{"num_deleted":"0","num_feature":"109","num_nodes":"7","size_leaf_vector":"0"}},{"base_weights":[7.831049E-2,-1.6126166E-1,2.312336E-1,-6.682488E-1,-1.3485493E-1,1.4384216E-1,3.8828793E-1],"categories":[],"categories_nodes":[],"categories_segments":[],"categories_sizes":[],"default_left":[0,0,1,0,0,0,0],"id":99,"left_children":[1,3,5,-1,-1,-1,-1],"loss_changes":[9.847873E1,1.3933599E1,2.2460495E1,0E0,0E0,0E0,0E0],"parents":[2147483647,0,0,1,1,2,2],"right_children":[2,4,6,-1,-1,-1,-1],"split_conditions":[5.609362E-1,1.8395597E-1,7.81545E-1,-6.6824877E-3,-1.3485493E-3,1.4384215E-3,3.8828792E-3],"split_indices":[106,106,106,0,0,0,0],"split_type":[0,0,0,0,0,0,0],"sum_hessian":[2.6860051E3,1.0464939E3,1.6395111E3,5.0605465E1,9.958884E2,1.0546029E3,5.849082E2],"tree_param":{"num_deleted":"0","num_feature":"109","num_nodes":"7","size_leaf_vector":"0"}},{"base_weights":[-7.757337E-2,8.820065E-2,-2.9485074E-1,2.4391335E-1,-4.7335008E-4,-2.328905E-1,-4.4101942E-1],"categories":[],"categories_nodes":[],"categories_segments":[],"categories_sizes":[],"default_left":[0,0,1,0,0,0,0],"id":100,"left_children":[1,3,5,-1,-1,-1,-1],"loss_changes":[9.6751205E1,2.1043034E1,1.0424698E1,0E0,0E0,0E0,0E0],"parents":[2147483647,0,0,1,1,2,2],"right_children":[2,4,6,-1,-1,-1,-1],"split_conditions":[6.6150844E-1,4.3563306E-1,8.3712214E-1,2.4391334E-3,-4.7335006E-6,-2.328905E-3,-4.4101942E-3],"split_indices":[106,106,106,0,0,0,0],"split_type":[0,0,0,0,0,0,0],"sum_hessian":[2.6843982E3,1.5230021E3,1.1613962E3,5.519754E2,9.710267E2,8.1746844E2,3.4392773E2],"tree_param":{"num_deleted":"0","num_feature":"109","num_nodes":"7","size_leaf_vector":"0"}},{"base_weights":[7.757334E-2,-8.820064E-2,2.9485065E-1,-2.4391334E-1,4.7336402E-4,2.3289046E-1,4.4101933E-1],"categories":[],"categories_nodes":[],"categories_segments":[],"categories_sizes":[],"default_left":[0,0,1,0,0,0,0],"id":101,"left_children":[1,3,5,-1,-1,-1,-1],"loss_changes":[9.675117E1,2.1043034E1,1.0424698E1,0E0,0E0,0E0,0E0],"parents":[2147483647,0,0,1,1,2,2],"right_children":[2,4,6,-1,-1,-1,-1],"split_conditions":[6.6150844E-1,4.3563306E-1,8.3712214E-1,-2.4391334E-3,4.7336403E-6,2.3289046E-3,4.4101933E-3],"split_indices":[106,106,106,0,0,0,0],"split_type":[0,0,0,0,0,0,0],"sum_hessian":[2.6843982E3,1.5230022E3,1.1613961E3,5.5197546E2,9.7102673E2,8.1746844E2,3.439277E2],"tree_param":{"num_deleted":"0","num_feature":"109","num_nodes":"7","size_leaf_vector":"0"}},{"base_weights":[-7.6848626E-2,1.2201415E-1,-2.548551E-1,3.1135595E-1,5.4025892E-2,-1.653518E-1,-3.821879E-1],"categories":[],"categories_nodes":[],"categories_segments":[],"categories_sizes":[],"default_left":[0,1,1,0,0,0,0],"id":102,"left_children":[1,3,5,-1,-1,-1,-1],"loss_changes":[9.503087E1,1.6309578E1,1.6079453E1,0E0,0E0,0E0,0E0],"parents":[2147483647,0,0,1,1,2,2],"right_children":[2,4,6,-1,-1,-1,-1],"split_conditions":[6.0963047E-1,-6.3500004E0,7.81545E-1,3.1135594E-3,5.402589E-4,-1.653518E-3,-3.821879E-3],"split_indices":[106,25,106,0,0,0,0],"split_type":[0,0,0,0,0,0,0],"sum_hessian":[2.6826958E3,1.267265E3,1.4154308E3,3.338738E2,9.333912E2,8.325342E2,5.8289667E2],"tree_param":{"num_deleted":"0","num_feature":"109","num_nodes":"7","size_leaf_vector":"0"}},{"base_weights":[7.684863E-2,-1.2201413E-1,2.548551E-1,-3.1135592E-1,-5.402588E-2,1.6535185E-1,3.8218784E-1],"categories":[],"categories_nodes":[],"categories_segments":[],"categories_sizes":[],"default_left":[0,1,1,0,0,0,0],"id":103,"left_children":[1,3,5,-1,-1,-1,-1],"loss_changes":[9.503086E1,1.6309576E1,1.6079422E1,0E0,0E0,0E0,0E0],"parents":[2147483647,0,0,1,1,2,2],"right_children":[2,4,6,-1,-1,-1,-1],"split_conditions":[6.0963047E-1,-6.3500004E0,7.81545E-1,-3.1135592E-3,-5.4025877E-4,1.6535185E-3,3.8218785E-3],"split_indices":[106,25,106,0,0,0,0],"split_type":[0,0,0,0,0,0,0],"sum_hessian":[2.6826958E3,1.267265E3,1.4154308E3,3.3387378E2,9.3339124E2,8.325342E2,5.8289667E2],"tree_param":{"num_deleted":"0","num_feature":"109","num_nodes":"7","size_leaf_vector":"0"}},{"base_weights":[-7.612774E-2,1.5723245E-1,-2.252968E-1,6.5959275E-1,1.3114601E-1,-1.4011696E-1,-3.790524E-1],"categories":[],"categories_nodes":[],"categories_segments":[],"categories_sizes":[],"default_left":[0,0,1,0,0,0,0],"id":104,"left_children":[1,3,5,-1,-1,-1,-1],"loss_changes":[9.339848E1,1.3627304E1,2.138115E1,0E0,0E0,0E0,0E0],"parents":[2147483647,0,0,1,1,2,2],"right_children":[2,4,6,-1,-1,-1,-1],"split_conditions":[5.609362E-1,1.8395597E-1,7.81545E-1,6.5959273E-3,1.3114602E-3,-1.4011696E-3,-3.7905239E-3],"split_indices":[106,106,106,0,0,0,0],"split_type":[0,0,0,0,0,0,0],"sum_hessian":[2.6810667E3,1.0454733E3,1.6355933E3,5.0410294E1,9.95063E2,1.0537388E3,5.8185455E2],"tree_param":{"num_deleted":"0","num_feature":"109","num_nodes":"7","size_leaf_vector":"0"}},{"base_weights":[7.6127715E-2,-1.5723246E-1,2.2529675E-1,-6.5959275E-1,-1.3114604E-1,1.4011689E-1,3.7905246E-1],"categories":[],"categories_nodes":[],"categories_segments":[],"categories_sizes":[],"default_left":[0,0,1,0,0,0,0],"id":105,"left_children":[1,3,5,-1,-1,-1,-1],"loss_changes":[9.3398476E1,1.3627302E1,2.1381165E1,0E0,0E0,0E0,0E0],"parents":[2147483647,0,0,1,1,2,2],"right_children":[2,4,6,-1,-1,-1,-1],"split_conditions":[5.609362E-1,1.8395597E-1,7.81545E-1,-6.5959273E-3,-1.3114604E-3,1.4011689E-3,3.7905246E-3],"split_indices":[106,106,106,0,0,0,0],"split_type":[0,0,0,0,0,0,0],"sum_hessian":[2.6810667E3,1.0454733E3,1.6355933E3,5.0410294E1,9.950629E2,1.0537388E3,5.8185455E2],"tree_param":{"num_deleted":"0","num_feature":"109","num_nodes":"7","size_leaf_vector":"0"}},{"base_weights":[-7.541207E-2,8.601302E-2,-2.875317E-1,2.7606452E-1,1.6168075E-2,-2.2667412E-1,-4.3165955E-1],"categories":[],"categories_nodes":[],"categories_segments":[],"categories_sizes":[],"default_left":[0,0,1,0,0,0,0],"id":106,"left_children":[1,3,5,-1,-1,-1,-1],"loss_changes":[9.180647E1,2.0210295E1,1.0064232E1,0E0,0E0,0E0,0E0],"parents":[2147483647,0,0,1,1,2,2],"right_children":[2,4,6,-1,-1,-1,-1],"split_conditions":[6.6150844E-1,3.8634273E-1,8.3712214E-1,2.760645E-3,1.6168074E-4,-2.2667411E-3,-4.3165954E-3],"split_indices":[106,106,106,0,0,0,0],"split_type":[0,0,0,0,0,0,0],"sum_hessian":[2.6794297E3,1.521868E3,1.1575618E3,4.0819556E2,1.1136725E3,8.1570514E2,3.4185654E2],"tree_param":{"num_deleted":"0","num_feature":"109","num_nodes":"7","size_leaf_vector":"0"}},{"base_weights":[7.541208E-2,-8.601304E-2,2.8753176E-1,-2.7606454E-1,-1.6168093E-2,2.266742E-1,4.3165955E-1],"categories":[],"categories_nodes":[],"categories_segments":[],"categories_sizes":[],"default_left":[0,0,1,0,0,0,0],"id":107,"left_children":[1,3,5,-1,-1,-1,-1],"loss_changes":[9.1806526E1,2.0210297E1,1.0064209E1,0E0,0E0,0E0,0E0],"parents":[2147483647,0,0,1,1,2,2],"right_children":[2,4,6,-1,-1,-1,-1],"split_conditions":[6.6150844E-1,3.8634273E-1,8.3712214E-1,-2.7606455E-3,-1.6168093E-4,2.266742E-3,4.3165954E-3],"split_indices":[106,106,106,0,0,0,0],"split_type":[0,0,0,0,0,0,0],"sum_hessian":[2.6794297E3,1.521868E3,1.1575616E3,4.0819556E2,1.1136725E3,8.1570514E2,3.4185654E2],"tree_param":{"num_deleted":"0","num_feature":"109","num_nodes":"7","size_leaf_vector":"0"}},{"base_weights":[-7.470704E-2,1.5459777E-1,-2.2141963E-1,6.525773E-1,1.2881063E-1,-1.3762614E-1,-3.7312263E-1],"categories":[],"categories_nodes":[],"categories_segments":[],"categories_sizes":[],"default_left":[0,0,1,0,0,0,0],"id":108,"left_children":[1,3,5,-1,-1,-1,-1],"loss_changes":[9.015219E1,1.3345125E1,2.0719284E1,0E0,0E0,0E0,0E0],"parents":[2147483647,0,0,1,1,2,2],"right_children":[2,4,6,-1,-1,-1,-1],"split_conditions":[5.609362E-1,1.8395597E-1,7.81545E-1,6.5257726E-3,1.2881063E-3,-1.3762614E-3,-3.7312263E-3],"split_indices":[106,106,106,0,0,0,0],"split_type":[0,0,0,0,0,0,0],"sum_hessian":[2.6777417E3,1.0447668E3,1.6329747E3,5.02414E1,9.9452545E2,1.0531643E3,5.798104E2],"tree_param":{"num_deleted":"0","num_feature":"109","num_nodes":"7","size_leaf_vector":"0"}},{"base_weights":[7.470704E-2,-1.5459777E-1,2.2141962E-1,-6.525772E-1,-1.2881063E-1,1.3762611E-1,3.731227E-1],"categories":[],"categories_nodes":[],"categories_segments":[],"categories_sizes":[],"default_left":[0,0,1,0,0,0,0],"id":109,"left_children":[1,3,5,-1,-1,-1,-1],"loss_changes":[9.015219E1,1.3345125E1,2.07193E1,0E0,0E0,0E0,0E0],"parents":[2147483647,0,0,1,1,2,2],"right_children":[2,4,6,-1,-1,-1,-1],"split_conditions":[5.609362E-1,1.8395597E-1,7.81545E-1,-6.525772E-3,-1.2881063E-3,1.3762611E-3,3.7312268E-3],"split_indices":[106,106,106,0,0,0,0],"split_type":[0,0,0,0,0,0,0],"sum_hessian":[2.6777415E3,1.0447668E3,1.6329747E3,5.02414E1,9.9452545E2,1.0531643E3,5.798104E2],"tree_param":{"num_deleted":"0","num_feature":"109","num_nodes":"7","size_leaf_vector":"0"}},{"base_weights":[-7.400526E-2,8.4571734E-2,-2.8274557E-1,2.7179947E-1,1.5861042E-2,-2.226657E-1,-4.2542744E-1],"categories":[],"categories_nodes":[],"categories_segments":[],"categories_sizes":[],"default_left":[0,0,1,0,0,0,0],"id":110,"left_children":[1,3,5,-1,-1,-1,-1],"loss_changes":[8.8639244E1,1.9576994E1,9.814636E0,0E0,0E0,0E0,0E0],"parents":[2147483647,0,0,1,1,2,2],"right_children":[2,4,6,-1,-1,-1,-1],"split_conditions":[6.6150844E-1,3.8634273E-1,8.3712214E-1,2.7179946E-3,1.5861042E-4,-2.226657E-3,-4.254274E-3],"split_indices":[106,106,106,0,0,0,0],"split_type":[0,0,0,0,0,0,0],"sum_hessian":[2.6760867E3,1.5211135E3,1.1549731E3,4.0757327E2,1.1135403E3,8.145474E2,3.4042563E2],"tree_param":{"num_deleted":"0","num_feature":"109","num_nodes":"7","size_leaf_vector":"0"}},{"base_weights":[7.400526E-2,-8.457171E-2,2.8274554E-1,-2.7179947E-1,-1.586102E-2,2.2266568E-1,4.2542735E-1],"categories":[],"categories_nodes":[],"categories_segments":[],"categories_sizes":[],"default_left":[0,0,1,0,0,0,0],"id":111,"left_children":[1,3,5,-1,-1,-1,-1],"loss_changes":[8.863924E1,1.9576996E1,9.814621E0,0E0,0E0,0E0,0E0],"parents":[2147483647,0,0,1,1,2,2],"right_children":[2,4,6,-1,-1,-1,-1],"split_conditions":[6.6150844E-1,3.8634273E-1,8.3712214E-1,-2.7179946E-3,-1.5861019E-4,2.2266568E-3,4.2542736E-3],"split_indices":[106,106,106,0,0,0,0],"split_type":[0,0,0,0,0,0,0],"sum_hessian":[2.6760867E3,1.5211135E3,1.154973E3,4.0757324E2,1.1135403E3,8.145474E2,3.4042563E2],"tree_param":{"num_deleted":"0","num_feature":"109","num_nodes":"7","size_leaf_vector":"0"}},{"base_weights":[-7.33139E-2,1.5200855E-1,-2.1761309E-1,3.2546574E-1,7.942887E-2,-1.3518068E-1,-3.673015E-1],"categories":[],"categories_nodes":[],"categories_segments":[],"categories_sizes":[],"default_left":[0,1,1,0,0,0,0],"id":112,"left_children":[1,3,5,-1,-1,-1,-1],"loss_changes":[8.7020065E1,1.3130774E1,2.0079636E1,0E0,0E0,0E0,0E0],"parents":[2147483647,0,0,1,1,2,2],"right_children":[2,4,6,-1,-1,-1,-1],"split_conditions":[5.609362E-1,-6.3500004E0,7.81545E-1,3.2546574E-3,7.9428864E-4,-1.3518068E-3,-3.673015E-3],"split_indices":[106,25,106,0,0,0,0],"split_type":[0,0,0,0,0,0,0],"sum_hessian":[2.6743828E3,1.0440502E3,1.6303325E3,3.0696188E2,7.370883E2,1.0525844E3,5.7774817E2],"tree_param":{"num_deleted":"0","num_feature":"109","num_nodes":"7","size_leaf_vector":"0"}},{"base_weights":[7.331388E-2,-1.520085E-1,2.1761301E-1,-3.2546577E-1,-7.9428785E-2,1.351806E-1,3.673014E-1],"categories":[],"categories_nodes":[],"categories_segments":[],"categories_sizes":[],"default_left":[0,1,1,0,0,0,0],"id":113,"left_children":[1,3,5,-1,-1,-1,-1],"loss_changes":[8.702E1,1.3130789E1,2.0079643E1,0E0,0E0,0E0,0E0],"parents":[2147483647,0,0,1,1,2,2],"right_children":[2,4,6,-1,-1,-1,-1],"split_conditions":[5.609362E-1,-6.3500004E0,7.81545E-1,-3.2546576E-3,-7.9428783E-4,1.3518061E-3,3.673014E-3],"split_indices":[106,25,106,0,0,0,0],"split_type":[0,0,0,0,0,0,0],"sum_hessian":[2.6743828E3,1.0440502E3,1.6303325E3,3.0696188E2,7.370883E2,1.0525844E3,5.7774817E2],"tree_param":{"num_deleted":"0","num_feature":"109","num_nodes":"7","size_leaf_vector":"0"}},{"base_weights":[-7.2627224E-2,8.31529E-2,-2.7804604E-1,2.3139037E-1,-9.323687E-4,-2.1872954E-1,-4.1931283E-1],"categories":[],"categories_nodes":[],"categories_segments":[],"categories_sizes":[],"default_left":[0,0,1,0,0,0,0],"id":114,"left_children":[1,3,5,-1,-1,-1,-1],"loss_changes":[8.55822E1,1.8963139E1,9.57283E0,0E0,0E0,0E0,0E0],"parents":[2147483647,0,0,1,1,2,2],"right_children":[2,4,6,-1,-1,-1,-1],"split_conditions":[6.6150844E-1,4.3563306E-1,8.3712214E-1,2.3139038E-3,-9.323687E-6,-2.1872954E-3,-4.193128E-3],"split_indices":[106,106,106,0,0,0,0],"split_type":[0,0,0,0,0,0,0],"sum_hessian":[2.6727068E3,1.5203436E3,1.152363E3,5.496285E2,9.7071515E2,8.13381E2,3.3898212E2],"tree_param":{"num_deleted":"0","num_feature":"109","num_nodes":"7","size_leaf_vector":"0"}},{"base_weights":[7.2627254E-2,-8.3152905E-2,2.780461E-1,-2.3139036E-1,9.32355E-4,2.1872963E-1,4.1931286E-1],"categories":[],"categories_nodes":[],"categories_segments":[],"categories_sizes":[],"default_left":[0,0,1,0,0,0,0],"id":115,"left_children":[1,3,5,-1,-1,-1,-1],"loss_changes":[8.558222E1,1.8963135E1,9.57283E0,0E0,0E0,0E0,0E0],"parents":[2147483647,0,0,1,1,2,2],"right_children":[2,4,6,-1,-1,-1,-1],"split_conditions":[6.6150844E-1,4.3563306E-1,8.3712214E-1,-2.3139035E-3,9.323549E-6,2.1872963E-3,4.1931286E-3],"split_indices":[106,106,106,0,0,0,0],"split_type":[0,0,0,0,0,0,0],"sum_hessian":[2.6727068E3,1.5203436E3,1.1523632E3,5.496285E2,9.707152E2,8.13381E2,3.3898215E2],"tree_param":{"num_deleted":"0","num_feature":"109","num_nodes":"7","size_leaf_vector":"0"}},{"base_weights":[-7.195043E-2,9.216728E-2,-2.6346427E-1,2.939535E-1,2.8669858E-2,-2.0233147E-1,-4.091094E-1],"categories":[],"categories_nodes":[],"categories_segments":[],"categories_sizes":[],"default_left":[0,1,1,0,0,0,0],"id":116,"left_children":[1,3,5,-1,-1,-1,-1],"loss_changes":[8.400587E1,1.8437456E1,1.08983E1,0E0,0E0,0E0,0E0],"parents":[2147483647,0,0,1,1,2,2],"right_children":[2,4,6,-1,-1,-1,-1],"split_conditions":[6.4619756E-1,-6.3500004E0,8.3096385E-1,2.939535E-3,2.8669857E-4,-2.0233146E-3,-4.0910942E-3],"split_indices":[106,25,106,0,0,0,0],"split_type":[0,0,0,0,0,0,0],"sum_hessian":[2.6709504E3,1.438633E3,1.2323173E3,3.4347775E2,1.0951553E3,8.6967206E2,3.6264523E2],"tree_param":{"num_deleted":"0","num_feature":"109","num_nodes":"7","size_leaf_vector":"0"}},{"base_weights":[7.195041E-2,-9.2167266E-2,2.634642E-1,-2.9395354E-1,-2.8669829E-2,2.0233141E-1,4.0910932E-1],"categories":[],"categories_nodes":[],"categories_segments":[],"categories_sizes":[],"default_left":[0,1,1,0,0,0,0],"id":117,"left_children":[1,3,5,-1,-1,-1,-1],"loss_changes":[8.400581E1,1.8437462E1,1.0898308E1,0E0,0E0,0E0,0E0],"parents":[2147483647,0,0,1,1,2,2],"right_children":[2,4,6,-1,-1,-1,-1],"split_conditions":[6.4619756E-1,-6.3500004E0,8.3096385E-1,-2.9395353E-3,-2.8669828E-4,2.0233141E-3,4.0910933E-3],"split_indices":[106,25,106,0,0,0,0],"split_type":[0,0,0,0,0,0,0],"sum_hessian":[2.6709504E3,1.438633E3,1.2323174E3,3.4347778E2,1.0951553E3,8.6967206E2,3.6264523E2],"tree_param":{"num_deleted":"0","num_feature":"109","num_nodes":"7","size_leaf_vector":"0"}},{"base_weights":[-7.127621E-2,1.4836502E-1,-2.121435E-1,6.407355E-1,1.22988984E-1,-1.3168733E-1,-3.5889795E-1],"categories":[],"categories_nodes":[],"categories_segments":[],"categories_sizes":[],"default_left":[0,0,1,0,0,0,0],"id":118,"left_children":[1,3,5,-1,-1,-1,-1],"loss_changes":[8.265185E1,1.29654255E1,1.9166931E1,0E0,0E0,0E0,0E0],"parents":[2147483647,0,0,1,1,2,2],"right_children":[2,4,6,-1,-1,-1,-1],"split_conditions":[5.609362E-1,1.8395597E-1,7.81545E-1,6.407355E-3,1.2298898E-3,-1.3168732E-3,-3.5889794E-3],"split_indices":[106,106,106,0,0,0,0],"split_type":[0,0,0,0,0,0,0],"sum_hessian":[2.669319E3,1.0430052E3,1.626314E3,4.9931717E1,9.930735E2,1.0516554E3,5.7465857E2],"tree_param":{"num_deleted":"0","num_feature":"109","num_nodes":"7","size_leaf_vector":"0"}},{"base_weights":[7.12762E-2,-1.4836507E-1,2.1214353E-1,-6.407355E-1,-1.22989036E-1,1.3168734E-1,3.58898E-1],"categories":[],"categories_nodes":[],"categories_segments":[],"categories_sizes":[],"default_left":[0,0,1,0,0,0,0],"id":119,"left_children":[1,3,5,-1,-1,-1,-1],"loss_changes":[8.2651886E1,1.29654255E1,1.9166931E1,0E0,0E0,0E0,0E0],"parents":[2147483647,0,0,1,1,2,2],"right_children":[2,4,6,-1,-1,-1,-1],"split_conditions":[5.609362E-1,1.8395597E-1,7.81545E-1,-6.407355E-3,-1.2298904E-3,1.3168734E-3,3.58898E-3],"split_indices":[106,106,106,0,0,0,0],"split_type":[0,0,0,0,0,0,0],"sum_hessian":[2.669319E3,1.0430052E3,1.626314E3,4.993172E1,9.930735E2,1.0516554E3,5.7465857E2],"tree_param":{"num_deleted":"0","num_feature":"109","num_nodes":"7","size_leaf_vector":"0"}},{"base_weights":[-7.060766E-2,8.102068E-2,-2.7109355E-1,2.624453E-1,1.4644941E-2,-2.1294487E-1,-4.101964E-1],"categories":[],"categories_nodes":[],"categories_segments":[],"categories_sizes":[],"default_left":[0,0,1,0,0,0,0],"id":120,"left_children":[1,3,5,-1,-1,-1,-1],"loss_changes":[8.114658E1,1.8303032E1,9.209763E0,0E0,0E0,0E0,0E0],"parents":[2147483647,0,0,1,1,2,2],"right_children":[2,4,6,-1,-1,-1,-1],"split_conditions":[6.6150844E-1,3.8634273E-1,8.3712214E-1,2.624453E-3,1.4644941E-4,-2.1294486E-3,-4.1019637E-3],"split_indices":[106,106,106,0,0,0,0],"split_type":[0,0,0,0,0,0,0],"sum_hessian":[2.6676306E3,1.519228E3,1.1484027E3,4.0614877E2,1.1130792E3,8.116445E2,3.3675824E2],"tree_param":{"num_deleted":"0","num_feature":"109","num_nodes":"7","size_leaf_vector":"0"}},{"base_weights":[7.060765E-2,-8.1020705E-2,2.7109358E-1,-2.6244533E-1,-1.4644964E-2,2.1294485E-1,4.1019642E-1],"categories":[],"categories_nodes":[],"categories_segments":[],"categories_sizes":[],"default_left":[0,0,1,0,0,0,0],"id":121,"left_children":[1,3,5,-1,-1,-1,-1],"loss_changes":[8.114661E1,1.8303036E1,9.209763E0,0E0,0E0,0E0,0E0],"parents":[2147483647,0,0,1,1,2,2],"right_children":[2,4,6,-1,-1,-1,-1],"split_conditions":[6.6150844E-1,3.8634273E-1,8.3712214E-1,-2.6244533E-3,-1.4644963E-4,2.1294483E-3,4.101964E-3],"split_indices":[106,106,106,0,0,0,0],"split_type":[0,0,0,0,0,0,0],"sum_hessian":[2.6676309E3,1.519228E3,1.1484027E3,4.0614877E2,1.1130792E3,8.116445E2,3.3675824E2],"tree_param":{"num_deleted":"0","num_feature":"109","num_nodes":"7","size_leaf_vector":"0"}},{"base_weights":[-6.994896E-2,1.4588211E-1,-2.0850405E-1,6.341803E-1,1.2079337E-1,-1.2596335E-1,-3.4742877E-1],"categories":[],"categories_nodes":[],"categories_segments":[],"categories_sizes":[],"default_left":[0,0,1,0,0,0,0],"id":122,"left_children":[1,3,5,-1,-1,-1,-1],"loss_changes":[7.978261E1,1.2704277E1,1.8585732E1,0E0,0E0,0E0,0E0],"parents":[2147483647,0,0,1,1,2,2],"right_children":[2,4,6,-1,-1,-1,-1],"split_conditions":[5.609362E-1,1.8395597E-1,7.746388E-1,6.341803E-3,1.2079336E-3,-1.2596335E-3,-3.4742877E-3],"split_indices":[106,106,106,0,0,0,0],"split_type":[0,0,0,0,0,0,0],"sum_hessian":[2.6658967E3,1.0422705E3,1.6236262E3,4.9748356E1,9.925221E2,1.0196928E3,6.039334E2],"tree_param":{"num_deleted":"0","num_feature":"109","num_nodes":"7","size_leaf_vector":"0"}},{"base_weights":[6.9948964E-2,-1.4588208E-1,2.0850405E-1,-6.3418037E-1,-1.2079335E-1,1.2596336E-1,3.4742874E-1],"categories":[],"categories_nodes":[],"categories_segments":[],"categories_sizes":[],"default_left":[0,0,1,0,0,0,0],"id":123,"left_children":[1,3,5,-1,-1,-1,-1],"loss_changes":[7.97826E1,1.2704279E1,1.8585732E1,0E0,0E0,0E0,0E0],"parents":[2147483647,0,0,1,1,2,2],"right_children":[2,4,6,-1,-1,-1,-1],"split_conditions":[5.609362E-1,1.8395597E-1,7.746388E-1,-6.3418034E-3,-1.2079335E-3,1.2596336E-3,3.4742872E-3],"split_indices":[106,106,106,0,0,0,0],"split_type":[0,0,0,0,0,0,0],"sum_hessian":[2.6658967E3,1.0422705E3,1.6236261E3,4.9748356E1,9.9252216E2,1.0196928E3,6.0393335E2],"tree_param":{"num_deleted":"0","num_feature":"109","num_nodes":"7","size_leaf_vector":"0"}},{"base_weights":[-6.929302E-2,7.9652645E-2,-2.66585E-1,2.584086E-1,1.4349133E-2,-2.0913869E-1,-4.044032E-1],"categories":[],"categories_nodes":[],"categories_segments":[],"categories_sizes":[],"default_left":[0,0,1,0,0,0,0],"id":124,"left_children":[1,3,5,-1,-1,-1,-1],"loss_changes":[7.834029E1,1.7733385E1,8.994461E0,0E0,0E0,0E0,0E0],"parents":[2147483647,0,0,1,1,2,2],"right_children":[2,4,6,-1,-1,-1,-1],"split_conditions":[6.6150844E-1,3.8634273E-1,8.3712214E-1,2.584086E-3,1.4349133E-4,-2.0913868E-3,-4.044032E-3],"split_indices":[106,106,106,0,0,0,0],"split_type":[0,0,0,0,0,0,0],"sum_hessian":[2.664202E3,1.5184464E3,1.1457555E3,4.0550272E2,1.1129436E3,8.104542E2,3.353013E2],"tree_param":{"num_deleted":"0","num_feature":"109","num_nodes":"7","size_leaf_vector":"0"}},{"base_weights":[6.9293015E-2,-7.965267E-2,2.66585E-1,-2.584086E-1,-1.434916E-2,2.0913872E-1,4.044032E-1],"categories":[],"categories_nodes":[],"categories_segments":[],"categories_sizes":[],"default_left":[0,0,1,0,0,0,0],"id":125,"left_children":[1,3,5,-1,-1,-1,-1],"loss_changes":[7.8340294E1,1.773338E1,8.994461E0,0E0,0E0,0E0,0E0],"parents":[2147483647,0,0,1,1,2,2],"right_children":[2,4,6,-1,-1,-1,-1],