{"learner":{"attributes":{"best_iteration":"499","best_ntree_limit":"500"},"feature_names":[],"feature_types":[],"gradient_booster":{"model":{"gbtree_model_param":{"num_parallel_tree":"1","num_trees":"1000","size_leaf_vector":"0"},"tree_info":[0,1,0,1,0,1,0,1,0,1,0,1,0,1,0,1,0,1,0,1,0,1,0,1,0,1,0,1,0,1,0,1,0,1,0,1,0,1,0,1,0,1,0,1,0,1,0,1,0,1,0,1,0,1,0,1,0,1,0,1,0,1,0,1,0,1,0,1,0,1,0,1,0,1,0,1,0,1,0,1,0,1,0,1,0,1,0,1,0,1,0,1,0,1,0,1,0,1,0,1,0,1,0,1,0,1,0,1,0,1,0,1,0,1,0,1,0,1,0,1,0,1,0,1,0,1,0,1,0,1,0,1,0,1,0,1,0,1,0,1,0,1,0,1,0,1,0,1,0,1,0,1,0,1,0,1,0,1,0,1,0,1,0,1,0,1,0,1,0,1,0,1,0,1,0,1,0,1,0,1,0,1,0,1,0,1,0,1,0,1,0,1,0,1,0,1,0,1,0,1,0,1,0,1,0,1,0,1,0,1,0,1,0,1,0,1,0,1,0,1,0,1,0,1,0,1,0,1,0,1,0,1,0,1,0,1,0,1,0,1,0,1,0,1,0,1,0,1,0,1,0,1,0,1,0,1,0,1,0,1,0,1,0,1,0,1,0,1,0,1,0,1,0,1,0,1,0,1,0,1,0,1,0,1,0,1,0,1,0,1,0,1,0,1,0,1,0,1,0,1,0,1,0,1,0,1,0,1,0,1,0,1,0,1,0,1,0,1,0,1,0,1,0,1,0,1,0,1,0,1,0,1,0,1,0,1,0,1,0,1,0,1,0,1,0,1,0,1,0,1,0,1,0,1,0,1,0,1,0,1,0,1,0,1,0,1,0,1,0,1,0,1,0,1,0,1,0,1,0,1,0,1,0,1,0,1,0,1,0,1,0,1,0,1,0,1,0,1,0,1,0,1,0,1,0,1,0,1,0,1,0,1,0,1,0,1,0,1,0,1,0,1,0,1,0,1,0,1,0,1,0,1,0,1,0,1,0,1,0,1,0,1,0,1,0,1,0,1,0,1,0,1,0,1,0,1,0,1,0,1,0,1,0,1,0,1,0,1,0,1,0,1,0,1,0,1,0,1,0,1,0,1,0,1,0,1,0,1,0,1,0,1,0,1,0,1,0,1,0,1,0,1,0,1,0,1,0,1,0,1,0,1,0,1,0,1,0,1,0,1,0,1,0,1,0,1,0,1,0,1,0,1,0,1,0,1,0,1,0,1,0,1,0,1,0,1,0,1,0,1,0,1,0,1,0,1,0,1,0,1,0,1,0,1,0,1,0,1,0,1,0,1,0,1,0,1,0,1,0,1,0,1,0,1,0,1,0,1,0,1,0,1,0,1,0,1,0,1,0,1,0,1,0,1,0,1,0,1,0,1,0,1,0,1,0,1,0,1,0,1,0,1,0,1,0,1,0,1,0,1,0,1,0,1,0,1,0,1,0,1,0,1,0,1,0,1,0,1,0,1,0,1,0,1,0,1,0,1,0,1,0,1,0,1,0,1,0,1,0,1,0,1,0,1,0,1,0,1,0,1,0,1,0,1,0,1,0,1,0,1,0,1,0,1,0,1,0,1,0,1,0,1,0,1,0,1,0,1,0,1,0,1,0,1,0,1,0,1,0,1,0,1,0,1,0,1,0,1,0,1,0,1,0,1,0,1,0,1,0,1,0,1,0,1,0,1,0,1,0,1,0,1,0,1,0,1,0,1,0,1,0,1,0,1,0,1,0,1,0,1,0,1,0,1,0,1,0,1,0,1,0,1,0,1,0,1,0,1,0,1,0,1,0,1,0,1,0,1,0,1,0,1,0,1,0,1,0,1,0,1,0,1,0,1,0,1,0,1,0,1,0,1,0,1,0,1,0,1,0,1,0,1,0,1,0,1,0,1,0,1,0,1,0,1,0,1,0,1,0,1,0,1,0,1,0,1,0,1,0,1,0,1,0,1,0,1,0,1,0,1,0,1,0,1,0,1,0,1,0,1,0,1,0,1,0,1,0,1,0,1,0,1,0,1,0,1,0,1,0,1,0,1,0,1,0,1,0,1,0,1,0,1,0,1,0,1,0,1,0,1,0,1,0,1,0,1,0,1,0,1,0,1,0,1,0,1,0,1,0,1,0,1,0,1,0,1,0,1,0,1,0,1,0,1,0,1,0,1,0,1,0,1,0,1,0,1,0,1,0,1,0,1,0,1,0,1,0,1,0,1,0,1,0,1,0,1,0,1,0,1,0,1,0,1,0,1,0,1,0,1],"trees":[{"base_weights":[-1.5465601E-1,-3.7066403E-1,5.6281246E-2,-2.1216084E-1,-5.3219885E-1,-2.1314843E-1,1.7951128E-1],"categories":[],"categories_nodes":[],"categories_segments":[],"categories_sizes":[],"default_left":[1,1,1,0,0,0,0],"id":0,"left_children":[1,3,5,-1,-1,-1,-1],"loss_changes":[2.7916956E2,7.738974E1,1.0298053E2,0E0,0E0,0E0,0E0],"parents":[2147483647,0,0,1,1,2,2],"right_children":[2,4,6,-1,-1,-1,-1],"split_conditions":[1.45E1,1.25E1,-2.05E0,-2.1216085E-3,-5.3219884E-3,-2.1314842E-3,1.7951127E-3],"split_indices":[51,80,77,0,0,0,0],"split_type":[0,0,0,0,0,0,0],"sum_hessian":[6.1255E3,3.026E3,3.0995E3,1.5285E3,1.4975E3,9.725E2,2.127E3],"tree_param":{"num_deleted":"0","num_feature":"104","num_nodes":"7","size_leaf_vector":"0"}},{"base_weights":[1.5465601E-1,3.7066403E-1,-5.6281246E-2,2.1216084E-1,5.3219885E-1,2.1314843E-1,-1.7951128E-1],"categories":[],"categories_nodes":[],"categories_segments":[],"categories_sizes":[],"default_left":[1,1,1,0,0,0,0],"id":1,"left_children":[1,3,5,-1,-1,-1,-1],"loss_changes":[2.7916956E2,7.738974E1,1.0298053E2,0E0,0E0,0E0,0E0],"parents":[2147483647,0,0,1,1,2,2],"right_children":[2,4,6,-1,-1,-1,-1],"split_conditions":[1.45E1,1.25E1,-2.05E0,2.1216085E-3,5.3219884E-3,2.1314842E-3,-1.7951127E-3],"split_indices":[51,80,77,0,0,0,0],"split_type":[0,0,0,0,0,0,0],"sum_hessian":[6.1255E3,3.026E3,3.0995E3,1.5285E3,1.4975E3,9.725E2,2.127E3],"tree_param":{"num_deleted":"0","num_feature":"104","num_nodes":"7","size_leaf_vector":"0"}},{"base_weights":[-1.5311222E-1,1.2117924E-1,-3.1692648E-1,-3.8447227E-2,3.0456465E-1,-8.1771135E-2,-4.3639195E-1],"categories":[],"categories_nodes":[],"categories_segments":[],"categories_sizes":[],"default_left":[1,1,1,0,0,0,0],"id":2,"left_children":[1,3,5,-1,-1,-1,-1],"loss_changes":[2.7531677E2,6.709089E1,1.07727356E2,0E0,0E0,0E0,0E0],"parents":[2147483647,0,0,1,1,2,2],"right_children":[2,4,6,-1,-1,-1,-1],"split_conditions":[4.585E-1,5.1750004E-1,9.5E0,-3.8447225E-4,3.0456465E-3,-8.1771135E-4,-4.3639196E-3],"split_indices":[3,55,103,0,0,0,0],"split_type":[0,0,0,0,0,0,0],"sum_hessian":[6.1254395E3,2.2904905E3,3.834949E3,1.224994E3,1.0654965E3,1.2924938E3,2.5424553E3],"tree_param":{"num_deleted":"0","num_feature":"104","num_nodes":"7","size_leaf_vector":"0"}},{"base_weights":[1.5311223E-1,-1.21179216E-1,3.1692648E-1,3.8447246E-2,-3.0456465E-1,8.177106E-2,4.3639198E-1],"categories":[],"categories_nodes":[],"categories_segments":[],"categories_sizes":[],"default_left":[1,1,1,0,0,0,0],"id":3,"left_children":[1,3,5,-1,-1,-1,-1],"loss_changes":[2.7531677E2,6.70909E1,1.0772748E2,0E0,0E0,0E0,0E0],"parents":[2147483647,0,0,1,1,2,2],"right_children":[2,4,6,-1,-1,-1,-1],"split_conditions":[4.585E-1,5.1750004E-1,9.5E0,3.8447246E-4,-3.0456465E-3,8.177106E-4,4.3639196E-3],"split_indices":[3,55,103,0,0,0,0],"split_type":[0,0,0,0,0,0,0],"sum_hessian":[6.1254395E3,2.2904905E3,3.834949E3,1.224994E3,1.0654963E3,1.2924938E3,2.5424553E3],"tree_param":{"num_deleted":"0","num_feature":"104","num_nodes":"7","size_leaf_vector":"0"}},{"base_weights":[-1.515852E-1,1.4817593E-1,-2.9897037E-1,-9.74002E-2,2.65424E-1,-1.4243266E-1,-4.707542E-1],"categories":[],"categories_nodes":[],"categories_segments":[],"categories_sizes":[],"default_left":[1,1,1,0,0,0,0],"id":4,"left_children":[1,3,5,-1,-1,-1,-1],"loss_changes":[2.7070593E2,5.8187603E1,1.1038144E2,0E0,0E0,0E0,0E0],"parents":[2147483647,0,0,1,1,2,2],"right_children":[2,4,6,-1,-1,-1,-1],"split_conditions":[-1.6500001E0,-2.05E0,1.35E1,-9.74002E-4,2.65424E-3,-1.4243266E-3,-4.707542E-3],"split_indices":[25,77,80,0,0,0,0],"split_type":[0,0,0,0,0,0,0],"sum_hessian":[6.1252915E3,2.0189729E3,4.106319E3,6.5249384E2,1.366479E3,2.1494583E3,1.9568606E3],"tree_param":{"num_deleted":"0","num_feature":"104","num_nodes":"7","size_leaf_vector":"0"}},{"base_weights":[1.5158524E-1,-1.4817593E-1,2.989704E-1,9.740027E-2,-2.6542404E-1,1.4243266E-1,4.7075427E-1],"categories":[],"categories_nodes":[],"categories_segments":[],"categories_sizes":[],"default_left":[1,1,1,0,0,0,0],"id":5,"left_children":[1,3,5,-1,-1,-1,-1],"loss_changes":[2.7070596E2,5.8187634E1,1.1038147E2,0E0,0E0,0E0,0E0],"parents":[2147483647,0,0,1,1,2,2],"right_children":[2,4,6,-1,-1,-1,-1],"split_conditions":[-1.6500001E0,-2.05E0,1.35E1,9.740027E-4,-2.6542405E-3,1.4243266E-3,4.7075427E-3],"split_indices":[25,77,80,0,0,0,0],"split_type":[0,0,0,0,0,0,0],"sum_hessian":[6.1252915E3,2.0189728E3,4.106319E3,6.524938E2,1.366479E3,2.1494583E3,1.9568606E3],"tree_param":{"num_deleted":"0","num_feature":"104","num_nodes":"7","size_leaf_vector":"0"}},{"base_weights":[-1.5007626E-1,-3.6103666E-1,5.591527E-2,-2.0674784E-1,-5.1830226E-1,-2.0741522E-1,1.763539E-1],"categories":[],"categories_nodes":[],"categories_segments":[],"categories_sizes":[],"default_left":[1,1,1,0,0,0,0],"id":6,"left_children":[1,3,5,-1,-1,-1,-1],"loss_changes":[2.6623392E2,7.333252E1,9.836597E1,0E0,0E0,0E0,0E0],"parents":[2147483647,0,0,1,1,2,2],"right_children":[2,4,6,-1,-1,-1,-1],"split_conditions":[1.45E1,1.25E1,-2.05E0,-2.0674784E-3,-5.1830225E-3,-2.0741522E-3,1.7635389E-3],"split_indices":[51,80,77,0,0,0,0],"split_type":[0,0,0,0,0,0,0],"sum_hessian":[6.125044E3,3.0256536E3,3.0993904E3,1.5284497E3,1.4972039E3,9.7245807E2,2.1269324E3],"tree_param":{"num_deleted":"0","num_feature":"104","num_nodes":"7","size_leaf_vector":"0"}},{"base_weights":[1.5007623E-1,3.6103663E-1,-5.5915315E-2,2.0674779E-1,5.1830226E-1,2.074152E-1,-1.7635396E-1],"categories":[],"categories_nodes":[],"categories_segments":[],"categories_sizes":[],"default_left":[1,1,1,0,0,0,0],"id":7,"left_children":[1,3,5,-1,-1,-1,-1],"loss_changes":[2.662339E2,7.333261E1,9.8366E1,0E0,0E0,0E0,0E0],"parents":[2147483647,0,0,1,1,2,2],"right_children":[2,4,6,-1,-1,-1,-1],"split_conditions":[1.45E1,1.25E1,-2.05E0,2.067478E-3,5.1830225E-3,2.074152E-3,-1.7635396E-3],"split_indices":[51,80,77,0,0,0,0],"split_type":[0,0,0,0,0,0,0],"sum_hessian":[6.125044E3,3.0256538E3,3.0993904E3,1.5284498E3,1.497204E3,9.7245807E2,2.1269324E3],"tree_param":{"num_deleted":"0","num_feature":"104","num_nodes":"7","size_leaf_vector":"0"}},{"base_weights":[-1.4858545E-1,1.19017154E-1,-3.0842313E-1,-3.696401E-2,2.982197E-1,-7.833544E-2,-4.253378E-1],"categories":[],"categories_nodes":[],"categories_segments":[],"categories_sizes":[],"default_left":[1,1,1,0,0,0,0],"id":8,"left_children":[1,3,5,-1,-1,-1,-1],"loss_changes":[2.6205066E2,6.405992E1,1.0313907E2,0E0,0E0,0E0,0E0],"parents":[2147483647,0,0,1,1,2,2],"right_children":[2,4,6,-1,-1,-1,-1],"split_conditions":[4.585E-1,5.1750004E-1,9.5E0,-3.696401E-4,2.982197E-3,-7.833544E-4,-4.2533777E-3],"split_indices":[3,55,103,0,0,0,0],"split_type":[0,0,0,0,0,0,0],"sum_hessian":[6.124688E3,2.2903708E3,3.8343171E3,1.2249478E3,1.0654231E3,1.2924497E3,2.5418674E3],"tree_param":{"num_deleted":"0","num_feature":"104","num_nodes":"7","size_leaf_vector":"0"}},{"base_weights":[1.4858545E-1,-1.1901712E-1,3.0842313E-1,3.696407E-2,-2.9821968E-1,7.833534E-2,4.2533782E-1],"categories":[],"categories_nodes":[],"categories_segments":[],"categories_sizes":[],"default_left":[1,1,1,0,0,0,0],"id":9,"left_children":[1,3,5,-1,-1,-1,-1],"loss_changes":[2.6205054E2,6.4059944E1,1.0313922E2,0E0,0E0,0E0,0E0],"parents":[2147483647,0,0,1,1,2,2],"right_children":[2,4,6,-1,-1,-1,-1],"split_conditions":[4.585E-1,5.1750004E-1,9.5E0,3.6964068E-4,-2.9821966E-3,7.8335335E-4,4.253378E-3],"split_indices":[3,55,103,0,0,0,0],"split_type":[0,0,0,0,0,0,0],"sum_hessian":[6.124688E3,2.2903708E3,3.8343171E3,1.2249478E3,1.0654231E3,1.2924497E3,2.5418674E3],"tree_param":{"num_deleted":"0","num_feature":"104","num_nodes":"7","size_leaf_vector":"0"}},{"base_weights":[-1.4711049E-1,1.4538911E-1,-2.9094645E-1,-9.368108E-2,2.5953555E-1,-1.3822037E-1,-4.58598E-1],"categories":[],"categories_nodes":[],"categories_segments":[],"categories_sizes":[],"default_left":[1,1,1,0,0,0,0],"id":10,"left_children":[1,3,5,-1,-1,-1,-1],"loss_changes":[2.5774387E2,5.5143436E1,1.0508066E2,0E0,0E0,0E0,0E0],"parents":[2147483647,0,0,1,1,2,2],"right_children":[2,4,6,-1,-1,-1,-1],"split_conditions":[-1.6500001E0,-2.05E0,1.35E1,-9.368108E-4,2.5953555E-3,-1.3822037E-3,-4.58598E-3],"split_indices":[25,77,80,0,0,0,0],"split_type":[0,0,0,0,0,0,0],"sum_hessian":[6.1242554E3,2.0188285E3,4.105427E3,6.52468E2,1.3663605E3,2.149298E3,1.9561289E3],"tree_param":{"num_deleted":"0","num_feature":"104","num_nodes":"7","size_leaf_vector":"0"}},{"base_weights":[1.471105E-1,-1.4538912E-1,2.9094648E-1,9.3681075E-2,-2.5953555E-1,1.3822037E-1,4.5859805E-1],"categories":[],"categories_nodes":[],"categories_segments":[],"categories_sizes":[],"default_left":[1,1,1,0,0,0,0],"id":11,"left_children":[1,3,5,-1,-1,-1,-1],"loss_changes":[2.577439E2,5.5143444E1,1.0508069E2,0E0,0E0,0E0,0E0],"parents":[2147483647,0,0,1,1,2,2],"right_children":[2,4,6,-1,-1,-1,-1],"split_conditions":[-1.6500001E0,-2.05E0,1.35E1,9.3681074E-4,-2.5953555E-3,1.3822037E-3,4.5859804E-3],"split_indices":[25,77,80,0,0,0,0],"split_type":[0,0,0,0,0,0,0],"sum_hessian":[6.1242554E3,2.0188285E3,4.105427E3,6.52468E2,1.3663605E3,2.149298E3,1.9561289E3],"tree_param":{"num_deleted":"0","num_feature":"104","num_nodes":"7","size_leaf_vector":"0"}},{"base_weights":[-1.4565288E-1,-3.5174245E-1,5.5536307E-2,-1.259269E-1,-4.539168E-1,-2.0186049E-1,1.7325689E-1],"categories":[],"categories_nodes":[],"categories_segments":[],"categories_sizes":[],"default_left":[1,1,1,0,0,0,0],"id":12,"left_children":[1,3,5,-1,-1,-1,-1],"loss_changes":[2.539689E2,6.975238E1,9.396994E1,0E0,0E0,0E0,0E0],"parents":[2147483647,0,0,1,1,2,2],"right_children":[2,4,6,-1,-1,-1,-1],"split_conditions":[1.45E1,8.5E0,-2.05E0,-1.259269E-3,-4.539168E-3,-2.018605E-3,1.7325688E-3],"split_indices":[51,103,77,0,0,0,0],"split_type":[0,0,0,0,0,0,0],"sum_hessian":[6.123723E3,3.0246514E3,3.0990715E3,9.42925E2,2.0817263E3,9.723367E2,2.1267349E3],"tree_param":{"num_deleted":"0","num_feature":"104","num_nodes":"7","size_leaf_vector":"0"}},{"base_weights":[1.4565288E-1,3.5174245E-1,-5.55363E-2,1.259268E-1,4.5391685E-1,2.0186053E-1,-1.732569E-1],"categories":[],"categories_nodes":[],"categories_segments":[],"categories_sizes":[],"default_left":[1,1,1,0,0,0,0],"id":13,"left_children":[1,3,5,-1,-1,-1,-1],"loss_changes":[2.5396883E2,6.975247E1,9.3969955E1,0E0,0E0,0E0,0E0],"parents":[2147483647,0,0,1,1,2,2],"right_children":[2,4,6,-1,-1,-1,-1],"split_conditions":[1.45E1,8.5E0,-2.05E0,1.2592679E-3,4.5391684E-3,2.0186054E-3,-1.732569E-3],"split_indices":[51,103,77,0,0,0,0],"split_type":[0,0,0,0,0,0,0],"sum_hessian":[6.1237227E3,3.0246514E3,3.0990715E3,9.42925E2,2.0817263E3,9.723366E2,2.1267349E3],"tree_param":{"num_deleted":"0","num_feature":"104","num_nodes":"7","size_leaf_vector":"0"}},{"base_weights":[-1.4421202E-1,1.1688829E-1,-3.0020243E-1,-3.5549626E-2,2.9203388E-1,-7.543353E-2,-4.1446462E-1],"categories":[],"categories_nodes":[],"categories_segments":[],"categories_sizes":[],"default_left":[1,1,1,0,0,0,0],"id":14,"left_children":[1,3,5,-1,-1,-1,-1],"loss_changes":[2.4946472E2,6.1180435E1,9.843558E1,0E0,0E0,0E0,0E0],"parents":[2147483647,0,0,1,1,2,2],"right_children":[2,4,6,-1,-1,-1,-1],"split_conditions":[4.585E-1,5.1750004E-1,9.5E0,-3.5549625E-4,2.9203387E-3,-7.5433525E-4,-4.144646E-3],"split_indices":[3,55,103,0,0,0,0],"split_type":[0,0,0,0,0,0,0],"sum_hessian":[6.123107E3,2.2901133E3,3.8329934E3,1.2248567E3,1.0652566E3,1.292377E3,2.5406167E3],"tree_param":{"num_deleted":"0","num_feature":"104","num_nodes":"7","size_leaf_vector":"0"}},{"base_weights":[1.4421204E-1,-1.168883E-1,3.0020246E-1,3.5549577E-2,-2.9203385E-1,7.543358E-2,4.1446462E-1],"categories":[],"categories_nodes":[],"categories_segments":[],"categories_sizes":[],"default_left":[1,1,1,0,0,0,0],"id":15,"left_children":[1,3,5,-1,-1,-1,-1],"loss_changes":[2.4946475E2,6.118039E1,9.843561E1,0E0,0E0,0E0,0E0],"parents":[2147483647,0,0,1,1,2,2],"right_children":[2,4,6,-1,-1,-1,-1],"split_conditions":[4.585E-1,5.1750004E-1,9.5E0,3.5549575E-4,-2.9203384E-3,7.543358E-4,4.144646E-3],"split_indices":[3,55,103,0,0,0,0],"split_type":[0,0,0,0,0,0,0],"sum_hessian":[6.123107E3,2.2901133E3,3.8329937E3,1.2248567E3,1.0652567E3,1.2923768E3,2.5406167E3],"tree_param":{"num_deleted":"0","num_feature":"104","num_nodes":"7","size_leaf_vector":"0"}},{"base_weights":[-1.4278674E-1,-3.455013E-1,5.5058096E-2,-1.9719893E-1,-4.9679837E-1,-1.985047E-1,1.7102174E-1],"categories":[],"categories_nodes":[],"categories_segments":[],"categories_sizes":[],"default_left":[1,1,1,0,0,0,0],"id":16,"left_children":[1,3,5,-1,-1,-1,-1],"loss_changes":[2.4560455E2,6.776758E1,9.118033E1,0E0,0E0,0E0,0E0],"parents":[2147483647,0,0,1,1,2,2],"right_children":[2,4,6,-1,-1,-1,-1],"split_conditions":[1.45E1,1.25E1,-2.05E0,-1.9719892E-3,-4.9679833E-3,-1.985047E-3,1.7102174E-3],"split_indices":[51,80,77,0,0,0,0],"split_type":[0,0,0,0,0,0,0],"sum_hessian":[6.1224077E3,3.0236194E3,3.0987883E3,1.5280846E3,1.4955349E3,9.722288E2,2.1265596E3],"tree_param":{"num_deleted":"0","num_feature":"104","num_nodes":"7","size_leaf_vector":"0"}},{"base_weights":[1.4278676E-1,3.4550127E-1,-5.5058073E-2,1.9719894E-1,4.9679837E-1,1.9850478E-1,-1.7102174E-1],"categories":[],"categories_nodes":[],"categories_segments":[],"categories_sizes":[],"default_left":[1,1,1,0,0,0,0],"id":17,"left_children":[1,3,5,-1,-1,-1,-1],"loss_changes":[2.4560455E2,6.776758E1,9.118037E1,0E0,0E0,0E0,0E0],"parents":[2147483647,0,0,1,1,2,2],"right_children":[2,4,6,-1,-1,-1,-1],"split_conditions":[1.45E1,1.25E1,-2.05E0,1.9719894E-3,4.9679833E-3,1.9850477E-3,-1.7102174E-3],"split_indices":[51,80,77,0,0,0,0],"split_type":[0,0,0,0,0,0,0],"sum_hessian":[6.1224077E3,3.0236194E3,3.0987883E3,1.5280847E3,1.4955348E3,9.722288E2,2.1265596E3],"tree_param":{"num_deleted":"0","num_feature":"104","num_nodes":"7","size_leaf_vector":"0"}},{"base_weights":[-1.4137875E-1,1.4214498E-1,-2.808532E-1,-8.810062E-2,2.5208783E-1,-5.0273573E-1,-1.7177889E-1],"categories":[],"categories_nodes":[],"categories_segments":[],"categories_sizes":[],"default_left":[1,1,1,0,0,0,0],"id":18,"left_children":[1,3,5,-1,-1,-1,-1],"loss_changes":[2.4215433E2,5.1142582E1,9.9241E1,0E0,0E0,0E0,0E0],"parents":[2147483647,0,0,1,1,2,2],"right_children":[2,4,6,-1,-1,-1,-1],"split_conditions":[-1.6500001E0,-2.05E0,-1.45E0,-8.810062E-4,2.5208783E-3,-5.027357E-3,-1.7177889E-3],"split_indices":[25,77,77,0,0,0,0],"split_type":[0,0,0,0,0,0,0],"sum_hessian":[6.12161E3,2.0184614E3,4.1031484E3,6.52395E2,1.3660664E3,1.3510958E3,2.7520525E3],"tree_param":{"num_deleted":"0","num_feature":"104","num_nodes":"7","size_leaf_vector":"0"}},{"base_weights":[1.4137873E-1,-1.4214507E-1,2.808532E-1,8.810059E-2,-2.5208795E-1,5.027358E-1,1.7177889E-1],"categories":[],"categories_nodes":[],"categories_segments":[],"categories_sizes":[],"default_left":[1,1,1,0,0,0,0],"id":19,"left_children":[1,3,5,-1,-1,-1,-1],"loss_changes":[2.4215445E2,5.1142597E1,9.924097E1,0E0,0E0,0E0,0E0],"parents":[2147483647,0,0,1,1,2,2],"right_children":[2,4,6,-1,-1,-1,-1],"split_conditions":[-1.6500001E0,-2.05E0,-1.45E0,8.810059E-4,-2.5208795E-3,5.027358E-3,1.7177889E-3],"split_indices":[25,77,77,0,0,0,0],"split_type":[0,0,0,0,0,0,0],"sum_hessian":[6.12161E3,2.0184614E3,4.1031484E3,6.52395E2,1.3660664E3,1.3510958E3,2.7520525E3],"tree_param":{"num_deleted":"0","num_feature":"104","num_nodes":"7","size_leaf_vector":"0"}},{"base_weights":[-1.3998516E-1,1.1480343E-1,-2.9225668E-1,-3.4234148E-2,2.8606346E-1,-7.1933016E-2,-4.043297E-1],"categories":[],"categories_nodes":[],"categories_segments":[],"categories_sizes":[],"default_left":[1,1,1,0,0,0,0],"id":20,"left_children":[1,3,5,-1,-1,-1,-1],"loss_changes":[2.3754025E2,5.8478725E1,9.459302E1,0E0,0E0,0E0,0E0],"parents":[2147483647,0,0,1,1,2,2],"right_children":[2,4,6,-1,-1,-1,-1],"split_conditions":[4.585E-1,5.1750004E-1,9.5E0,-3.4234146E-4,2.8606346E-3,-7.1933016E-4,-4.043297E-3],"split_indices":[3,55,103,0,0,0,0],"split_type":[0,0,0,0,0,0,0],"sum_hessian":[6.1207715E3,2.2897275E3,3.831044E3,1.2247229E3,1.0650046E3,1.2922528E3,2.5387913E3],"tree_param":{"num_deleted":"0","num_feature":"104","num_nodes":"7","size_leaf_vector":"0"}},{"base_weights":[1.3998517E-1,-1.1480343E-1,2.9225674E-1,3.423414E-2,-2.8606346E-1,7.193306E-2,4.043297E-1],"categories":[],"categories_nodes":[],"categories_segments":[],"categories_sizes":[],"default_left":[1,1,1,0,0,0,0],"id":21,"left_children":[1,3,5,-1,-1,-1,-1],"loss_changes":[2.3754028E2,5.847872E1,9.459299E1,0E0,0E0,0E0,0E0],"parents":[2147483647,0,0,1,1,2,2],"right_children":[2,4,6,-1,-1,-1,-1],"split_conditions":[4.585E-1,5.1750004E-1,9.5E0,3.423414E-4,-2.8606346E-3,7.1933056E-4,4.043297E-3],"split_indices":[3,55,103,0,0,0,0],"split_type":[0,0,0,0,0,0,0],"sum_hessian":[6.1207715E3,2.2897275E3,3.831044E3,1.2247229E3,1.0650046E3,1.2922527E3,2.5387913E3],"tree_param":{"num_deleted":"0","num_feature":"104","num_nodes":"7","size_leaf_vector":"0"}},{"base_weights":[-1.3860714E-1,-3.36702E-1,5.4642014E-2,-2.6396358E-1,-6.3648766E-1,-1.9300474E-1,1.6789034E-1],"categories":[],"categories_nodes":[],"categories_segments":[],"categories_sizes":[],"default_left":[1,1,1,0,0,0,0],"id":22,"left_children":[1,3,5,-1,-1,-1,-1],"loss_changes":[2.3433408E2,6.574393E1,8.695046E1,0E0,0E0,0E0,0E0],"parents":[2147483647,0,0,1,1,2,2],"right_children":[2,4,6,-1,-1,-1,-1],"split_conditions":[1.45E1,2.25E1,-2.05E0,-2.6396357E-3,-6.3648764E-3,-1.9300474E-3,1.6789034E-3],"split_indices":[51,80,77,0,0,0,0],"split_type":[0,0,0,0,0,0,0],"sum_hessian":[6.119833E3,3.0216616E3,3.0981714E3,2.4331707E3,5.8849097E2,9.7198047E2,2.126191E3],"tree_param":{"num_deleted":"0","num_feature":"104","num_nodes":"7","size_leaf_vector":"0"}},{"base_weights":[1.3860713E-1,3.36702E-1,-5.4642048E-2,2.639636E-1,6.3648766E-1,1.9300468E-1,-1.6789038E-1],"categories":[],"categories_nodes":[],"categories_segments":[],"categories_sizes":[],"default_left":[1,1,1,0,0,0,0],"id":23,"left_children":[1,3,5,-1,-1,-1,-1],"loss_changes":[2.3433409E2,6.574393E1,8.6950455E1,0E0,0E0,0E0,0E0],"parents":[2147483647,0,0,1,1,2,2],"right_children":[2,4,6,-1,-1,-1,-1],"split_conditions":[1.45E1,2.25E1,-2.05E0,2.639636E-3,6.3648764E-3,1.9300468E-3,-1.6789038E-3],"split_indices":[51,80,77,0,0,0,0],"split_type":[0,0,0,0,0,0,0],"sum_hessian":[6.119833E3,3.0216616E3,3.0981714E3,2.4331707E3,5.8849097E2,9.7198047E2,2.126191E3],"tree_param":{"num_deleted":"0","num_feature":"104","num_nodes":"7","size_leaf_vector":"0"}},{"base_weights":[-1.3724485E-1,1.3947083E-1,-2.7342087E-1,-8.466561E-2,2.46511E-1,-4.1955676E-2,-3.7412512E-1],"categories":[],"categories_nodes":[],"categories_segments":[],"categories_sizes":[],"default_left":[1,1,1,0,0,0,0],"id":24,"left_children":[1,3,5,-1,-1,-1,-1],"loss_changes":[2.3064667E2,4.8461216E1,9.559534E1,0E0,0E0,0E0,0E0],"parents":[2147483647,0,0,1,1,2,2],"right_children":[2,4,6,-1,-1,-1,-1],"split_conditions":[-1.6500001E0,-2.05E0,8.5E0,-8.466561E-4,2.4651098E-3,-4.1955675E-4,-3.741251E-3],"split_indices":[25,77,103,0,0,0,0],"split_type":[0,0,0,0,0,0,0],"sum_hessian":[6.1188525E3,2.018054E3,4.100799E3,6.523263E2,1.3657277E3,1.243674E3,2.8571248E3],"tree_param":{"num_deleted":"0","num_feature":"104","num_nodes":"7","size_leaf_vector":"0"}},{"base_weights":[1.3724488E-1,-1.3947083E-1,2.7342093E-1,8.466562E-2,-2.46511E-1,4.195575E-2,3.7412515E-1],"categories":[],"categories_nodes":[],"categories_segments":[],"categories_sizes":[],"default_left":[1,1,1,0,0,0,0],"id":25,"left_children":[1,3,5,-1,-1,-1,-1],"loss_changes":[2.306467E2,4.8461212E1,9.5595276E1,0E0,0E0,0E0,0E0],"parents":[2147483647,0,0,1,1,2,2],"right_children":[2,4,6,-1,-1,-1,-1],"split_conditions":[-1.6500001E0,-2.05E0,8.5E0,8.4665616E-4,-2.4651098E-3,4.195575E-4,3.7412515E-3],"split_indices":[25,77,103,0,0,0,0],"split_type":[0,0,0,0,0,0,0],"sum_hessian":[6.1188525E3,2.018054E3,4.100799E3,6.523263E2,1.3657277E3,1.2436738E3,2.8571248E3],"tree_param":{"num_deleted":"0","num_feature":"104","num_nodes":"7","size_leaf_vector":"0"}},{"base_weights":[-1.3589692E-1,-3.3080938E-1,5.4176703E-2,-2.5897133E-1,-6.271066E-1,-2.0537005E-1,1.5882877E-1],"categories":[],"categories_nodes":[],"categories_segments":[],"categories_sizes":[],"default_left":[1,1,1,0,0,0,0],"id":26,"left_children":[1,3,5,-1,-1,-1,-1],"loss_changes":[2.2670474E2,6.4142426E1,8.4199875E1,0E0,0E0,0E0,0E0],"parents":[2147483647,0,0,1,1,2,2],"right_children":[2,4,6,-1,-1,-1,-1],"split_conditions":[1.45E1,2.25E1,-2.45E0,-2.5897133E-3,-6.271066E-3,-2.0537004E-3,1.5882876E-3],"split_indices":[51,80,77,0,0,0,0],"split_type":[0,0,0,0,0,0,0],"sum_hessian":[6.1177783E3,3.0200767E3,3.0977017E3,2.432246E3,5.878307E2,8.8984406E2,2.2078577E3],"tree_param":{"num_deleted":"0","num_feature":"104","num_nodes":"7","size_leaf_vector":"0"}},{"base_weights":[1.358969E-1,3.308094E-1,-5.4176744E-2,2.5897136E-1,6.271066E-1,2.0537E-1,-1.588288E-1],"categories":[],"categories_nodes":[],"categories_segments":[],"categories_sizes":[],"default_left":[1,1,1,0,0,0,0],"id":27,"left_children":[1,3,5,-1,-1,-1,-1],"loss_changes":[2.2670482E2,6.4142456E1,8.419986E1,0E0,0E0,0E0,0E0],"parents":[2147483647,0,0,1,1,2,2],"right_children":[2,4,6,-1,-1,-1,-1],"split_conditions":[1.45E1,2.25E1,-2.45E0,2.5897135E-3,6.271066E-3,2.0537E-3,-1.5882879E-3],"split_indices":[51,80,77,0,0,0,0],"split_type":[0,0,0,0,0,0,0],"sum_hessian":[6.1177783E3,3.0200767E3,3.0977017E3,2.432246E3,5.878307E2,8.8984406E2,2.2078577E3],"tree_param":{"num_deleted":"0","num_feature":"104","num_nodes":"7","size_leaf_vector":"0"}},{"base_weights":[-1.3456446E-1,1.1239697E-1,-2.8224748E-1,-3.248267E-2,2.7891123E-1,-6.728655E-2,-3.917085E-1],"categories":[],"categories_nodes":[],"categories_segments":[],"categories_sizes":[],"default_left":[1,1,1,0,0,0,0],"id":28,"left_children":[1,3,5,-1,-1,-1,-1],"loss_changes":[2.2315492E2,5.5255478E1,9.006015E1,0E0,0E0,0E0,0E0],"parents":[2147483647,0,0,1,1,2,2],"right_children":[2,4,6,-1,-1,-1,-1],"split_conditions":[4.585E-1,5.1750004E-1,9.5E0,-3.248267E-4,2.7891123E-3,-6.728655E-4,-3.917085E-3],"split_indices":[3,55,103,0,0,0,0],"split_type":[0,0,0,0,0,0,0],"sum_hessian":[6.1166567E3,2.289052E3,3.827605E3,1.2244742E3,1.0645776E3,1.2919911E3,2.5356138E3],"tree_param":{"num_deleted":"0","num_feature":"104","num_nodes":"7","size_leaf_vector":"0"}},{"base_weights":[1.3456449E-1,-1.1239696E-1,2.822475E-1,3.248268E-2,-2.7891123E-1,6.728662E-2,3.9170852E-1],"categories":[],"categories_nodes":[],"categories_segments":[],"categories_sizes":[],"default_left":[1,1,1,0,0,0,0],"id":29,"left_children":[1,3,5,-1,-1,-1,-1],"loss_changes":[2.2315497E2,5.5255486E1,9.006009E1,0E0,0E0,0E0,0E0],"parents":[2147483647,0,0,1,1,2,2],"right_children":[2,4,6,-1,-1,-1,-1],"split_conditions":[4.585E-1,5.1750004E-1,9.5E0,3.248268E-4,-2.7891123E-3,6.728662E-4,3.917085E-3],"split_indices":[3,55,103,0,0,0,0],"split_type":[0,0,0,0,0,0,0],"sum_hessian":[6.1166567E3,2.289052E3,3.8276047E3,1.2244742E3,1.0645776E3,1.2919911E3,2.5356138E3],"tree_param":{"num_deleted":"0","num_feature":"104","num_nodes":"7","size_leaf_vector":"0"}},{"base_weights":[-1.3324602E-1,1.3683146E-1,-2.66217E-1,-8.151437E-2,2.4112488E-1,-1.2301803E-1,-4.2376888E-1],"categories":[],"categories_nodes":[],"categories_segments":[],"categories_sizes":[],"default_left":[1,1,1,0,0,0,0],"id":30,"left_children":[1,3,5,-1,-1,-1,-1],"loss_changes":[2.1969278E2,4.5986225E1,9.242392E1,0E0,0E0,0E0,0E0],"parents":[2147483647,0,0,1,1,2,2],"right_children":[2,4,6,-1,-1,-1,-1],"split_conditions":[-1.6500001E0,-2.05E0,1.35E1,-8.151437E-4,2.4112489E-3,-1.2301803E-3,-4.2376886E-3],"split_indices":[25,77,80,0,0,0,0],"split_type":[0,0,0,0,0,0,0],"sum_hessian":[6.1154375E3,2.0175535E3,4.0978843E3,6.522465E2,1.365307E3,2.147658E3,1.9502262E3],"tree_param":{"num_deleted":"0","num_feature":"104","num_nodes":"7","size_leaf_vector":"0"}},{"base_weights":[1.3324599E-1,-1.368315E-1,2.6621696E-1,8.151436E-2,-2.4112494E-1,1.2301798E-1,4.237689E-1],"categories":[],"categories_nodes":[],"categories_segments":[],"categories_sizes":[],"default_left":[1,1,1,0,0,0,0],"id":31,"left_children":[1,3,5,-1,-1,-1,-1],"loss_changes":[2.1969281E2,4.598623E1,9.242392E1,0E0,0E0,0E0,0E0],"parents":[2147483647,0,0,1,1,2,2],"right_children":[2,4,6,-1,-1,-1,-1],"split_conditions":[-1.6500001E0,-2.05E0,1.35E1,8.151436E-4,-2.4112493E-3,1.2301798E-3,4.237689E-3],"split_indices":[25,77,80,0,0,0,0],"split_type":[0,0,0,0,0,0,0],"sum_hessian":[6.115438E3,2.0175535E3,4.0978843E3,6.522465E2,1.365307E3,2.147658E3,1.9502262E3],"tree_param":{"num_deleted":"0","num_feature":"104","num_nodes":"7","size_leaf_vector":"0"}},{"base_weights":[-1.3194248E-1,-3.224949E-1,5.3761948E-2,-2.5190604E-1,-6.1401474E-1,-2.0015568E-1,1.5613249E-1],"categories":[],"categories_nodes":[],"categories_segments":[],"categories_sizes":[],"default_left":[1,1,1,0,0,0,0],"id":32,"left_children":[1,3,5,-1,-1,-1,-1],"loss_changes":[2.1641028E2,6.195645E1,8.0555084E1,0E0,0E0,0E0,0E0],"parents":[2147483647,0,0,1,1,2,2],"right_children":[2,4,6,-1,-1,-1,-1],"split_conditions":[1.45E1,2.25E1,-2.45E0,-2.5190604E-3,-6.1401473E-3,-2.0015568E-3,1.5613248E-3],"split_indices":[51,80,77,0,0,0,0],"split_type":[0,0,0,0,0,0,0],"sum_hessian":[6.11414E3,3.017317E3,3.0968235E3,2.430627E3,5.8668994E2,8.895207E2,2.2073027E3],"tree_param":{"num_deleted":"0","num_feature":"104","num_nodes":"7","size_leaf_vector":"0"}},{"base_weights":[1.3194245E-1,3.2249486E-1,-5.3761955E-2,2.51906E-1,6.140147E-1,2.0015568E-1,-1.5613249E-1],"categories":[],"categories_nodes":[],"categories_segments":[],"categories_sizes":[],"default_left":[1,1,1,0,0,0,0],"id":33,"left_children":[1,3,5,-1,-1,-1,-1],"loss_changes":[2.1641026E2,6.195642E1,8.055509E1,0E0,0E0,0E0,0E0],"parents":[2147483647,0,0,1,1,2,2],"right_children":[2,4,6,-1,-1,-1,-1],"split_conditions":[1.45E1,2.25E1,-2.45E0,2.51906E-3,6.140147E-3,2.0015568E-3,-1.5613248E-3],"split_indices":[51,80,77,0,0,0,0],"split_type":[0,0,0,0,0,0,0],"sum_hessian":[6.11414E3,3.0173167E3,3.0968235E3,2.4306267E3,5.8668994E2,8.895207E2,2.2073027E3],"tree_param":{"num_deleted":"0","num_feature":"104","num_nodes":"7","size_leaf_vector":"0"}},{"base_weights":[-1.3065314E-1,-2.2966188E-1,2.2181857E-1,-6.386187E-2,-3.6945945E-1,-5.8767714E-2,2.9502794E-1],"categories":[],"categories_nodes":[],"categories_segments":[],"categories_sizes":[],"default_left":[1,1,1,0,0,0,0],"id":34,"left_children":[1,3,5,-1,-1,-1,-1],"loss_changes":[2.1340964E2,1.1062012E2,2.7568832E1,0E0,0E0,0E0,0E0],"parents":[2147483647,0,0,1,1,2,2],"right_children":[2,4,6,-1,-1,-1,-1],"split_conditions":[2.35E1,1.15E1,3.5900003E-1,-6.3861866E-4,-3.6945944E-3,-5.876771E-4,2.9502793E-3],"split_indices":[51,80,55,0,0,0,0],"split_type":[0,0,0,0,0,0,0],"sum_hessian":[6.112819E3,4.772562E3,1.3402566E3,2.1839053E3,2.5886567E3,2.7737424E2,1.0628823E3],"tree_param":{"num_deleted":"0","num_feature":"104","num_nodes":"7","size_leaf_vector":"0"}},{"base_weights":[1.3065314E-1,2.296619E-1,-2.218186E-1,6.386189E-2,3.6945945E-1,5.8767714E-2,-2.95028E-1],"categories":[],"categories_nodes":[],"categories_segments":[],"categories_sizes":[],"default_left":[1,1,1,0,0,0,0],"id":35,"left_children":[1,3,5,-1,-1,-1,-1],"loss_changes":[2.134097E2,1.1062012E2,2.7568825E1,0E0,0E0,0E0,0E0],"parents":[2147483647,0,0,1,1,2,2],"right_children":[2,4,6,-1,-1,-1,-1],"split_conditions":[2.35E1,1.15E1,3.5900003E-1,6.386189E-4,3.6945944E-3,5.876771E-4,-2.95028E-3],"split_indices":[51,80,55,0,0,0,0],"split_type":[0,0,0,0,0,0,0],"sum_hessian":[6.112819E3,4.772562E3,1.3402566E3,2.1839053E3,2.5886567E3,2.7737424E2,1.0628824E3],"tree_param":{"num_deleted":"0","num_feature":"104","num_nodes":"7","size_leaf_vector":"0"}},{"base_weights":[-1.2937383E-1,-3.1723055E-1,5.3614818E-2,-3.8611424E-1,-2.4171868E-2,-9.274507E-2,2.2701058E-1],"categories":[],"categories_nodes":[],"categories_segments":[],"categories_sizes":[],"default_left":[1,1,1,0,0,0,0],"id":36,"left_children":[1,3,5,-1,-1,-1,-1],"loss_changes":[2.1014029E2,6.0880737E1,7.8623795E1,0E0,0E0,0E0,0E0],"parents":[2147483647,0,0,1,1,2,2],"right_children":[2,4,6,-1,-1,-1,-1],"split_conditions":[1.45E1,5.05E0,5.2250004E-1,-3.8611423E-3,-2.4171868E-4,-9.274507E-4,2.2701058E-3],"split_indices":[51,77,55,0,0,0,0],"split_type":[0,0,0,0,0,0,0],"sum_hessian":[6.111562E3,3.015306E3,3.0962559E3,2.4411855E3,5.7412024E2,1.679277E3,1.416979E3],"tree_param":{"num_deleted":"0","num_feature":"104","num_nodes":"7","size_leaf_vector":"0"}},{"base_weights":[1.293738E-1,3.172305E-1,-5.361482E-2,3.8611415E-1,2.4171866E-2,9.274507E-2,-2.270106E-1],"categories":[],"categories_nodes":[],"categories_segments":[],"categories_sizes":[],"default_left":[1,1,1,0,0,0,0],"id":37,"left_children":[1,3,5,-1,-1,-1,-1],"loss_changes":[2.1014021E2,6.0880676E1,7.86238E1,0E0,0E0,0E0,0E0],"parents":[2147483647,0,0,1,1,2,2],"right_children":[2,4,6,-1,-1,-1,-1],"split_conditions":[1.45E1,5.05E0,5.2250004E-1,3.8611414E-3,2.4171866E-4,9.274507E-4,-2.270106E-3],"split_indices":[51,77,55,0,0,0,0],"split_type":[0,0,0,0,0,0,0],"sum_hessian":[6.111562E3,3.015306E3,3.096256E3,2.4411858E3,5.7412024E2,1.679277E3,1.416979E3],"tree_param":{"num_deleted":"0","num_feature":"104","num_nodes":"7","size_leaf_vector":"0"}},{"base_weights":[-1.2811065E-1,1.6682604E-1,-2.4298404E-1,-1.0118899E-1,2.4103506E-1,-3.338666E-2,-3.4833685E-1],"categories":[],"categories_nodes":[],"categories_segments":[],"categories_sizes":[],"default_left":[1,1,1,0,0,0,0],"id":38,"left_children":[1,3,5,-1,-1,-1,-1],"loss_changes":[2.0708832E2,3.4106407E1,9.711551E1,0E0,0E0,0E0,0E0],"parents":[2147483647,0,0,1,1,2,2],"right_children":[2,4,6,-1,-1,-1,-1],"split_conditions":[-2.45E0,3.585E-1,9.5E0,-1.0118899E-3,2.4103506E-3,-3.3386657E-4,-3.4833683E-3],"split_indices":[25,55,103,0,0,0,0],"split_type":[0,0,0,0,0,0,0],"sum_hessian":[6.110142E3,1.7126001E3,4.397542E3,3.7128717E2,1.341313E3,1.4714457E3,2.9260962E3],"tree_param":{"num_deleted":"0","num_feature":"104","num_nodes":"7","size_leaf_vector":"0"}},{"base_weights":[1.2811062E-1,-1.6682607E-1,2.4298403E-1,1.01188995E-1,-2.4103512E-1,3.338668E-2,3.483368E-1],"categories":[],"categories_nodes":[],"categories_segments":[],"categories_sizes":[],"default_left":[1,1,1,0,0,0,0],"id":39,"left_children":[1,3,5,-1,-1,-1,-1],"loss_changes":[2.0708833E2,3.4106422E1,9.711548E1,0E0,0E0,0E0,0E0],"parents":[2147483647,0,0,1,1,2,2],"right_children":[2,4,6,-1,-1,-1,-1],"split_conditions":[-2.45E0,3.585E-1,9.5E0,1.0118899E-3,-2.410351E-3,3.338668E-4,3.4833679E-3],"split_indices":[25,55,103,0,0,0,0],"split_type":[0,0,0,0,0,0,0],"sum_hessian":[6.110142E3,1.7126001E3,4.397542E3,3.7128717E2,1.3413129E3,1.4714456E3,2.9260962E3],"tree_param":{"num_deleted":"0","num_feature":"104","num_nodes":"7","size_leaf_vector":"0"}},{"base_weights":[-1.2686011E-1,1.0934039E-1,-2.6827157E-1,-1.591037E-1,1.9202049E-1,-4.806354E-1,-1.6380577E-1],"categories":[],"categories_nodes":[],"categories_segments":[],"categories_sizes":[],"default_left":[1,1,1,0,0,0,0],"id":40,"left_children":[1,3,5,-1,-1,-1,-1],"loss_changes":[2.0410231E2,5.082879E1,8.471088E1,0E0,0E0,0E0,0E0],"parents":[2147483647,0,0,1,1,2,2],"right_children":[2,4,6,-1,-1,-1,-1],"split_conditions":[4.585E-1,3.725E-1,-1.45E0,-1.591037E-3,1.9202048E-3,-4.8063537E-3,-1.6380576E-3],"split_indices":[3,55,77,0,0,0,0],"split_type":[0,0,0,0,0,0,0],"sum_hessian":[6.1087026E3,2.2877258E3,3.820977E3,5.3847894E2,1.7492468E3,1.258674E3,2.5623032E3],"tree_param":{"num_deleted":"0","num_feature":"104","num_nodes":"7","size_leaf_vector":"0"}},{"base_weights":[1.2686013E-1,-1.0934039E-1,2.682716E-1,1.591037E-1,-1.920205E-1,4.8063546E-1,1.638058E-1],"categories":[],"categories_nodes":[],"categories_segments":[],"categories_sizes":[],"default_left":[1,1,1,0,0,0,0],"id":41,"left_children":[1,3,5,-1,-1,-1,-1],"loss_changes":[2.0410234E2,5.0828796E1,8.471091E1,0E0,0E0,0E0,0E0],"parents":[2147483647,0,0,1,1,2,2],"right_children":[2,4,6,-1,-1,-1,-1],"split_conditions":[4.585E-1,3.725E-1,-1.45E0,1.591037E-3,-1.920205E-3,4.8063546E-3,1.638058E-3],"split_indices":[3,55,77,0,0,0,0],"split_type":[0,0,0,0,0,0,0],"sum_hessian":[6.1087026E3,2.2877258E3,3.820977E3,5.3847894E2,1.7492468E3,1.258674E3,2.5623032E3],"tree_param":{"num_deleted":"0","num_feature":"104","num_nodes":"7","size_leaf_vector":"0"}},{"base_weights":[-1.2562454E-1,-2.2179875E-1,2.1654949E-1,-6.042574E-2,-3.580372E-1,-5.454988E-2,2.8730604E-1],"categories":[],"categories_nodes":[],"categories_segments":[],"categories_sizes":[],"default_left":[1,1,1,0,0,0,0],"id":42,"left_children":[1,3,5,-1,-1,-1,-1],"loss_changes":[2.0105743E2,1.0481526E2,2.5732018E1,0E0,0E0,0E0,0E0],"parents":[2147483647,0,0,1,1,2,2],"right_children":[2,4,6,-1,-1,-1,-1],"split_conditions":[2.35E1,1.15E1,3.5900003E-1,-6.042574E-4,-3.5803718E-3,-5.454988E-4,2.8730603E-3],"split_indices":[51,80,55,0,0,0,0],"split_type":[0,0,0,0,0,0,0],"sum_hessian":[6.1071655E3,4.7675195E3,1.3396459E3,2.183102E3,2.5844175E3,2.773242E2,1.0623217E3],"tree_param":{"num_deleted":"0","num_feature":"104","num_nodes":"7","size_leaf_vector":"0"}},{"base_weights":[1.2562454E-1,2.2179875E-1,-2.1654953E-1,6.0425755E-2,3.580372E-1,5.4549884E-2,-2.873061E-1],"categories":[],"categories_nodes":[],"categories_segments":[],"categories_sizes":[],"default_left":[1,1,1,0,0,0,0],"id":43,"left_children":[1,3,5,-1,-1,-1,-1],"loss_changes":[2.0105753E2,1.0481526E2,2.5732025E1,0E0,0E0,0E0,0E0],"parents":[2147483647,0,0,1,1,2,2],"right_children":[2,4,6,-1,-1,-1,-1],"split_conditions":[2.35E1,1.15E1,3.5900003E-1,6.042575E-4,3.5803718E-3,5.4549886E-4,-2.873061E-3],"split_indices":[51,80,55,0,0,0,0],"split_type":[0,0,0,0,0,0,0],"sum_hessian":[6.1071655E3,4.7675195E3,1.3396459E3,2.183102E3,2.5844177E3,2.773242E2,1.0623217E3],"tree_param":{"num_deleted":"0","num_feature":"104","num_nodes":"7","size_leaf_vector":"0"}},{"base_weights":[-1.2439931E-1,-3.0739576E-1,5.3677153E-2,-2.3882861E-1,-5.9138274E-1,2.2678933E-1,-8.5505374E-2],"categories":[],"categories_nodes":[],"categories_segments":[],"categories_sizes":[],"default_left":[1,1,1,0,0,0,0],"id":44,"left_children":[1,3,5,-1,-1,-1,-1],"loss_changes":[1.9901683E2,5.8506622E1,7.460999E1,0E0,0E0,0E0,0E0],"parents":[2147483647,0,0,1,1,2,2],"right_children":[2,4,6,-1,-1,-1,-1],"split_conditions":[1.45E1,2.25E1,1.35E1,-2.3882862E-3,-5.913827E-3,2.2678932E-3,-8.550537E-4],"split_indices":[51,80,103,0,0,0,0],"split_type":[0,0,0,0,0,0,0],"sum_hessian":[6.105672E3,3.01088E3,3.0947922E3,2.4267861E3,5.840937E2,1.3789968E3,1.7157953E3],"tree_param":{"num_deleted":"0","num_feature":"104","num_nodes":"7","size_leaf_vector":"0"}},{"base_weights":[1.24399334E-1,3.073958E-1,-5.367713E-2,2.3882861E-1,5.9138286E-1,-2.267893E-1,8.5505396E-2],"categories":[],"categories_nodes":[],"categories_segments":[],"categories_sizes":[],"default_left":[1,1,1,0,0,0,0],"id":45,"left_children":[1,3,5,-1,-1,-1,-1],"loss_changes":[1.9901683E2,5.8506653E1,7.460999E1,0E0,0E0,0E0,0E0],"parents":[2147483647,0,0,1,1,2,2],"right_children":[2,4,6,-1,-1,-1,-1],"split_conditions":[1.45E1,2.25E1,1.35E1,2.3882862E-3,5.9138285E-3,-2.267893E-3,8.5505395E-4],"split_indices":[51,80,103,0,0,0,0],"split_type":[0,0,0,0,0,0,0],"sum_hessian":[6.105672E3,3.01088E3,3.0947922E3,2.4267861E3,5.840937E2,1.3789968E3,1.7157953E3],"tree_param":{"num_deleted":"0","num_feature":"104","num_nodes":"7","size_leaf_vector":"0"}},{"base_weights":[-1.2318945E-1,-3.0446464E-1,5.3144958E-2,-3.716887E-1,-1.905053E-2,-1.8966533E-1,1.5100303E-1],"categories":[],"categories_nodes":[],"categories_segments":[],"categories_sizes":[],"default_left":[1,1,1,0,0,0,0],"id":46,"left_children":[1,3,5,-1,-1,-1,-1],"loss_changes":[1.9516469E2,5.7754547E1,7.358197E1,0E0,0E0,0E0,0E0],"parents":[2147483647,0,0,1,1,2,2],"right_children":[2,4,6,-1,-1,-1,-1],"split_conditions":[1.45E1,5.05E0,-2.45E0,-3.7168867E-3,-1.9050529E-4,-1.8966533E-3,1.5100302E-3],"split_indices":[51,77,77,0,0,0,0],"split_type":[0,0,0,0,0,0,0],"sum_hessian":[6.1040586E3,3.009504E3,3.094555E3,2.435552E3,5.7395184E2,8.8865125E2,2.2059036E3],"tree_param":{"num_deleted":"0","num_feature":"104","num_nodes":"7","size_leaf_vector":"0"}},{"base_weights":[1.23189434E-1,3.0446458E-1,-5.3144943E-2,3.7168866E-1,1.9050445E-2,1.8966533E-1,-1.5100302E-1],"categories":[],"categories_nodes":[],"categories_segments":[],"categories_sizes":[],"default_left":[1,1,1,0,0,0,0],"id":47,"left_children":[1,3,5,-1,-1,-1,-1],"loss_changes":[1.9516463E2,5.7754547E1,7.3581955E1,0E0,0E0,0E0,0E0],"parents":[2147483647,0,0,1,1,2,2],"right_children":[2,4,6,-1,-1,-1,-1],"split_conditions":[1.45E1,5.05E0,-2.45E0,3.7168865E-3,1.9050445E-4,1.8966533E-3,-1.5100301E-3],"split_indices":[51,77,77,0,0,0,0],"split_type":[0,0,0,0,0,0,0],"sum_hessian":[6.1040586E3,3.009504E3,3.094555E3,2.435552E3,5.739519E2,8.886513E2,2.2059036E3],"tree_param":{"num_deleted":"0","num_feature":"104","num_nodes":"7","size_leaf_vector":"0"}},{"base_weights":[-1.2199279E-1,-2.1630815E-1,2.1339016E-1,-7.697287E-2,-3.684831E-1,-5.157855E-2,2.8256363E-1],"categories":[],"categories_nodes":[],"categories_segments":[],"categories_sizes":[],"default_left":[1,1,1,0,0,0,0],"id":48,"left_children":[1,3,5,-1,-1,-1,-1],"loss_changes":[1.9310593E2,1.0098886E2,2.4577755E1,0E0,0E0,0E0,0E0],"parents":[2147483647,0,0,1,1,2,2],"right_children":[2,4,6,-1,-1,-1,-1],"split_conditions":[2.35E1,1.35E1,3.5900003E-1,-7.697287E-4,-3.6848309E-3,-5.157855E-4,2.8256362E-3],"split_indices":[51,80,55,0,0,0,0],"split_type":[0,0,0,0,0,0,0],"sum_hessian":[6.102352E3,4.7632114E3,1.3391407E3,2.4872903E3,2.275921E3,2.77279E2,1.0618617E3],"tree_param":{"num_deleted":"0","num_feature":"104","num_nodes":"7","size_leaf_vector":"0"}},{"base_weights":[1.2199277E-1,2.1630813E-1,-2.1339016E-1,7.6972865E-2,3.6848307E-1,5.157855E-2,-2.8256363E-1],"categories":[],"categories_nodes":[],"categories_segments":[],"categories_sizes":[],"default_left":[1,1,1,0,0,0,0],"id":49,"left_children":[1,3,5,-1,-1,-1,-1],"loss_changes":[1.9310596E2,1.00988815E2,2.4577755E1,0E0,0E0,0E0,0E0],"parents":[2147483647,0,0,1,1,2,2],"right_children":[2,4,6,-1,-1,-1,-1],"split_conditions":[2.35E1,1.35E1,3.5900003E-1,7.697286E-4,3.6848306E-3,5.157855E-4,-2.8256362E-3],"split_indices":[51,80,55,0,0,0,0],"split_type":[0,0,0,0,0,0,0],"sum_hessian":[6.102352E3,4.7632114E3,1.3391407E3,2.4872903E3,2.275921E3,2.77279E2,1.0618617E3],"tree_param":{"num_deleted":"0","num_feature":"104","num_nodes":"7","size_leaf_vector":"0"}},{"base_weights":[-1.208062E-1,1.07071795E-1,-2.5739396E-1,-2.7396657E-2,2.617283E-1,-4.638712E-1,-1.5607119E-1],"categories":[],"categories_nodes":[],"categories_segments":[],"categories_sizes":[],"default_left":[1,1,1,0,0,0,0],"id":50,"left_children":[1,3,5,-1,-1,-1,-1],"loss_changes":[1.8994514E2,4.7576687E1,7.974722E1,0E0,0E0,0E0,0E0],"parents":[2147483647,0,0,1,1,2,2],"right_children":[2,4,6,-1,-1,-1,-1],"split_conditions":[4.585E-1,5.1750004E-1,-1.45E0,-2.7396655E-4,2.6172828E-3,-4.638712E-3,-1.5607119E-3],"split_indices":[3,55,77,0,0,0,0],"split_type":[0,0,0,0,0,0,0],"sum_hessian":[6.1007026E3,2.28639E3,3.8143127E3,1.2234583E3,1.0629316E3,1.2544319E3,2.5598806E3],"tree_param":{"num_deleted":"0","num_feature":"104","num_nodes":"7","size_leaf_vector":"0"}},{"base_weights":[1.208062E-1,-1.07071795E-1,2.5739396E-1,2.7396625E-2,-2.6172823E-1,4.6387124E-1,1.5607119E-1],"categories":[],"categories_nodes":[],"categories_segments":[],"categories_sizes":[],"default_left":[1,1,1,0,0,0,0],"id":51,"left_children":[1,3,5,-1,-1,-1,-1],"loss_changes":[1.8994514E2,4.757666E1,7.974719E1,0E0,0E0,0E0,0E0],"parents":[2147483647,0,0,1,1,2,2],"right_children":[2,4,6,-1,-1,-1,-1],"split_conditions":[4.585E-1,5.1750004E-1,-1.45E0,2.7396623E-4,-2.6172823E-3,4.6387124E-3,1.5607119E-3],"split_indices":[3,55,77,0,0,0,0],"split_type":[0,0,0,0,0,0,0],"sum_hessian":[6.1007026E3,2.28639E3,3.8143127E3,1.2234583E3,1.0629316E3,1.254432E3,2.5598806E3],"tree_param":{"num_deleted":"0","num_feature":"104","num_nodes":"7","size_leaf_vector":"0"}},{"base_weights":[-1.1963464E-1,-2.9723674E-1,5.2973863E-2,-2.3011741E-1,-5.759581E-1,2.2133626E-1,-8.238372E-2],"categories":[],"categories_nodes":[],"categories_segments":[],"categories_sizes":[],"default_left":[1,1,1,0,0,0,0],"id":52,"left_children":[1,3,5,-1,-1,-1,-1],"loss_changes":[1.870119E2,5.6113922E1,7.05343E1,0E0,0E0,0E0,0E0],"parents":[2147483647,0,0,1,1,2,2],"right_children":[2,4,6,-1,-1,-1,-1],"split_conditions":[1.45E1,2.25E1,1.35E1,-2.301174E-3,-5.7595805E-3,2.2133626E-3,-8.238372E-4],"split_indices":[51,80,103,0,0,0,0],"split_type":[0,0,0,0,0,0,0],"sum_hessian":[6.0988955E3,3.0056104E3,3.0932852E3,2.4237651E3,5.818452E2,1.3782881E3,1.7149971E3],"tree_param":{"num_deleted":"0","num_feature":"104","num_nodes":"7","size_leaf_vector":"0"}},{"base_weights":[1.1963462E-1,2.972367E-1,-5.297388E-2,2.301174E-1,5.7595795E-1,-2.213363E-1,8.238373E-2],"categories":[],"categories_nodes":[],"categories_segments":[],"categories_sizes":[],"default_left":[1,1,1,0,0,0,0],"id":53,"left_children":[1,3,5,-1,-1,-1,-1],"loss_changes":[1.870119E2,5.611386E1,7.0534325E1,0E0,0E0,0E0,0E0],"parents":[2147483647,0,0,1,1,2,2],"right_children":[2,4,6,-1,-1,-1,-1],"split_conditions":[1.45E1,2.25E1,1.35E1,2.301174E-3,5.7595796E-3,-2.213363E-3,8.238373E-4],"split_indices":[51,80,103,0,0,0,0],"split_type":[0,0,0,0,0,0,0],"sum_hessian":[6.0988955E3,3.0056104E3,3.0932852E3,2.4237651E3,5.818453E2,1.3782881E3,1.7149971E3],"tree_param":{"num_deleted":"0","num_feature":"104","num_nodes":"7","size_leaf_vector":"0"}},{"base_weights":[-1.1847521E-1,-2.108679E-1,2.0988731E-1,-5.554799E-2,-3.4229222E-1,-4.9843702E-2,2.77721E-1],"categories":[],"categories_nodes":[],"categories_segments":[],"categories_sizes":[],"default_left":[1,1,1,0,0,0,0],"id":54,"left_children":[1,3,5,-1,-1,-1,-1],"loss_changes":[1.8504953E2,9.713603E1,2.3614952E1,0E0,0E0,0E0,0E0],"parents":[2147483647,0,0,1,1,2,2],"right_children":[2,4,6,-1,-1,-1,-1],"split_conditions":[2.35E1,1.15E1,3.5900003E-1,-5.554799E-4,-3.4229222E-3,-4.9843703E-4,2.7772097E-3],"split_indices":[51,80,55,0,0,0,0],"split_type":[0,0,0,0,0,0,0],"sum_hessian":[6.0970767E3,4.7585127E3,1.3385642E3,2.181635E3,2.5768777E3,2.772512E2,1.061313E3],"tree_param":{"num_deleted":"0","num_feature":"104","num_nodes":"7","size_leaf_vector":"0"}},{"base_weights":[1.1847517E-1,2.1086787E-1,-2.0988736E-1,5.554793E-2,3.422922E-1,4.9843676E-2,-2.7772102E-1],"categories":[],"categories_nodes":[],"categories_segments":[],"categories_sizes":[],"default_left":[1,1,1,0,0,0,0],"id":55,"left_children":[1,3,5,-1,-1,-1,-1],"loss_changes":[1.8504953E2,9.713605E1,2.3614967E1,0E0,0E0,0E0,0E0],"parents":[2147483647,0,0,1,1,2,2],"right_children":[2,4,6,-1,-1,-1,-1],"split_conditions":[2.35E1,1.15E1,3.5900003E-1,5.554793E-4,3.4229218E-3,4.9843674E-4,-2.7772102E-3],"split_indices":[51,80,55,0,0,0,0],"split_type":[0,0,0,0,0,0,0],"sum_hessian":[6.097077E3,4.7585127E3,1.3385642E3,2.181635E3,2.5768777E3,2.772512E2,1.061313E3],"tree_param":{"num_deleted":"0","num_feature":"104","num_nodes":"7","size_leaf_vector":"0"}},{"base_weights":[-1.1732542E-1,-2.9247144E-1,5.278328E-2,-3.5826728E-1,-1.3771411E-2,-1.8213327E-1,1.4742604E-1],"categories":[],"categories_nodes":[],"categories_segments":[],"categories_sizes":[],"default_left":[1,1,1,0,0,0,0],"id":56,"left_children":[1,3,5,-1,-1,-1,-1],"loss_changes":[1.8164752E2,5.5077118E1,6.8804344E1,0E0,0E0,0E0,0E0],"parents":[2147483647,0,0,1,1,2,2],"right_children":[2,4,6,-1,-1,-1,-1],"split_conditions":[1.45E1,5.05E0,-2.45E0,-3.5826727E-3,-1.377141E-4,-1.8213327E-3,1.4742604E-3],"split_indices":[51,77,77,0,0,0,0],"split_type":[0,0,0,0,0,0,0],"sum_hessian":[6.0952915E3,3.0028257E3,3.0924658E3,2.42908E3,5.7374554E2,8.8782806E2,2.2046377E3],"tree_param":{"num_deleted":"0","num_feature":"104","num_nodes":"7","size_leaf_vector":"0"}},{"base_weights":[1.17325425E-1,2.9247147E-1,-5.278328E-2,3.5826728E-1,1.3771411E-2,1.8213327E-1,-1.4742604E-1],"categories":[],"categories_nodes":[],"categories_segments":[],"categories_sizes":[],"default_left":[1,1,1,0,0,0,0],"id":57,"left_children":[1,3,5,-1,-1,-1,-1],"loss_changes":[1.816475E2,5.5077118E1,6.8804344E1,0E0,0E0,0E0,0E0],"parents":[2147483647,0,0,1,1,2,2],"right_children":[2,4,6,-1,-1,-1,-1],"split_conditions":[1.45E1,5.05E0,-2.45E0,3.5826727E-3,1.377141E-4,1.8213327E-3,-1.4742604E-3],"split_indices":[51,77,77,0,0,0,0],"split_type":[0,0,0,0,0,0,0],"sum_hessian":[6.0952915E3,3.0028257E3,3.0924658E3,2.42908E3,5.7374554E2,8.8782806E2,2.2046377E3],"tree_param":{"num_deleted":"0","num_feature":"104","num_nodes":"7","size_leaf_vector":"0"}},{"base_weights":[-1.1619021E-1,-2.0724648E-1,2.0730983E-1,-5.407313E-2,-3.369678E-1,-4.782893E-2,2.7396026E-1],"categories":[],"categories_nodes":[],"categories_segments":[],"categories_sizes":[],"default_left":[1,1,1,0,0,0,0],"id":58,"left_children":[1,3,5,-1,-1,-1,-1],"loss_changes":[1.7956264E2,9.4487625E1,2.2784817E1,0E0,0E0,0E0,0E0],"parents":[2147483647,0,0,1,1,2,2],"right_children":[2,4,6,-1,-1,-1,-1],"split_conditions":[2.35E1,1.15E1,3.5900003E-1,-5.407313E-4,-3.3696778E-3,-4.782893E-4,2.7396025E-3],"split_indices":[51,80,55,0,0,0,0],"split_type":[0,0,0,0,0,0,0],"sum_hessian":[6.0933555E3,4.755245E3,1.3381101E3,2.1811667E3,2.5740786E3,2.7721393E2,1.0608962E3],"tree_param":{"num_deleted":"0","num_feature":"104","num_nodes":"7","size_leaf_vector":"0"}},{"base_weights":[1.161902E-1,2.0724648E-1,-2.0730981E-1,5.407314E-2,3.3696777E-1,4.782893E-2,-2.7396023E-1],"categories":[],"categories_nodes":[],"categories_segments":[],"categories_sizes":[],"default_left":[1,1,1,0,0,0,0],"id":59,"left_children":[1,3,5,-1,-1,-1,-1],"loss_changes":[1.7956259E2,9.4487595E1,2.2784817E1,0E0,0E0,0E0,0E0],"parents":[2147483647,0,0,1,1,2,2],"right_children":[2,4,6,-1,-1,-1,-1],"split_conditions":[2.35E1,1.15E1,3.5900003E-1,5.407314E-4,3.3696776E-3,4.782893E-4,-2.7396022E-3],"split_indices":[51,80,55,0,0,0,0],"split_type":[0,0,0,0,0,0,0],"sum_hessian":[6.0933555E3,4.755245E3,1.3381101E3,2.1811665E3,2.5740786E3,2.7721393E2,1.0608962E3],"tree_param":{"num_deleted":"0","num_feature":"104","num_nodes":"7","size_leaf_vector":"0"}},{"base_weights":[-1.15064405E-1,1.0482654E-1,-2.4703664E-1,-2.4895996E-2,2.5409168E-1,-4.480766E-1,-1.486582E-1],"categories":[],"categories_nodes":[],"categories_segments":[],"categories_sizes":[],"default_left":[1,1,1,0,0,0,0],"id":60,"left_children":[1,3,5,-1,-1,-1,-1],"loss_changes":[1.7682654E2,4.426616E1,7.524184E1,0E0,0E0,0E0,0E0],"parents":[2147483647,0,0,1,1,2,2],"right_children":[2,4,6,-1,-1,-1,-1],"split_conditions":[4.585E-1,5.1750004E-1,-1.45E0,-2.4895996E-4,2.5409167E-3,-4.480766E-3,-1.486582E-3],"split_indices":[3,55,77,0,0,0,0],"split_type":[0,0,0,0,0,0,0],"sum_hessian":[6.0914766E3,2.2847883E3,3.806688E3,1.2228627E3,1.0619258E3,1.2495769E3,2.557111E3],"tree_param":{"num_deleted":"0","num_feature":"104","num_nodes":"7","size_leaf_vector":"0"}},{"base_weights":[1.1506443E-1,-1.0482654E-1,2.4703667E-1,2.4896001E-2,-2.5409168E-1,4.4807664E-1,1.4865823E-1],"categories":[],"categories_nodes":[],"categories_segments":[],"categories_sizes":[],"default_left":[1,1,1,0,0,0,0],"id":61,"left_children":[1,3,5,-1,-1,-1,-1],"loss_changes":[1.7682654E2,4.426616E1,7.524182E1,0E0,0E0,0E0,0E0],"parents":[2147483647,0,0,1,1,2,2],"right_children":[2,4,6,-1,-1,-1,-1],"split_conditions":[4.585E-1,5.1750004E-1,-1.45E0,2.4896002E-4,-2.5409167E-3,4.480766E-3,1.4865823E-3],"split_indices":[3,55,77,0,0,0,0],"split_type":[0,0,0,0,0,0,0],"sum_hessian":[6.0914766E3,2.2847883E3,3.806688E3,1.2228627E3,1.0619258E3,1.249577E3,2.557111E3],"tree_param":{"num_deleted":"0","num_feature":"104","num_nodes":"7","size_leaf_vector":"0"}},{"base_weights":[-1.13952786E-1,-2.855911E-1,5.258428E-2,-2.2008514E-1,-5.585683E-1,2.1542986E-1,-7.833909E-2],"categories":[],"categories_nodes":[],"categories_segments":[],"categories_sizes":[],"default_left":[1,1,1,0,0,0,0],"id":62,"left_children":[1,3,5,-1,-1,-1,-1],"loss_changes":[1.741052E2,5.3511993E1,6.593931E1,0E0,0E0,0E0,0E0],"parents":[2147483647,0,0,1,1,2,2],"right_children":[2,4,6,-1,-1,-1,-1],"split_conditions":[1.45E1,2.25E1,1.35E1,-2.2008514E-3,-5.585683E-3,2.1542986E-3,-7.833909E-4],"split_indices":[51,80,103,0,0,0,0],"split_type":[0,0,0,0,0,0,0],"sum_hessian":[6.0894473E3,2.998443E3,3.091004E3,2.4196174E3,5.788258E2,1.3772733E3,1.7137306E3],"tree_param":{"num_deleted":"0","num_feature":"104","num_nodes":"7","size_leaf_vector":"0"}},{"base_weights":[1.13952786E-1,2.8559107E-1,-5.2584276E-2,2.2008511E-1,5.5856836E-1,-2.1542983E-1,7.8339085E-2],"categories":[],"categories_nodes":[],"categories_segments":[],"categories_sizes":[],"default_left":[1,1,1,0,0,0,0],"id":63,"left_children":[1,3,5,-1,-1,-1,-1],"loss_changes":[1.741052E2,5.351201E1,6.593929E1,0E0,0E0,0E0,0E0],"parents":[2147483647,0,0,1,1,2,2],"right_children":[2,4,6,-1,-1,-1,-1],"split_conditions":[1.45E1,2.25E1,1.35E1,2.200851E-3,5.5856835E-3,-2.1542981E-3,7.8339083E-4],"split_indices":[51,80,103,0,0,0,0],"split_type":[0,0,0,0,0,0,0],"sum_hessian":[6.0894473E3,2.998443E3,3.091004E3,2.4196174E3,5.788258E2,1.3772733E3,1.7137305E3],"tree_param":{"num_deleted":"0","num_feature":"104","num_nodes":"7","size_leaf_vector":"0"}},{"base_weights":[-1.1285251E-1,-2.020647E-1,2.0390277E-1,2.958267E-2,-2.8490227E-1,-4.6200763E-2,2.6926962E-1],"categories":[],"categories_nodes":[],"categories_segments":[],"categories_sizes":[],"default_left":[1,1,1,0,0,0,0],"id":64,"left_children":[1,3,5,-1,-1,-1,-1],"loss_changes":[1.7209024E2,9.117543E1,2.189389E1,0E0,0E0,0E0,0E0],"parents":[2147483647,0,0,1,1,2,2],"right_children":[2,4,6,-1,-1,-1,-1],"split_conditions":[2.35E1,7.5E0,3.5900003E-1,2.958267E-4,-2.8490226E-3,-4.6200762E-4,2.6926962E-3],"split_indices":[51,103,55,0,0,0,0],"split_type":[0,0,0,0,0,0,0],"sum_hessian":[6.0874146E3,4.749975E3,1.3374393E3,1.251347E3,3.4986282E3,2.7718402E2,1.0602552E3],"tree_param":{"num_deleted":"0","num_feature":"104","num_nodes":"7","size_leaf_vector":"0"}},{"base_weights":[1.128525E-1,2.0206466E-1,-2.0390274E-1,-2.9582668E-2,2.8490224E-1,4.6200864E-2,-2.692696E-1],"categories":[],"categories_nodes":[],"categories_segments":[],"categories_sizes":[],"default_left":[1,1,1,0,0,0,0],"id":65,"left_children":[1,3,5,-1,-1,-1,-1],"loss_changes":[1.7209021E2,9.1175415E1,2.1893898E1,0E0,0E0,0E0,0E0],"parents":[2147483647,0,0,1,1,2,2],"right_children":[2,4,6,-1,-1,-1,-1],"split_conditions":[2.35E1,7.5E0,3.5900003E-1,-2.9582667E-4,2.8490224E-3,4.6200864E-4,-2.6926957E-3],"split_indices":[51,103,55,0,0,0,0],"split_type":[0,0,0,0,0,0,0],"sum_hessian":[6.0874146E3,4.749975E3,1.3374393E3,1.251347E3,3.4986282E3,2.7718402E2,1.0602552E3],"tree_param":{"num_deleted":"0","num_feature":"104","num_nodes":"7","size_leaf_vector":"0"}},{"base_weights":[-1.1175946E-1,-2.2091728E-1,1.4277433E-1,-1.3403681E-1,-4.3927693E-1,-1.2737523E-1,2.1311662E-1],"categories":[],"categories_nodes":[],"categories_segments":[],"categories_sizes":[],"default_left":[1,1,1,0,0,0,0],"id":66,"left_children":[1,3,5,-1,-1,-1,-1],"loss_changes":[1.6914105E2,8.0760345E1,3.4753124E1,0E0,0E0,0E0,0E0],"parents":[2147483647,0,0,1,1,2,2],"right_children":[2,4,6,-1,-1,-1,-1],"split_conditions":[1.95E1,1.95E1,3.585E-1,-1.3403681E-3,-4.392769E-3,-1.2737523E-3,2.1311662E-3],"split_indices":[28,80,55,0,0,0,0],"split_type":[0,0,0,0,0,0,0],"sum_hessian":[6.085501E3,4.259101E3,1.8264003E3,3.0479878E3,1.2111132E3,3.771489E2,1.4492513E3],"tree_param":{"num_deleted":"0","num_feature":"104","num_nodes":"7","size_leaf_vector":"0"}},{"base_weights":[1.11759454E-1,2.2091728E-1,-1.4277433E-1,1.3403681E-1,4.392769E-1,1.2737523E-1,-2.131166E-1],"categories":[],"categories_nodes":[],"categories_segments":[],"categories_sizes":[],"default_left":[1,1,1,0,0,0,0],"id":67,"left_children":[1,3,5,-1,-1,-1,-1],"loss_changes":[1.6914102E2,8.0760315E1,3.4753113E1,0E0,0E0,0E0,0E0],"parents":[2147483647,0,0,1,1,2,2],"right_children":[2,4,6,-1,-1,-1,-1],"split_conditions":[1.95E1,1.95E1,3.585E-1,1.3403681E-3,4.3927687E-3,1.2737523E-3,-2.131166E-3],"split_indices":[28,80,55,0,0,0,0],"split_type":[0,0,0,0,0,0,0],"sum_hessian":[6.085501E3,4.259101E3,1.8264003E3,3.0479875E3,1.2111132E3,3.771489E2,1.4492513E3],"tree_param":{"num_deleted":"0","num_feature":"104","num_nodes":"7","size_leaf_vector":"0"}},{"base_weights":[-1.1067998E-1,-2.7905408E-1,5.2523278E-2,-3.4313905E-1,-8.459444E-3,-1.7358394E-1,1.4356989E-1],"categories":[],"categories_nodes":[],"categories_segments":[],"categories_sizes":[],"default_left":[1,1,1,0,0,0,0],"id":68,"left_children":[1,3,5,-1,-1,-1,-1],"loss_changes":[1.6721118E2,5.193274E1,6.364732E1,0E0,0E0,0E0,0E0],"parents":[2147483647,0,0,1,1,2,2],"right_children":[2,4,6,-1,-1,-1,-1],"split_conditions":[1.45E1,5.05E0,-2.45E0,-3.4313905E-3,-8.459444E-5,-1.7358394E-3,1.4356988E-3],"split_indices":[51,77,77,0,0,0,0],"split_type":[0,0,0,0,0,0,0],"sum_hessian":[6.0834756E3,2.9939534E3,3.089522E3,2.4204497E3,5.735037E2,8.86661E2,2.2028608E3],"tree_param":{"num_deleted":"0","num_feature":"104","num_nodes":"7","size_leaf_vector":"0"}},{"base_weights":[1.1067997E-1,2.7905405E-1,-5.2523285E-2,3.4313902E-1,8.459444E-3,1.7358394E-1,-1.4356989E-1],"categories":[],"categories_nodes":[],"categories_segments":[],"categories_sizes":[],"default_left":[1,1,1,0,0,0,0],"id":69,"left_children":[1,3,5,-1,-1,-1,-1],"loss_changes":[1.6721117E2,5.193271E1,6.3647316E1,0E0,0E0,0E0,0E0],"parents":[2147483647,0,0,1,1,2,2],"right_children":[2,4,6,-1,-1,-1,-1],"split_conditions":[1.45E1,5.05E0,-2.45E0,3.43139E-3,8.459444E-5,1.7358394E-3,-1.4356988E-3],"split_indices":[51,77,77,0,0,0,0],"split_type":[0,0,0,0,0,0,0],"sum_hessian":[6.0834756E3,2.9939534E3,3.089522E3,2.4204497E3,5.735037E2,8.866611E2,2.2028608E3],"tree_param":{"num_deleted":"0","num_feature":"104","num_nodes":"7","size_leaf_vector":"0"}},{"base_weights":[-1.09613344E-1,-1.969455E-1,2.0029734E-1,-6.6927366E-2,-3.3965757E-1,-4.278345E-2,2.6385292E-1],"categories":[],"categories_nodes":[],"categories_segments":[],"categories_sizes":[],"default_left":[1,1,1,0,0,0,0],"id":70,"left_children":[1,3,5,-1,-1,-1,-1],"loss_changes":[1.6465814E2,8.803343E1,2.067707E1,0E0,0E0,0E0,0E0],"parents":[2147483647,0,0,1,1,2,2],"right_children":[2,4,6,-1,-1,-1,-1],"split_conditions":[2.35E1,1.35E1,3.5900003E-1,-6.6927366E-4,-3.3965756E-3,-4.278345E-4,2.6385293E-3],"split_indices":[51,80,55,0,0,0,0],"split_type":[0,0,0,0,0,0,0],"sum_hessian":[6.081309E3,4.7446436E3,1.3366655E3,2.4835076E3,2.2611357E3,2.7711426E2,1.0595513E3],"tree_param":{"num_deleted":"0","num_feature":"104","num_nodes":"7","size_leaf_vector":"0"}},{"base_weights":[1.09613344E-1,1.9694549E-1,-2.0029733E-1,6.6927396E-2,3.3965752E-1,4.2783547E-2,-2.6385292E-1],"categories":[],"categories_nodes":[],"categories_segments":[],"categories_sizes":[],"default_left":[1,1,1,0,0,0,0],"id":71,"left_children":[1,3,5,-1,-1,-1,-1],"loss_changes":[1.6465814E2,8.803337E1,2.0677082E1,0E0,0E0,0E0,0E0],"parents":[2147483647,0,0,1,1,2,2],"right_children":[2,4,6,-1,-1,-1,-1],"split_conditions":[2.35E1,1.35E1,3.5900003E-1,6.6927396E-4,3.396575E-3,4.2783548E-4,-2.6385293E-3],"split_indices":[51,80,55,0,0,0,0],"split_type":[0,0,0,0,0,0,0],"sum_hessian":[6.081309E3,4.7446436E3,1.3366655E3,2.4835076E3,2.2611357E3,2.771143E2,1.0595513E3],"tree_param":{"num_deleted":"0","num_feature":"104","num_nodes":"7","size_leaf_vector":"0"}},{"base_weights":[-1.0855572E-1,-2.746287E-1,5.2297223E-2,-2.1067712E-1,-5.4218537E-1,-7.793604E-2,2.0657352E-1],"categories":[],"categories_nodes":[],"categories_segments":[],"categories_sizes":[],"default_left":[1,1,1,0,0,0,0],"id":72,"left_children":[1,3,5,-1,-1,-1,-1],"loss_changes":[1.6243646E2,5.1076004E1,6.208957E1,0E0,0E0,0E0,0E0],"parents":[2147483647,0,0,1,1,2,2],"right_children":[2,4,6,-1,-1,-1,-1],"split_conditions":[1.45E1,2.25E1,5.2250004E-1,-2.106771E-3,-5.4218536E-3,-7.7936036E-4,2.0657352E-3],"split_indices":[51,80,55,0,0,0,0],"split_type":[0,0,0,0,0,0,0],"sum_hessian":[6.07919E3,2.9907136E3,3.0884763E3,2.4152146E3,5.75499E2,1.6750052E3,1.413471E3],"tree_param":{"num_deleted":"0","num_feature":"104","num_nodes":"7","size_leaf_vector":"0"}},{"base_weights":[1.0855571E-1,2.746287E-1,-5.2297223E-2,2.1067712E-1,5.4218525E-1,7.793603E-2,-2.065735E-1],"categories":[],"categories_nodes":[],"categories_segments":[],"categories_sizes":[],"default_left":[1,1,1,0,0,0,0],"id":73,"left_children":[1,3,5,-1,-1,-1,-1],"loss_changes":[1.6243646E2,5.107596E1,6.2089554E1,0E0,0E0,0E0,0E0],"parents":[2147483647,0,0,1,1,2,2],"right_children":[2,4,6,-1,-1,-1,-1],"split_conditions":[1.45E1,2.25E1,5.2250004E-1,2.106771E-3,5.421852E-3,7.793603E-4,-2.065735E-3],"split_indices":[51,80,55,0,0,0,0],"split_type":[0,0,0,0,0,0,0],"sum_hessian":[6.07919E3,2.9907136E3,3.0884763E3,2.4152146E3,5.75499E2,1.6750052E3,1.4134711E3],"tree_param":{"num_deleted":"0","num_feature":"104","num_nodes":"7","size_leaf_vector":"0"}},{"base_weights":[-1.0751112E-1,1.5196437E-1,-2.0897625E-1,2.0890102E-1,-1.1848251E-1,-1.8934514E-2,-3.0521357E-1],"categories":[],"categories_nodes":[],"categories_segments":[],"categories_sizes":[],"default_left":[1,1,1,0,0,0,0],"id":74,"left_children":[1,3,5,-1,-1,-1,-1],"loss_changes":[1.6005066E2,2.63432E1,7.991376E1,0E0,0E0,0E0,0E0],"parents":[2147483647,0,0,1,1,2,2],"right_children":[2,4,6,-1,-1,-1,-1],"split_conditions":[-2.45E0,2.45E1,9.5E0,2.08901E-3,-1.1848251E-3,-1.8934514E-4,-3.0521357E-3],"split_indices":[25,81,103,0,0,0,0],"split_type":[0,0,0,0,0,0,0],"sum_hessian":[6.0769634E3,1.7081742E3,4.368789E3,1.4112864E3,2.9688782E2,1.4690411E3,2.899748E3],"tree_param":{"num_deleted":"0","num_feature":"104","num_nodes":"7","size_leaf_vector":"0"}},{"base_weights":[1.0751112E-1,-1.519644E-1,2.0897627E-1,-2.0890106E-1,1.1848252E-1,1.8934565E-2,3.0521357E-1],"categories":[],"categories_nodes":[],"categories_segments":[],"categories_sizes":[],"default_left":[1,1,1,0,0,0,0],"id":75,"left_children":[1,3,5,-1,-1,-1,-1],"loss_changes":[1.6005069E2,2.6343204E1,7.991371E1,0E0,0E0,0E0,0E0],"parents":[2147483647,0,0,1,1,2,2],"right_children":[2,4,6,-1,-1,-1,-1],"split_conditions":[-2.45E0,2.45E1,9.5E0,-2.0890106E-3,1.1848252E-3,1.8934564E-4,3.0521357E-3],"split_indices":[25,81,103,0,0,0,0],"split_type":[0,0,0,0,0,0,0],"sum_hessian":[6.0769634E3,1.7081742E3,4.368789E3,1.4112864E3,2.9688785E2,1.4690411E3,2.899748E3],"tree_param":{"num_deleted":"0","num_feature":"104","num_nodes":"7","size_leaf_vector":"0"}},{"base_weights":[-1.0647521E-1,1.011574E-1,-2.3138298E-1,-2.1735666E-2,2.426843E-1,-3.2345423E-1,-3.345234E-2],"categories":[],"categories_nodes":[],"categories_segments":[],"categories_sizes":[],"default_left":[1,1,1,0,0,0,0],"id":76,"left_children":[1,3,5,-1,-1,-1,-1],"loss_changes":[1.575981E2,3.971029E1,6.912839E1,0E0,0E0,0E0,0E0],"parents":[2147483647,0,0,1,1,2,2],"right_children":[2,4,6,-1,-1,-1,-1],"split_conditions":[4.585E-1,5.1750004E-1,2.95E0,-2.1735666E-4,2.426843E-3,-3.2345422E-3,-3.3452339E-4],"split_indices":[3,55,77,0,0,0,0],"split_type":[0,0,0,0,0,0,0],"sum_hessian":[6.0747715E3,2.2818582E3,3.7929136E3,1.2217842E3,1.060074E3,2.5882876E3,1.2046261E3],"tree_param":{"num_deleted":"0","num_feature":"104","num_nodes":"7","size_leaf_vector":"0"}},{"base_weights":[1.06475204E-1,-1.0115738E-1,2.3138297E-1,2.1735694E-2,-2.4268432E-1,3.2345423E-1,3.3452336E-2],"categories":[],"categories_nodes":[],"categories_segments":[],"categories_sizes":[],"default_left":[1,1,1,0,0,0,0],"id":77,"left_children":[1,3,5,-1,-1,-1,-1],"loss_changes":[1.5759805E2,3.9710297E1,6.912839E1,0E0,0E0,0E0,0E0],"parents":[2147483647,0,0,1,1,2,2],"right_children":[2,4,6,-1,-1,-1,-1],"split_conditions":[4.585E-1,5.1750004E-1,2.95E0,2.1735694E-4,-2.4268432E-3,3.2345422E-3,3.3452336E-4],"split_indices":[3,55,77,0,0,0,0],"split_type":[0,0,0,0,0,0,0],"sum_hessian":[6.0747715E3,2.2818582E3,3.7929136E3,1.2217842E3,1.060074E3,2.5882876E3,1.2046261E3],"tree_param":{"num_deleted":"0","num_feature":"104","num_nodes":"7","size_leaf_vector":"0"}},{"base_weights":[-1.0545135E-1,-2.6810732E-1,5.1904917E-2,-2.050469E-1,-5.3261346E-1,-1.673808E-1,1.4017755E-1],"categories":[],"categories_nodes":[],"categories_segments":[],"categories_sizes":[],"default_left":[1,1,1,0,0,0,0],"id":78,"left_children":[1,3,5,-1,-1,-1,-1],"loss_changes":[1.554636E2,4.970685E1,5.979486E1,0E0,0E0,0E0,0E0],"parents":[2147483647,0,0,1,1,2,2],"right_children":[2,4,6,-1,-1,-1,-1],"split_conditions":[1.45E1,2.25E1,-2.45E0,-2.050469E-3,-5.3261346E-3,-1.6738079E-3,1.4017754E-3],"split_indices":[51,80,77,0,0,0,0],"split_type":[0,0,0,0,0,0,0],"sum_hessian":[6.072454E3,2.9855981E3,3.0868557E3,2.4122688E3,5.733293E2,8.857044E2,2.2011514E3],"tree_param":{"num_deleted":"0","num_feature":"104","num_nodes":"7","size_leaf_vector":"0"}},{"base_weights":[1.0545134E-1,2.681073E-1,-5.1904924E-2,2.0504689E-1,5.3261346E-1,1.673808E-1,-1.4017756E-1],"categories":[],"categories_nodes":[],"categories_segments":[],"categories_sizes":[],"default_left":[1,1,1,0,0,0,0],"id":79,"left_children":[1,3,5,-1,-1,-1,-1],"loss_changes":[1.5546356E2,4.9706863E1,5.9794865E1,0E0,0E0,0E0,0E0],"parents":[2147483647,0,0,1,1,2,2],"right_children":[2,4,6,-1,-1,-1,-1],"split_conditions":[1.45E1,2.25E1,-2.45E0,2.050469E-3,5.3261346E-3,1.6738079E-3,-1.4017756E-3],"split_indices":[51,80,77,0,0,0,0],"split_type":[0,0,0,0,0,0,0],"sum_hessian":[6.072454E3,2.9855981E3,3.0868557E3,2.4122688E3,5.733293E2,8.857044E2,2.2011514E3],"tree_param":{"num_deleted":"0","num_feature":"104","num_nodes":"7","size_leaf_vector":"0"}},{"base_weights":[-1.0443891E-1,-1.8894155E-1,1.9509333E-1,3.2677986E-2,-2.6847073E-1,-3.941063E-2,2.564571E-1],"categories":[],"categories_nodes":[],"categories_segments":[],"categories_sizes":[],"default_left":[1,1,1,0,0,0,0],"id":80,"left_children":[1,3,5,-1,-1,-1,-1],"loss_changes":[1.5370447E2,8.347728E1,1.9240582E1,0E0,0E0,0E0,0E0],"parents":[2147483647,0,0,1,1,2,2],"right_children":[2,4,6,-1,-1,-1,-1],"split_conditions":[2.35E1,7.5E0,3.5900003E-1,3.2677985E-4,-2.6847073E-3,-3.9410626E-4,2.5645709E-3],"split_indices":[51,103,55,0,0,0,0],"split_type":[0,0,0,0,0,0,0],"sum_hessian":[6.070115E3,4.734741E3,1.3353739E3,1.2505349E3,3.4842063E3,2.770343E2,1.0583396E3],"tree_param":{"num_deleted":"0","num_feature":"104","num_nodes":"7","size_leaf_vector":"0"}},{"base_weights":[1.0443895E-1,1.8894158E-1,-1.950933E-1,-3.2677926E-2,2.6847076E-1,3.9410718E-2,-2.564571E-1],"categories":[],"categories_nodes":[],"categories_segments":[],"categories_sizes":[],"default_left":[1,1,1,0,0,0,0],"id":81,"left_children":[1,3,5,-1,-1,-1,-1],"loss_changes":[1.5370447E2,8.3477234E1,1.9240597E1,0E0,0E0,0E0,0E0],"parents":[2147483647,0,0,1,1,2,2],"right_children":[2,4,6,-1,-1,-1,-1],"split_conditions":[2.35E1,7.5E0,3.5900003E-1,-3.2677926E-4,2.6847075E-3,3.9410716E-4,-2.5645709E-3],"split_indices":[51,103,55,0,0,0,0],"split_type":[0,0,0,0,0,0,0],"sum_hessian":[6.070115E3,4.734741E3,1.3353738E3,1.2505349E3,3.4842063E3,2.770343E2,1.0583395E3],"tree_param":{"num_deleted":"0","num_feature":"104","num_nodes":"7","size_leaf_vector":"0"}},{"base_weights":[-1.03432134E-1,-2.068518E-1,1.3722108E-1,-1.2363604E-1,-4.1704696E-1,-1.18314154E-1,2.0378704E-1],"categories":[],"categories_nodes":[],"categories_segments":[],"categories_sizes":[],"default_left":[1,1,1,0,0,0,0],"id":82,"left_children":[1,3,5,-1,-1,-1,-1],"loss_changes":[1.5107358E2,7.4202866E1,3.1063332E1,0E0,0E0,0E0,0E0],"parents":[2147483647,0,0,1,1,2,2],"right_children":[2,4,6,-1,-1,-1,-1],"split_conditions":[1.95E1,1.95E1,3.585E-1,-1.2363603E-3,-4.1704695E-3,-1.1831415E-3,2.0378705E-3],"split_indices":[28,80,55,0,0,0,0],"split_type":[0,0,0,0,0,0,0],"sum_hessian":[6.067929E3,4.24416E3,1.8237688E3,3.0415903E3,1.2025701E3,3.767424E2,1.4470265E3],"tree_param":{"num_deleted":"0","num_feature":"104","num_nodes":"7","size_leaf_vector":"0"}},{"base_weights":[1.0343213E-1,2.0685178E-1,-1.3722105E-1,1.2363602E-1,4.170469E-1,1.18314154E-1,-2.0378701E-1],"categories":[],"categories_nodes":[],"categories_segments":[],"categories_sizes":[],"default_left":[1,1,1,0,0,0,0],"id":83,"left_children":[1,3,5,-1,-1,-1,-1],"loss_changes":[1.5107355E2,7.4202835E1,3.1063328E1,0E0,0E0,0E0,0E0],"parents":[2147483647,0,0,1,1,2,2],"right_children":[2,4,6,-1,-1,-1,-1],"split_conditions":[1.95E1,1.95E1,3.585E-1,1.2363602E-3,4.170469E-3,1.1831415E-3,-2.03787E-3],"split_indices":[28,80,55,0,0,0,0],"split_type":[0,0,0,0,0,0,0],"sum_hessian":[6.067929E3,4.24416E3,1.8237689E3,3.0415903E3,1.2025702E3,3.767424E2,1.4470265E3],"tree_param":{"num_deleted":"0","num_feature":"104","num_nodes":"7","size_leaf_vector":"0"}},{"base_weights":[-1.0243773E-1,-2.620388E-1,5.1789783E-2,-2.000784E-1,-5.2274305E-1,2.0452464E-1,-7.102245E-2],"categories":[],"categories_nodes":[],"categories_segments":[],"categories_sizes":[],"default_left":[1,1,1,0,0,0,0],"id":84,"left_children":[1,3,5,-1,-1,-1,-1],"loss_changes":[1.4934311E2,4.8057327E1,5.7902546E1,0E0,0E0,0E0,0E0],"parents":[2147483647,0,0,1,1,2,2],"right_children":[2,4,6,-1,-1,-1,-1],"split_conditions":[1.45E1,2.25E1,1.35E1,-2.000784E-3,-5.2274303E-3,2.0452463E-3,-7.102245E-4],"split_indices":[51,80,103,0,0,0,0],"split_type":[0,0,0,0,0,0,0],"sum_hessian":[6.0656387E3,2.9805461E3,3.0850923E3,2.4096282E3,5.7091785E2,1.3747391E3,1.7103531E3],"tree_param":{"num_deleted":"0","num_feature":"104","num_nodes":"7","size_leaf_vector":"0"}},{"base_weights":[1.0243774E-1,2.620388E-1,-5.1789783E-2,2.0007841E-1,5.2274305E-1,-2.0452465E-1,7.102246E-2],"categories":[],"categories_nodes":[],"categories_segments":[],"categories_sizes":[],"default_left":[1,1,1,0,0,0,0],"id":85,"left_children":[1,3,5,-1,-1,-1,-1],"loss_changes":[1.4934314E2,4.8057327E1,5.7902557E1,0E0,0E0,0E0,0E0],"parents":[2147483647,0,0,1,1,2,2],"right_children":[2,4,6,-1,-1,-1,-1],"split_conditions":[1.45E1,2.25E1,1.35E1,2.000784E-3,5.2274303E-3,-2.0452465E-3,7.1022456E-4],"split_indices":[51,80,103,0,0,0,0],"split_type":[0,0,0,0,0,0,0],"sum_hessian":[6.0656387E3,2.9805461E3,3.0850923E3,2.4096282E3,5.7091785E2,1.3747391E3,1.7103531E3],"tree_param":{"num_deleted":"0","num_feature":"104","num_nodes":"7","size_leaf_vector":"0"}},{"base_weights":[-1.0145493E-1,-1.8420158E-1,1.9167203E-1,3.3838987E-2,-2.6255307E-1,2.4542092E-1,-6.2976435E-2],"categories":[],"categories_nodes":[],"categories_segments":[],"categories_sizes":[],"default_left":[1,1,1,0,0,0,0],"id":86,"left_children":[1,3,5,-1,-1,-1,-1],"loss_changes":[1.4712523E2,8.081084E1,1.8294582E1,0E0,0E0,0E0,0E0],"parents":[2147483647,0,0,1,1,2,2],"right_children":[2,4,6,-1,-1,-1,-1],"split_conditions":[2.35E1,7.5E0,2.45E1,3.3838986E-4,-2.6255306E-3,2.4542091E-3,-6.2976434E-4],"split_indices":[51,103,81,0,0,0,0],"split_type":[0,0,0,0,0,0,0],"sum_hessian":[6.0632446E3,4.7287417E3,1.3345026E3,1.2501967E3,3.4785452E3,1.1019492E3,2.3255325E2],"tree_param":{"num_deleted":"0","num_feature":"104","num_nodes":"7","size_leaf_vector":"0"}},{"base_weights":[1.01454936E-1,1.842016E-1,-1.9167201E-1,-3.3838976E-2,2.6255304E-1,-2.4542089E-1,6.2976345E-2],"categories":[],"categories_nodes":[],"categories_segments":[],"categories_sizes":[],"default_left":[1,1,1,0,0,0,0],"id":87,"left_children":[1,3,5,-1,-1,-1,-1],"loss_changes":[1.4712524E2,8.081081E1,1.8294567E1,0E0,0E0,0E0,0E0],"parents":[2147483647,0,0,1,1,2,2],"right_children":[2,4,6,-1,-1,-1,-1],"split_conditions":[2.35E1,7.5E0,2.45E1,-3.3838974E-4,2.6255304E-3,-2.454209E-3,6.2976347E-4],"split_indices":[51,103,81,0,0,0,0],"split_type":[0,0,0,0,0,0,0],"sum_hessian":[6.0632446E3,4.7287417E3,1.3345026E3,1.2501967E3,3.4785452E3,1.1019492E3,2.3255325E2],"tree_param":{"num_deleted":"0","num_feature":"104","num_nodes":"7","size_leaf_vector":"0"}},{"base_weights":[-1.00478195E-1,-2.579318E-1,5.1545717E-2,-1.966313E-1,-5.1639855E-1,2.0211248E-1,-6.9512285E-2],"categories":[],"categories_nodes":[],"categories_segments":[],"categories_sizes":[],"default_left":[1,1,1,0,0,0,0],"id":88,"left_children":[1,3,5,-1,-1,-1,-1],"loss_changes":[1.4511737E2,4.7082016E1,5.624539E1,0E0,0E0,0E0,0E0],"parents":[2147483647,0,0,1,1,2,2],"right_children":[2,4,6,-1,-1,-1,-1],"split_conditions":[1.45E1,2.25E1,1.35E1,-1.966313E-3,-5.1639853E-3,2.0211248E-3,-6.951228E-4],"split_indices":[51,80,103,0,0,0,0],"split_type":[0,0,0,0,0,0,0],"sum_hessian":[6.0609873E3,2.9769822E3,3.0840051E3,2.4077075E3,5.6927484E2,1.3741841E3,1.7098209E3],"tree_param":{"num_deleted":"0","num_feature":"104","num_nodes":"7","size_leaf_vector":"0"}},{"base_weights":[1.00478195E-1,2.579318E-1,-5.1545717E-2,1.966313E-1,5.1639855E-1,-2.0211247E-1,6.9512285E-2],"categories":[],"categories_nodes":[],"categories_segments":[],"categories_sizes":[],"default_left":[1,1,1,0,0,0,0],"id":89,"left_children":[1,3,5,-1,-1,-1,-1],"loss_changes":[1.4511734E2,4.708203E1,5.6245384E1,0E0,0E0,0E0,0E0],"parents":[2147483647,0,0,1,1,2,2],"right_children":[2,4,6,-1,-1,-1,-1],"split_conditions":[1.45E1,2.25E1,1.35E1,1.966313E-3,5.1639853E-3,-2.0211246E-3,6.951228E-4],"split_indices":[51,80,103,0,0,0,0],"split_type":[0,0,0,0,0,0,0],"sum_hessian":[6.0609873E3,2.9769822E3,3.0840051E3,2.4077075E3,5.6927484E2,1.3741842E3,1.7098209E3],"tree_param":{"num_deleted":"0","num_feature":"104","num_nodes":"7","size_leaf_vector":"0"}},{"base_weights":[-9.951519E-2,-1.810921E-1,1.8934275E-1,3.4127694E-2,-2.585033E-1,-3.628642E-2,2.4844354E-1],"categories":[],"categories_nodes":[],"categories_segments":[],"categories_sizes":[],"default_left":[1,1,1,0,0,0,0],"id":90,"left_children":[1,3,5,-1,-1,-1,-1],"loss_changes":[1.4282202E2,7.8739685E1,1.7809937E1,0E0,0E0,0E0,0E0],"parents":[2147483647,0,0,1,1,2,2],"right_children":[2,4,6,-1,-1,-1,-1],"split_conditions":[2.35E1,7.5E0,3.5900003E-1,3.4127693E-4,-2.5850327E-3,-3.628642E-4,2.4844354E-3],"split_indices":[51,103,55,0,0,0,0],"split_type":[0,0,0,0,0,0,0],"sum_hessian":[6.0585366E3,4.724621E3,1.3339158E3,1.2499764E3,3.4746445E3,2.769582E2,1.0569576E3],"tree_param":{"num_deleted":"0","num_feature":"104","num_nodes":"7","size_leaf_vector":"0"}},{"base_weights":[9.951518E-2,1.8109208E-1,-1.8934275E-1,-3.4127664E-2,2.5850326E-1,3.628637E-2,-2.4844353E-1],"categories":[],"categories_nodes":[],"categories_segments":[],"categories_sizes":[],"default_left":[1,1,1,0,0,0,0],"id":91,"left_children":[1,3,5,-1,-1,-1,-1],"loss_changes":[1.4282202E2,7.873964E1,1.7809933E1,0E0,0E0,0E0,0E0],"parents":[2147483647,0,0,1,1,2,2],"right_children":[2,4,6,-1,-1,-1,-1],"split_conditions":[2.35E1,7.5E0,3.5900003E-1,-3.4127664E-4,2.5850325E-3,3.6286368E-4,-2.4844352E-3],"split_indices":[51,103,55,0,0,0,0],"split_type":[0,0,0,0,0,0,0],"sum_hessian":[6.0585366E3,4.724621E3,1.3339159E3,1.2499764E3,3.4746445E3,2.769582E2,1.0569576E3],"tree_param":{"num_deleted":"0","num_feature":"104","num_nodes":"7","size_leaf_vector":"0"}},{"base_weights":[-9.8558255E-2,-2.538987E-1,5.129729E-2,-3.1476957E-1,1.2069556E-3,-1.59178E-1,1.3598046E-1],"categories":[],"categories_nodes":[],"categories_segments":[],"categories_sizes":[],"default_left":[1,1,1,0,0,0,0],"id":92,"left_children":[1,3,5,-1,-1,-1,-1],"loss_changes":[1.4101656E2,4.618747E1,5.4987602E1,0E0,0E0,0E0,0E0],"parents":[2147483647,0,0,1,1,2,2],"right_children":[2,4,6,-1,-1,-1,-1],"split_conditions":[1.45E1,5.05E0,-2.45E0,-3.1476957E-3,1.2069556E-5,-1.59178E-3,1.3598045E-3],"split_indices":[51,77,77,0,0,0,0],"split_type":[0,0,0,0,0,0,0],"sum_hessian":[6.0562095E3,2.9733433E3,3.0828662E3,2.400359E3,5.729843E2,8.8424493E2,2.198621E3],"tree_param":{"num_deleted":"0","num_feature":"104","num_nodes":"7","size_leaf_vector":"0"}},{"base_weights":[9.855823E-2,2.538987E-1,-5.129731E-2,3.1476957E-1,-1.2070397E-3,1.5917799E-1,-1.3598049E-1],"categories":[],"categories_nodes":[],"categories_segments":[],"categories_sizes":[],"default_left":[1,1,1,0,0,0,0],"id":93,"left_children":[1,3,5,-1,-1,-1,-1],"loss_changes":[1.4101657E2,4.61875E1,5.4987602E1,0E0,0E0,0E0,0E0],"parents":[2147483647,0,0,1,1,2,2],"right_children":[2,4,6,-1,-1,-1,-1],"split_conditions":[1.45E1,5.05E0,-2.45E0,3.1476957E-3,-1.2070396E-5,1.5917799E-3,-1.3598049E-3],"split_indices":[51,77,77,0,0,0,0],"split_type":[0,0,0,0,0,0,0],"sum_hessian":[6.0562095E3,2.9733433E3,3.0828662E3,2.400359E3,5.729843E2,8.84245E2,2.198621E3],"tree_param":{"num_deleted":"0","num_feature":"104","num_nodes":"7","size_leaf_vector":"0"}},{"base_weights":[-9.761431E-2,-1.9707875E-1,1.3344458E-1,-1.16425045E-1,-4.016507E-1,-1.1218931E-1,1.9745544E-1],"categories":[],"categories_nodes":[],"categories_segments":[],"categories_sizes":[],"default_left":[1,1,1,0,0,0,0],"id":94,"left_children":[1,3,5,-1,-1,-1,-1],"loss_changes":[1.3917609E2,6.979649E1,2.8679882E1,0E0,0E0,0E0,0E0],"parents":[2147483647,0,0,1,1,2,2],"right_children":[2,4,6,-1,-1,-1,-1],"split_conditions":[1.95E1,1.95E1,3.585E-1,-1.1642504E-3,-4.016507E-3,-1.1218931E-3,1.9745543E-3],"split_indices":[28,80,55,0,0,0,0],"split_type":[0,0,0,0,0,0,0],"sum_hessian":[6.053693E3,4.232057E3,1.8216359E3,3.036477E3,1.1955798E3,3.7641943E2,1.4452164E3],"tree_param":{"num_deleted":"0","num_feature":"104","num_nodes":"7","size_leaf_vector":"0"}},{"base_weights":[9.7614326E-2,1.9707876E-1,-1.3344456E-1,1.16425075E-1,4.016507E-1,1.1218934E-1,-1.9745542E-1],"categories":[],"categories_nodes":[],"categories_segments":[],"categories_sizes":[],"default_left":[1,1,1,0,0,0,0],"id":95,"left_children":[1,3,5,-1,-1,-1,-1],"loss_changes":[1.3917612E2,6.979646E1,2.867989E1,0E0,0E0,0E0,0E0],"parents":[2147483647,0,0,1,1,2,2],"right_children":[2,4,6,-1,-1,-1,-1],"split_conditions":[1.95E1,1.95E1,3.585E-1,1.1642508E-3,4.016507E-3,1.1218934E-3,-1.9745543E-3],"split_indices":[28,80,55,0,0,0,0],"split_type":[0,0,0,0,0,0,0],"sum_hessian":[6.053693E3,4.2320566E3,1.8216359E3,3.036477E3,1.1955798E3,3.7641943E2,1.4452164E3],"tree_param":{"num_deleted":"0","num_feature":"104","num_nodes":"7","size_leaf_vector":"0"}},{"base_weights":[-9.6678436E-2,-2.4978717E-1,5.0890725E-2,-1.8961631E-1,-5.045227E-1,-6.9582924E-2,1.9529809E-1],"categories":[],"categories_nodes":[],"categories_segments":[],"categories_sizes":[],"default_left":[1,1,1,0,0,0,0],"id":96,"left_children":[1,3,5,-1,-1,-1,-1],"loss_changes":[1.36758E2,4.543576E1,5.364431E1,0E0,0E0,0E0,0E0],"parents":[2147483647,0,0,1,1,2,2],"right_children":[2,4,6,-1,-1,-1,-1],"split_conditions":[1.45E1,2.25E1,5.245E-1,-1.896163E-3,-5.045227E-3,-6.958292E-4,1.9529809E-3],"split_indices":[51,80,55,0,0,0,0],"split_type":[0,0,0,0,0,0,0],"sum_hessian":[6.051248E3,2.969541E3,3.0817068E3,2.4035457E3,5.659953E2,1.680362E3,1.4013448E3],"tree_param":{"num_deleted":"0","num_feature":"104","num_nodes":"7","size_leaf_vector":"0"}},{"base_weights":[9.6678466E-2,2.4978721E-1,-5.0890703E-2,1.8961634E-1,5.045227E-1,6.9582924E-2,-1.9529805E-1],"categories":[],"categories_nodes":[],"categories_segments":[],"categories_sizes":[],"default_left":[1,1,1,0,0,0,0],"id":97,"left_children":[1,3,5,-1,-1,-1,-1],"loss_changes":[1.36758E2,4.5435776E1,5.364429E1,0E0,0E0,0E0,0E0],"parents":[2147483647,0,0,1,1,2,2],"right_children":[2,4,6,-1,-1,-1,-1],"split_conditions":[1.45E1,2.25E1,5.245E-1,1.8961633E-3,5.045227E-3,6.958292E-4,-1.9529804E-3],"split_indices":[51,80,55,0,0,0,0],"split_type":[0,0,0,0,0,0,0],"sum_hessian":[6.051248E3,2.969541E3,3.0817068E3,2.4035457E3,5.659953E2,1.6803619E3,1.4013448E3],"tree_param":{"num_deleted":"0","num_feature":"104","num_nodes":"7","size_leaf_vector":"0"}},{"base_weights":[-9.575371E-2,-1.7526363E-1,1.8552513E-1,-3.8393643E-2,-2.9231045E-1,2.3704064E-1,-5.8291428E-2],"categories":[],"categories_nodes":[],"categories_segments":[],"categories_sizes":[],"default_left":[1,1,1,0,0,0,0],"id":98,"left_children":[1,3,5,-1,-1,-1,-1],"loss_changes":[1.353305E2,7.555577E1,1.6765587E1,0E0,0E0,0E0,0E0],"parents":[2147483647,0,0,1,1,2,2],"right_children":[2,4,6,-1,-1,-1,-1],"split_conditions":[2.35E1,1.15E1,2.45E1,-3.8393642E-4,-2.9231044E-3,2.3704064E-3,-5.829143E-4],"split_indices":[51,80,81,0,0,0,0],"split_type":[0,0,0,0,0,0,0],"sum_hessian":[6.0486875E3,4.7159834E3,1.3327041E3,2.1745164E3,2.541467E3,1.1002601E3,2.3244391E2],"tree_param":{"num_deleted":"0","num_feature":"104","num_nodes":"7","size_leaf_vector":"0"}},{"base_weights":[9.575369E-2,1.7526361E-1,-1.8552513E-1,3.8393643E-2,2.9231042E-1,-2.3704064E-1,5.829142E-2],"categories":[],"categories_nodes":[],"categories_segments":[],"categories_sizes":[],"default_left":[1,1,1,0,0,0,0],"id":99,"left_children":[1,3,5,-1,-1,-1,-1],"loss_changes":[1.3533049E2,7.555577E1,1.6765587E1,0E0,0E0,0E0,0E0],"parents":[2147483647,0,0,1,1,2,2],"right_children":[2,4,6,-1,-1,-1,-1],"split_conditions":[2.35E1,1.15E1,2.45E1,3.8393642E-4,2.9231042E-3,-2.3704064E-3,5.829142E-4],"split_indices":[51,80,81,0,0,0,0],"split_type":[0,0,0,0,0,0,0],"sum_hessian":[6.0486875E3,4.7159834E3,1.3327041E3,2.1745164E3,2.5414668E3,1.1002601E3,2.3244391E2],"tree_param":{"num_deleted":"0","num_feature":"104","num_nodes":"7","size_leaf_vector":"0"}},{"base_weights":[-9.483575E-2,9.614477E-2,-2.1017447E-1,-1.7645264E-2,2.2736731E-1,-3.940862E-1,-1.21388964E-1],"categories":[],"categories_nodes":[],"categories_segments":[],"categories_sizes":[],"default_left":[1,1,1,0,0,0,0],"id":100,"left_children":[1,3,5,-1,-1,-1,-1],"loss_changes":[1.332247E2,3.401342E1,6.1520477E1,0E0,0E0,0E0,0E0],"parents":[2147483647,0,0,1,1,2,2],"right_children":[2,4,6,-1,-1,-1,-1],"split_conditions":[4.585E-1,5.1750004E-1,-1.45E0,-1.7645264E-4,2.273673E-3,-3.940862E-3,-1.2138896E-3],"split_indices":[3,55,77,0,0,0,0],"split_type":[0,0,0,0,0,0,0],"sum_hessian":[6.0462046E3,2.2766467E3,3.7695579E3,1.219778E3,1.0568687E3,1.2261832E3,2.5433748E3],"tree_param":{"num_deleted":"0","num_feature":"104","num_nodes":"7","size_leaf_vector":"0"}},{"base_weights":[9.483575E-2,-9.614476E-2,2.1017447E-1,1.764527E-2,-2.2736731E-1,3.9408618E-1,1.2138898E-1],"categories":[],"categories_nodes":[],"categories_segments":[],"categories_sizes":[],"default_left":[1,1,1,0,0,0,0],"id":101,"left_children":[1,3,5,-1,-1,-1,-1],"loss_changes":[1.3322467E2,3.401342E1,6.1520447E1,0E0,0E0,0E0,0E0],"parents":[2147483647,0,0,1,1,2,2],"right_children":[2,4,6,-1,-1,-1,-1],"split_conditions":[4.585E-1,5.1750004E-1,-1.45E0,1.764527E-4,-2.273673E-3,3.9408617E-3,1.2138898E-3],"split_indices":[3,55,77,0,0,0,0],"split_type":[0,0,0,0,0,0,0],"sum_hessian":[6.0462046E3,2.2766467E3,3.7695579E3,1.219778E3,1.0568687E3,1.2261831E3,2.5433748E3],"tree_param":{"num_deleted":"0","num_feature":"104","num_nodes":"7","size_leaf_vector":"0"}},{"base_weights":[-9.392913E-2,-2.4405888E-1,5.0584678E-2,-3.038617E-1,5.7254774E-3,1.9467197E-1,-6.5252736E-2],"categories":[],"categories_nodes":[],"categories_segments":[],"categories_sizes":[],"default_left":[1,1,1,0,0,0,0],"id":102,"left_children":[1,3,5,-1,-1,-1,-1],"loss_changes":[1.311546E2,4.4290237E1,5.143218E1,0E0,0E0,0E0,0E0],"parents":[2147483647,0,0,1,1,2,2],"right_children":[2,4,6,-1,-1,-1,-1],"split_conditions":[1.45E1,5.05E0,1.35E1,-3.038617E-3,5.7254772E-5,1.9467197E-3,-6.525273E-4],"split_indices":[51,77,103,0,0,0,0],"split_type":[0,0,0,0,0,0,0],"sum_hessian":[6.043585E3,2.963859E3,3.0797263E3,2.3911567E3,5.727022E2,1.3722001E3,1.7075261E3],"tree_param":{"num_deleted":"0","num_feature":"104","num_nodes":"7","size_leaf_vector":"0"}},{"base_weights":[9.392911E-2,2.4405885E-1,-5.0584685E-2,3.0386168E-1,-5.725476E-3,-1.9467199E-1,6.525275E-2],"categories":[],"categories_nodes":[],"categories_segments":[],"categories_sizes":[],"default_left":[1,1,1,0,0,0,0],"id":103,"left_children":[1,3,5,-1,-1,-1,-1],"loss_changes":[1.3115459E2,4.4290237E1,5.143219E1,0E0,0E0,0E0,0E0],"parents":[2147483647,0,0,1,1,2,2],"right_children":[2,4,6,-1,-1,-1,-1],"split_conditions":[1.45E1,5.05E0,1.35E1,3.0386166E-3,-5.7254758E-5,-1.9467198E-3,6.525275E-4],"split_indices":[51,77,103,0,0,0,0],"split_type":[0,0,0,0,0,0,0],"sum_hessian":[6.0435854E3,2.963859E3,3.0797263E3,2.3911567E3,5.727022E2,1.3722001E3,1.7075262E3],"tree_param":{"num_deleted":"0","num_feature":"104","num_nodes":"7","size_leaf_vector":"0"}},{"base_weights":[-9.3030564E-2,-1.7096075E-1,1.8245748E-1,3.637522E-2,-2.4579601E-1,2.3303725E-1,-5.6772072E-2],"categories":[],"categories_nodes":[],"categories_segments":[],"categories_sizes":[],"default_left":[1,1,1,0,0,0,0],"id":104,"left_children":[1,3,5,-1,-1,-1,-1],"loss_changes":[1.2974564E2,7.3092926E1,1.6139946E1,0E0,0E0,0E0,0E0],"parents":[2147483647,0,0,1,1,2,2],"right_children":[2,4,6,-1,-1,-1,-1],"split_conditions":[2.35E1,7.5E0,2.45E1,3.637522E-4,-2.45796E-3,2.3303723E-3,-5.677207E-4],"split_indices":[51,103,81,0,0,0,0],"split_type":[0,0,0,0,0,0,0],"sum_hessian":[6.040988E3,4.7092207E3,1.3317671E3,1.2490792E3,3.4601416E3,1.0993582E3,2.3240892E2],"tree_param":{"num_deleted":"0","num_feature":"104","num_nodes":"7","size_leaf_vector":"0"}},{"base_weights":[9.303057E-2,1.7096075E-1,-1.8245746E-1,-3.637524E-2,2.4579602E-1,-2.3303723E-1,5.677209E-2],"categories":[],"categories_nodes":[],"categories_segments":[],"categories_sizes":[],"default_left":[1,1,1,0,0,0,0],"id":105,"left_children":[1,3,5,-1,-1,-1,-1],"loss_changes":[1.2974562E2,7.3092926E1,1.6139946E1,0E0,0E0,0E0,0E0],"parents":[2147483647,0,0,1,1,2,2],"right_children":[2,4,6,-1,-1,-1,-1],"split_conditions":[2.35E1,7.5E0,2.45E1,-3.637524E-4,2.4579603E-3,-2.3303723E-3,5.677209E-4],"split_indices":[51,103,81,0,0,0,0],"split_type":[0,0,0,0,0,0,0],"sum_hessian":[6.040988E3,4.7092207E3,1.3317671E3,1.2490792E3,3.4601416E3,1.0993582E3,2.3240894E2],"tree_param":{"num_deleted":"0","num_feature":"104","num_nodes":"7","size_leaf_vector":"0"}},{"base_weights":[-9.213823E-2,5.861828E-3,-3.079154E-1,-1.8944347E-1,9.524459E-2,-3.607966E-1,-2.8810358E-2],"categories":[],"categories_nodes":[],"categories_segments":[],"categories_sizes":[],"default_left":[1,1,1,0,0,0,0],"id":106,"left_children":[1,3,5,-1,-1,-1,-1],"loss_changes":[1.27714615E2,7.253793E1,2.7830383E1,0E0,0E0,0E0,0E0],"parents":[2147483647,0,0,1,1,2,2],"right_children":[2,4,6,-1,-1,-1,-1],"split_conditions":[2.85E0,-1.95E0,5.95E0,-1.8944347E-3,9.5244584E-4,-3.607966E-3,-2.8810356E-4],"split_indices":[25,77,77,0,0,0,0],"split_type":[0,0,0,0,0,0,0],"sum_hessian":[6.038524E3,4.1532188E3,1.8853052E3,1.3036238E3,2.8495952E3,1.5847538E3,3.0055142E2],"tree_param":{"num_deleted":"0","num_feature":"104","num_nodes":"7","size_leaf_vector":"0"}},{"base_weights":[9.213824E-2,-5.861832E-3,3.0791542E-1,1.8944345E-1,-9.5244594E-2,3.6079663E-1,2.8810475E-2],"categories":[],"categories_nodes":[],"categories_segments":[],"categories_sizes":[],"default_left":[1,1,1,0,0,0,0],"id":107,"left_children":[1,3,5,-1,-1,-1,-1],"loss_changes":[1.2771467E2,7.253793E1,2.7830338E1,0E0,0E0,0E0,0E0],"parents":[2147483647,0,0,1,1,2,2],"right_children":[2,4,6,-1,-1,-1,-1],"split_conditions":[2.85E0,-1.95E0,5.95E0,1.8944344E-3,-9.524459E-4,3.6079662E-3,2.8810475E-4],"split_indices":[25,77,77,0,0,0,0],"split_type":[0,0,0,0,0,0,0],"sum_hessian":[6.038524E3,4.1532188E3,1.8853052E3,1.3036238E3,2.8495952E3,1.5847538E3,3.0055142E2],"tree_param":{"num_deleted":"0","num_feature":"104","num_nodes":"7","size_leaf_vector":"0"}},{"base_weights":[-9.1252945E-2,-1.8636338E-1,1.2923229E-1,-1.0868211E-1,-3.8443282E-1,-1.05876185E-1,1.9053416E-1],"categories":[],"categories_nodes":[],"categories_segments":[],"categories_sizes":[],"default_left":[1,1,1,0,0,0,0],"id":108,"left_children":[1,3,5,-1,-1,-1,-1],"loss_changes":[1.2662744E2,6.4860794E1,2.6251348E1,0E0,0E0,0E0,0E0],"parents":[2147483647,0,0,1,1,2,2],"right_children":[2,4,6,-1,-1,-1,-1],"split_conditions":[1.95E1,1.95E1,3.585E-1,-1.0868211E-3,-3.8443282E-3,-1.0587618E-3,1.9053415E-3],"split_indices":[28,80,55,0,0,0,0],"split_type":[0,0,0,0,0,0,0],"sum_hessian":[6.036227E3,4.217209E3,1.8190177E3,3.0302986E3,1.1869106E3,3.7604837E2,1.4429692E3],"tree_param":{"num_deleted":"0","num_feature":"104","num_nodes":"7","size_leaf_vector":"0"}},{"base_weights":[9.125295E-2,1.863634E-1,-1.2923226E-1,1.0868212E-1,3.8443282E-1,1.0587624E-1,-1.9053416E-1],"categories":[],"categories_nodes":[],"categories_segments":[],"categories_sizes":[],"default_left":[1,1,1,0,0,0,0],"id":109,"left_children":[1,3,5,-1,-1,-1,-1],"loss_changes":[1.26627426E2,6.4860794E1,2.625135E1,0E0,0E0,0E0,0E0],"parents":[2147483647,0,0,1,1,2,2],"right_children":[2,4,6,-1,-1,-1,-1],"split_conditions":[1.95E1,1.95E1,3.585E-1,1.0868212E-3,3.8443282E-3,1.0587623E-3,-1.9053415E-3],"split_indices":[28,80,55,0,0,0,0],"split_type":[0,0,0,0,0,0,0],"sum_hessian":[6.0362266E3,4.217209E3,1.8190176E3,3.0302986E3,1.1869105E3,3.7604837E2,1.4429692E3],"tree_param":{"num_deleted":"0","num_feature":"104","num_nodes":"7","size_leaf_vector":"0"}},{"base_weights":[-9.038035E-2,1.3891043E-1,-1.8048638E-1,1.8940583E-1,-1.0054949E-1,-8.856674E-3,-2.682591E-1],"categories":[],"categories_nodes":[],"categories_segments":[],"categories_sizes":[],"default_left":[1,1,1,0,0,0,0],"id":110,"left_children":[1,3,5,-1,-1,-1,-1],"loss_changes":[1.2470366E2,2.0611282E1,6.526604E1,0E0,0E0,0E0,0E0],"parents":[2147483647,0,0,1,1,2,2],"right_children":[2,4,6,-1,-1,-1,-1],"split_conditions":[-2.45E0,2.45E1,9.5E0,1.8940582E-3,-1.0054949E-3,-8.856673E-5,-2.682591E-3],"split_indices":[25,81,103,0,0,0,0],"split_type":[0,0,0,0,0,0,0],"sum_hessian":[6.03364E3,1.7020164E3,4.3316235E3,1.4057847E3,2.9623172E2,1.4660425E3,2.865581E3],"tree_param":{"num_deleted":"0","num_feature":"104","num_nodes":"7","size_leaf_vector":"0"}},{"base_weights":[9.038034E-2,-1.3891041E-1,1.8048638E-1,-1.8940583E-1,1.0054955E-1,8.856651E-3,2.6825908E-1],"categories":[],"categories_nodes":[],"categories_segments":[],"categories_sizes":[],"default_left":[1,1,1,0,0,0,0],"id":111,"left_children":[1,3,5,-1,-1,-1,-1],"loss_changes":[1.2470362E2,2.0611294E1,6.526604E1,0E0,0E0,0E0,0E0],"parents":[2147483647,0,0,1,1,2,2],"right_children":[2,4,6,-1,-1,-1,-1],"split_conditions":[-2.45E0,2.45E1,9.5E0,-1.8940582E-3,1.0054954E-3,8.8566514E-5,2.6825906E-3],"split_indices":[25,81,103,0,0,0,0],"split_type":[0,0,0,0,0,0,0],"sum_hessian":[6.03364E3,1.7020164E3,4.3316235E3,1.4057847E3,2.962317E2,1.4660425E3,2.865581E3],"tree_param":{"num_deleted":"0","num_feature":"104","num_nodes":"7","size_leaf_vector":"0"}},{"base_weights":[-8.9516185E-2,6.814006E-3,-3.0190194E-1,-1.846779E-1,9.436197E-2,-3.5404462E-1,-2.735218E-2],"categories":[],"categories_nodes":[],"categories_segments":[],"categories_sizes":[],"default_left":[1,1,1,0,0,0,0],"id":112,"left_children":[1,3,5,-1,-1,-1,-1],"loss_changes":[1.2341206E2,6.960437E1,2.6935806E1,0E0,0E0,0E0,0E0],"parents":[2147483647,0,0,1,1,2,2],"right_children":[2,4,6,-1,-1,-1,-1],"split_conditions":[2.85E0,-1.95E0,5.95E0,-1.8467789E-3,9.4361964E-4,-3.540446E-3,-2.735218E-4],"split_indices":[25,77,77,0,0,0,0],"split_type":[0,0,0,0,0,0,0],"sum_hessian":[6.0310186E3,4.1497954E3,1.8812233E3,1.3016384E3,2.848157E3,1.5807218E3,3.0050143E2],"tree_param":{"num_deleted":"0","num_feature":"104","num_nodes":"7","size_leaf_vector":"0"}},{"base_weights":[8.951616E-2,-6.8140198E-3,3.0190188E-1,1.8467787E-1,-9.4361976E-2,3.5404462E-1,2.7352093E-2],"categories":[],"categories_nodes":[],"categories_segments":[],"categories_sizes":[],"default_left":[1,1,1,0,0,0,0],"id":113,"left_children":[1,3,5,-1,-1,-1,-1],"loss_changes":[1.2341205E2,6.960436E1,2.6935822E1,0E0,0E0,0E0,0E0],"parents":[2147483647,0,0,1,1,2,2],"right_children":[2,4,6,-1,-1,-1,-1],"split_conditions":[2.85E0,-1.95E0,5.95E0,1.8467787E-3,-9.4361976E-4,3.540446E-3,2.735209E-4],"split_indices":[25,77,77,0,0,0,0],"split_type":[0,0,0,0,0,0,0],"sum_hessian":[6.0310186E3,4.1497954E3,1.8812233E3,1.3016383E3,2.848157E3,1.5807218E3,3.0050146E2],"tree_param":{"num_deleted":"0","num_feature":"104","num_nodes":"7","size_leaf_vector":"0"}},{"base_weights":[-8.8657014E-2,-1.6427879E-1,1.7837219E-1,3.704254E-2,-2.3713762E-1,2.2680523E-1,-5.0582383E-2],"categories":[],"categories_nodes":[],"categories_segments":[],"categories_sizes":[],"default_left":[1,1,1,0,0,0,0],"id":114,"left_children":[1,3,5,-1,-1,-1,-1],"loss_changes":[1.21787636E2,6.894061E1,1.477314E1,0E0,0E0,0E0,0E0],"parents":[2147483647,0,0,1,1,2,2],"right_children":[2,4,6,-1,-1,-1,-1],"split_conditions":[2.35E1,7.5E0,2.45E1,3.7042538E-4,-2.3713761E-3,2.2680522E-3,-5.058238E-4],"split_indices":[51,103,81,0,0,0,0],"split_type":[0,0,0,0,0,0,0],"sum_hessian":[6.0286626E3,4.6984595E3,1.3302034E3,1.2486682E3,3.4497913E3,1.097952E3,2.3225133E2],"tree_param":{"num_deleted":"0","num_feature":"104","num_nodes":"7","size_leaf_vector":"0"}},{"base_weights":[8.8657014E-2,1.6427879E-1,-1.7837216E-1,-3.7042536E-2,2.3713762E-1,-2.2680518E-1,5.058232E-2],"categories":[],"categories_nodes":[],"categories_segments":[],"categories_sizes":[],"default_left":[1,1,1,0,0,0,0],"id":115,"left_children":[1,3,5,-1,-1,-1,-1],"loss_changes":[1.217876E2,6.894063E1,1.47731285E1,0E0,0E0,0E0,0E0],"parents":[2147483647,0,0,1,1,2,2],"right_children":[2,4,6,-1,-1,-1,-1],"split_conditions":[2.35E1,7.5E0,2.45E1,-3.7042535E-4,2.3713761E-3,-2.2680517E-3,5.058232E-4],"split_indices":[51,103,81,0,0,0,0],"split_type":[0,0,0,0,0,0,0],"sum_hessian":[6.0286626E3,4.6984595E3,1.3302034E3,1.2486682E3,3.449791E3,1.097952E3,2.3225134E2],"tree_param":{"num_deleted":"0","num_feature":"104","num_nodes":"7","size_leaf_vector":"0"}},{"base_weights":[-8.7807976E-2,7.310138E-3,-2.977434E-1,-1.8164918E-1,9.364708E-2,-3.491791E-1,-2.7412532E-2],"categories":[],"categories_nodes":[],"categories_segments":[],"categories_sizes":[],"default_left":[1,1,1,0,0,0,0],"id":116,"left_children":[1,3,5,-1,-1,-1,-1],"loss_changes":[1.20355545E2,6.770101E1,2.6121796E1,0E0,0E0,0E0,0E0],"parents":[2147483647,0,0,1,1,2,2],"right_children":[2,4,6,-1,-1,-1,-1],"split_conditions":[2.85E0,-1.95E0,5.95E0,-1.8164917E-3,9.3647075E-4,-3.4917907E-3,-2.741253E-4],"split_indices":[25,77,77,0,0,0,0],"split_type":[0,0,0,0,0,0,0],"sum_hessian":[6.0261123E3,4.1477866E3,1.8783254E3,1.3004606E3,2.8473262E3,1.5778225E3,3.0050293E2],"tree_param":{"num_deleted":"0","num_feature":"104","num_nodes":"7","size_leaf_vector":"0"}},{"base_weights":[8.7807976E-2,-7.310149E-3,2.977434E-1,1.8164915E-1,-9.3647085E-2,3.491791E-1,2.7412532E-2],"categories":[],"categories_nodes":[],"categories_segments":[],"categories_sizes":[],"default_left":[1,1,1,0,0,0,0],"id":117,"left_children":[1,3,5,-1,-1,-1,-1],"loss_changes":[1.2035557E2,6.770101E1,2.6121796E1,0E0,0E0,0E0,0E0],"parents":[2147483647,0,0,1,1,2,2],"right_children":[2,4,6,-1,-1,-1,-1],"split_conditions":[2.85E0,-1.95E0,5.95E0,1.8164915E-3,-9.364708E-4,3.4917907E-3,2.741253E-4],"split_indices":[25,77,77,0,0,0,0],"split_type":[0,0,0,0,0,0,0],"sum_hessian":[6.0261123E3,4.1477866E3,1.8783254E3,1.3004604E3,2.8473262E3,1.5778225E3,3.0050293E2],"tree_param":{"num_deleted":"0","num_feature":"104","num_nodes":"7","size_leaf_vector":"0"}},{"base_weights":[-8.6965814E-2,-2.3033735E-1,5.057885E-2,-1.7256111E-1,-4.7742698E-1,1.8806367E-1,-5.998485E-2],"categories":[],"categories_nodes":[],"categories_segments":[],"categories_sizes":[],"default_left":[1,1,1,0,0,0,0],"id":118,"left_children":[1,3,5,-1,-1,-1,-1],"loss_changes":[1.1881902E2,4.203232E1,4.6763893E1,0E0,0E0,0E0,0E0],"parents":[2147483647,0,0,1,1,2,2],"right_children":[2,4,6,-1,-1,-1,-1],"split_conditions":[1.45E1,2.25E1,1.35E1,-1.725611E-3,-4.7742696E-3,1.8806367E-3,-5.998485E-4],"split_indices":[51,80,103,0,0,0,0],"split_type":[0,0,0,0,0,0,0],"sum_hessian":[6.023717E3,2.949055E3,3.0746619E3,2.3915454E3,5.5750964E2,1.3701694E3,1.7044924E3],"tree_param":{"num_deleted":"0","num_feature":"104","num_nodes":"7","size_leaf_vector":"0"}},{"base_weights":[8.696583E-2,2.3033735E-1,-5.057882E-2,1.7256111E-1,4.7742698E-1,-1.8806365E-1,5.9984885E-2],"categories":[],"categories_nodes":[],"categories_segments":[],"categories_sizes":[],"default_left":[1,1,1,0,0,0,0],"id":119,"left_children":[1,3,5,-1,-1,-1,-1],"loss_changes":[1.18818985E2,4.203232E1,4.67639E1,0E0,0E0,0E0,0E0],"parents":[2147483647,0,0,1,1,2,2],"right_children":[2,4,6,-1,-1,-1,-1],"split_conditions":[1.45E1,2.25E1,1.35E1,1.725611E-3,4.7742696E-3,-1.8806364E-3,5.9984886E-4],"split_indices":[51,80,103,0,0,0,0],"split_type":[0,0,0,0,0,0,0],"sum_hessian":[6.023717E3,2.949055E3,3.0746619E3,2.3915454E3,5.5750964E2,1.3701694E3,1.7044924E3],"tree_param":{"num_deleted":"0","num_feature":"104","num_nodes":"7","size_leaf_vector":"0"}},{"base_weights":[-8.6136706E-2,-1.7793879E-1,1.2629156E-1,-1.0262755E-1,-3.7084958E-1,2.7523023E-1,3.6772467E-2],"categories":[],"categories_nodes":[],"categories_segments":[],"categories_sizes":[],"default_left":[1,1,1,0,0,0,0],"id":120,"left_children":[1,3,5,-1,-1,-1,-1],"loss_changes":[1.1745932E2,6.1057327E1,2.4225397E1,0E0,0E0,0E0,0E0],"parents":[2147483647,0,0,1,1,2,2],"right_children":[2,4,6,-1,-1,-1,-1],"split_conditions":[1.95E1,1.95E1,-6.25E0,-1.0262755E-3,-3.7084958E-3,2.7523022E-3,3.6772466E-4],"split_indices":[28,80,25,0,0,0,0],"split_type":[0,0,0,0,0,0,0],"sum_hessian":[6.020983E3,4.2042534E3,1.8167296E3,3.024887E3,1.1793661E3,6.812372E2,1.1354924E3],"tree_param":{"num_deleted":"0","num_feature":"104","num_nodes":"7","size_leaf_vector":"0"}},{"base_weights":[8.613671E-2,1.779388E-1,-1.2629156E-1,1.0262756E-1,3.708496E-1,-2.752302E-1,-3.677247E-2],"categories":[],"categories_nodes":[],"categories_segments":[],"categories_sizes":[],"default_left":[1,1,1,0,0,0,0],"id":121,"left_children":[1,3,5,-1,-1,-1,-1],"loss_changes":[1.1745934E2,6.1057343E1,2.4225399E1,0E0,0E0,0E0,0E0],"parents":[2147483647,0,0,1,1,2,2],"right_children":[2,4,6,-1,-1,-1,-1],"split_conditions":[1.95E1,1.95E1,-6.25E0,1.0262756E-3,3.708496E-3,-2.752302E-3,-3.6772472E-4],"split_indices":[28,80,25,0,0,0,0],"split_type":[0,0,0,0,0,0,0],"sum_hessian":[6.020983E3,4.204253E3,1.8167296E3,3.024887E3,1.1793661E3,6.812372E2,1.1354924E3],"tree_param":{"num_deleted":"0","num_feature":"104","num_nodes":"7","size_leaf_vector":"0"}},{"base_weights":[-8.531183E-2,7.936385E-3,-2.9145777E-1,-1.7758253E-1,9.261419E-2,-3.423938E-1,-2.4411641E-2],"categories":[],"categories_nodes":[],"categories_segments":[],"categories_sizes":[],"default_left":[1,1,1,0,0,0,0],"id":122,"left_children":[1,3,5,-1,-1,-1,-1],"loss_changes":[1.1571289E2,6.514163E1,2.5493515E1,0E0,0E0,0E0,0E0],"parents":[2147483647,0,0,1,1,2,2],"right_children":[2,4,6,-1,-1,-1,-1],"split_conditions":[2.85E0,-1.95E0,5.95E0,-1.7758253E-3,9.2614186E-4,-3.4239378E-3,-2.4411641E-4],"split_indices":[25,77,77,0,0,0,0],"split_type":[0,0,0,0,0,0,0],"sum_hessian":[6.0184624E3,4.1446357E3,1.8738263E3,1.2985568E3,2.8460793E3,1.5734303E3,3.0039606E2],"tree_param":{"num_deleted":"0","num_feature":"104","num_nodes":"7","size_leaf_vector":"0"}},{"base_weights":[8.531185E-2,-7.936367E-3,2.914578E-1,1.7758258E-1,-9.261418E-2,3.423938E-1,2.4411758E-2],"categories":[],"categories_nodes":[],"categories_segments":[],"categories_sizes":[],"default_left":[1,1,1,0,0,0,0],"id":123,"left_children":[1,3,5,-1,-1,-1,-1],"loss_changes":[1.15712906E2,6.514164E1,2.54935E1,0E0,0E0,0E0,0E0],"parents":[2147483647,0,0,1,1,2,2],"right_children":[2,4,6,-1,-1,-1,-1],"split_conditions":[2.85E0,-1.95E0,5.95E0,1.7758257E-3,-9.261418E-4,3.4239378E-3,2.4411757E-4],"split_indices":[25,77,77,0,0,0,0],"split_type":[0,0,0,0,0,0,0],"sum_hessian":[6.0184624E3,4.1446357E3,1.8738264E3,1.2985568E3,2.8460793E3,1.5734303E3,3.0039606E2],"tree_param":{"num_deleted":"0","num_feature":"104","num_nodes":"7","size_leaf_vector":"0"}},{"base_weights":[-8.449438E-2,-1.5801E-1,1.747527E-1,-3.041778E-2,-2.6791114E-1,2.0315838E-1,-1.920137E-1],"categories":[],"categories_nodes":[],"categories_segments":[],"categories_sizes":[],"default_left":[1,1,1,0,0,0,0],"id":124,"left_children":[1,3,5,-1,-1,-1,-1],"loss_changes":[1.14704216E2,6.5732735E1,1.389304E1,0E0,0E0,0E0,0E0],"parents":[2147483647,0,0,1,1,2,2],"right_children":[2,4,6,-1,-1,-1,-1],"split_conditions":[2.35E1,1.15E1,2.75E1,-3.0417778E-4,-2.6791112E-3,2.0315838E-3,-1.920137E-3],"split_indices":[51,80,80,0,0,0,0],"split_type":[0,0,0,0,0,0,0],"sum_hessian":[6.0160176E3,4.6872324E3,1.328785E3,2.169629E3,2.5176038E3,1.2336836E3,9.510144E1],"tree_param":{"num_deleted":"0","num_feature":"104","num_nodes":"7","size_leaf_vector":"0"}},{"base_weights":[8.44944E-2,1.5801002E-1,-1.7475268E-1,3.04178E-2,2.6791114E-1,-2.0315836E-1,1.920137E-1],"categories":[],"categories_nodes":[],"categories_segments":[],"categories_sizes":[],"default_left":[1,1,1,0,0,0,0],"id":125,"left_children":[1,3,5,-1,-1,-1,-1],"loss_changes":[1.14704216E2,6.573273E1,1.38930435E1,0E0,0E0,0E0,0E0],"parents":[2147483647,0,0,1,1,2,2],"right_children":[2,4,6,-1,-1,-1,-1],"split_conditions":[2.35E1,1.15E1,2.75E1,3.04178E-4,2.6791112E-3,-2.0315836E-3,1.920137E-3],"split_indices":[51,80,80,0,0,0,0],"split_type":[0,0,0,0,0,0,0],"sum_hessian":[6.0160176E3,4.6872324E3,1.3287849E3,2.169629E3,2.5176038E3,1.2336835E3,9.510145E1],"tree_param":{"num_deleted":"0","num_feature":"104","num_nodes":"7","size_leaf_vector":"0"}},{"base_weights":[-8.3687E-2,8.39372E-3,-2.8747675E-1,6.118881E-2,-2.815656E-1,-3.3785313E-1,-2.3847384E-2],"categories":[],"categories_nodes":[],"categories_segments":[],"categories_sizes":[],"default_left":[1,1,1,0,0,0,0],"id":126,"left_children":[1,3,5,-1,-1,-1,-1],"loss_changes":[1.12862946E2,6.3448612E1,2.4851028E1,0E0,0E0,0E0,0E0],"parents":[2147483647,0,0,1,1,2,2],"right_children":[2,4,6,-1,-1,-1,-1],"split_conditions":[2.85E0,2.55E1,5.95E0,6.1188807E-4,-2.815656E-3,-3.3785312E-3,-2.3847383E-4],"split_indices":[25,103,77,0,0,0,0],"split_type":[0,0,0,0,0,0,0],"sum_hessian":[6.0133823E3,4.1425596E3,1.8708226E3,3.5051409E3,6.374186E2,1.5704476E3,3.0037503E2],"tree_param":{"num_deleted":"0","num_feature":"104","num_nodes":"7","size_leaf_vector":"0"}},{"base_weights":[8.368701E-2,-8.393717E-3,2.8747675E-1,-6.1188802E-2,2.8156558E-1,3.378531E-1,2.3847416E-2],"categories":[],"categories_nodes":[],"categories_segments":[],"categories_sizes":[],"default_left":[1,1,1,0,0,0,0],"id":127,"left_children":[1,3,5,-1,-1,-1,-1],"loss_changes":[1.12862946E2,6.34486E1,2.4851028E1,0E0,0E0,0E0,0E0],"parents":[2147483647,0,0,1,1,2,2],"right_children":[2,4,6,-1,-1,-1,-1],"split_conditions":[2.85E0,2.55E1,5.95E0,-6.11888E-4,2.8156557E-3,3.378531E-3,2.3847415E-4],"split_indices":[25,103,77,0,0,0,0],"split_type":[0,0,0,0,0,0,0],"sum_hessian":[6.0133823E3,4.1425596E3,1.8708226E3,3.5051409E3,6.374186E2,1.5704476E3,3.0037506E2],"tree_param":{"num_deleted":"0","num_feature":"104","num_nodes":"7","size_leaf_vector":"0"}},{"base_weights":[-8.288386E-2,1.1862527E-1,-1.7512202E-1,1.7135292E-2,2.4042687E-1,5.4741814E-3,