{"learner":{"attributes":{"best_iteration":"499","best_ntree_limit":"500"},"feature_names":[],"feature_types":[],"gradient_booster":{"model":{"gbtree_model_param":{"num_parallel_tree":"1","num_trees":"1000","size_leaf_vector":"0"},"tree_info":[0,1,0,1,0,1,0,1,0,1,0,1,0,1,0,1,0,1,0,1,0,1,0,1,0,1,0,1,0,1,0,1,0,1,0,1,0,1,0,1,0,1,0,1,0,1,0,1,0,1,0,1,0,1,0,1,0,1,0,1,0,1,0,1,0,1,0,1,0,1,0,1,0,1,0,1,0,1,0,1,0,1,0,1,0,1,0,1,0,1,0,1,0,1,0,1,0,1,0,1,0,1,0,1,0,1,0,1,0,1,0,1,0,1,0,1,0,1,0,1,0,1,0,1,0,1,0,1,0,1,0,1,0,1,0,1,0,1,0,1,0,1,0,1,0,1,0,1,0,1,0,1,0,1,0,1,0,1,0,1,0,1,0,1,0,1,0,1,0,1,0,1,0,1,0,1,0,1,0,1,0,1,0,1,0,1,0,1,0,1,0,1,0,1,0,1,0,1,0,1,0,1,0,1,0,1,0,1,0,1,0,1,0,1,0,1,0,1,0,1,0,1,0,1,0,1,0,1,0,1,0,1,0,1,0,1,0,1,0,1,0,1,0,1,0,1,0,1,0,1,0,1,0,1,0,1,0,1,0,1,0,1,0,1,0,1,0,1,0,1,0,1,0,1,0,1,0,1,0,1,0,1,0,1,0,1,0,1,0,1,0,1,0,1,0,1,0,1,0,1,0,1,0,1,0,1,0,1,0,1,0,1,0,1,0,1,0,1,0,1,0,1,0,1,0,1,0,1,0,1,0,1,0,1,0,1,0,1,0,1,0,1,0,1,0,1,0,1,0,1,0,1,0,1,0,1,0,1,0,1,0,1,0,1,0,1,0,1,0,1,0,1,0,1,0,1,0,1,0,1,0,1,0,1,0,1,0,1,0,1,0,1,0,1,0,1,0,1,0,1,0,1,0,1,0,1,0,1,0,1,0,1,0,1,0,1,0,1,0,1,0,1,0,1,0,1,0,1,0,1,0,1,0,1,0,1,0,1,0,1,0,1,0,1,0,1,0,1,0,1,0,1,0,1,0,1,0,1,0,1,0,1,0,1,0,1,0,1,0,1,0,1,0,1,0,1,0,1,0,1,0,1,0,1,0,1,0,1,0,1,0,1,0,1,0,1,0,1,0,1,0,1,0,1,0,1,0,1,0,1,0,1,0,1,0,1,0,1,0,1,0,1,0,1,0,1,0,1,0,1,0,1,0,1,0,1,0,1,0,1,0,1,0,1,0,1,0,1,0,1,0,1,0,1,0,1,0,1,0,1,0,1,0,1,0,1,0,1,0,1,0,1,0,1,0,1,0,1,0,1,0,1,0,1,0,1,0,1,0,1,0,1,0,1,0,1,0,1,0,1,0,1,0,1,0,1,0,1,0,1,0,1,0,1,0,1,0,1,0,1,0,1,0,1,0,1,0,1,0,1,0,1,0,1,0,1,0,1,0,1,0,1,0,1,0,1,0,1,0,1,0,1,0,1,0,1,0,1,0,1,0,1,0,1,0,1,0,1,0,1,0,1,0,1,0,1,0,1,0,1,0,1,0,1,0,1,0,1,0,1,0,1,0,1,0,1,0,1,0,1,0,1,0,1,0,1,0,1,0,1,0,1,0,1,0,1,0,1,0,1,0,1,0,1,0,1,0,1,0,1,0,1,0,1,0,1,0,1,0,1,0,1,0,1,0,1,0,1,0,1,0,1,0,1,0,1,0,1,0,1,0,1,0,1,0,1,0,1,0,1,0,1,0,1,0,1,0,1,0,1,0,1,0,1,0,1,0,1,0,1,0,1,0,1,0,1,0,1,0,1,0,1,0,1,0,1,0,1,0,1,0,1,0,1,0,1,0,1,0,1,0,1,0,1,0,1,0,1,0,1,0,1,0,1,0,1,0,1,0,1,0,1,0,1,0,1,0,1,0,1,0,1,0,1,0,1,0,1,0,1,0,1,0,1,0,1,0,1,0,1,0,1,0,1,0,1,0,1,0,1,0,1,0,1,0,1,0,1,0,1,0,1,0,1,0,1,0,1,0,1,0,1,0,1,0,1,0,1,0,1,0,1,0,1,0,1,0,1,0,1,0,1,0,1,0,1,0,1,0,1,0,1,0,1,0,1,0,1,0,1,0,1,0,1,0,1,0,1,0,1,0,1,0,1,0,1,0,1,0,1,0,1,0,1,0,1,0,1,0,1,0,1,0,1,0,1,0,1,0,1,0,1,0,1,0,1,0,1,0,1,0,1,0,1,0,1,0,1,0,1],"trees":[{"base_weights":[-1.5171795E-1,1.0220191E-1,-3.1595215E-1,-1.4673562E-1,2.1994494E-1,-1.2464101E-1,-4.839687E-1],"categories":[],"categories_nodes":[],"categories_segments":[],"categories_sizes":[],"default_left":[1,1,1,0,0,0,0],"id":0,"left_children":[1,3,5,-1,-1,-1,-1],"loss_changes":[2.5552159E2,7.058303E1,1.1952933E2,0E0,0E0,0E0,0E0],"parents":[2147483647,0,0,1,1,2,2],"right_children":[2,4,6,-1,-1,-1,-1],"split_conditions":[4.6850002E-1,-2.05E0,1.15E1,-1.4673562E-3,2.1994493E-3,-1.2464101E-3,-4.839687E-3],"split_indices":[3,77,80,0,0,0,0],"split_type":[0,0,0,0,0,0,0],"sum_hessian":[6.1255E3,2.406E3,3.7195E3,7.725E2,1.6335E3,1.74E3,1.9795E3],"tree_param":{"num_deleted":"0","num_feature":"104","num_nodes":"7","size_leaf_vector":"0"}},{"base_weights":[1.5171795E-1,-1.0220191E-1,3.1595215E-1,1.4673562E-1,-2.1994494E-1,1.2464101E-1,4.839687E-1],"categories":[],"categories_nodes":[],"categories_segments":[],"categories_sizes":[],"default_left":[1,1,1,0,0,0,0],"id":1,"left_children":[1,3,5,-1,-1,-1,-1],"loss_changes":[2.5552159E2,7.058303E1,1.1952933E2,0E0,0E0,0E0,0E0],"parents":[2147483647,0,0,1,1,2,2],"right_children":[2,4,6,-1,-1,-1,-1],"split_conditions":[4.6850002E-1,-2.05E0,1.15E1,1.4673562E-3,-2.1994493E-3,1.2464101E-3,4.839687E-3],"split_indices":[3,77,80,0,0,0,0],"split_type":[0,0,0,0,0,0,0],"sum_hessian":[6.1255E3,2.406E3,3.7195E3,7.725E2,1.6335E3,1.74E3,1.9795E3],"tree_param":{"num_deleted":"0","num_feature":"104","num_nodes":"7","size_leaf_vector":"0"}},{"base_weights":[-1.5020308E-1,1.11216635E-1,-3.0665565E-1,-1.991411E-1,2.0929658E-1,-1.1684407E-1,-4.7316936E-1],"categories":[],"categories_nodes":[],"categories_segments":[],"categories_sizes":[],"default_left":[1,1,1,0,0,0,0],"id":2,"left_children":[1,3,5,-1,-1,-1,-1],"loss_changes":[2.5060425E2,6.98857E1,1.2108984E2,0E0,0E0,0E0,0E0],"parents":[2147483647,0,0,1,1,2,2],"right_children":[2,4,6,-1,-1,-1,-1],"split_conditions":[4.585E-1,3.725E-1,1.15E1,-1.991411E-3,2.0929659E-3,-1.1684407E-3,-4.7316933E-3],"split_indices":[3,55,80,0,0,0,0],"split_type":[0,0,0,0,0,0,0],"sum_hessian":[6.1254414E3,2.293491E3,3.8319507E3,5.504987E2,1.7429922E3,1.7914972E3,2.0404534E3],"tree_param":{"num_deleted":"0","num_feature":"104","num_nodes":"7","size_leaf_vector":"0"}},{"base_weights":[1.5020306E-1,-1.11216635E-1,3.0665562E-1,1.991411E-1,-2.0929658E-1,1.1684404E-1,4.7316936E-1],"categories":[],"categories_nodes":[],"categories_segments":[],"categories_sizes":[],"default_left":[1,1,1,0,0,0,0],"id":3,"left_children":[1,3,5,-1,-1,-1,-1],"loss_changes":[2.5060423E2,6.98857E1,1.21089874E2,0E0,0E0,0E0,0E0],"parents":[2147483647,0,0,1,1,2,2],"right_children":[2,4,6,-1,-1,-1,-1],"split_conditions":[4.585E-1,3.725E-1,1.15E1,1.991411E-3,-2.0929659E-3,1.1684404E-3,4.7316933E-3],"split_indices":[3,55,80,0,0,0,0],"split_type":[0,0,0,0,0,0,0],"sum_hessian":[6.1254414E3,2.293491E3,3.8319504E3,5.504987E2,1.7429922E3,1.7914971E3,2.0404534E3],"tree_param":{"num_deleted":"0","num_feature":"104","num_nodes":"7","size_leaf_vector":"0"}},{"base_weights":[-1.4870612E-1,-3.515659E-1,4.997061E-2,-1.7568074E-1,-5.0966626E-1,-2.0094776E-1,1.857366E-1],"categories":[],"categories_nodes":[],"categories_segments":[],"categories_sizes":[],"default_left":[1,1,1,0,0,0,0],"id":4,"left_children":[1,3,5,-1,-1,-1,-1],"loss_changes":[2.469279E2,8.420477E1,1.05503586E2,0E0,0E0,0E0,0E0],"parents":[2147483647,0,0,1,1,2,2],"right_children":[2,4,6,-1,-1,-1,-1],"split_conditions":[1.45E1,1.15E1,-1.55E0,-1.7568073E-3,-5.0966623E-3,-2.0094775E-3,1.857366E-3],"split_indices":[51,80,77,0,0,0,0],"split_type":[0,0,0,0,0,0,0],"sum_hessian":[6.125273E3,3.0303503E3,3.0949226E3,1.4354912E3,1.5948593E3,1.0864678E3,2.008455E3],"tree_param":{"num_deleted":"0","num_feature":"104","num_nodes":"7","size_leaf_vector":"0"}},{"base_weights":[1.4870617E-1,3.5156596E-1,-4.9970556E-2,1.7568085E-1,5.0966626E-1,2.0094776E-1,-1.8573652E-1],"categories":[],"categories_nodes":[],"categories_segments":[],"categories_sizes":[],"default_left":[1,1,1,0,0,0,0],"id":5,"left_children":[1,3,5,-1,-1,-1,-1],"loss_changes":[2.4692789E2,8.420471E1,1.0550354E2,0E0,0E0,0E0,0E0],"parents":[2147483647,0,0,1,1,2,2],"right_children":[2,4,6,-1,-1,-1,-1],"split_conditions":[1.45E1,1.15E1,-1.55E0,1.7568084E-3,5.0966623E-3,2.0094775E-3,-1.8573651E-3],"split_indices":[51,80,77,0,0,0,0],"split_type":[0,0,0,0,0,0,0],"sum_hessian":[6.125273E3,3.0303503E3,3.0949229E3,1.4354911E3,1.5948593E3,1.0864678E3,2.0084551E3],"tree_param":{"num_deleted":"0","num_feature":"104","num_nodes":"7","size_leaf_vector":"0"}},{"base_weights":[-1.4722618E-1,1.09814145E-1,-3.0106804E-1,-1.9516535E-1,2.0619403E-1,-1.1471001E-1,-4.6457666E-1],"categories":[],"categories_nodes":[],"categories_segments":[],"categories_sizes":[],"default_left":[1,1,1,0,0,0,0],"id":6,"left_children":[1,3,5,-1,-1,-1,-1],"loss_changes":[2.4227797E2,6.748247E1,1.1673038E2,0E0,0E0,0E0,0E0],"parents":[2147483647,0,0,1,1,2,2],"right_children":[2,4,6,-1,-1,-1,-1],"split_conditions":[4.585E-1,3.725E-1,1.15E1,-1.9516535E-3,2.0619403E-3,-1.1471001E-3,-4.6457667E-3],"split_indices":[3,55,80,0,0,0,0],"split_type":[0,0,0,0,0,0,0],"sum_hessian":[6.1250273E3,2.2934302E3,3.8315974E3,5.504835E2,1.7429465E3,1.7914753E3,2.0401221E3],"tree_param":{"num_deleted":"0","num_feature":"104","num_nodes":"7","size_leaf_vector":"0"}},{"base_weights":[1.4722623E-1,-1.0981411E-1,3.0106807E-1,1.9516535E-1,-2.0619398E-1,1.1470999E-1,4.6457675E-1],"categories":[],"categories_nodes":[],"categories_segments":[],"categories_sizes":[],"default_left":[1,1,1,0,0,0,0],"id":7,"left_children":[1,3,5,-1,-1,-1,-1],"loss_changes":[2.4227798E2,6.7482445E1,1.1673047E2,0E0,0E0,0E0,0E0],"parents":[2147483647,0,0,1,1,2,2],"right_children":[2,4,6,-1,-1,-1,-1],"split_conditions":[4.585E-1,3.725E-1,1.15E1,1.9516535E-3,-2.0619398E-3,1.1470999E-3,4.6457676E-3],"split_indices":[3,55,80,0,0,0,0],"split_type":[0,0,0,0,0,0,0],"sum_hessian":[6.1250273E3,2.2934302E3,3.8315974E3,5.504835E2,1.7429465E3,1.7914753E3,2.0401221E3],"tree_param":{"num_deleted":"0","num_feature":"104","num_nodes":"7","size_leaf_vector":"0"}},{"base_weights":[-1.4576374E-1,-3.4524912E-1,4.9587414E-2,-1.7288075E-1,-5.002266E-1,-1.9736119E-1,1.8320194E-1],"categories":[],"categories_nodes":[],"categories_segments":[],"categories_sizes":[],"default_left":[1,1,1,0,0,0,0],"id":8,"left_children":[1,3,5,-1,-1,-1,-1],"loss_changes":[2.3873222E2,8.0878235E1,1.0218406E2,0E0,0E0,0E0,0E0],"parents":[2147483647,0,0,1,1,2,2],"right_children":[2,4,6,-1,-1,-1,-1],"split_conditions":[1.45E1,1.15E1,-1.55E0,-1.7288075E-3,-5.0022663E-3,-1.9736118E-3,1.8320193E-3],"split_indices":[51,80,77,0,0,0,0],"split_type":[0,0,0,0,0,0,0],"sum_hessian":[6.124659E3,3.029885E3,3.094774E3,1.43546E3,1.5944252E3,1.086398E3,2.0083761E3],"tree_param":{"num_deleted":"0","num_feature":"104","num_nodes":"7","size_leaf_vector":"0"}},{"base_weights":[1.4576375E-1,3.4524912E-1,-4.958738E-2,1.7288078E-1,5.002266E-1,1.9736117E-1,-1.8320186E-1],"categories":[],"categories_nodes":[],"categories_segments":[],"categories_sizes":[],"default_left":[1,1,1,0,0,0,0],"id":9,"left_children":[1,3,5,-1,-1,-1,-1],"loss_changes":[2.3873218E2,8.0878204E1,1.0218402E2,0E0,0E0,0E0,0E0],"parents":[2147483647,0,0,1,1,2,2],"right_children":[2,4,6,-1,-1,-1,-1],"split_conditions":[1.45E1,1.15E1,-1.55E0,1.7288078E-3,5.0022663E-3,1.9736118E-3,-1.8320186E-3],"split_indices":[51,80,77,0,0,0,0],"split_type":[0,0,0,0,0,0,0],"sum_hessian":[6.124659E3,3.029885E3,3.0947742E3,1.43546E3,1.594425E3,1.086398E3,2.0083761E3],"tree_param":{"num_deleted":"0","num_feature":"104","num_nodes":"7","size_leaf_vector":"0"}},{"base_weights":[-1.4431773E-1,9.883716E-2,-3.0162188E-1,-6.097852E-2,2.6814035E-1,-1.1905042E-1,-4.6203834E-1],"categories":[],"categories_nodes":[],"categories_segments":[],"categories_sizes":[],"default_left":[1,1,1,0,0,0,0],"id":10,"left_children":[1,3,5,-1,-1,-1,-1],"loss_changes":[2.3431494E2,6.51378E1,1.0887738E2,0E0,0E0,0E0,0E0],"parents":[2147483647,0,0,1,1,2,2],"right_children":[2,4,6,-1,-1,-1,-1],"split_conditions":[4.6850002E-1,5.03E-1,1.15E1,-6.097852E-4,2.6814034E-3,-1.1905042E-3,-4.6203835E-3],"split_indices":[3,55,80,0,0,0,0],"split_type":[0,0,0,0,0,0,0],"sum_hessian":[6.1242183E3,2.4057976E3,3.7184207E3,1.2379039E3,1.1678937E3,1.739931E3,1.9784897E3],"tree_param":{"num_deleted":"0","num_feature":"104","num_nodes":"7","size_leaf_vector":"0"}},{"base_weights":[1.4431773E-1,-9.883717E-2,3.0162188E-1,6.097851E-2,-2.6814038E-1,1.19050406E-1,4.6203834E-1],"categories":[],"categories_nodes":[],"categories_segments":[],"categories_sizes":[],"default_left":[1,1,1,0,0,0,0],"id":11,"left_children":[1,3,5,-1,-1,-1,-1],"loss_changes":[2.3431497E2,6.51378E1,1.0887741E2,0E0,0E0,0E0,0E0],"parents":[2147483647,0,0,1,1,2,2],"right_children":[2,4,6,-1,-1,-1,-1],"split_conditions":[4.6850002E-1,5.03E-1,1.15E1,6.097851E-4,-2.6814037E-3,1.1905041E-3,4.6203835E-3],"split_indices":[3,55,80,0,0,0,0],"split_type":[0,0,0,0,0,0,0],"sum_hessian":[6.1242183E3,2.4057976E3,3.7184207E3,1.2379039E3,1.1678937E3,1.739931E3,1.9784897E3],"tree_param":{"num_deleted":"0","num_feature":"104","num_nodes":"7","size_leaf_vector":"0"}},{"base_weights":[-1.4288796E-1,-3.390564E-1,4.917926E-2,-1.810166E-1,-5.016891E-1,-1.9388695E-1,1.8068966E-1],"categories":[],"categories_nodes":[],"categories_segments":[],"categories_sizes":[],"default_left":[1,1,1,0,0,0,0],"id":12,"left_children":[1,3,5,-1,-1,-1,-1],"loss_changes":[2.307793E2,7.77905E1,9.8986916E1,0E0,0E0,0E0,0E0],"parents":[2147483647,0,0,1,1,2,2],"right_children":[2,4,6,-1,-1,-1,-1],"split_conditions":[1.45E1,1.25E1,-1.55E0,-1.8101659E-3,-5.016891E-3,-1.9388695E-3,1.8068965E-3],"split_indices":[51,80,77,0,0,0,0],"split_type":[0,0,0,0,0,0,0],"sum_hessian":[6.1236763E3,3.0291152E3,3.094561E3,1.5373219E3,1.4917935E3,1.0863054E3,2.0082556E3],"tree_param":{"num_deleted":"0","num_feature":"104","num_nodes":"7","size_leaf_vector":"0"}},{"base_weights":[1.4288796E-1,3.390564E-1,-4.9179263E-2,1.810166E-1,5.016891E-1,1.9388692E-1,-1.8068965E-1],"categories":[],"categories_nodes":[],"categories_segments":[],"categories_sizes":[],"default_left":[1,1,1,0,0,0,0],"id":13,"left_children":[1,3,5,-1,-1,-1,-1],"loss_changes":[2.3077936E2,7.77905E1,9.89869E1,0E0,0E0,0E0,0E0],"parents":[2147483647,0,0,1,1,2,2],"right_children":[2,4,6,-1,-1,-1,-1],"split_conditions":[1.45E1,1.25E1,-1.55E0,1.8101659E-3,5.016891E-3,1.9388691E-3,-1.8068964E-3],"split_indices":[51,80,77,0,0,0,0],"split_type":[0,0,0,0,0,0,0],"sum_hessian":[6.1236763E3,3.0291152E3,3.094561E3,1.5373219E3,1.4917935E3,1.0863054E3,2.0082556E3],"tree_param":{"num_deleted":"0","num_feature":"104","num_nodes":"7","size_leaf_vector":"0"}},{"base_weights":[-1.4147474E-1,1.2771292E-1,-2.791724E-1,-1.6196966E-1,2.2071856E-1,-9.627587E-2,-4.3852344E-1],"categories":[],"categories_nodes":[],"categories_segments":[],"categories_sizes":[],"default_left":[1,1,1,0,0,0,0],"id":14,"left_children":[1,3,5,-1,-1,-1,-1],"loss_changes":[2.2703307E2,5.5891663E1,1.18048645E2,0E0,0E0,0E0,0E0],"parents":[2147483647,0,0,1,1,2,2],"right_children":[2,4,6,-1,-1,-1,-1],"split_conditions":[4.395E-1,3.725E-1,1.15E1,-1.6196966E-3,2.2071856E-3,-9.627587E-4,-4.3852343E-3],"split_indices":[3,55,80,0,0,0,0],"split_type":[0,0,0,0,0,0,0],"sum_hessian":[6.1230566E3,2.0721824E3,4.0508745E3,5.0342728E2,1.5687551E3,1.8868407E3,2.1640337E3],"tree_param":{"num_deleted":"0","num_feature":"104","num_nodes":"7","size_leaf_vector":"0"}},{"base_weights":[1.4147475E-1,-1.2771292E-1,2.7917242E-1,1.6196966E-1,-2.2071856E-1,9.627595E-2,4.385234E-1],"categories":[],"categories_nodes":[],"categories_segments":[],"categories_sizes":[],"default_left":[1,1,1,0,0,0,0],"id":15,"left_children":[1,3,5,-1,-1,-1,-1],"loss_changes":[2.2703308E2,5.5891663E1,1.1804855E2,0E0,0E0,0E0,0E0],"parents":[2147483647,0,0,1,1,2,2],"right_children":[2,4,6,-1,-1,-1,-1],"split_conditions":[4.395E-1,3.725E-1,1.15E1,1.6196966E-3,-2.2071856E-3,9.627595E-4,4.385234E-3],"split_indices":[3,55,80,0,0,0,0],"split_type":[0,0,0,0,0,0,0],"sum_hessian":[6.1230566E3,2.0721824E3,4.0508743E3,5.0342728E2,1.5687551E3,1.8868407E3,2.1640337E3],"tree_param":{"num_deleted":"0","num_feature":"104","num_nodes":"7","size_leaf_vector":"0"}},{"base_weights":[-1.400771E-1,-3.3309558E-1,4.8859645E-2,-1.780914E-1,-4.9269047E-1,1.9530664E-1,-1.6286305E-1],"categories":[],"categories_nodes":[],"categories_segments":[],"categories_sizes":[],"default_left":[1,1,1,0,0,0,0],"id":16,"left_children":[1,3,5,-1,-1,-1,-1],"loss_changes":[2.2332433E2,7.484537E1,9.600408E1,0E0,0E0,0E0,0E0],"parents":[2147483647,0,0,1,1,2,2],"right_children":[2,4,6,-1,-1,-1,-1],"split_conditions":[1.45E1,1.25E1,1.75E1,-1.780914E-3,-4.9269046E-3,1.9530664E-3,-1.6286304E-3],"split_indices":[51,80,81,0,0,0,0],"split_type":[0,0,0,0,0,0,0],"sum_hessian":[6.1223496E3,3.0280845E3,3.0942654E3,1.537209E3,1.4908754E3,1.8291403E3,1.2651251E3],"tree_param":{"num_deleted":"0","num_feature":"104","num_nodes":"7","size_leaf_vector":"0"}},{"base_weights":[1.4007716E-1,3.3309567E-1,-4.8859615E-2,1.780915E-1,4.926906E-1,-1.9530658E-1,1.6286303E-1],"categories":[],"categories_nodes":[],"categories_segments":[],"categories_sizes":[],"default_left":[1,1,1,0,0,0,0],"id":17,"left_children":[1,3,5,-1,-1,-1,-1],"loss_changes":[2.2332443E2,7.48454E1,9.600404E1,0E0,0E0,0E0,0E0],"parents":[2147483647,0,0,1,1,2,2],"right_children":[2,4,6,-1,-1,-1,-1],"split_conditions":[1.45E1,1.25E1,1.75E1,1.780915E-3,4.926906E-3,-1.9530657E-3,1.6286303E-3],"split_indices":[51,80,81,0,0,0,0],"split_type":[0,0,0,0,0,0,0],"sum_hessian":[6.1223496E3,3.0280842E3,3.0942654E3,1.537209E3,1.4908754E3,1.8291403E3,1.2651251E3],"tree_param":{"num_deleted":"0","num_feature":"104","num_nodes":"7","size_leaf_vector":"0"}},{"base_weights":[-1.3869534E-1,-2.625332E-1,1.5180798E-1,-1.0696088E-1,-4.3875226E-1,-1.4517052E-1,2.4209468E-1],"categories":[],"categories_nodes":[],"categories_segments":[],"categories_sizes":[],"default_left":[1,1,1,0,0,0,0],"id":18,"left_children":[1,3,5,-1,-1,-1,-1],"loss_changes":[2.2030112E2,1.176456E2,4.911781E1,0E0,0E0,0E0,0E0],"parents":[2147483647,0,0,1,1,2,2],"right_children":[2,4,6,-1,-1,-1,-1],"split_conditions":[1.95E1,1.35E1,3.725E-1,-1.0696087E-3,-4.3875226E-3,-1.4517052E-3,2.4209467E-3],"split_indices":[28,80,55,0,0,0,0],"split_type":[0,0,0,0,0,0,0],"sum_hessian":[6.1215684E3,4.292028E3,1.8295403E3,2.28041E3,2.0116182E3,4.2639587E2,1.4031444E3],"tree_param":{"num_deleted":"0","num_feature":"104","num_nodes":"7","size_leaf_vector":"0"}},{"base_weights":[1.3869533E-1,2.625332E-1,-1.5180798E-1,1.06960885E-1,4.387522E-1,1.4517052E-1,-2.4209468E-1],"categories":[],"categories_nodes":[],"categories_segments":[],"categories_sizes":[],"default_left":[1,1,1,0,0,0,0],"id":19,"left_children":[1,3,5,-1,-1,-1,-1],"loss_changes":[2.2030109E2,1.176456E2,4.9117817E1,0E0,0E0,0E0,0E0],"parents":[2147483647,0,0,1,1,2,2],"right_children":[2,4,6,-1,-1,-1,-1],"split_conditions":[1.95E1,1.35E1,3.725E-1,1.0696088E-3,4.387522E-3,1.4517052E-3,-2.4209467E-3],"split_indices":[28,80,55,0,0,0,0],"split_type":[0,0,0,0,0,0,0],"sum_hessian":[6.1215684E3,4.2920283E3,1.8295404E3,2.28041E3,2.0116182E3,4.2639587E2,1.4031444E3],"tree_param":{"num_deleted":"0","num_feature":"104","num_nodes":"7","size_leaf_vector":"0"}},{"base_weights":[-1.3732795E-1,-3.273601E-1,4.8629437E-2,-1.6461818E-1,-4.7391868E-1,-1.8746074E-1,1.7635156E-1],"categories":[],"categories_nodes":[],"categories_segments":[],"categories_sizes":[],"default_left":[1,1,1,0,0,0,0],"id":20,"left_children":[1,3,5,-1,-1,-1,-1],"loss_changes":[2.163452E2,7.213934E1,9.335685E1,0E0,0E0,0E0,0E0],"parents":[2147483647,0,0,1,1,2,2],"right_children":[2,4,6,-1,-1,-1,-1],"split_conditions":[1.45E1,1.15E1,-1.55E0,-1.6461818E-3,-4.7391867E-3,-1.8746073E-3,1.7635156E-3],"split_indices":[51,80,77,0,0,0,0],"split_type":[0,0,0,0,0,0,0],"sum_hessian":[6.120739E3,3.0268267E3,3.093912E3,1.435234E3,1.5915928E3,1.086003E3,2.007909E3],"tree_param":{"num_deleted":"0","num_feature":"104","num_nodes":"7","size_leaf_vector":"0"}},{"base_weights":[1.3732791E-1,3.2736006E-1,-4.8629455E-2,1.6461806E-1,4.7391868E-1,1.8746074E-1,-1.7635158E-1],"categories":[],"categories_nodes":[],"categories_segments":[],"categories_sizes":[],"default_left":[1,1,1,0,0,0,0],"id":21,"left_children":[1,3,5,-1,-1,-1,-1],"loss_changes":[2.1634517E2,7.213937E1,9.335686E1,0E0,0E0,0E0,0E0],"parents":[2147483647,0,0,1,1,2,2],"right_children":[2,4,6,-1,-1,-1,-1],"split_conditions":[1.45E1,1.15E1,-1.55E0,1.6461805E-3,4.7391867E-3,1.8746073E-3,-1.7635158E-3],"split_indices":[51,80,77,0,0,0,0],"split_type":[0,0,0,0,0,0,0],"sum_hessian":[6.120739E3,3.0268267E3,3.093912E3,1.435234E3,1.5915928E3,1.086003E3,2.007909E3],"tree_param":{"num_deleted":"0","num_feature":"104","num_nodes":"7","size_leaf_vector":"0"}},{"base_weights":[-1.3597718E-1,-2.5789115E-1,1.4994572E-1,-1.0498788E-1,-4.3118802E-1,-1.5944514E-1,2.336565E-1],"categories":[],"categories_nodes":[],"categories_segments":[],"categories_sizes":[],"default_left":[1,1,1,0,0,0,0],"id":22,"left_children":[1,3,5,-1,-1,-1,-1],"loss_changes":[2.1339694E2,1.1366885E2,4.7441048E1,0E0,0E0,0E0,0E0],"parents":[2147483647,0,0,1,1,2,2],"right_children":[2,4,6,-1,-1,-1,-1],"split_conditions":[1.95E1,1.35E1,3.585E-1,-1.0498788E-3,-4.31188E-3,-1.5944514E-3,2.336565E-3],"split_indices":[28,80,55,0,0,0,0],"split_type":[0,0,0,0,0,0,0],"sum_hessian":[6.1197856E3,4.2904775E3,1.8293082E3,2.2802092E3,2.0102681E3,3.8935748E2,1.4399507E3],"tree_param":{"num_deleted":"0","num_feature":"104","num_nodes":"7","size_leaf_vector":"0"}},{"base_weights":[1.359772E-1,2.5789118E-1,-1.4994569E-1,1.04987934E-1,4.31188E-1,1.5944515E-1,-2.3365647E-1],"categories":[],"categories_nodes":[],"categories_segments":[],"categories_sizes":[],"default_left":[1,1,1,0,0,0,0],"id":23,"left_children":[1,3,5,-1,-1,-1,-1],"loss_changes":[2.1339697E2,1.1366879E2,4.744104E1,0E0,0E0,0E0,0E0],"parents":[2147483647,0,0,1,1,2,2],"right_children":[2,4,6,-1,-1,-1,-1],"split_conditions":[1.95E1,1.35E1,3.585E-1,1.0498794E-3,4.3118796E-3,1.5944515E-3,-2.3365647E-3],"split_indices":[28,80,55,0,0,0,0],"split_type":[0,0,0,0,0,0,0],"sum_hessian":[6.119785E3,4.290477E3,1.8293081E3,2.2802092E3,2.010268E3,3.893575E2,1.4399507E3],"tree_param":{"num_deleted":"0","num_feature":"104","num_nodes":"7","size_leaf_vector":"0"}},{"base_weights":[-1.3464004E-1,1.2404249E-1,-2.6704586E-1,-1.5316218E-1,2.1303906E-1,-3.9810695E-2,-3.852136E-1],"categories":[],"categories_nodes":[],"categories_segments":[],"categories_sizes":[],"default_left":[1,1,1,0,0,0,0],"id":24,"left_children":[1,3,5,-1,-1,-1,-1],"loss_changes":[2.0964291E2,5.1163887E1,1.0868686E2,0E0,0E0,0E0,0E0],"parents":[2147483647,0,0,1,1,2,2],"right_children":[2,4,6,-1,-1,-1,-1],"split_conditions":[4.395E-1,3.725E-1,9.5E0,-1.5316218E-3,2.1303906E-3,-3.9810693E-4,-3.852136E-3],"split_indices":[3,55,103,0,0,0,0],"split_type":[0,0,0,0,0,0,0],"sum_hessian":[6.1188027E3,2.0715867E3,4.047216E3,5.0327502E2,1.5683118E3,1.3850737E3,2.6621423E3],"tree_param":{"num_deleted":"0","num_feature":"104","num_nodes":"7","size_leaf_vector":"0"}},{"base_weights":[1.3464005E-1,-1.2404247E-1,2.6704586E-1,1.5316212E-1,-2.1303901E-1,3.981072E-2,3.852136E-1],"categories":[],"categories_nodes":[],"categories_segments":[],"categories_sizes":[],"default_left":[1,1,1,0,0,0,0],"id":25,"left_children":[1,3,5,-1,-1,-1,-1],"loss_changes":[2.0964288E2,5.1163857E1,1.0868686E2,0E0,0E0,0E0,0E0],"parents":[2147483647,0,0,1,1,2,2],"right_children":[2,4,6,-1,-1,-1,-1],"split_conditions":[4.395E-1,3.725E-1,9.5E0,1.5316212E-3,-2.1303901E-3,3.981072E-4,3.852136E-3],"split_indices":[3,55,103,0,0,0,0],"split_type":[0,0,0,0,0,0,0],"sum_hessian":[6.1188027E3,2.0715867E3,4.047216E3,5.0327505E2,1.5683118E3,1.3850737E3,2.6621423E3],"tree_param":{"num_deleted":"0","num_feature":"104","num_nodes":"7","size_leaf_vector":"0"}},{"base_weights":[-1.3331704E-1,-3.1925282E-1,4.8539624E-2,-1.6061763E-1,-4.6227884E-1,-1.8258743E-1,1.735597E-1],"categories":[],"categories_nodes":[],"categories_segments":[],"categories_sizes":[],"default_left":[1,1,1,0,0,0,0],"id":26,"left_children":[1,3,5,-1,-1,-1,-1],"loss_changes":[2.0691345E2,6.857312E1,8.943973E1,0E0,0E0,0E0,0E0],"parents":[2147483647,0,0,1,1,2,2],"right_children":[2,4,6,-1,-1,-1,-1],"split_conditions":[1.45E1,1.15E1,-1.55E0,-1.6061763E-3,-4.622788E-3,-1.8258742E-3,1.7355969E-3],"split_indices":[51,80,77,0,0,0,0],"split_type":[0,0,0,0,0,0,0],"sum_hessian":[6.1177686E3,3.0245854E3,3.0931833E3,1.4350474E3,1.5895381E3,1.0856537E3,2.0075295E3],"tree_param":{"num_deleted":"0","num_feature":"104","num_nodes":"7","size_leaf_vector":"0"}},{"base_weights":[1.3331702E-1,3.1925276E-1,-4.853962E-2,1.6061758E-1,4.622788E-1,1.8258743E-1,-1.735597E-1],"categories":[],"categories_nodes":[],"categories_segments":[],"categories_sizes":[],"default_left":[1,1,1,0,0,0,0],"id":27,"left_children":[1,3,5,-1,-1,-1,-1],"loss_changes":[2.0691339E2,6.857318E1,8.943973E1,0E0,0E0,0E0,0E0],"parents":[2147483647,0,0,1,1,2,2],"right_children":[2,4,6,-1,-1,-1,-1],"split_conditions":[1.45E1,1.15E1,-1.55E0,1.6061757E-3,4.622788E-3,1.8258742E-3,-1.7355969E-3],"split_indices":[51,80,77,0,0,0,0],"split_type":[0,0,0,0,0,0,0],"sum_hessian":[6.1177686E3,3.0245854E3,3.093183E3,1.4350474E3,1.589538E3,1.0856537E3,2.0075295E3],"tree_param":{"num_deleted":"0","num_feature":"104","num_nodes":"7","size_leaf_vector":"0"}},{"base_weights":[-1.3201039E-1,-2.5104886E-1,1.4705439E-1,-1.01702414E-1,-4.204856E-1,-1.5444152E-1,2.2862966E-1],"categories":[],"categories_nodes":[],"categories_segments":[],"categories_sizes":[],"default_left":[1,1,1,0,0,0,0],"id":28,"left_children":[1,3,5,-1,-1,-1,-1],"loss_changes":[2.0326031E2,1.0848239E2,4.5040497E1,0E0,0E0,0E0,0E0],"parents":[2147483647,0,0,1,1,2,2],"right_children":[2,4,6,-1,-1,-1,-1],"split_conditions":[1.95E1,1.35E1,3.585E-1,-1.0170242E-3,-4.2048558E-3,-1.5444151E-3,2.2862966E-3],"split_indices":[28,80,55,0,0,0,0],"split_type":[0,0,0,0,0,0,0],"sum_hessian":[6.116603E3,4.2877227E3,1.8288801E3,2.2798218E3,2.0079011E3,3.892711E2,1.4396091E3],"tree_param":{"num_deleted":"0","num_feature":"104","num_nodes":"7","size_leaf_vector":"0"}},{"base_weights":[1.3201036E-1,2.5104883E-1,-1.470544E-1,1.01702385E-1,4.2048556E-1,1.544415E-1,-2.2862968E-1],"categories":[],"categories_nodes":[],"categories_segments":[],"categories_sizes":[],"default_left":[1,1,1,0,0,0,0],"id":29,"left_children":[1,3,5,-1,-1,-1,-1],"loss_changes":[2.0326035E2,1.0848239E2,4.5040493E1,0E0,0E0,0E0,0E0],"parents":[2147483647,0,0,1,1,2,2],"right_children":[2,4,6,-1,-1,-1,-1],"split_conditions":[1.95E1,1.35E1,3.585E-1,1.0170238E-3,4.2048553E-3,1.544415E-3,-2.2862968E-3],"split_indices":[28,80,55,0,0,0,0],"split_type":[0,0,0,0,0,0,0],"sum_hessian":[6.116603E3,4.2877227E3,1.8288802E3,2.2798218E3,2.007901E3,3.8927106E2,1.4396091E3],"tree_param":{"num_deleted":"0","num_feature":"104","num_nodes":"7","size_leaf_vector":"0"}},{"base_weights":[-1.3071692E-1,-3.138205E-1,4.8293196E-2,-1.5805899E-1,-4.543902E-1,1.8772854E-1,-1.5335056E-1],"categories":[],"categories_nodes":[],"categories_segments":[],"categories_sizes":[],"default_left":[1,1,1,0,0,0,0],"id":30,"left_children":[1,3,5,-1,-1,-1,-1],"loss_changes":[2.0049496E2,6.613455E1,8.701039E1,0E0,0E0,0E0,0E0],"parents":[2147483647,0,0,1,1,2,2],"right_children":[2,4,6,-1,-1,-1,-1],"split_conditions":[1.45E1,1.15E1,1.75E1,-1.5805898E-3,-4.543902E-3,1.8772853E-3,-1.5335056E-3],"split_indices":[51,80,81,0,0,0,0],"split_type":[0,0,0,0,0,0,0],"sum_hessian":[6.115404E3,3.0227642E3,3.0926396E3,1.4349066E3,1.5878575E3,1.8283894E3,1.2642504E3],"tree_param":{"num_deleted":"0","num_feature":"104","num_nodes":"7","size_leaf_vector":"0"}},{"base_weights":[1.3071692E-1,3.138205E-1,-4.82932E-2,1.58059E-1,4.5439017E-1,-1.8772852E-1,1.5335052E-1],"categories":[],"categories_nodes":[],"categories_segments":[],"categories_sizes":[],"default_left":[1,1,1,0,0,0,0],"id":31,"left_children":[1,3,5,-1,-1,-1,-1],"loss_changes":[2.0049495E2,6.613452E1,8.701036E1,0E0,0E0,0E0,0E0],"parents":[2147483647,0,0,1,1,2,2],"right_children":[2,4,6,-1,-1,-1,-1],"split_conditions":[1.45E1,1.15E1,1.75E1,1.5805899E-3,4.5439014E-3,-1.8772852E-3,1.5335052E-3],"split_indices":[51,80,81,0,0,0,0],"split_type":[0,0,0,0,0,0,0],"sum_hessian":[6.115404E3,3.0227642E3,3.0926396E3,1.4349067E3,1.5878574E3,1.8283894E3,1.2642504E3],"tree_param":{"num_deleted":"0","num_feature":"104","num_nodes":"7","size_leaf_vector":"0"}},{"base_weights":[-1.2943842E-1,9.357556E-2,-2.7394262E-1,-5.4090817E-2,2.5003457E-1,-5.7601523E-2,-3.8726845E-1],"categories":[],"categories_nodes":[],"categories_segments":[],"categories_sizes":[],"default_left":[1,1,1,0,0,0,0],"id":32,"left_children":[1,3,5,-1,-1,-1,-1],"loss_changes":[1.9709402E2,5.5581284E1,9.0959656E1,0E0,0E0,0E0,0E0],"parents":[2147483647,0,0,1,1,2,2],"right_children":[2,4,6,-1,-1,-1,-1],"split_conditions":[4.6850002E-1,5.03E-1,9.5E0,-5.4090814E-4,2.5003457E-3,-5.760152E-4,-3.8726844E-3],"split_indices":[3,55,103,0,0,0,0],"split_type":[0,0,0,0,0,0,0],"sum_hessian":[6.114112E3,2.4041418E3,3.7099697E3,1.2371609E3,1.166981E3,1.2758524E3,2.4341174E3],"tree_param":{"num_deleted":"0","num_feature":"104","num_nodes":"7","size_leaf_vector":"0"}},{"base_weights":[1.2943842E-1,-9.3575515E-2,2.739426E-1,5.409082E-2,-2.5003448E-1,5.7601526E-2,3.8726842E-1],"categories":[],"categories_nodes":[],"categories_segments":[],"categories_sizes":[],"default_left":[1,1,1,0,0,0,0],"id":33,"left_children":[1,3,5,-1,-1,-1,-1],"loss_changes":[1.9709396E2,5.558126E1,9.0959656E1,0E0,0E0,0E0,0E0],"parents":[2147483647,0,0,1,1,2,2],"right_children":[2,4,6,-1,-1,-1,-1],"split_conditions":[4.6850002E-1,5.03E-1,9.5E0,5.409082E-4,-2.5003448E-3,5.7601527E-4,3.8726842E-3],"split_indices":[3,55,103,0,0,0,0],"split_type":[0,0,0,0,0,0,0],"sum_hessian":[6.1141113E3,2.4041418E3,3.7099697E3,1.2371609E3,1.166981E3,1.2758524E3,2.4341172E3],"tree_param":{"num_deleted":"0","num_feature":"104","num_nodes":"7","size_leaf_vector":"0"}},{"base_weights":[-1.2817179E-1,-3.0832446E-1,4.786478E-2,-1.6494963E-1,-4.565069E-1,-1.767399E-1,1.6933937E-1],"categories":[],"categories_nodes":[],"categories_segments":[],"categories_sizes":[],"default_left":[1,1,1,0,0,0,0],"id":34,"left_children":[1,3,5,-1,-1,-1,-1],"loss_changes":[1.9390518E2,6.412305E1,8.442137E1,0E0,0E0,0E0,0E0],"parents":[2147483647,0,0,1,1,2,2],"right_children":[2,4,6,-1,-1,-1,-1],"split_conditions":[1.45E1,1.25E1,-1.55E0,-1.6494963E-3,-4.565069E-3,-1.767399E-3,1.6933937E-3],"split_indices":[51,80,77,0,0,0,0],"split_type":[0,0,0,0,0,0,0],"sum_hessian":[6.1128213E3,3.0207195E3,3.0921016E3,1.5363389E3,1.4843806E3,1.0851749E3,2.0069268E3],"tree_param":{"num_deleted":"0","num_feature":"104","num_nodes":"7","size_leaf_vector":"0"}},{"base_weights":[1.2817179E-1,3.0832443E-1,-4.7864765E-2,1.649496E-1,4.565069E-1,1.7673995E-1,-1.6933939E-1],"categories":[],"categories_nodes":[],"categories_segments":[],"categories_sizes":[],"default_left":[1,1,1,0,0,0,0],"id":35,"left_children":[1,3,5,-1,-1,-1,-1],"loss_changes":[1.9390509E2,6.412305E1,8.442141E1,0E0,0E0,0E0,0E0],"parents":[2147483647,0,0,1,1,2,2],"right_children":[2,4,6,-1,-1,-1,-1],"split_conditions":[1.45E1,1.25E1,-1.55E0,1.6494959E-3,4.565069E-3,1.7673994E-3,-1.6933938E-3],"split_indices":[51,80,77,0,0,0,0],"split_type":[0,0,0,0,0,0,0],"sum_hessian":[6.112821E3,3.0207195E3,3.0921016E3,1.536339E3,1.4843805E3,1.0851748E3,2.0069266E3],"tree_param":{"num_deleted":"0","num_feature":"104","num_nodes":"7","size_leaf_vector":"0"}},{"base_weights":[-1.2692113E-1,-2.4257903E-1,1.4402501E-1,-9.788524E-2,-4.0700495E-1,-1.4902939E-1,2.2332081E-1],"categories":[],"categories_nodes":[],"categories_segments":[],"categories_sizes":[],"default_left":[1,1,1,0,0,0,0],"id":36,"left_children":[1,3,5,-1,-1,-1,-1],"loss_changes":[1.9157938E2,1.0188635E2,4.254098E1,0E0,0E0,0E0,0E0],"parents":[2147483647,0,0,1,1,2,2],"right_children":[2,4,6,-1,-1,-1,-1],"split_conditions":[1.95E1,1.35E1,3.585E-1,-9.788524E-4,-4.0700496E-3,-1.4902939E-3,2.2332082E-3],"split_indices":[28,80,55,0,0,0,0],"split_type":[0,0,0,0,0,0,0],"sum_hessian":[6.111393E3,4.2831597E3,1.8282336E3,2.2791326E3,2.0040272E3,3.891538E2,1.4390798E3],"tree_param":{"num_deleted":"0","num_feature":"104","num_nodes":"7","size_leaf_vector":"0"}},{"base_weights":[1.2692116E-1,2.4257906E-1,-1.4402501E-1,9.788523E-2,4.07005E-1,1.4902939E-1,-2.233208E-1],"categories":[],"categories_nodes":[],"categories_segments":[],"categories_sizes":[],"default_left":[1,1,1,0,0,0,0],"id":37,"left_children":[1,3,5,-1,-1,-1,-1],"loss_changes":[1.9157938E2,1.01886444E2,4.2540974E1,0E0,0E0,0E0,0E0],"parents":[2147483647,0,0,1,1,2,2],"right_children":[2,4,6,-1,-1,-1,-1],"split_conditions":[1.95E1,1.35E1,3.585E-1,9.788523E-4,4.07005E-3,1.4902939E-3,-2.233208E-3],"split_indices":[28,80,55,0,0,0,0],"split_type":[0,0,0,0,0,0,0],"sum_hessian":[6.111393E3,4.2831597E3,1.8282336E3,2.2791323E3,2.0040272E3,3.891538E2,1.4390798E3],"tree_param":{"num_deleted":"0","num_feature":"104","num_nodes":"7","size_leaf_vector":"0"}},{"base_weights":[-1.2568277E-1,-3.0311814E-1,4.760818E-2,-2.3311548E-1,-5.982445E-1,1.8289037E-1,-1.4805318E-1],"categories":[],"categories_nodes":[],"categories_segments":[],"categories_sizes":[],"default_left":[1,1,1,0,0,0,0],"id":38,"left_children":[1,3,5,-1,-1,-1,-1],"loss_changes":[1.8791345E2,6.224234E1,8.188248E1,0E0,0E0,0E0,0E0],"parents":[2147483647,0,0,1,1,2,2],"right_children":[2,4,6,-1,-1,-1,-1],"split_conditions":[1.45E1,2.25E1,1.75E1,-2.3311547E-3,-5.9824446E-3,1.8289037E-3,-1.4805318E-3],"split_indices":[51,80,81,0,0,0,0],"split_type":[0,0,0,0,0,0,0],"sum_hessian":[6.1099453E3,3.018503E3,3.0914424E3,2.4412412E3,5.7726166E2,1.8277698E3,1.2636727E3],"tree_param":{"num_deleted":"0","num_feature":"104","num_nodes":"7","size_leaf_vector":"0"}},{"base_weights":[1.256828E-1,3.031182E-1,-4.7608193E-2,2.3311552E-1,5.9824455E-1,-1.8289039E-1,1.4805317E-1],"categories":[],"categories_nodes":[],"categories_segments":[],"categories_sizes":[],"default_left":[1,1,1,0,0,0,0],"id":39,"left_children":[1,3,5,-1,-1,-1,-1],"loss_changes":[1.8791354E2,6.224231E1,8.188247E1,0E0,0E0,0E0,0E0],"parents":[2147483647,0,0,1,1,2,2],"right_children":[2,4,6,-1,-1,-1,-1],"split_conditions":[1.45E1,2.25E1,1.75E1,2.3311551E-3,5.9824456E-3,-1.8289038E-3,1.4805316E-3],"split_indices":[51,80,81,0,0,0,0],"split_type":[0,0,0,0,0,0,0],"sum_hessian":[6.1099453E3,3.018503E3,3.0914424E3,2.4412415E3,5.772617E2,1.8277698E3,1.2636727E3],"tree_param":{"num_deleted":"0","num_feature":"104","num_nodes":"7","size_leaf_vector":"0"}},{"base_weights":[-1.24456696E-1,-2.3835364E-1,1.4226569E-1,-7.659733E-2,-3.8133505E-1,-1.4599343E-1,2.202653E-1],"categories":[],"categories_nodes":[],"categories_segments":[],"categories_sizes":[],"default_left":[1,1,1,0,0,0,0],"id":40,"left_children":[1,3,5,-1,-1,-1,-1],"loss_changes":[1.8563419E2,9.8997925E1,4.1152092E1,0E0,0E0,0E0,0E0],"parents":[2147483647,0,0,1,1,2,2],"right_children":[2,4,6,-1,-1,-1,-1],"split_conditions":[1.95E1,1.15E1,3.585E-1,-7.659733E-4,-3.8133503E-3,-1.4599343E-3,2.2026529E-3],"split_indices":[28,80,55,0,0,0,0],"split_type":[0,0,0,0,0,0,0],"sum_hessian":[6.1085195E3,4.280674E3,1.8278456E3,2.0091912E3,2.271483E3,3.890781E2,1.4387676E3],"tree_param":{"num_deleted":"0","num_feature":"104","num_nodes":"7","size_leaf_vector":"0"}},{"base_weights":[1.2445668E-1,2.3835364E-1,-1.4226572E-1,7.659728E-2,3.8133505E-1,1.4599341E-1,-2.2026534E-1],"categories":[],"categories_nodes":[],"categories_segments":[],"categories_sizes":[],"default_left":[1,1,1,0,0,0,0],"id":41,"left_children":[1,3,5,-1,-1,-1,-1],"loss_changes":[1.8563419E2,9.8998E1,4.1152103E1,0E0,0E0,0E0,0E0],"parents":[2147483647,0,0,1,1,2,2],"right_children":[2,4,6,-1,-1,-1,-1],"split_conditions":[1.95E1,1.15E1,3.585E-1,7.6597277E-4,3.8133503E-3,1.459934E-3,-2.2026533E-3],"split_indices":[28,80,55,0,0,0,0],"split_type":[0,0,0,0,0,0,0],"sum_hessian":[6.1085195E3,4.2806743E3,1.8278456E3,2.0091912E3,2.271483E3,3.890781E2,1.4387675E3],"tree_param":{"num_deleted":"0","num_feature":"104","num_nodes":"7","size_leaf_vector":"0"}},{"base_weights":[-1.23244755E-1,1.18067846E-1,-2.4696754E-1,-1.3960549E-1,2.0079267E-1,-3.2359384E-2,-3.5891458E-1],"categories":[],"categories_nodes":[],"categories_segments":[],"categories_sizes":[],"default_left":[1,1,1,0,0,0,0],"id":42,"left_children":[1,3,5,-1,-1,-1,-1],"loss_changes":[1.8238736E2,4.4170597E1,9.700232E1,0E0,0E0,0E0,0E0],"parents":[2147483647,0,0,1,1,2,2],"right_children":[2,4,6,-1,-1,-1,-1],"split_conditions":[4.395E-1,3.725E-1,9.5E0,-1.3960549E-3,2.0079266E-3,-3.2359382E-4,-3.5891458E-3],"split_indices":[3,55,103,0,0,0,0],"split_type":[0,0,0,0,0,0,0],"sum_hessian":[6.106951E3,2.069867E3,4.0370842E3,5.0285962E2,1.5670072E3,1.3844031E3,2.6526814E3],"tree_param":{"num_deleted":"0","num_feature":"104","num_nodes":"7","size_leaf_vector":"0"}},{"base_weights":[1.2324476E-1,-1.1806787E-1,2.4696755E-1,1.3960548E-1,-2.0079269E-1,3.235942E-2,3.589146E-1],"categories":[],"categories_nodes":[],"categories_segments":[],"categories_sizes":[],"default_left":[1,1,1,0,0,0,0],"id":43,"left_children":[1,3,5,-1,-1,-1,-1],"loss_changes":[1.8238739E2,4.41706E1,9.7002335E1,0E0,0E0,0E0,0E0],"parents":[2147483647,0,0,1,1,2,2],"right_children":[2,4,6,-1,-1,-1,-1],"split_conditions":[4.395E-1,3.725E-1,9.5E0,1.3960548E-3,-2.0079268E-3,3.235942E-4,3.589146E-3],"split_indices":[3,55,103,0,0,0,0],"split_type":[0,0,0,0,0,0,0],"sum_hessian":[6.106951E3,2.069867E3,4.0370842E3,5.028596E2,1.5670072E3,1.384403E3,2.6526814E3],"tree_param":{"num_deleted":"0","num_feature":"104","num_nodes":"7","size_leaf_vector":"0"}},{"base_weights":[-1.22044824E-1,-2.9574737E-1,4.7471814E-2,-2.2691174E-1,-5.8642757E-1,-1.6965419E-1,1.6486718E-1],"categories":[],"categories_nodes":[],"categories_segments":[],"categories_sizes":[],"default_left":[1,1,1,0,0,0,0],"id":44,"left_children":[1,3,5,-1,-1,-1,-1],"loss_changes":[1.7981892E2,6.0216217E1,7.882348E1,0E0,0E0,0E0,0E0],"parents":[2147483647,0,0,1,1,2,2],"right_children":[2,4,6,-1,-1,-1,-1],"split_conditions":[1.45E1,2.25E1,-1.55E0,-2.2691174E-3,-5.8642756E-3,-1.6965419E-3,1.6486717E-3],"split_indices":[51,80,77,0,0,0,0],"split_type":[0,0,0,0,0,0,0],"sum_hessian":[6.105368E3,3.015086E3,3.0902822E3,2.4392344E3,5.758515E2,1.084333E3,2.0059493E3],"tree_param":{"num_deleted":"0","num_feature":"104","num_nodes":"7","size_leaf_vector":"0"}},{"base_weights":[1.2204482E-1,2.9574734E-1,-4.7471814E-2,2.2691172E-1,5.8642757E-1,1.6965419E-1,-1.6486718E-1],"categories":[],"categories_nodes":[],"categories_segments":[],"categories_sizes":[],"default_left":[1,1,1,0,0,0,0],"id":45,"left_children":[1,3,5,-1,-1,-1,-1],"loss_changes":[1.7981891E2,6.0216248E1,7.882347E1,0E0,0E0,0E0,0E0],"parents":[2147483647,0,0,1,1,2,2],"right_children":[2,4,6,-1,-1,-1,-1],"split_conditions":[1.45E1,2.25E1,-1.55E0,2.2691172E-3,5.8642756E-3,1.6965419E-3,-1.6486717E-3],"split_indices":[51,80,77,0,0,0,0],"split_type":[0,0,0,0,0,0,0],"sum_hessian":[6.105368E3,3.0150857E3,3.0902822E3,2.4392344E3,5.758515E2,1.084333E3,2.0059493E3],"tree_param":{"num_deleted":"0","num_feature":"104","num_nodes":"7","size_leaf_vector":"0"}},{"base_weights":[-1.2085764E-1,1.5212065E-1,-2.2727036E-1,-4.0747046E-2,2.5986442E-1,-1.7874593E-2,-3.3550814E-1],"categories":[],"categories_nodes":[],"categories_segments":[],"categories_sizes":[],"default_left":[1,1,1,0,0,0,0],"id":46,"left_children":[1,3,5,-1,-1,-1,-1],"loss_changes":[1.7736838E2,3.560485E1,9.9556854E1,0E0,0E0,0E0,0E0],"parents":[2147483647,0,0,1,1,2,2],"right_children":[2,4,6,-1,-1,-1,-1],"split_conditions":[-2.45E0,-1.55E0,9.5E0,-4.0747045E-4,2.5986442E-3,-1.7874592E-4,-3.3550812E-3],"split_indices":[25,77,103,0,0,0,0],"split_type":[0,0,0,0,0,0,0],"sum_hessian":[6.103778E3,1.7118854E3,4.3918926E3,6.1378894E2,1.0980964E3,1.4969917E3,2.894901E3],"tree_param":{"num_deleted":"0","num_feature":"104","num_nodes":"7","size_leaf_vector":"0"}},{"base_weights":[1.2085765E-1,-1.521206E-1,2.2727035E-1,4.0747132E-2,-2.5986442E-1,1.787462E-2,3.355081E-1],"categories":[],"categories_nodes":[],"categories_segments":[],"categories_sizes":[],"default_left":[1,1,1,0,0,0,0],"id":47,"left_children":[1,3,5,-1,-1,-1,-1],"loss_changes":[1.7736832E2,3.5604877E1,9.955682E1,0E0,0E0,0E0,0E0],"parents":[2147483647,0,0,1,1,2,2],"right_children":[2,4,6,-1,-1,-1,-1],"split_conditions":[-2.45E0,-1.55E0,9.5E0,4.0747132E-4,-2.5986442E-3,1.7874621E-4,3.355081E-3],"split_indices":[25,77,103,0,0,0,0],"split_type":[0,0,0,0,0,0,0],"sum_hessian":[6.103778E3,1.7118854E3,4.3918926E3,6.1378894E2,1.0980963E3,1.4969917E3,2.8949006E3],"tree_param":{"num_deleted":"0","num_feature":"104","num_nodes":"7","size_leaf_vector":"0"}},{"base_weights":[-1.1968041E-1,-2.3017108E-1,1.3886416E-1,-1.368102E-1,-4.6774513E-1,-1.4036964E-1,2.144272E-1],"categories":[],"categories_nodes":[],"categories_segments":[],"categories_sizes":[],"default_left":[1,1,1,0,0,0,0],"id":48,"left_children":[1,3,5,-1,-1,-1,-1],"loss_changes":[1.7438083E2,9.4783966E1,3.8599377E1,0E0,0E0,0E0,0E0],"parents":[2147483647,0,0,1,1,2,2],"right_children":[2,4,6,-1,-1,-1,-1],"split_conditions":[1.95E1,1.95E1,3.585E-1,-1.3681019E-3,-4.677451E-3,-1.4036964E-3,2.144272E-3],"split_indices":[28,80,55,0,0,0,0],"split_type":[0,0,0,0,0,0,0],"sum_hessian":[6.1022065E3,4.275258E3,1.826949E3,3.0702854E3,1.2049725E3,3.8891275E2,1.4380363E3],"tree_param":{"num_deleted":"0","num_feature":"104","num_nodes":"7","size_leaf_vector":"0"}},{"base_weights":[1.19680405E-1,2.3017107E-1,-1.3886416E-1,1.3681015E-1,4.6774518E-1,1.4036965E-1,-2.1442722E-1],"categories":[],"categories_nodes":[],"categories_segments":[],"categories_sizes":[],"default_left":[1,1,1,0,0,0,0],"id":49,"left_children":[1,3,5,-1,-1,-1,-1],"loss_changes":[1.743808E2,9.478398E1,3.8599377E1,0E0,0E0,0E0,0E0],"parents":[2147483647,0,0,1,1,2,2],"right_children":[2,4,6,-1,-1,-1,-1],"split_conditions":[1.95E1,1.95E1,3.585E-1,1.3681015E-3,4.6774517E-3,1.4036965E-3,-2.1442722E-3],"split_indices":[28,80,55,0,0,0,0],"split_type":[0,0,0,0,0,0,0],"sum_hessian":[6.1022065E3,4.275258E3,1.826949E3,3.0702852E3,1.2049725E3,3.8891278E2,1.4380363E3],"tree_param":{"num_deleted":"0","num_feature":"104","num_nodes":"7","size_leaf_vector":"0"}},{"base_weights":[-1.18517436E-1,-2.8867546E-1,4.7407955E-2,-2.2117664E-1,-5.7431763E-1,1.7728941E-1,-1.4051661E-1],"categories":[],"categories_nodes":[],"categories_segments":[],"categories_sizes":[],"default_left":[1,1,1,0,0,0,0],"id":50,"left_children":[1,3,5,-1,-1,-1,-1],"loss_changes":[1.7228146E2,5.795523E1,7.544647E1,0E0,0E0,0E0,0E0],"parents":[2147483647,0,0,1,1,2,2],"right_children":[2,4,6,-1,-1,-1,-1],"split_conditions":[1.45E1,2.25E1,1.75E1,-2.2117663E-3,-5.743176E-3,1.7728941E-3,-1.4051661E-3],"split_indices":[51,80,81,0,0,0,0],"split_type":[0,0,0,0,0,0,0],"sum_hessian":[6.1005303E3,3.0114846E3,3.0890454E3,2.4373093E3,5.741755E2,1.8266431E3,1.2624025E3],"tree_param":{"num_deleted":"0","num_feature":"104","num_nodes":"7","size_leaf_vector":"0"}},{"base_weights":[1.18517436E-1,2.886755E-1,-4.740797E-2,2.2117665E-1,5.7431763E-1,-1.7728943E-1,1.4051658E-1],"categories":[],"categories_nodes":[],"categories_segments":[],"categories_sizes":[],"default_left":[1,1,1,0,0,0,0],"id":51,"left_children":[1,3,5,-1,-1,-1,-1],"loss_changes":[1.7228146E2,5.795523E1,7.544648E1,0E0,0E0,0E0,0E0],"parents":[2147483647,0,0,1,1,2,2],"right_children":[2,4,6,-1,-1,-1,-1],"split_conditions":[1.45E1,2.25E1,1.75E1,2.2117666E-3,5.743176E-3,-1.7728942E-3,1.4051658E-3],"split_indices":[51,80,81,0,0,0,0],"split_type":[0,0,0,0,0,0,0],"sum_hessian":[6.1005303E3,3.0114849E3,3.0890454E3,2.4373093E3,5.741755E2,1.8266431E3,1.2624025E3],"tree_param":{"num_deleted":"0","num_feature":"104","num_nodes":"7","size_leaf_vector":"0"}},{"base_weights":[-1.1736721E-1,-2.0573482E-1,1.974531E-1,-4.6098866E-2,-3.4390667E-1,2.5846452E-1,-9.4965704E-2],"categories":[],"categories_nodes":[],"categories_segments":[],"categories_sizes":[],"default_left":[1,1,1,0,0,0,0],"id":52,"left_children":[1,3,5,-1,-1,-1,-1],"loss_changes":[1.6973657E2,1.0505104E2,2.3885258E1,0E0,0E0,0E0,0E0],"parents":[2147483647,0,0,1,1,2,2],"right_children":[2,4,6,-1,-1,-1,-1],"split_conditions":[2.35E1,1.15E1,2.45E1,-4.6098864E-4,-3.4390667E-3,2.584645E-3,-9.49657E-4],"split_indices":[51,80,81,0,0,0,0],"split_type":[0,0,0,0,0,0,0],"sum_hessian":[6.0988013E3,4.762384E3,1.3364175E3,2.2101895E3,2.5521943E3,1.1058125E3,2.3060503E2],"tree_param":{"num_deleted":"0","num_feature":"104","num_nodes":"7","size_leaf_vector":"0"}},{"base_weights":[1.1736722E-1,2.0573483E-1,-1.974531E-1,4.6098873E-2,3.439067E-1,-2.5846452E-1,9.4965726E-2],"categories":[],"categories_nodes":[],"categories_segments":[],"categories_sizes":[],"default_left":[1,1,1,0,0,0,0],"id":53,"left_children":[1,3,5,-1,-1,-1,-1],"loss_changes":[1.697366E2,1.0505104E2,2.3885262E1,0E0,0E0,0E0,0E0],"parents":[2147483647,0,0,1,1,2,2],"right_children":[2,4,6,-1,-1,-1,-1],"split_conditions":[2.35E1,1.15E1,2.45E1,4.6098873E-4,3.439067E-3,-2.584645E-3,9.4965723E-4],"split_indices":[51,80,81,0,0,0,0],"split_type":[0,0,0,0,0,0,0],"sum_hessian":[6.0988013E3,4.762384E3,1.3364175E3,2.2101895E3,2.5521943E3,1.1058125E3,2.3060503E2],"tree_param":{"num_deleted":"0","num_feature":"104","num_nodes":"7","size_leaf_vector":"0"}},{"base_weights":[-1.1622656E-1,-2.8402305E-1,4.729351E-2,-2.1740687E-1,-5.663703E-1,-1.9416413E-1,1.458358E-1],"categories":[],"categories_nodes":[],"categories_segments":[],"categories_sizes":[],"default_left":[1,1,1,0,0,0,0],"id":54,"left_children":[1,3,5,-1,-1,-1,-1],"loss_changes":[1.6733385E2,5.6488663E1,7.353364E1,0E0,0E0,0E0,0E0],"parents":[2147483647,0,0,1,1,2,2],"right_children":[2,4,6,-1,-1,-1,-1],"split_conditions":[1.45E1,2.25E1,-2.45E0,-2.1740687E-3,-5.6637027E-3,-1.9416412E-3,1.458358E-3],"split_indices":[51,80,77,0,0,0,0],"split_type":[0,0,0,0,0,0,0],"sum_hessian":[6.097107E3,3.0088413E3,3.0882659E3,2.4358938E3,5.729474E2,8.947918E2,2.193474E3],"tree_param":{"num_deleted":"0","num_feature":"104","num_nodes":"7","size_leaf_vector":"0"}},{"base_weights":[1.1622656E-1,2.8402302E-1,-4.7293507E-2,2.1740688E-1,5.6637025E-1,1.9416414E-1,-1.458358E-1],"categories":[],"categories_nodes":[],"categories_segments":[],"categories_sizes":[],"default_left":[1,1,1,0,0,0,0],"id":55,"left_children":[1,3,5,-1,-1,-1,-1],"loss_changes":[1.6733383E2,5.6488617E1,7.353366E1,0E0,0E0,0E0,0E0],"parents":[2147483647,0,0,1,1,2,2],"right_children":[2,4,6,-1,-1,-1,-1],"split_conditions":[1.45E1,2.25E1,-2.45E0,2.1740687E-3,5.6637023E-3,1.9416413E-3,-1.458358E-3],"split_indices":[51,80,77,0,0,0,0],"split_type":[0,0,0,0,0,0,0],"sum_hessian":[6.097107E3,3.0088413E3,3.0882659E3,2.4358938E3,5.7294745E2,8.947918E2,2.193474E3],"tree_param":{"num_deleted":"0","num_feature":"104","num_nodes":"7","size_leaf_vector":"0"}},{"base_weights":[-1.1510032E-1,-2.2260348E-1,1.3623367E-1,-1.3185993E-1,-4.5409757E-1,3.2286043E-3,2.871193E-1],"categories":[],"categories_nodes":[],"categories_segments":[],"categories_sizes":[],"default_left":[1,1,1,0,0,0,0],"id":56,"left_children":[1,3,5,-1,-1,-1,-1],"loss_changes":[1.647474E2,8.964461E1,3.6664227E1,0E0,0E0,0E0,0E0],"parents":[2147483647,0,0,1,1,2,2],"right_children":[2,4,6,-1,-1,-1,-1],"split_conditions":[1.95E1,1.95E1,5.135E-1,-1.3185992E-3,-4.5409757E-3,3.2286043E-5,2.871193E-3],"split_indices":[28,80,55,0,0,0,0],"split_type":[0,0,0,0,0,0,0],"sum_hessian":[6.0952974E3,4.269302E3,1.8259955E3,3.068175E3,1.2011267E3,9.7104486E2,8.549507E2],"tree_param":{"num_deleted":"0","num_feature":"104","num_nodes":"7","size_leaf_vector":"0"}},{"base_weights":[1.1510031E-1,2.2260348E-1,-1.3623369E-1,1.3185994E-1,4.5409757E-1,-3.2286379E-3,-2.871193E-1],"categories":[],"categories_nodes":[],"categories_segments":[],"categories_sizes":[],"default_left":[1,1,1,0,0,0,0],"id":57,"left_children":[1,3,5,-1,-1,-1,-1],"loss_changes":[1.6474742E2,8.964461E1,3.6664215E1,0E0,0E0,0E0,0E0],"parents":[2147483647,0,0,1,1,2,2],"right_children":[2,4,6,-1,-1,-1,-1],"split_conditions":[1.95E1,1.95E1,5.135E-1,1.3185994E-3,4.5409757E-3,-3.2286378E-5,-2.871193E-3],"split_indices":[28,80,55,0,0,0,0],"split_type":[0,0,0,0,0,0,0],"sum_hessian":[6.0952974E3,4.269302E3,1.8259955E3,3.0681748E3,1.2011267E3,9.7104486E2,8.549507E2],"tree_param":{"num_deleted":"0","num_feature":"104","num_nodes":"7","size_leaf_vector":"0"}},{"base_weights":[-1.139845E-1,-2.0049258E-1,1.9403897E-1,-4.391111E-2,-3.3621252E-1,2.537164E-1,-9.193308E-2],"categories":[],"categories_nodes":[],"categories_segments":[],"categories_sizes":[],"default_left":[1,1,1,0,0,0,0],"id":58,"left_children":[1,3,5,-1,-1,-1,-1],"loss_changes":[1.6243512E2,1.0111206E2,2.2837734E1,0E0,0E0,0E0,0E0],"parents":[2147483647,0,0,1,1,2,2],"right_children":[2,4,6,-1,-1,-1,-1],"split_conditions":[2.35E1,1.15E1,2.45E1,-4.3911109E-4,-3.362125E-3,2.5371641E-3,-9.1933075E-4],"split_indices":[51,80,81,0,0,0,0],"split_type":[0,0,0,0,0,0,0],"sum_hessian":[6.093464E3,4.7576357E3,1.3358279E3,2.2096565E3,2.5479795E3,1.1052865E3,2.3054137E2],"tree_param":{"num_deleted":"0","num_feature":"104","num_nodes":"7","size_leaf_vector":"0"}},{"base_weights":[1.139845E-1,2.0049258E-1,-1.9403897E-1,4.3911085E-2,3.3621255E-1,-2.5371638E-1,9.193309E-2],"categories":[],"categories_nodes":[],"categories_segments":[],"categories_sizes":[],"default_left":[1,1,1,0,0,0,0],"id":59,"left_children":[1,3,5,-1,-1,-1,-1],"loss_changes":[1.6243512E2,1.0111209E2,2.2837734E1,0E0,0E0,0E0,0E0],"parents":[2147483647,0,0,1,1,2,2],"right_children":[2,4,6,-1,-1,-1,-1],"split_conditions":[2.35E1,1.15E1,2.45E1,4.3911082E-4,3.3621255E-3,-2.5371637E-3,9.1933087E-4],"split_indices":[51,80,81,0,0,0,0],"split_type":[0,0,0,0,0,0,0],"sum_hessian":[6.093464E3,4.7576357E3,1.3358279E3,2.2096565E3,2.5479795E3,1.1052865E3,2.3054137E2],"tree_param":{"num_deleted":"0","num_feature":"104","num_nodes":"7","size_leaf_vector":"0"}},{"base_weights":[-1.12879194E-1,-2.7744755E-1,4.7349807E-2,-2.1216826E-1,-5.5484515E-1,-9.269055E-2,2.1042947E-1],"categories":[],"categories_nodes":[],"categories_segments":[],"categories_sizes":[],"default_left":[1,1,1,0,0,0,0],"id":60,"left_children":[1,3,5,-1,-1,-1,-1],"loss_changes":[1.6066766E2,5.4311646E1,7.053953E1,0E0,0E0,0E0,0E0],"parents":[2147483647,0,0,1,1,2,2],"right_children":[2,4,6,-1,-1,-1,-1],"split_conditions":[1.45E1,2.25E1,5.5E-1,-2.1216825E-3,-5.5484516E-3,-9.269055E-4,2.1042947E-3],"split_indices":[51,80,77,0,0,0,0],"split_type":[0,0,0,0,0,0,0],"sum_hessian":[6.091639E3,3.0047659E3,3.0868733E3,2.4337925E3,5.709736E2,1.6609811E3,1.4258921E3],"tree_param":{"num_deleted":"0","num_feature":"104","num_nodes":"7","size_leaf_vector":"0"}},{"base_weights":[1.1287918E-1,2.7744758E-1,-4.7349848E-2,2.1216826E-1,5.5484515E-1,9.269052E-2,-2.1042953E-1],"categories":[],"categories_nodes":[],"categories_segments":[],"categories_sizes":[],"default_left":[1,1,1,0,0,0,0],"id":61,"left_children":[1,3,5,-1,-1,-1,-1],"loss_changes":[1.606677E2,5.4311646E1,7.053955E1,0E0,0E0,0E0,0E0],"parents":[2147483647,0,0,1,1,2,2],"right_children":[2,4,6,-1,-1,-1,-1],"split_conditions":[1.45E1,2.25E1,5.5E-1,2.1216825E-3,5.5484516E-3,9.269052E-4,-2.1042952E-3],"split_indices":[51,80,77,0,0,0,0],"split_type":[0,0,0,0,0,0,0],"sum_hessian":[6.091639E3,3.0047659E3,3.0868733E3,2.4337922E3,5.709736E2,1.6609811E3,1.4258921E3],"tree_param":{"num_deleted":"0","num_feature":"104","num_nodes":"7","size_leaf_vector":"0"}},{"base_weights":[-1.1178667E-1,8.789222E-2,-2.4163792E-1,-4.504408E-2,2.2881912E-1,-4.2794216E-2,-3.4648818E-1],"categories":[],"categories_nodes":[],"categories_segments":[],"categories_sizes":[],"default_left":[1,1,1,0,0,0,0],"id":62,"left_children":[1,3,5,-1,-1,-1,-1],"loss_changes":[1.5794547E2,4.4987427E1,7.6937256E1,0E0,0E0,0E0,0E0],"parents":[2147483647,0,0,1,1,2,2],"right_children":[2,4,6,-1,-1,-1,-1],"split_conditions":[4.6850002E-1,5.03E-1,9.5E0,-4.5044077E-4,2.288191E-3,-4.2794214E-4,-3.4648818E-3],"split_indices":[3,55,103,0,0,0,0],"split_type":[0,0,0,0,0,0,0],"sum_hessian":[6.089746E3,2.3997898E3,3.6899565E3,1.2352546E3,1.164535E3,1.2744426E3,2.415514E3],"tree_param":{"num_deleted":"0","num_feature":"104","num_nodes":"7","size_leaf_vector":"0"}},{"base_weights":[1.1178668E-1,-8.78922E-2,2.416379E-1,4.5044094E-2,-2.2881909E-1,4.279419E-2,3.4648818E-1],"categories":[],"categories_nodes":[],"categories_segments":[],"categories_sizes":[],"default_left":[1,1,1,0,0,0,0],"id":63,"left_children":[1,3,5,-1,-1,-1,-1],"loss_changes":[1.5794545E2,4.498742E1,7.693724E1,0E0,0E0,0E0,0E0],"parents":[2147483647,0,0,1,1,2,2],"right_children":[2,4,6,-1,-1,-1,-1],"split_conditions":[4.6850002E-1,5.03E-1,9.5E0,4.5044094E-4,-2.2881909E-3,4.279419E-4,3.4648818E-3],"split_indices":[3,55,103,0,0,0,0],"split_type":[0,0,0,0,0,0,0],"sum_hessian":[6.089746E3,2.3997898E3,3.6899563E3,1.2352546E3,1.164535E3,1.2744426E3,2.4155137E3],"tree_param":{"num_deleted":"0","num_feature":"104","num_nodes":"7","size_leaf_vector":"0"}},{"base_weights":[-1.10706E-1,-1.954914E-1,1.9098768E-1,-4.2164695E-2,-3.285871E-1,2.4954988E-1,-8.956879E-2],"categories":[],"categories_nodes":[],"categories_segments":[],"categories_sizes":[],"default_left":[1,1,1,0,0,0,0],"id":64,"left_children":[1,3,5,-1,-1,-1,-1],"loss_changes":[1.5578265E2,9.699127E1,2.1976933E1,0E0,0E0,0E0,0E0],"parents":[2147483647,0,0,1,1,2,2],"right_children":[2,4,6,-1,-1,-1,-1],"split_conditions":[2.35E1,1.15E1,2.45E1,-4.2164692E-4,-3.2858711E-3,2.4954989E-3,-8.9568784E-4],"split_indices":[51,80,81,0,0,0,0],"split_type":[0,0,0,0,0,0,0],"sum_hessian":[6.0877427E3,4.752494E3,1.3352484E3,2.2090164E3,2.543478E3,1.1047565E3,2.3049184E2],"tree_param":{"num_deleted":"0","num_feature":"104","num_nodes":"7","size_leaf_vector":"0"}},{"base_weights":[1.10705994E-1,1.954914E-1,-1.9098765E-1,4.2164676E-2,3.2858709E-1,-2.4954985E-1,8.956881E-2],"categories":[],"categories_nodes":[],"categories_segments":[],"categories_sizes":[],"default_left":[1,1,1,0,0,0,0],"id":65,"left_children":[1,3,5,-1,-1,-1,-1],"loss_changes":[1.5578261E2,9.699132E1,2.1976921E1,0E0,0E0,0E0,0E0],"parents":[2147483647,0,0,1,1,2,2],"right_children":[2,4,6,-1,-1,-1,-1],"split_conditions":[2.35E1,1.15E1,2.45E1,4.2164675E-4,3.285871E-3,-2.4954984E-3,8.956881E-4],"split_indices":[51,80,81,0,0,0,0],"split_type":[0,0,0,0,0,0,0],"sum_hessian":[6.0877427E3,4.752494E3,1.3352484E3,2.2090164E3,2.543478E3,1.1047566E3,2.3049184E2],"tree_param":{"num_deleted":"0","num_feature":"104","num_nodes":"7","size_leaf_vector":"0"}},{"base_weights":[-1.0963465E-1,-2.7090004E-1,4.7217082E-2,-2.0665133E-1,-5.4457563E-1,-1.8556224E-1,1.421686E-1],"categories":[],"categories_nodes":[],"categories_segments":[],"categories_sizes":[],"default_left":[1,1,1,0,0,0,0],"id":66,"left_children":[1,3,5,-1,-1,-1,-1],"loss_changes":[1.539769E2,5.266066E1,6.824599E1,0E0,0E0,0E0,0E0],"parents":[2147483647,0,0,1,1,2,2],"right_children":[2,4,6,-1,-1,-1,-1],"split_conditions":[1.45E1,2.25E1,-2.45E0,-2.0665133E-3,-5.445756E-3,-1.8556224E-3,1.4216859E-3],"split_indices":[51,80,77,0,0,0,0],"split_type":[0,0,0,0,0,0,0],"sum_hessian":[6.0858E3,3.0003232E3,3.0854763E3,2.4313005E3,5.6902264E2,8.9366034E2,2.1918162E3],"tree_param":{"num_deleted":"0","num_feature":"104","num_nodes":"7","size_leaf_vector":"0"}},{"base_weights":[1.0963466E-1,2.7090004E-1,-4.7217082E-2,2.0665134E-1,5.4457563E-1,1.8556227E-1,-1.421686E-1],"categories":[],"categories_nodes":[],"categories_segments":[],"categories_sizes":[],"default_left":[1,1,1,0,0,0,0],"id":67,"left_children":[1,3,5,-1,-1,-1,-1],"loss_changes":[1.5397693E2,5.266063E1,6.8246E1,0E0,0E0,0E0,0E0],"parents":[2147483647,0,0,1,1,2,2],"right_children":[2,4,6,-1,-1,-1,-1],"split_conditions":[1.45E1,2.25E1,-2.45E0,2.0665133E-3,5.445756E-3,1.8556226E-3,-1.4216859E-3],"split_indices":[51,80,77,0,0,0,0],"split_type":[0,0,0,0,0,0,0],"sum_hessian":[6.0858E3,3.0003232E3,3.0854766E3,2.4313008E3,5.6902264E2,8.9366034E2,2.1918162E3],"tree_param":{"num_deleted":"0","num_feature":"104","num_nodes":"7","size_leaf_vector":"0"}},{"base_weights":[-1.0857663E-1,1.4370248E-1,-2.0716101E-1,-3.4000076E-2,2.43072E-1,-9.919044E-3,-3.0959752E-1],"categories":[],"categories_nodes":[],"categories_segments":[],"categories_sizes":[],"default_left":[1,1,1,0,0,0,0],"id":68,"left_children":[1,3,5,-1,-1,-1,-1],"loss_changes":[1.5136237E2,3.020847E1,8.8402756E1,0E0,0E0,0E0,0E0],"parents":[2147483647,0,0,1,1,2,2],"right_children":[2,4,6,-1,-1,-1,-1],"split_conditions":[-2.45E0,-1.55E0,9.5E0,-3.4000076E-4,2.43072E-3,-9.919043E-5,-3.0959751E-3],"split_indices":[25,77,103,0,0,0,0],"split_type":[0,0,0,0,0,0,0],"sum_hessian":[6.0837554E3,1.7092633E3,4.374492E3,6.132486E2,1.0960148E3,1.49567E3,2.8788223E3],"tree_param":{"num_deleted":"0","num_feature":"104","num_nodes":"7","size_leaf_vector":"0"}},{"base_weights":[1.0857663E-1,-1.4370248E-1,2.0716101E-1,3.4000035E-2,-2.43072E-1,9.919038E-3,3.0959752E-1],"categories":[],"categories_nodes":[],"categories_segments":[],"categories_sizes":[],"default_left":[1,1,1,0,0,0,0],"id":69,"left_children":[1,3,5,-1,-1,-1,-1],"loss_changes":[1.513624E2,3.0208462E1,8.840277E1,0E0,0E0,0E0,0E0],"parents":[2147483647,0,0,1,1,2,2],"right_children":[2,4,6,-1,-1,-1,-1],"split_conditions":[-2.45E0,-1.55E0,9.5E0,3.4000035E-4,-2.43072E-3,9.919038E-5,3.0959751E-3],"split_indices":[25,77,103,0,0,0,0],"split_type":[0,0,0,0,0,0,0],"sum_hessian":[6.0837554E3,1.7092633E3,4.374492E3,6.132486E2,1.0960148E3,1.49567E3,2.8788223E3],"tree_param":{"num_deleted":"0","num_feature":"104","num_nodes":"7","size_leaf_vector":"0"}},{"base_weights":[-1.0752711E-1,-2.6643068E-1,4.691336E-2,-2.0292862E-1,-5.3743714E-1,-1.8225786E-1,1.4037463E-1],"categories":[],"categories_nodes":[],"categories_segments":[],"categories_sizes":[],"default_left":[1,1,1,0,0,0,0],"id":70,"left_children":[1,3,5,-1,-1,-1,-1],"loss_changes":[1.4928976E2,5.1488297E1,6.611359E1,0E0,0E0,0E0,0E0],"parents":[2147483647,0,0,1,1,2,2],"right_children":[2,4,6,-1,-1,-1,-1],"split_conditions":[1.45E1,2.25E1,-2.45E0,-2.0292862E-3,-5.374371E-3,-1.8225786E-3,1.4037463E-3],"split_indices":[51,80,77,0,0,0,0],"split_type":[0,0,0,0,0,0,0],"sum_hessian":[6.0817354E3,2.997198E3,3.0845376E3,2.4296362E3,5.675618E2,8.932641E2,2.1912734E3],"tree_param":{"num_deleted":"0","num_feature":"104","num_nodes":"7","size_leaf_vector":"0"}},{"base_weights":[1.0752711E-1,2.6643068E-1,-4.691337E-2,2.0292866E-1,5.37437E-1,1.8225783E-1,-1.4037465E-1],"categories":[],"categories_nodes":[],"categories_segments":[],"categories_sizes":[],"default_left":[1,1,1,0,0,0,0],"id":71,"left_children":[1,3,5,-1,-1,-1,-1],"loss_changes":[1.4928976E2,5.1488266E1,6.611358E1,0E0,0E0,0E0,0E0],"parents":[2147483647,0,0,1,1,2,2],"right_children":[2,4,6,-1,-1,-1,-1],"split_conditions":[1.45E1,2.25E1,-2.45E0,2.0292865E-3,5.37437E-3,1.8225783E-3,-1.4037464E-3],"split_indices":[51,80,77,0,0,0,0],"split_type":[0,0,0,0,0,0,0],"sum_hessian":[6.0817354E3,2.997198E3,3.0845376E3,2.429636E3,5.675618E2,8.932641E2,2.1912734E3],"tree_param":{"num_deleted":"0","num_feature":"104","num_nodes":"7","size_leaf_vector":"0"}},{"base_weights":[-1.0649078E-1,-2.083996E-1,1.3128814E-1,-1.2192135E-1,-4.3016312E-1,-1.2617412E-1,2.009779E-1],"categories":[],"categories_nodes":[],"categories_segments":[],"categories_sizes":[],"default_left":[1,1,1,0,0,0,0],"id":72,"left_children":[1,3,5,-1,-1,-1,-1],"loss_changes":[1.4737143E2,8.158278E1,3.276757E1,0E0,0E0,0E0,0E0],"parents":[2147483647,0,0,1,1,2,2],"right_children":[2,4,6,-1,-1,-1,-1],"split_conditions":[1.95E1,1.95E1,3.585E-1,-1.2192135E-3,-4.301631E-3,-1.2617412E-3,2.009779E-3],"split_indices":[28,80,55,0,0,0,0],"split_type":[0,0,0,0,0,0,0],"sum_hessian":[6.0796157E3,4.255773E3,1.8238428E3,3.0629167E3,1.1928561E3,3.8834143E2,1.4355013E3],"tree_param":{"num_deleted":"0","num_feature":"104","num_nodes":"7","size_leaf_vector":"0"}},{"base_weights":[1.064908E-1,2.0839962E-1,-1.3128817E-1,1.219214E-1,4.3016312E-1,1.2617412E-1,-2.0097795E-1],"categories":[],"categories_nodes":[],"categories_segments":[],"categories_sizes":[],"default_left":[1,1,1,0,0,0,0],"id":73,"left_children":[1,3,5,-1,-1,-1,-1],"loss_changes":[1.4737149E2,8.158272E1,3.276758E1,0E0,0E0,0E0,0E0],"parents":[2147483647,0,0,1,1,2,2],"right_children":[2,4,6,-1,-1,-1,-1],"split_conditions":[1.95E1,1.95E1,3.585E-1,1.2192139E-3,4.301631E-3,1.2617412E-3,-2.0097794E-3],"split_indices":[28,80,55,0,0,0,0],"split_type":[0,0,0,0,0,0,0],"sum_hessian":[6.0796157E3,4.255773E3,1.8238428E3,3.0629167E3,1.1928561E3,3.8834143E2,1.4355013E3],"tree_param":{"num_deleted":"0","num_feature":"104","num_nodes":"7","size_leaf_vector":"0"}},{"base_weights":[-1.0546445E-1,-1.8742068E-1,1.8586352E-1,-3.850681E-2,-3.1702653E-1,7.046215E-2,3.1855687E-1],"categories":[],"categories_nodes":[],"categories_segments":[],"categories_sizes":[],"default_left":[1,1,1,0,0,0,0],"id":74,"left_children":[1,3,5,-1,-1,-1,-1],"loss_changes":[1.4516513E2,9.1555405E1,2.0421265E1,0E0,0E0,0E0,0E0],"parents":[2147483647,0,0,1,1,2,2],"right_children":[2,4,6,-1,-1,-1,-1],"split_conditions":[2.35E1,1.15E1,3.5000002E-1,-3.850681E-4,-3.1702651E-3,7.046215E-4,3.1855686E-3],"split_indices":[51,80,77,0,0,0,0],"split_type":[0,0,0,0,0,0,0],"sum_hessian":[6.077465E3,4.743408E3,1.3340564E3,2.2078926E3,2.5355159E3,7.1433826E2,6.1971814E2],"tree_param":{"num_deleted":"0","num_feature":"104","num_nodes":"7","size_leaf_vector":"0"}},{"base_weights":[1.0546446E-1,1.874207E-1,-1.8586352E-1,3.8506843E-2,3.1702653E-1,-7.046212E-2,-3.185569E-1],"categories":[],"categories_nodes":[],"categories_segments":[],"categories_sizes":[],"default_left":[1,1,1,0,0,0,0],"id":75,"left_children":[1,3,5,-1,-1,-1,-1],"loss_changes":[1.4516513E2,9.155536E1,2.0421272E1,0E0,0E0,0E0,0E0],"parents":[2147483647,0,0,1,1,2,2],"right_children":[2,4,6,-1,-1,-1,-1],"split_conditions":[2.35E1,1.15E1,3.5000002E-1,3.8506842E-4,3.1702651E-3,-7.046212E-4,-3.185569E-3],"split_indices":[51,80,77,0,0,0,0],"split_type":[0,0,0,0,0,0,0],"sum_hessian":[6.077465E3,4.743408E3,1.3340564E3,2.2078923E3,2.5355159E3,7.1433826E2,6.1971814E2],"tree_param":{"num_deleted":"0","num_feature":"104","num_nodes":"7","size_leaf_vector":"0"}},{"base_weights":[-1.0444629E-1,-2.603344E-1,4.690809E-2,-3.2351935E-1,3.3149242E-3,-8.6256295E-2,2.0194791E-1],"categories":[],"categories_nodes":[],"categories_segments":[],"categories_sizes":[],"default_left":[1,1,1,0,0,0,0],"id":76,"left_children":[1,3,5,-1,-1,-1,-1],"loss_changes":[1.4338002E2,4.9868835E1,6.3686127E1,0E0,0E0,0E0,0E0],"parents":[2147483647,0,0,1,1,2,2],"right_children":[2,4,6,-1,-1,-1,-1],"split_conditions":[1.45E1,5.05E0,5.5E-1,-3.2351934E-3,3.314924E-5,-8.625629E-4,2.0194792E-3],"split_indices":[51,77,77,0,0,0,0],"split_type":[0,0,0,0,0,0,0],"sum_hessian":[6.0753623E3,2.9925017E3,3.0828604E3,2.4137957E3,5.7870605E2,1.6586672E3,1.424193E3],"tree_param":{"num_deleted":"0","num_feature":"104","num_nodes":"7","size_leaf_vector":"0"}},{"base_weights":[1.04446314E-1,2.6033443E-1,-4.690807E-2,3.235194E-1,-3.3149547E-3,8.6256295E-2,-2.0194785E-1],"categories":[],"categories_nodes":[],"categories_segments":[],"categories_sizes":[],"default_left":[1,1,1,0,0,0,0],"id":77,"left_children":[1,3,5,-1,-1,-1,-1],"loss_changes":[1.4338002E2,4.986885E1,6.3686104E1,0E0,0E0,0E0,0E0],"parents":[2147483647,0,0,1,1,2,2],"right_children":[2,4,6,-1,-1,-1,-1],"split_conditions":[1.45E1,5.05E0,5.5E-1,3.235194E-3,-3.3149547E-5,8.625629E-4,-2.0194785E-3],"split_indices":[51,77,77,0,0,0,0],"split_type":[0,0,0,0,0,0,0],"sum_hessian":[6.075362E3,2.9925017E3,3.0828604E3,2.4137957E3,5.7870605E2,1.6586672E3,1.424193E3],"tree_param":{"num_deleted":"0","num_feature":"104","num_nodes":"7","size_leaf_vector":"0"}},{"base_weights":[-1.03438854E-1,8.523141E-2,-2.2642457E-1,-2.112756E-2,2.4661548E-1,-3.2204407E-1,-2.6129173E-2],"categories":[],"categories_nodes":[],"categories_segments":[],"categories_sizes":[],"default_left":[1,1,1,0,0,0,0],"id":78,"left_children":[1,3,5,-1,-1,-1,-1],"loss_changes":[1.4096426E2,4.1161575E1,7.042343E1,0E0,0E0,0E0,0E0],"parents":[2147483647,0,0,1,1,2,2],"right_children":[2,4,6,-1,-1,-1,-1],"split_conditions":[4.6850002E-1,2.55E1,2.95E0,-2.1127559E-4,2.4661548E-3,-3.2204406E-3,-2.6129172E-4],"split_indices":[3,51,77,0,0,0,0],"split_type":[0,0,0,0,0,0,0],"sum_hessian":[6.0732324E3,2.396741E3,3.6764917E3,1.4451769E3,9.5156396E2,2.488089E3,1.1884026E3],"tree_param":{"num_deleted":"0","num_feature":"104","num_nodes":"7","size_leaf_vector":"0"}},{"base_weights":[1.0343884E-1,-8.523141E-2,2.2642455E-1,2.1127557E-2,-2.4661548E-1,3.2204404E-1,2.6129128E-2],"categories":[],"categories_nodes":[],"categories_segments":[],"categories_sizes":[],"default_left":[1,1,1,0,0,0,0],"id":79,"left_children":[1,3,5,-1,-1,-1,-1],"loss_changes":[1.4096425E2,4.1161575E1,7.042343E1,0E0,0E0,0E0,0E0],"parents":[2147483647,0,0,1,1,2,2],"right_children":[2,4,6,-1,-1,-1,-1],"split_conditions":[4.6850002E-1,2.55E1,2.95E0,2.1127558E-4,-2.4661548E-3,3.2204404E-3,2.6129128E-4],"split_indices":[3,51,77,0,0,0,0],"split_type":[0,0,0,0,0,0,0],"sum_hessian":[6.0732324E3,2.396741E3,3.6764917E3,1.4451769E3,9.5156396E2,2.488089E3,1.1884026E3],"tree_param":{"num_deleted":"0","num_feature":"104","num_nodes":"7","size_leaf_vector":"0"}},{"base_weights":[-1.0244072E-1,-2.5587067E-1,4.6394557E-2,-1.938586E-1,-5.2168703E-1,-1.7650068E-1,1.3725735E-1],"categories":[],"categories_nodes":[],"categories_segments":[],"categories_sizes":[],"default_left":[1,1,1,0,0,0,0],"id":80,"left_children":[1,3,5,-1,-1,-1,-1],"loss_changes":[1.3867354E2,4.9186554E1,6.2465046E1,0E0,0E0,0E0,0E0],"parents":[2147483647,0,0,1,1,2,2],"right_children":[2,4,6,-1,-1,-1,-1],"split_conditions":[1.45E1,2.25E1,-2.45E0,-1.9385859E-3,-5.21687E-3,-1.7650067E-3,1.3725735E-3],"split_indices":[51,80,77,0,0,0,0],"split_type":[0,0,0,0,0,0,0],"sum_hessian":[6.0711216E3,2.9890637E3,3.0820579E3,2.425054E3,5.6400964E2,8.92276E2,2.1897817E3],"tree_param":{"num_deleted":"0","num_feature":"104","num_nodes":"7","size_leaf_vector":"0"}},{"base_weights":[1.0244072E-1,2.5587067E-1,-4.6394553E-2,1.938586E-1,5.2168703E-1,1.7650068E-1,-1.3725735E-1],"categories":[],"categories_nodes":[],"categories_segments":[],"categories_sizes":[],"default_left":[1,1,1,0,0,0,0],"id":81,"left_children":[1,3,5,-1,-1,-1,-1],"loss_changes":[1.3867355E2,4.9186554E1,6.246504E1,0E0,0E0,0E0,0E0],"parents":[2147483647,0,0,1,1,2,2],"right_children":[2,4,6,-1,-1,-1,-1],"split_conditions":[1.45E1,2.25E1,-2.45E0,1.9385859E-3,5.21687E-3,1.7650067E-3,-1.3725735E-3],"split_indices":[51,80,77,0,0,0,0],"split_type":[0,0,0,0,0,0,0],"sum_hessian":[6.0711216E3,2.9890635E3,3.0820579E3,2.425054E3,5.6400964E2,8.92276E2,2.1897817E3],"tree_param":{"num_deleted":"0","num_feature":"104","num_nodes":"7","size_leaf_vector":"0"}},{"base_weights":[-1.01456106E-1,-1.811614E-1,1.8159433E-1,4.4718944E-2,-2.6312843E-1,2.3699419E-1,-8.353258E-2],"categories":[],"categories_nodes":[],"categories_segments":[],"categories_sizes":[],"default_left":[1,1,1,0,0,0,0],"id":82,"left_children":[1,3,5,-1,-1,-1,-1],"loss_changes":[1.3697246E2,8.771007E1,1.961618E1,0E0,0E0,0E0,0E0],"parents":[2147483647,0,0,1,1,2,2],"right_children":[2,4,6,-1,-1,-1,-1],"split_conditions":[2.35E1,7.5E0,2.45E1,4.4718944E-4,-2.6312843E-3,2.369942E-3,-8.353258E-4],"split_indices":[51,103,81,0,0,0,0],"split_type":[0,0,0,0,0,0,0],"sum_hessian":[6.0688496E3,4.735673E3,1.333177E3,1.2610349E3,3.4746377E3,1.1028384E3,2.3033861E2],"tree_param":{"num_deleted":"0","num_feature":"104","num_nodes":"7","size_leaf_vector":"0"}},{"base_weights":[1.0145611E-1,1.8116142E-1,-1.815943E-1,-4.4718944E-2,2.6312846E-1,-2.3699415E-1,8.353256E-2],"categories":[],"categories_nodes":[],"categories_segments":[],"categories_sizes":[],"default_left":[1,1,1,0,0,0,0],"id":83,"left_children":[1,3,5,-1,-1,-1,-1],"loss_changes":[1.3697244E2,8.771005E1,1.9616169E1,0E0,0E0,0E0,0E0],"parents":[2147483647,0,0,1,1,2,2],"right_children":[2,4,6,-1,-1,-1,-1],"split_conditions":[2.35E1,7.5E0,2.45E1,-4.4718944E-4,2.6312845E-3,-2.3699414E-3,8.3532557E-4],"split_indices":[51,103,81,0,0,0,0],"split_type":[0,0,0,0,0,0,0],"sum_hessian":[6.0688496E3,4.735673E3,1.333177E3,1.2610349E3,3.4746377E3,1.1028385E3,2.303386E2],"tree_param":{"num_deleted":"0","num_feature":"104","num_nodes":"7","size_leaf_vector":"0"}},{"base_weights":[-1.0047599E-1,-1.9819805E-1,1.271559E-1,-1.1435569E-1,-4.140762E-1,2.9612273E-1,2.59618E-2],"categories":[],"categories_nodes":[],"categories_segments":[],"categories_sizes":[],"default_left":[1,1,1,0,0,0,0],"id":84,"left_children":[1,3,5,-1,-1,-1,-1],"loss_changes":[1.3500122E2,7.6798416E1,3.1164633E1,0E0,0E0,0E0,0E0],"parents":[2147483647,0,0,1,1,2,2],"right_children":[2,4,6,-1,-1,-1,-1],"split_conditions":[1.95E1,1.95E1,-6.25E0,-1.1435569E-3,-4.140762E-3,2.9612272E-3,2.5961798E-4],"split_indices":[28,80,25,0,0,0,0],"split_type":[0,0,0,0,0,0,0],"sum_hessian":[6.0667944E3,4.2446855E3,1.8221085E3,3.0584E3,1.1862859E3,6.817851E2,1.1403235E3],"tree_param":{"num_deleted":"0","num_feature":"104","num_nodes":"7","size_leaf_vector":"0"}},{"base_weights":[1.0047599E-1,1.9819805E-1,-1.2715589E-1,1.1435569E-1,4.1407624E-1,-2.9612273E-1,-2.5961785E-2],"categories":[],"categories_nodes":[],"categories_segments":[],"categories_sizes":[],"default_left":[1,1,1,0,0,0,0],"id":85,"left_children":[1,3,5,-1,-1,-1,-1],"loss_changes":[1.3500119E2,7.679846E1,3.1164642E1,0E0,0E0,0E0,0E0],"parents":[2147483647,0,0,1,1,2,2],"right_children":[2,4,6,-1,-1,-1,-1],"split_conditions":[1.95E1,1.95E1,-6.25E0,1.1435569E-3,4.140762E-3,-2.9612272E-3,-2.5961784E-4],"split_indices":[28,80,25,0,0,0,0],"split_type":[0,0,0,0,0,0,0],"sum_hessian":[6.0667944E3,4.244686E3,1.8221085E3,3.0584E3,1.1862859E3,6.817851E2,1.1403235E3],"tree_param":{"num_deleted":"0","num_feature":"104","num_nodes":"7","size_leaf_vector":"0"}},{"base_weights":[-9.950731E-2,-2.50032E-1,4.634483E-2,-1.8911389E-1,-5.1200676E-1,-8.382629E-2,1.9787832E-1],"categories":[],"categories_nodes":[],"categories_segments":[],"categories_sizes":[],"default_left":[1,1,1,0,0,0,0],"id":86,"left_children":[1,3,5,-1,-1,-1,-1],"loss_changes":[1.3317891E2,4.7543457E1,6.0799683E1,0E0,0E0,0E0,0E0],"parents":[2147483647,0,0,1,1,2,2],"right_children":[2,4,6,-1,-1,-1,-1],"split_conditions":[1.45E1,2.25E1,5.5E-1,-1.8911388E-3,-5.1200674E-3,-8.3826284E-4,1.9787832E-3],"split_indices":[51,80,77,0,0,0,0],"split_type":[0,0,0,0,0,0,0],"sum_hessian":[6.0646465E3,2.9841653E3,3.0804812E3,2.422559E3,5.6160626E2,1.6572812E3,1.4231998E3],"tree_param":{"num_deleted":"0","num_feature":"104","num_nodes":"7","size_leaf_vector":"0"}},{"base_weights":[9.950731E-2,2.50032E-1,-4.6344835E-2,1.8911389E-1,5.1200676E-1,8.382629E-2,-1.9787833E-1],"categories":[],"categories_nodes":[],"categories_segments":[],"categories_sizes":[],"default_left":[1,1,1,0,0,0,0],"id":87,"left_children":[1,3,5,-1,-1,-1,-1],"loss_changes":[1.3317892E2,4.7543457E1,6.079969E1,0E0,0E0,0E0,0E0],"parents":[2147483647,0,0,1,1,2,2],"right_children":[2,4,6,-1,-1,-1,-1],"split_conditions":[1.45E1,2.25E1,5.5E-1,1.8911388E-3,5.1200674E-3,8.3826284E-4,-1.9787832E-3],"split_indices":[51,80,77,0,0,0,0],"split_type":[0,0,0,0,0,0,0],"sum_hessian":[6.0646465E3,2.9841653E3,3.0804812E3,2.422559E3,5.6160626E2,1.6572812E3,1.4231998E3],"tree_param":{"num_deleted":"0","num_feature":"104","num_nodes":"7","size_leaf_vector":"0"}},{"base_weights":[-9.855127E-2,8.325302E-2,-2.1727358E-1,-3.9950978E-2,2.139571E-1,-3.1060925E-1,-2.235212E-2],"categories":[],"categories_nodes":[],"categories_segments":[],"categories_sizes":[],"default_left":[1,1,1,0,0,0,0],"id":88,"left_children":[1,3,5,-1,-1,-1,-1],"loss_changes":[1.3089053E2,3.859245E1,6.673105E1,0E0,0E0,0E0,0E0],"parents":[2147483647,0,0,1,1,2,2],"right_children":[2,4,6,-1,-1,-1,-1],"split_conditions":[4.6850002E-1,5.03E-1,2.95E0,-3.9950976E-4,2.139571E-3,-3.1060923E-3,-2.2352119E-4],"split_indices":[3,55,77,0,0,0,0],"split_type":[0,0,0,0,0,0,0],"sum_hessian":[6.0623374E3,2.3950298E3,3.6673076E3,1.2332452E3,1.1617847E3,2.4794573E3,1.1878503E3],"tree_param":{"num_deleted":"0","num_feature":"104","num_nodes":"7","size_leaf_vector":"0"}},{"base_weights":[9.8551266E-2,-8.325301E-2,2.1727356E-1,3.995099E-2,-2.139571E-1,3.1060925E-1,2.2352079E-2],"categories":[],"categories_nodes":[],"categories_segments":[],"categories_sizes":[],"default_left":[1,1,1,0,0,0,0],"id":89,"left_children":[1,3,5,-1,-1,-1,-1],"loss_changes":[1.3089053E2,3.8592453E1,6.6731064E1,0E0,0E0,0E0,0E0],"parents":[2147483647,0,0,1,1,2,2],"right_children":[2,4,6,-1,-1,-1,-1],"split_conditions":[4.6850002E-1,5.03E-1,2.95E0,3.9950988E-4,-2.139571E-3,3.1060923E-3,2.2352078E-4],"split_indices":[3,55,77,0,0,0,0],"split_type":[0,0,0,0,0,0,0],"sum_hessian":[6.0623374E3,2.39503E3,3.6673076E3,1.2332452E3,1.1617847E3,2.4794573E3,1.1878503E3],"tree_param":{"num_deleted":"0","num_feature":"104","num_nodes":"7","size_leaf_vector":"0"}},{"base_weights":[-9.760481E-2,-1.750948E-1,1.7731303E-1,-3.270366E-2,-2.9957289E-1,2.3165019E-1,-8.2548715E-2],"categories":[],"categories_nodes":[],"categories_segments":[],"categories_sizes":[],"default_left":[1,1,1,0,0,0,0],"id":90,"left_children":[1,3,5,-1,-1,-1,-1],"loss_changes":[1.2914987E2,8.380495E1,1.8844437E1,0E0,0E0,0E0,0E0],"parents":[2147483647,0,0,1,1,2,2],"right_children":[2,4,6,-1,-1,-1,-1],"split_conditions":[2.35E1,1.15E1,2.45E1,-3.270366E-4,-2.9957287E-3,2.316502E-3,-8.2548714E-4],"split_indices":[51,80,81,0,0,0,0],"split_type":[0,0,0,0,0,0,0],"sum_hessian":[6.0599556E3,4.727732E3,1.3322238E3,2.205785E3,2.5219468E3,1.1019204E3,2.3030333E2],"tree_param":{"num_deleted":"0","num_feature":"104","num_nodes":"7","size_leaf_vector":"0"}},{"base_weights":[9.760482E-2,1.7509481E-1,-1.7731301E-1,3.270366E-2,2.9957289E-1,-2.316502E-1,8.254873E-2],"categories":[],"categories_nodes":[],"categories_segments":[],"categories_sizes":[],"default_left":[1,1,1,0,0,0,0],"id":91,"left_children":[1,3,5,-1,-1,-1,-1],"loss_changes":[1.2914989E2,8.380496E1,1.8844444E1,0E0,0E0,0E0,0E0],"parents":[2147483647,0,0,1,1,2,2],"right_children":[2,4,6,-1,-1,-1,-1],"split_conditions":[2.35E1,1.15E1,2.45E1,3.270366E-4,2.9957287E-3,-2.316502E-3,8.254873E-4],"split_indices":[51,80,81,0,0,0,0],"split_type":[0,0,0,0,0,0,0],"sum_hessian":[6.0599556E3,4.727732E3,1.3322238E3,2.205785E3,2.5219468E3,1.1019204E3,2.3030333E2],"tree_param":{"num_deleted":"0","num_feature":"104","num_nodes":"7","size_leaf_vector":"0"}},{"base_weights":[-9.6666634E-2,-2.4422674E-1,4.6140272E-2,-1.8422012E-1,-5.030654E-1,-1.6969272E-1,1.3407342E-1],"categories":[],"categories_nodes":[],"categories_segments":[],"categories_sizes":[],"default_left":[1,1,1,0,0,0,0],"id":92,"left_children":[1,3,5,-1,-1,-1,-1],"loss_changes":[1.2768228E2,4.619098E1,5.8472816E1,0E0,0E0,0E0,0E0],"parents":[2147483647,0,0,1,1,2,2],"right_children":[2,4,6,-1,-1,-1,-1],"split_conditions":[1.45E1,2.25E1,-2.45E0,-1.8422011E-3,-5.030654E-3,-1.6969272E-3,1.3407342E-3],"split_indices":[51,80,77,0,0,0,0],"split_type":[0,0,0,0,0,0,0],"sum_hessian":[6.0576265E3,2.9788833E3,3.078743E3,2.4196477E3,5.592356E2,8.9095447E2,2.1877883E3],"tree_param":{"num_deleted":"0","num_feature":"104","num_nodes":"7","size_leaf_vector":"0"}},{"base_weights":[9.666663E-2,2.4422672E-1,-4.6140272E-2,1.8422014E-1,5.030653E-1,1.6969272E-1,-1.3407342E-1],"categories":[],"categories_nodes":[],"categories_segments":[],"categories_sizes":[],"default_left":[1,1,1,0,0,0,0],"id":93,"left_children":[1,3,5,-1,-1,-1,-1],"loss_changes":[1.2768227E2,4.6190918E1,5.8472816E1,0E0,0E0,0E0,0E0],"parents":[2147483647,0,0,1,1,2,2],"right_children":[2,4,6,-1,-1,-1,-1],"split_conditions":[1.45E1,2.25E1,-2.45E0,1.8422013E-3,5.030653E-3,1.6969272E-3,-1.3407342E-3],"split_indices":[51,80,77,0,0,0,0],"split_type":[0,0,0,0,0,0,0],"sum_hessian":[6.057626E3,2.9788833E3,3.078743E3,2.4196477E3,5.592356E2,8.9095447E2,2.1877883E3],"tree_param":{"num_deleted":"0","num_feature":"104","num_nodes":"7","size_leaf_vector":"0"}},{"base_weights":[-9.574003E-2,-1.5826929E-1,2.3615459E-1,6.016327E-2,-2.3760334E-1,1.2931725E-1,3.7132323E-1],"categories":[],"categories_nodes":[],"categories_segments":[],"categories_sizes":[],"default_left":[1,1,1,0,0,0,0],"id":94,"left_children":[1,3,5,-1,-1,-1,-1],"loss_changes":[1.2572255E2,8.833561E1,1.3822769E1,0E0,0E0,0E0,0E0],"parents":[2147483647,0,0,1,1,2,2],"right_children":[2,4,6,-1,-1,-1,-1],"split_conditions":[2.55E1,7.5E0,2.05E1,6.016327E-4,-2.3760332E-3,1.2931725E-3,3.7132322E-3],"split_indices":[51,103,53,0,0,0,0],"split_type":[0,0,0,0,0,0,0],"sum_hessian":[6.055205E3,5.0956943E3,9.595104E2,1.3577119E3,3.7379827E3,5.370124E2,4.2249805E2],"tree_param":{"num_deleted":"0","num_feature":"104","num_nodes":"7","size_leaf_vector":"0"}},{"base_weights":[9.574002E-2,1.5826927E-1,-2.361546E-1,-6.0163267E-2,2.3760332E-1,-1.2931725E-1,-3.7132326E-1],"categories":[],"categories_nodes":[],"categories_segments":[],"categories_sizes":[],"default_left":[1,1,1,0,0,0,0],"id":95,"left_children":[1,3,5,-1,-1,-1,-1],"loss_changes":[1.2572256E2,8.8335594E1,1.3822773E1,0E0,0E0,0E0,0E0],"parents":[2147483647,0,0,1,1,2,2],"right_children":[2,4,6,-1,-1,-1,-1],"split_conditions":[2.55E1,7.5E0,2.05E1,-6.0163264E-4,2.3760332E-3,-1.2931725E-3,-3.7132325E-3],"split_indices":[51,103,53,0,0,0,0],"split_type":[0,0,0,0,0,0,0],"sum_hessian":[6.055205E3,5.0956943E3,9.5951044E2,1.3577119E3,3.7379827E3,5.370124E2,4.2249805E2],"tree_param":{"num_deleted":"0","num_feature":"104","num_nodes":"7","size_leaf_vector":"0"}},{"base_weights":[-9.481382E-2,-2.4052405E-1,4.6087205E-2,-1.8116365E-1,-4.971435E-1,1.5917669E-1,-1.17781855E-1],"categories":[],"categories_nodes":[],"categories_segments":[],"categories_sizes":[],"default_left":[1,1,1,0,0,0,0],"id":96,"left_children":[1,3,5,-1,-1,-1,-1],"loss_changes":[1.24308105E2,4.5250534E1,5.707337E1,0E0,0E0,0E0,0E0],"parents":[2147483647,0,0,1,1,2,2],"right_children":[2,4,6,-1,-1,-1,-1],"split_conditions":[1.45E1,2.25E1,1.75E1,-1.8116365E-3,-4.971435E-3,1.5917668E-3,-1.1778185E-3],"split_indices":[51,80,81,0,0,0,0],"split_type":[0,0,0,0,0,0,0],"sum_hessian":[6.053196E3,2.9754653E3,3.0777305E3,2.417876E3,5.5758954E2,1.8210288E3,1.2567017E3],"tree_param":{"num_deleted":"0","num_feature":"104","num_nodes":"7","size_leaf_vector":"0"}},{"base_weights":[9.4813816E-2,2.4052404E-1,-4.6087194E-2,1.8116365E-1,4.9714342E-1,-1.5917669E-1,1.1778188E-1],"categories":[],"categories_nodes":[],"categories_segments":[],"categories_sizes":[],"default_left":[1,1,1,0,0,0,0],"id":97,"left_children":[1,3,5,-1,-1,-1,-1],"loss_changes":[1.2430807E2,4.525052E1,5.707338E1,0E0,0E0,0E0,0E0],"parents":[2147483647,0,0,1,1,2,2],"right_children":[2,4,6,-1,-1,-1,-1],"split_conditions":[1.45E1,2.25E1,1.75E1,1.8116365E-3,4.971434E-3,-1.5917668E-3,1.1778187E-3],"split_indices":[51,80,81,0,0,0,0],"split_type":[0,0,0,0,0,0,0],"sum_hessian":[6.053196E3,2.9754653E3,3.0777305E3,2.417876E3,5.575895E2,1.8210288E3,1.2567017E3],"tree_param":{"num_deleted":"0","num_feature":"104","num_nodes":"7","size_leaf_vector":"0"}},{"base_weights":[-9.390567E-2,-1.8732938E-1,1.2324781E-1,-1.0684749E-1,-3.9573023E-1,2.8756294E-1,2.4892354E-2],"categories":[],"categories_nodes":[],"categories_segments":[],"categories_sizes":[],"default_left":[1,1,1,0,0,0,0],"id":98,"left_children":[1,3,5,-1,-1,-1,-1],"loss_changes":[1.227961E2,7.0934235E1,2.9422586E1,0E0,0E0,0E0,0E0],"parents":[2147483647,0,0,1,1,2,2],"right_children":[2,4,6,-1,-1,-1,-1],"split_conditions":[1.95E1,1.95E1,-6.25E0,-1.0684748E-3,-3.9573023E-3,2.8756293E-3,2.4892355E-4],"split_indices":[28,80,25,0,0,0,0],"split_type":[0,0,0,0,0,0,0],"sum_hessian":[6.0507227E3,4.2307207E3,1.8200021E3,3.0531453E3,1.1775752E3,6.8076874E2,1.1392334E3],"tree_param":{"num_deleted":"0","num_feature":"104","num_nodes":"7","size_leaf_vector":"0"}},{"base_weights":[9.3905665E-2,1.8732938E-1,-1.2324781E-1,1.068475E-1,3.9573017E-1,-2.8756294E-1,-2.4892354E-2],"categories":[],"categories_nodes":[],"categories_segments":[],"categories_sizes":[],"default_left":[1,1,1,0,0,0,0],"id":99,"left_children":[1,3,5,-1,-1,-1,-1],"loss_changes":[1.2279608E2,7.0934204E1,2.9422585E1,0E0,0E0,0E0,0E0],"parents":[2147483647,0,0,1,1,2,2],"right_children":[2,4,6,-1,-1,-1,-1],"split_conditions":[1.95E1,1.95E1,-6.25E0,1.068475E-3,3.9573014E-3,-2.8756293E-3,-2.4892355E-4],"split_indices":[28,80,25,0,0,0,0],"split_type":[0,0,0,0,0,0,0],"sum_hessian":[6.0507227E3,4.2307207E3,1.8200021E3,3.0531453E3,1.1775752E3,6.8076874E2,1.1392334E3],"tree_param":{"num_deleted":"0","num_feature":"104","num_nodes":"7","size_leaf_vector":"0"}},{"base_weights":[-9.3002945E-2,-2.3660032E-1,4.5728877E-2,-2.9680532E-1,1.2740994E-2,-7.93784E-2,1.9134866E-1],"categories":[],"categories_nodes":[],"categories_segments":[],"categories_sizes":[],"default_left":[1,1,1,0,0,0,0],"id":100,"left_children":[1,3,5,-1,-1,-1,-1],"loss_changes":[1.2052435E2,4.4629395E1,5.6084503E1,0E0,0E0,0E0,0E0],"parents":[2147483647,0,0,1,1,2,2],"right_children":[2,4,6,-1,-1,-1,-1],"split_conditions":[1.45E1,5.05E0,5.5E-1,-2.968053E-3,1.2740993E-4,-7.9378404E-4,1.9134865E-3],"split_indices":[51,77,77,0,0,0,0],"split_type":[0,0,0,0,0,0,0],"sum_hessian":[6.0484136E3,2.9717422E3,3.0766714E3,2.3936016E3,5.7814044E2,1.6551373E3,1.421534E3],"tree_param":{"num_deleted":"0","num_feature":"104","num_nodes":"7","size_leaf_vector":"0"}},{"base_weights":[9.300293E-2,2.366003E-1,-4.5728877E-2,2.968053E-1,-1.2740995E-2,7.93784E-2,-1.9134867E-1],"categories":[],"categories_nodes":[],"categories_segments":[],"categories_sizes":[],"default_left":[1,1,1,0,0,0,0],"id":101,"left_children":[1,3,5,-1,-1,-1,-1],"loss_changes":[1.2052432E2,4.462941E1,5.6084503E1,0E0,0E0,0E0,0E0],"parents":[2147483647,0,0,1,1,2,2],"right_children":[2,4,6,-1,-1,-1,-1],"split_conditions":[1.45E1,5.05E0,5.5E-1,2.9680529E-3,-1.2740995E-4,7.9378404E-4,-1.9134866E-3],"split_indices":[51,77,77,0,0,0,0],"split_type":[0,0,0,0,0,0,0],"sum_hessian":[6.0484136E3,2.9717422E3,3.0766714E3,2.3936016E3,5.7814044E2,1.6551373E3,1.421534E3],"tree_param":{"num_deleted":"0","num_feature":"104","num_nodes":"7","size_leaf_vector":"0"}},{"base_weights":[-9.211047E-2,-1.5306586E-1,2.3117031E-1,6.0715396E-2,-2.3084635E-1,1.2598495E-1,3.6436054E-1],"categories":[],"categories_nodes":[],"categories_segments":[],"categories_sizes":[],"default_left":[1,1,1,0,0,0,0],"id":102,"left_children":[1,3,5,-1,-1,-1,-1],"loss_changes":[1.1919569E2,8.462232E1,1.33991165E1,0E0,0E0,0E0,0E0],"parents":[2147483647,0,0,1,1,2,2],"right_children":[2,4,6,-1,-1,-1,-1],"split_conditions":[2.55E1,7.5E0,2.05E1,6.071539E-4,-2.3084634E-3,1.2598495E-3,3.6436054E-3],"split_indices":[51,103,53,0,0,0,0],"split_type":[0,0,0,0,0,0,0],"sum_hessian":[6.0459956E3,5.0872993E3,9.586963E2,1.3572072E3,3.730092E3,5.3675024E2,4.2194604E2],"tree_param":{"num_deleted":"0","num_feature":"104","num_nodes":"7","size_leaf_vector":"0"}},{"base_weights":[9.2110455E-2,1.5306585E-1,-2.3117033E-1,-6.0715396E-2,2.3084633E-1,-1.2598495E-1,-3.6436057E-1],"categories":[],"categories_nodes":[],"categories_segments":[],"categories_sizes":[],"default_left":[1,1,1,0,0,0,0],"id":103,"left_children":[1,3,5,-1,-1,-1,-1],"loss_changes":[1.19195694E2,8.46223E1,1.339912E1,0E0,0E0,0E0,0E0],"parents":[2147483647,0,0,1,1,2,2],"right_children":[2,4,6,-1,-1,-1,-1],"split_conditions":[2.55E1,7.5E0,2.05E1,-6.071539E-4,2.3084632E-3,-1.2598495E-3,-3.6436056E-3],"split_indices":[51,103,53,0,0,0,0],"split_type":[0,0,0,0,0,0,0],"sum_hessian":[6.0459956E3,5.0872993E3,9.586963E2,1.3572072E3,3.730092E3,5.3675024E2,4.2194604E2],"tree_param":{"num_deleted":"0","num_feature":"104","num_nodes":"7","size_leaf_vector":"0"}},{"base_weights":[-9.12207E-2,-1.827699E-1,1.2137326E-1,-1.03516676E-1,-3.8846406E-1,1.7539778E-1,-1.6705668E-1],"categories":[],"categories_nodes":[],"categories_segments":[],"categories_sizes":[],"default_left":[1,1,1,0,0,0,0],"id":104,"left_children":[1,3,5,-1,-1,-1,-1],"loss_changes":[1.1767291E2,6.884755E1,2.839153E1,0E0,0E0,0E0,0E0],"parents":[2147483647,0,0,1,1,2,2],"right_children":[2,4,6,-1,-1,-1,-1],"split_conditions":[1.95E1,1.95E1,2.55E1,-1.0351668E-3,-3.8846405E-3,1.7539778E-3,-1.6705667E-3],"split_indices":[28,80,103,0,0,0,0],"split_type":[0,0,0,0,0,0,0],"sum_hessian":[6.043901E3,4.224743E3,1.819158E3,3.0507886E3,1.1739545E3,1.5325035E3,2.8665448E2],"tree_param":{"num_deleted":"0","num_feature":"104","num_nodes":"7","size_leaf_vector":"0"}},{"base_weights":[9.122071E-2,1.8276991E-1,-1.21373266E-1,1.03516676E-1,3.884641E-1,-1.7539778E-1,1.670567E-1],"categories":[],"categories_nodes":[],"categories_segments":[],"categories_sizes":[],"default_left":[1,1,1,0,0,0,0],"id":105,"left_children":[1,3,5,-1,-1,-1,-1],"loss_changes":[1.1767293E2,6.884755E1,2.839153E1,0E0,0E0,0E0,0E0],"parents":[2147483647,0,0,1,1,2,2],"right_children":[2,4,6,-1,-1,-1,-1],"split_conditions":[1.95E1,1.95E1,2.55E1,1.0351668E-3,3.8846408E-3,-1.7539778E-3,1.6705669E-3],"split_indices":[28,80,103,0,0,0,0],"split_type":[0,0,0,0,0,0,0],"sum_hessian":[6.043901E3,4.224743E3,1.819158E3,3.0507886E3,1.1739546E3,1.5325035E3,2.8665448E2],"tree_param":{"num_deleted":"0","num_feature":"104","num_nodes":"7","size_leaf_vector":"0"}},{"base_weights":[-9.0347156E-2,-2.3139551E-1,4.5763116E-2,-1.7353635E-1,-4.8294297E-1,-1.6227303E-1,1.3045353E-1],"categories":[],"categories_nodes":[],"categories_segments":[],"categories_sizes":[],"default_left":[1,1,1,0,0,0,0],"id":106,"left_children":[1,3,5,-1,-1,-1,-1],"loss_changes":[1.1601344E2,4.310672E1,5.421381E1,0E0,0E0,0E0,0E0],"parents":[2147483647,0,0,1,1,2,2],"right_children":[2,4,6,-1,-1,-1,-1],"split_conditions":[1.45E1,2.25E1,-2.45E0,-1.7353634E-3,-4.8294296E-3,-1.6227303E-3,1.3045352E-3],"split_indices":[51,80,77,0,0,0,0],"split_type":[0,0,0,0,0,0,0],"sum_hessian":[6.041404E3,2.966539E3,3.074865E3,2.4131687E3,5.533701E2,8.8934186E2,2.1855232E3],"tree_param":{"num_deleted":"0","num_feature":"104","num_nodes":"7","size_leaf_vector":"0"}},{"base_weights":[9.0347156E-2,2.3139551E-1,-4.5763113E-2,1.7353635E-1,4.8294297E-1,1.6227306E-1,-1.3045353E-1],"categories":[],"categories_nodes":[],"categories_segments":[],"categories_sizes":[],"default_left":[1,1,1,0,0,0,0],"id":107,"left_children":[1,3,5,-1,-1,-1,-1],"loss_changes":[1.1601344E2,4.310672E1,5.4213818E1,0E0,0E0,0E0,0E0],"parents":[2147483647,0,0,1,1,2,2],"right_children":[2,4,6,-1,-1,-1,-1],"split_conditions":[1.45E1,2.25E1,-2.45E0,1.7353634E-3,4.8294296E-3,1.6227306E-3,-1.3045352E-3],"split_indices":[51,80,77,0,0,0,0],"split_type":[0,0,0,0,0,0,0],"sum_hessian":[6.041404E3,2.9665388E3,3.074865E3,2.4131687E3,5.533701E2,8.8934186E2,2.1855232E3],"tree_param":{"num_deleted":"0","num_feature":"104","num_nodes":"7","size_leaf_vector":"0"}},{"base_weights":[-8.948331E-2,2.0736031E-1,-1.533568E-1,1.19233996E-1,3.7870234E-1,5.9366435E-2,-2.3115881E-1],"categories":[],"categories_nodes":[],"categories_segments":[],"categories_sizes":[],"default_left":[1,1,1,0,0,0,0],"id":108,"left_children":[1,3,5,-1,-1,-1,-1],"loss_changes":[1.1454992E2,1.6110401E1,8.228394E1,0E0,0E0,0E0,0E0],"parents":[2147483647,0,0,1,1,2,2],"right_children":[2,4,6,-1,-1,-1,-1],"split_conditions":[-4.6499996E0,2.25E1,7.5E0,1.1923399E-3,3.7870232E-3,5.9366436E-4,-2.311588E-3],"split_indices":[25,53,103,0,0,0,0],"split_type":[0,0,0,0,0,0,0],"sum_hessian":[6.0388457E3,1.0689226E3,4.969923E3,7.069916E2,3.6193097E2,1.3309977E3,3.6389255E3],"tree_param":{"num_deleted":"0","num_feature":"104","num_nodes":"7","size_leaf_vector":"0"}},{"base_weights":[8.948332E-2,-2.0736031E-1,1.5335682E-1,-1.19233996E-1,-3.7870234E-1,-5.9366442E-2,2.3115882E-1],"categories":[],"categories_nodes":[],"categories_segments":[],"categories_sizes":[],"default_left":[1,1,1,0,0,0,0],"id":109,"left_children":[1,3,5,-1,-1,-1,-1],"loss_changes":[1.1454993E2,1.6110405E1,8.2283966E1,0E0,0E0,0E0,0E0],"parents":[2147483647,0,0,1,1,2,2],"right_children":[2,4,6,-1,-1,-1,-1],"split_conditions":[-4.6499996E0,2.25E1,7.5E0,-1.1923399E-3,-3.7870232E-3,-5.936644E-4,2.3115883E-3],"split_indices":[25,53,103,0,0,0,0],"split_type":[0,0,0,0,0,0,0],"sum_hessian":[6.0388457E3,1.0689226E3,4.969923E3,7.069916E2,3.6193097E2,1.3309977E3,3.6389253E3],"tree_param":{"num_deleted":"0","num_feature":"104","num_nodes":"7","size_leaf_vector":"0"}},{"base_weights":[-8.862014E-2,8.036271E-2,-1.9938603E-1,-3.52202E-2,2.0305748E-1,-2.877601E-1,-1.6134933E-2],"categories":[],"categories_nodes":[],"categories_segments":[],"categories_sizes":[],"default_left":[1,1,1,0,0,0,0],"id":110,"left_children":[1,3,5,-1,-1,-1,-1],"loss_changes":[1.13026344E2,3.391939E1,5.9062973E1,0E0,0E0,0E0,0E0],"parents":[2147483647,0,0,1,1,2,2],"right_children":[2,4,6,-1,-1,-1,-1],"split_conditions":[4.6850002E-1,5.03E-1,2.95E0,-3.5220198E-4,2.0305747E-3,-2.877601E-3,-1.6134932E-4],"split_indices":[3,55,77,0,0,0,0],"split_type":[0,0,0,0,0,0,0],"sum_hessian":[6.0366704E3,2.390315E3,3.6463555E3,1.2311964E3,1.1591185E3,2.459618E3,1.1867375E3],"tree_param":{"num_deleted":"0","num_feature":"104","num_nodes":"7","size_leaf_vector":"0"}},{"base_weights":[8.8620126E-2,-8.036271E-2,1.99386E-1,3.522021E-2,-2.030575E-1,2.8776008E-1,1.6134884E-2],"categories":[],"categories_nodes":[],"categories_segments":[],"categories_sizes":[],"default_left":[1,1,1,0,0,0,0],"id":111,"left_children":[1,3,5,-1,-1,-1,-1],"loss_changes":[1.1302632E2,3.3919395E1,5.9063004E1,0E0,0E0,0E0,0E0],"parents":[2147483647,0,0,1,1,2,2],"right_children":[2,4,6,-1,-1,-1,-1],"split_conditions":[4.6850002E-1,5.03E-1,2.95E0,3.522021E-4,-2.030575E-3,2.8776007E-3,1.6134884E-4],"split_indices":[3,55,77,0,0,0,0],"split_type":[0,0,0,0,0,0,0],"sum_hessian":[6.0366704E3,2.390315E3,3.6463555E3,1.2311964E3,1.1591185E3,2.459618E3,1.1867375E3],"tree_param":{"num_deleted":"0","num_feature":"104","num_nodes":"7","size_leaf_vector":"0"}},{"base_weights":[-8.777232E-2,-2.261561E-1,4.559595E-2,-1.6905914E-1,-4.7518322E-1,-1.5889394E-1,1.288186E-1],"categories":[],"categories_nodes":[],"categories_segments":[],"categories_sizes":[],"default_left":[1,1,1,0,0,0,0],"id":112,"left_children":[1,3,5,-1,-1,-1,-1],"loss_changes":[1.1139371E2,4.203563E1,5.2335453E1,0E0,0E0,0E0,0E0],"parents":[2147483647,0,0,1,1,2,2],"right_children":[2,4,6,-1,-1,-1,-1],"split_conditions":[1.45E1,2.25E1,-2.45E0,-1.6905913E-3,-4.751832E-3,-1.5889393E-3,1.288186E-3],"split_indices":[51,80,77,0,0,0,0],"split_type":[0,0,0,0,0,0,0],"sum_hessian":[6.0340767E3,2.9610137E3,3.0730627E3,2.4101038E3,5.5091E2,8.886396E2,2.1844233E3],"tree_param":{"num_deleted":"0","num_feature":"104","num_nodes":"7","size_leaf_vector":"0"}},{"base_weights":[8.777234E-2,2.2615613E-1,-4.5595936E-2,1.6905917E-1,4.7518325E-1,1.5889396E-1,-1.2881859E-1],"categories":[],"categories_nodes":[],"categories_segments":[],"categories_sizes":[],"default_left":[1,1,1,0,0,0,0],"id":113,"left_children":[1,3,5,-1,-1,-1,-1],"loss_changes":[1.11393745E2,4.203563E1,5.2335453E1,0E0,0E0,0E0,0E0],"parents":[2147483647,0,0,1,1,2,2],"right_children":[2,4,6,-1,-1,-1,-1],"split_conditions":[1.45E1,2.25E1,-2.45E0,1.6905917E-3,4.751832E-3,1.5889396E-3,-1.2881858E-3],"split_indices":[51,80,77,0,0,0,0],"split_type":[0,0,0,0,0,0,0],"sum_hessian":[6.0340767E3,2.9610137E3,3.0730627E3,2.4101038E3,5.5091E2,8.886396E2,2.1844233E3],"tree_param":{"num_deleted":"0","num_feature":"104","num_nodes":"7","size_leaf_vector":"0"}},{"base_weights":[-8.693387E-2,-1.456864E-1,2.243123E-1,6.0823962E-2,-2.2103441E-1,2.56989E-1,-1.7698735E-1],"categories":[],"categories_nodes":[],"categories_segments":[],"categories_sizes":[],"default_left":[1,1,1,0,0,0,0],"id":114,"left_children":[1,3,5,-1,-1,-1,-1],"loss_changes":[1.1034543E2,7.89839E1,1.2611771E1,0E0,0E0,0E0,0E0],"parents":[2147483647,0,0,1,1,2,2],"right_children":[2,4,6,-1,-1,-1,-1],"split_conditions":[2.55E1,7.5E0,2.75E1,6.082396E-4,-2.210344E-3,2.5698899E-3,-1.7698734E-3],"split_indices":[51,103,81,0,0,0,0],"split_type":[0,0,0,0,0,0,0],"sum_hessian":[6.03147E3,5.074174E3,9.572967E2,1.3565092E3,3.7176646E3,8.855486E2,7.174812E1],"tree_param":{"num_deleted":"0","num_feature":"104","num_nodes":"7","size_leaf_vector":"0"}},{"base_weights":[8.693388E-2,1.456864E-1,-2.2431232E-1,-6.082396E-2,2.2103442E-1,-2.56989E-1,1.7698734E-1],"categories":[],"categories_nodes":[],"categories_segments":[],"categories_sizes":[],"default_left":[1,1,1,0,0,0,0],"id":115,"left_children":[1,3,5,-1,-1,-1,-1],"loss_changes":[1.1034546E2,7.898389E1,1.2611767E1,0E0,0E0,0E0,0E0],"parents":[2147483647,0,0,1,1,2,2],"right_children":[2,4,6,-1,-1,-1,-1],"split_conditions":[2.55E1,7.5E0,2.75E1,-6.0823956E-4,2.2103442E-3,-2.5698899E-3,1.7698733E-3],"split_indices":[51,103,81,0,0,0,0],"split_type":[0,0,0,0,0,0,0],"sum_hessian":[6.03147E3,5.074174E3,9.572967E2,1.3565092E3,3.7176646E3,8.855486E2,7.1748116E1],"tree_param":{"num_deleted":"0","num_feature":"104","num_nodes":"7","size_leaf_vector":"0"}},{"base_weights":[-8.609661E-2,-2.2275884E-1,4.549924E-2,-1.6626531E-1,-4.6975973E-1,-7.423519E-2,1.848364E-1],"categories":[],"categories_nodes":[],"categories_segments":[],"categories_sizes":[],"default_left":[1,1,1,0,0,0,0],"id":116,"left_children":[1,3,5,-1,-1,-1,-1],"loss_changes":[1.084593E2,4.1202606E1,5.128033E1,0E0,0E0,0E0,0E0],"parents":[2147483647,0,0,1,1,2,2],"right_children":[2,4,6,-1,-1,-1,-1],"split_conditions":[1.45E1,2.25E1,5.5E-1,-1.662653E-3,-4.697597E-3,-7.423519E-4,1.848364E-3],"split_indices":[51,80,77,0,0,0,0],"split_type":[0,0,0,0,0,0,0],"sum_hessian":[6.0292524E3,2.9573516E3,3.0719011E3,2.4082212E3,5.491302E2,1.65242E3,1.4194812E3],"tree_param":{"num_deleted":"0","num_feature":"104","num_nodes":"7","size_leaf_vector":"0"}},{"base_weights":[8.609661E-2,2.2275884E-1,-4.5499243E-2,1.6626534E-1,4.6975967E-1,7.423517E-2,-1.8483637E-1],"categories":[],"categories_nodes":[],"categories_segments":[],"categories_sizes":[],"default_left":[1,1,1,0,0,0,0],"id":117,"left_children":[1,3,5,-1,-1,-1,-1],"loss_changes":[1.0845931E2,4.1202576E1,5.128031E1,0E0,0E0,0E0,0E0],"parents":[2147483647,0,0,1,1,2,2],"right_children":[2,4,6,-1,-1,-1,-1],"split_conditions":[1.45E1,2.25E1,5.5E-1,1.6626534E-3,4.6975967E-3,7.423517E-4,-1.8483637E-3],"split_indices":[51,80,77,0,0,0,0],"split_type":[0,0,0,0,0,0,0],"sum_hessian":[6.029253E3,2.9573516E3,3.0719011E3,2.4082212E3,5.491302E2,1.65242E3,1.4194812E3],"tree_param":{"num_deleted":"0","num_feature":"104","num_nodes":"7","size_leaf_vector":"0"}},{"base_weights":[-8.5273825E-2,2.0227128E-1,-1.4720996E-1,1.1603971E-1,3.7013477E-1,-3.389078E-1,-6.5007314E-2],"categories":[],"categories_nodes":[],"categories_segments":[],"categories_sizes":[],"default_left":[1,1,1,0,0,0,0],"id":118,"left_children":[1,3,5,-1,-1,-1,-1],"loss_changes":[1.07378876E2,1.5426052E1,7.813789E1,0E0,0E0,0E0,0E0],"parents":[2147483647,0,0,1,1,2,2],"right_children":[2,4,6,-1,-1,-1,-1],"split_conditions":[-4.6499996E0,2.25E1,-1.95E0,1.1603971E-3,3.7013476E-3,-3.389078E-3,-6.500731E-4],"split_indices":[25,53,77,0,0,0,0],"split_type":[0,0,0,0,0,0,0],"sum_hessian":[6.026654E3,1.0676605E3,4.9589937E3,7.064487E2,3.6121182E2,1.4873492E3,3.4716443E3],"tree_param":{"num_deleted":"0","num_feature":"104","num_nodes":"7","size_leaf_vector":"0"}},{"base_weights":[8.5273825E-2,-2.0227128E-1,1.4720996E-1,-1.1603972E-1,-3.7013477E-1,3.3890787E-1,6.50073E-2],"categories":[],"categories_nodes":[],"categories_segments":[],"categories_sizes":[],"default_left":[1,1,1,0,0,0,0],"id":119,"left_children":[1,3,5,-1,-1,-1,-1],"loss_changes":[1.07378876E2,1.5426052E1,7.8137924E1,0E0,0E0,0E0,0E0],"parents":[2147483647,0,0,1,1,2,2],"right_children":[2,4,6,-1,-1,-1,-1],"split_conditions":[-4.6499996E0,2.25E1,-1.95E0,-1.1603972E-3,-3.7013476E-3,3.3890787E-3,6.50073E-4],"split_indices":[25,53,77,0,0,0,0],"split_type":[0,0,0,0,0,0,0],"sum_hessian":[6.0266543E3,1.0676605E3,4.9589937E3,7.064487E2,3.612118E2,1.4873492E3,3.4716443E3],"tree_param":{"num_deleted":"0","num_feature":"104","num_nodes":"7","size_leaf_vector":"0"}},{"base_weights":[-8.445402E-2,-1.7158797E-1,1.1740651E-1,-7.9673134E-2,-3.350137E-1,2.7318487E-1,2.4274018E-2],"categories":[],"categories_nodes":[],"categories_segments":[],"categories_sizes":[],"default_left":[1,1,1,0,0,0,0],"id":120,"left_children":[1,3,5,-1,-1,-1,-1],"loss_changes":[1.05998985E2,6.3198494E1,2.6358408E1,0E0,0E0,0E0,0E0],"parents":[2147483647,0,0,1,1,2,2],"right_children":[2,4,6,-1,-1,-1,-1],"split_conditions":[1.95E1,1.65E1,-6.25E0,-7.967313E-4,-3.3501368E-3,2.7318485E-3,2.4274018E-4],"split_indices":[28,80,25,0,0,0,0],"split_type":[0,0,0,0,0,0,0],"sum_hessian":[6.024323E3,4.2080503E3,1.8162728E3,2.694232E3,1.5138182E3,6.7885333E2,1.1374194E3],"tree_param":{"num_deleted":"0","num_feature":"104","num_nodes":"7","size_leaf_vector":"0"}},{"base_weights":[8.445403E-2,1.7158799E-1,-1.1740652E-1,7.9673134E-2,3.3501372E-1,-2.731849E-1,-2.4274012E-2],"categories":[],"categories_nodes":[],"categories_segments":[],"categories_sizes":[],"default_left":[1,1,1,0,0,0,0],"id":121,"left_children":[1,3,5,-1,-1,-1,-1],"loss_changes":[1.0599901E2,6.319851E1,2.6358416E1,0E0,0E0,0E0,0E0],"parents":[2147483647,0,0,1,1,2,2],"right_children":[2,4,6,-1,-1,-1,-1],"split_conditions":[1.95E1,1.65E1,-6.25E0,7.967313E-4,3.350137E-3,-2.731849E-3,-2.4274012E-4],"split_indices":[28,80,25,0,0,0,0],"split_type":[0,0,0,0,0,0,0],"sum_hessian":[6.024323E3,4.2080503E3,1.8162728E3,2.6942322E3,1.5138182E3,6.7885333E2,1.1374194E3],"tree_param":{"num_deleted":"0","num_feature":"104","num_nodes":"7","size_leaf_vector":"0"}},{"base_weights":[-8.364518E-2,-2.1784721E-1,4.542019E-2,-2.753622E-1,1.8565424E-2,-7.237952E-2,1.8248363E-1],"categories":[],"categories_nodes":[],"categories_segments":[],"categories_sizes":[],"default_left":[1,1,1,0,0,0,0],"id":122,"left_children":[1,3,5,-1,-1,-1,-1],"loss_changes":[1.0432986E2,4.0155365E1,4.959742E1,0E0,0E0,0E0,0E0],"parents":[2147483647,0,0,1,1,2,2],"right_children":[2,4,6,-1,-1,-1,-1],"split_conditions":[1.45E1,5.05E0,5.5E-1,-2.753622E-3,1.8565424E-4,-7.237952E-4,1.8248362E-3],"split_indices":[51,77,77,0,0,0,0],"split_type":[0,0,0,0,0,0,0],"sum_hessian":[6.021802E3,2.9518174E3,3.0699846E3,2.374081E3,5.777364E2,1.6512678E3,1.4187168E3],"tree_param":{"num_deleted":"0","num_feature":"104","num_nodes":"7","size_leaf_vector":"0"}},{"base_weights":[8.364518E-2,2.1784723E-1,-4.5420196E-2,2.7536222E-1,-1.8565424E-2,7.237951E-2,-1.8248361E-1],"categories":[],"categories_nodes":[],"categories_segments":[],"categories_sizes":[],"default_left":[1,1,1,0,0,0,0],"id":123,"left_children":[1,3,5,-1,-1,-1,-1],"loss_changes":[1.04329865E2,4.0155365E1,4.9597416E1,0E0,0E0,0E0,0E0],"parents":[2147483647,0,0,1,1,2,2],"right_children":[2,4,6,-1,-1,-1,-1],"split_conditions":[1.45E1,5.05E0,5.5E-1,2.7536221E-3,-1.8565424E-4,7.2379503E-4,-1.8248361E-3],"split_indices":[51,77,77,0,0,0,0],"split_type":[0,0,0,0,0,0,0],"sum_hessian":[6.021802E3,2.9518174E3,3.0699846E3,2.374081E3,5.777364E2,1.6512678E3,1.4187168E3],"tree_param":{"num_deleted":"0","num_feature":"104","num_nodes":"7","size_leaf_vector":"0"}},{"base_weights":[-8.2844995E-2,-1.6871445E-1,1.15937464E-1,-9.372198E-2,-3.6506507E-1,2.7023703E-1,2.3722323E-2],"categories":[],"categories_nodes":[],"categories_segments":[],"categories_sizes":[],"default_left":[1,1,1,0,0,0,0],"id":124,"left_children":[1,3,5,-1,-1,-1,-1],"loss_changes":[1.0278067E2,6.187681E1,2.5842686E1,0E0,0E0,0E0,0E0],"parents":[2147483647,0,0,1,1,2,2],"right_children":[2,4,6,-1,-1,-1,-1],"split_conditions":[1.95E1,1.95E1,-6.25E0,-9.3721977E-4,-3.6506506E-3,2.7023703E-3,2.3722323E-4],"split_indices":[28,80,25,0,0,0,0],"split_type":[0,0,0,0,0,0,0],"sum_hessian":[6.019216E3,4.203536E3,1.8156797E3,3.0428525E3,1.1606837E3,6.784793E2,1.1372003E3],"tree_param":{"num_deleted":"0","num_feature":"104","num_nodes":"7","size_leaf_vector":"0"}},{"base_weights":[8.2845E-2,1.6871445E-1,-1.1593746E-1,9.372196E-2,3.650651E-1,-2.7023703E-1,-2.3722311E-2],"categories":[],"categories_nodes":[],"categories_segments":[],"categories_sizes":[],"default_left":[1,1,1,0,0,0,0],"id":125,"left_children":[1,3,5,-1,-1,-1,-1],"loss_changes":[1.02780685E2,6.1876823E1,2.5842678E1,0E0,0E0,0E0,0E0],"parents":[2147483647,0,0,1,1,2,2],"right_children":[2,4,6,-1,-1,-1,-1],"split_conditions":[1.95E1,1.95E1,-6.25E0,9.372196E-4,3.6506508E-3,-2.7023703E-3,-2.3722311E-4],"split_indices":[28,80,25,0,0,0,0],"split_type":[0,0,0,0,0,0,0],"sum_hessian":[6.019216E3,4.203536E3,1.8156797E3,3.0428525E3,1.1606837E3,6.784793E2,1.1372003E3],"tree_param":{"num_deleted":"0","num_feature":"104","num_nodes":"7","size_leaf_vector":"0"}},{"base_weights":[-8.205167E-2,-2.143226E-1,4.503381E-2,-2.7124843E-1,1.9304235E-2,-1.5228139E-1,1.2526506E-1],"categories":[],"categories_nodes":[],"categories_segments":[],"categories_sizes":[],"default_left":[1,1,1,0,0,0,0],"id":126,"left_children":[1,3,5,-1,-1,-1,-1],"loss_changes":[1.011654E2,3.922336E1,4.861711E1,0E0,0E0,0E0,0E0],"parents":[2147483647,0,0,1,1,2,2],"right_children":[2,4,6,-1,-1,-1,-1],"split_conditions":[1.45E1,5.05E0,-2.45E0,-2.7124842E-3,1.9304235E-4,-1.5228138E-3,1.2526506E-3],"split_indices":[51,77,77,0,0,0,0],"split_type":[0,0,0,0,0,0,0],"sum_hessian":[6.016696E3,2.9478643E3,3.0688318E3,2.3701816E3,5.776826E2,8.868576E2,2.181974E3],"tree_param":{"num_deleted":"0","num_feature":"104","num_nodes":"7","size_leaf_vector":"0"}},{"base_weights":[8.205168E-2,2.1432261E-1,-4.5033813E-2,2.7124846E-1,-1.9304262E-2,1.522814E-1,-1.2526508E-1],"categories":[],"categories_nodes":[],"categories_segments":[],"categories_sizes":[],"default_left":[1,1,1,0,0,0,0],"id":127,"left_children":[1,3,5,-1,-1,-1,-1],"loss_changes":[1.01165405E2,3.922339E1,4.861712E1,0E0,0E0,0E0,0E0],"parents":[2147483647,0,0,1,1,2,2],"right_children":[2,4,6,-1,-1,-1,-1],"split_conditions":[1.45E1,5.05E0,-2.45E0,2.7124844E-3,-1.9304262E-4,1.522814E-3,-1.2526507E-3],"split_indices":[51,77,77,0,0,0,0],"split_type":[0,0,0,0,0,0,0],"sum_hessian":[6.016696E3,2.9478643E3,3.0688318E3,2.3701816E3,5.776826E2,8.868576E2,2.181974E3],"tree_param":{"num_deleted":"0","num_feature":"104","num_nodes":"7","size_leaf_vector":"0"}},{"base_weights":[-8.126786E-2,-1.3736211E-1,2.1551225E-1,6.223367E-2,-2.1043433E-1,1.1550025E-1,3.4253135E-1],"categories":[],"categories_nodes":[],"categories_segments":[],"categories_sizes":[],"default_left":[1,1,