{"learner":{"attributes":{"best_iteration":"499","best_ntree_limit":"500"},"feature_names":[],"feature_types":[],"gradient_booster":{"model":{"gbtree_model_param":{"num_parallel_tree":"1","num_trees":"1000","size_leaf_vector":"0"},"tree_info":[0,1,0,1,0,1,0,1,0,1,0,1,0,1,0,1,0,1,0,1,0,1,0,1,0,1,0,1,0,1,0,1,0,1,0,1,0,1,0,1,0,1,0,1,0,1,0,1,0,1,0,1,0,1,0,1,0,1,0,1,0,1,0,1,0,1,0,1,0,1,0,1,0,1,0,1,0,1,0,1,0,1,0,1,0,1,0,1,0,1,0,1,0,1,0,1,0,1,0,1,0,1,0,1,0,1,0,1,0,1,0,1,0,1,0,1,0,1,0,1,0,1,0,1,0,1,0,1,0,1,0,1,0,1,0,1,0,1,0,1,0,1,0,1,0,1,0,1,0,1,0,1,0,1,0,1,0,1,0,1,0,1,0,1,0,1,0,1,0,1,0,1,0,1,0,1,0,1,0,1,0,1,0,1,0,1,0,1,0,1,0,1,0,1,0,1,0,1,0,1,0,1,0,1,0,1,0,1,0,1,0,1,0,1,0,1,0,1,0,1,0,1,0,1,0,1,0,1,0,1,0,1,0,1,0,1,0,1,0,1,0,1,0,1,0,1,0,1,0,1,0,1,0,1,0,1,0,1,0,1,0,1,0,1,0,1,0,1,0,1,0,1,0,1,0,1,0,1,0,1,0,1,0,1,0,1,0,1,0,1,0,1,0,1,0,1,0,1,0,1,0,1,0,1,0,1,0,1,0,1,0,1,0,1,0,1,0,1,0,1,0,1,0,1,0,1,0,1,0,1,0,1,0,1,0,1,0,1,0,1,0,1,0,1,0,1,0,1,0,1,0,1,0,1,0,1,0,1,0,1,0,1,0,1,0,1,0,1,0,1,0,1,0,1,0,1,0,1,0,1,0,1,0,1,0,1,0,1,0,1,0,1,0,1,0,1,0,1,0,1,0,1,0,1,0,1,0,1,0,1,0,1,0,1,0,1,0,1,0,1,0,1,0,1,0,1,0,1,0,1,0,1,0,1,0,1,0,1,0,1,0,1,0,1,0,1,0,1,0,1,0,1,0,1,0,1,0,1,0,1,0,1,0,1,0,1,0,1,0,1,0,1,0,1,0,1,0,1,0,1,0,1,0,1,0,1,0,1,0,1,0,1,0,1,0,1,0,1,0,1,0,1,0,1,0,1,0,1,0,1,0,1,0,1,0,1,0,1,0,1,0,1,0,1,0,1,0,1,0,1,0,1,0,1,0,1,0,1,0,1,0,1,0,1,0,1,0,1,0,1,0,1,0,1,0,1,0,1,0,1,0,1,0,1,0,1,0,1,0,1,0,1,0,1,0,1,0,1,0,1,0,1,0,1,0,1,0,1,0,1,0,1,0,1,0,1,0,1,0,1,0,1,0,1,0,1,0,1,0,1,0,1,0,1,0,1,0,1,0,1,0,1,0,1,0,1,0,1,0,1,0,1,0,1,0,1,0,1,0,1,0,1,0,1,0,1,0,1,0,1,0,1,0,1,0,1,0,1,0,1,0,1,0,1,0,1,0,1,0,1,0,1,0,1,0,1,0,1,0,1,0,1,0,1,0,1,0,1,0,1,0,1,0,1,0,1,0,1,0,1,0,1,0,1,0,1,0,1,0,1,0,1,0,1,0,1,0,1,0,1,0,1,0,1,0,1,0,1,0,1,0,1,0,1,0,1,0,1,0,1,0,1,0,1,0,1,0,1,0,1,0,1,0,1,0,1,0,1,0,1,0,1,0,1,0,1,0,1,0,1,0,1,0,1,0,1,0,1,0,1,0,1,0,1,0,1,0,1,0,1,0,1,0,1,0,1,0,1,0,1,0,1,0,1,0,1,0,1,0,1,0,1,0,1,0,1,0,1,0,1,0,1,0,1,0,1,0,1,0,1,0,1,0,1,0,1,0,1,0,1,0,1,0,1,0,1,0,1,0,1,0,1,0,1,0,1,0,1,0,1,0,1,0,1,0,1,0,1,0,1,0,1,0,1,0,1,0,1,0,1,0,1,0,1,0,1,0,1,0,1,0,1,0,1,0,1,0,1,0,1,0,1,0,1,0,1,0,1,0,1,0,1,0,1,0,1,0,1,0,1,0,1,0,1,0,1,0,1,0,1,0,1,0,1,0,1,0,1,0,1,0,1,0,1,0,1,0,1,0,1,0,1,0,1,0,1,0,1,0,1,0,1,0,1,0,1,0,1,0,1,0,1,0,1,0,1,0,1,0,1,0,1,0,1,0,1,0,1,0,1,0,1,0,1,0,1,0,1,0,1],"trees":[{"base_weights":[-1.5612502E-1,-3.6684918E-1,4.7848426E-2,-2.0768467E-1,-5.2624583E-1,-2.2116825E-1,1.7530163E-1],"categories":[],"categories_nodes":[],"categories_segments":[],"categories_sizes":[],"default_left":[1,1,1,0,0,0,0],"id":0,"left_children":[1,3,5,-1,-1,-1,-1],"loss_changes":[2.633476E2,7.6344086E1,1.068086E2,0E0,0E0,0E0,0E0],"parents":[2147483647,0,0,1,1,2,2],"right_children":[2,4,6,-1,-1,-1,-1],"split_conditions":[1.45E1,1.25E1,-1.95E0,-2.0768465E-3,-5.262458E-3,-2.2116825E-3,1.7530163E-3],"split_indices":[51,80,77,0,0,0,0],"split_type":[0,0,0,0,0,0,0],"sum_hessian":[6.1255E3,3.0125E3,3.113E3,1.5085E3,1.504E3,1.0005E3,2.1125E3],"tree_param":{"num_deleted":"0","num_feature":"104","num_nodes":"7","size_leaf_vector":"0"}},{"base_weights":[1.5612502E-1,3.6684918E-1,-4.7848426E-2,2.0768467E-1,5.2624583E-1,2.2116825E-1,-1.7530163E-1],"categories":[],"categories_nodes":[],"categories_segments":[],"categories_sizes":[],"default_left":[1,1,1,0,0,0,0],"id":1,"left_children":[1,3,5,-1,-1,-1,-1],"loss_changes":[2.633476E2,7.6344086E1,1.068086E2,0E0,0E0,0E0,0E0],"parents":[2147483647,0,0,1,1,2,2],"right_children":[2,4,6,-1,-1,-1,-1],"split_conditions":[1.45E1,1.25E1,-1.95E0,2.0768465E-3,5.262458E-3,2.2116825E-3,-1.7530163E-3],"split_indices":[51,80,77,0,0,0,0],"split_type":[0,0,0,0,0,0,0],"sum_hessian":[6.1255E3,3.0125E3,3.113E3,1.5085E3,1.504E3,1.0005E3,2.1125E3],"tree_param":{"num_deleted":"0","num_feature":"104","num_nodes":"7","size_leaf_vector":"0"}},{"base_weights":[-1.545666E-1,1.11060314E-1,-3.140356E-1,-5.1527552E-2,2.8925702E-1,-7.556933E-2,-4.3661207E-1],"categories":[],"categories_nodes":[],"categories_segments":[],"categories_sizes":[],"default_left":[1,1,1,0,0,0,0],"id":2,"left_children":[1,3,5,-1,-1,-1,-1],"loss_changes":[2.595464E2,6.662268E1,1.1187393E2,0E0,0E0,0E0,0E0],"parents":[2147483647,0,0,1,1,2,2],"right_children":[2,4,6,-1,-1,-1,-1],"split_conditions":[4.585E-1,5.135E-1,9.5E0,-5.152755E-4,2.89257E-3,-7.556933E-4,-4.366121E-3],"split_indices":[3,55,103,0,0,0,0],"split_type":[0,0,0,0,0,0,0],"sum_hessian":[6.1254404E3,2.2979905E3,3.82745E3,1.2019939E3,1.0959965E3,1.299994E3,2.527456E3],"tree_param":{"num_deleted":"0","num_feature":"104","num_nodes":"7","size_leaf_vector":"0"}},{"base_weights":[1.5456656E-1,-1.1106039E-1,3.140356E-1,5.1527508E-2,-2.8925714E-1,7.556928E-2,4.3661207E-1],"categories":[],"categories_nodes":[],"categories_segments":[],"categories_sizes":[],"default_left":[1,1,1,0,0,0,0],"id":3,"left_children":[1,3,5,-1,-1,-1,-1],"loss_changes":[2.5954645E2,6.662271E1,1.1187393E2,0E0,0E0,0E0,0E0],"parents":[2147483647,0,0,1,1,2,2],"right_children":[2,4,6,-1,-1,-1,-1],"split_conditions":[4.585E-1,5.135E-1,9.5E0,5.1527505E-4,-2.8925713E-3,7.556928E-4,4.366121E-3],"split_indices":[3,55,103,0,0,0,0],"split_type":[0,0,0,0,0,0,0],"sum_hessian":[6.1254404E3,2.2979905E3,3.82745E3,1.2019939E3,1.0959965E3,1.299994E3,2.527456E3],"tree_param":{"num_deleted":"0","num_feature":"104","num_nodes":"7","size_leaf_vector":"0"}},{"base_weights":[-1.5302506E-1,-3.6021075E-1,4.751507E-2,-2.0378467E-1,-5.168763E-1,-2.1742219E-1,1.7303471E-1],"categories":[],"categories_nodes":[],"categories_segments":[],"categories_sizes":[],"default_left":[1,1,1,0,0,0,0],"id":4,"left_children":[1,3,5,-1,-1,-1,-1],"loss_changes":[2.5455879E2,7.374127E1,1.03591736E2,0E0,0E0,0E0,0E0],"parents":[2147483647,0,0,1,1,2,2],"right_children":[2,4,6,-1,-1,-1,-1],"split_conditions":[1.45E1,1.25E1,-1.95E0,-2.0378467E-3,-5.1687625E-3,-2.174222E-3,1.730347E-3],"split_indices":[51,80,77,0,0,0,0],"split_type":[0,0,0,0,0,0,0],"sum_hessian":[6.125294E3,3.0123372E3,3.112957E3,1.5084717E3,1.5038654E3,1.00048267E3,2.1124744E3],"tree_param":{"num_deleted":"0","num_feature":"104","num_nodes":"7","size_leaf_vector":"0"}},{"base_weights":[1.5302505E-1,3.602107E-1,-4.7515057E-2,2.0378458E-1,5.168763E-1,2.1742226E-1,-1.7303473E-1],"categories":[],"categories_nodes":[],"categories_segments":[],"categories_sizes":[],"default_left":[1,1,1,0,0,0,0],"id":5,"left_children":[1,3,5,-1,-1,-1,-1],"loss_changes":[2.5455872E2,7.374124E1,1.0359178E2,0E0,0E0,0E0,0E0],"parents":[2147483647,0,0,1,1,2,2],"right_children":[2,4,6,-1,-1,-1,-1],"split_conditions":[1.45E1,1.25E1,-1.95E0,2.0378458E-3,5.1687625E-3,2.1742226E-3,-1.7303473E-3],"split_indices":[51,80,77,0,0,0,0],"split_type":[0,0,0,0,0,0,0],"sum_hessian":[6.125294E3,3.0123372E3,3.112957E3,1.5084718E3,1.5038654E3,1.0004826E3,2.1124744E3],"tree_param":{"num_deleted":"0","num_feature":"104","num_nodes":"7","size_leaf_vector":"0"}},{"base_weights":[-1.5150256E-1,1.0966104E-1,-3.0830237E-1,-5.018877E-2,2.848597E-1,-7.3547006E-2,-4.28985E-1],"categories":[],"categories_nodes":[],"categories_segments":[],"categories_sizes":[],"default_left":[1,1,1,0,0,0,0],"id":6,"left_children":[1,3,5,-1,-1,-1,-1],"loss_changes":[2.5089735E2,6.439696E1,1.08422E2,0E0,0E0,0E0,0E0],"parents":[2147483647,0,0,1,1,2,2],"right_children":[2,4,6,-1,-1,-1,-1],"split_conditions":[4.585E-1,5.135E-1,9.5E0,-5.018877E-4,2.8485968E-3,-7.3547004E-4,-4.28985E-3],"split_indices":[3,55,103,0,0,0,0],"split_type":[0,0,0,0,0,0,0],"sum_hessian":[6.125033E3,2.2979314E3,3.827102E3,1.2019739E3,1.0959575E3,1.2999706E3,2.5271313E3],"tree_param":{"num_deleted":"0","num_feature":"104","num_nodes":"7","size_leaf_vector":"0"}},{"base_weights":[1.5150258E-1,-1.0966103E-1,3.083024E-1,5.018877E-2,-2.848597E-1,7.354707E-2,4.28985E-1],"categories":[],"categories_nodes":[],"categories_segments":[],"categories_sizes":[],"default_left":[1,1,1,0,0,0,0],"id":7,"left_children":[1,3,5,-1,-1,-1,-1],"loss_changes":[2.5089737E2,6.439696E1,1.08421906E2,0E0,0E0,0E0,0E0],"parents":[2147483647,0,0,1,1,2,2],"right_children":[2,4,6,-1,-1,-1,-1],"split_conditions":[4.585E-1,5.135E-1,9.5E0,5.018877E-4,-2.8485968E-3,7.3547073E-4,4.28985E-3],"split_indices":[3,55,103,0,0,0,0],"split_type":[0,0,0,0,0,0,0],"sum_hessian":[6.125033E3,2.2979314E3,3.8271018E3,1.2019739E3,1.0959574E3,1.2999706E3,2.5271313E3],"tree_param":{"num_deleted":"0","num_feature":"104","num_nodes":"7","size_leaf_vector":"0"}},{"base_weights":[-1.4999646E-1,-2.8157228E-1,1.5545556E-1,-1.2409289E-1,-4.570242E-1,-9.363833E-2,2.708944E-1],"categories":[],"categories_nodes":[],"categories_segments":[],"categories_sizes":[],"default_left":[1,1,1,0,0,0,0],"id":8,"left_children":[1,3,5,-1,-1,-1,-1],"loss_changes":[2.4623587E2,1.1824936E2,5.3075787E1,0E0,0E0,0E0,0E0],"parents":[2147483647,0,0,1,1,2,2],"right_children":[2,4,6,-1,-1,-1,-1],"split_conditions":[1.95E1,1.35E1,-2.05E0,-1.2409289E-3,-4.5702416E-3,-9.3638327E-4,2.708944E-3],"split_indices":[28,80,77,0,0,0,0],"split_type":[0,0,0,0,0,0,0],"sum_hessian":[6.124691E3,4.280787E3,1.8439038E3,2.2568374E3,2.0239495E3,5.8398035E2,1.2599235E3],"tree_param":{"num_deleted":"0","num_feature":"104","num_nodes":"7","size_leaf_vector":"0"}},{"base_weights":[1.4999646E-1,2.8157228E-1,-1.5545559E-1,1.2409285E-1,4.5702425E-1,9.363833E-2,-2.7089447E-1],"categories":[],"categories_nodes":[],"categories_segments":[],"categories_sizes":[],"default_left":[1,1,1,0,0,0,0],"id":9,"left_children":[1,3,5,-1,-1,-1,-1],"loss_changes":[2.4623589E2,1.1824942E2,5.307581E1,0E0,0E0,0E0,0E0],"parents":[2147483647,0,0,1,1,2,2],"right_children":[2,4,6,-1,-1,-1,-1],"split_conditions":[1.95E1,1.35E1,-2.05E0,1.2409284E-3,4.5702425E-3,9.3638327E-4,-2.7089447E-3],"split_indices":[28,80,77,0,0,0,0],"split_type":[0,0,0,0,0,0,0],"sum_hessian":[6.1246904E3,4.280787E3,1.8439037E3,2.2568374E3,2.0239495E3,5.8398035E2,1.2599233E3],"tree_param":{"num_deleted":"0","num_feature":"104","num_nodes":"7","size_leaf_vector":"0"}},{"base_weights":[-1.4850745E-1,-3.5102606E-1,4.747947E-2,-1.9878276E-1,-5.035582E-1,-2.1142402E-1,1.7013541E-1],"categories":[],"categories_nodes":[],"categories_segments":[],"categories_sizes":[],"default_left":[1,1,1,0,0,0,0],"id":10,"left_children":[1,3,5,-1,-1,-1,-1],"loss_changes":[2.4313477E2,6.985751E1,9.891523E1,0E0,0E0,0E0,0E0],"parents":[2147483647,0,0,1,1,2,2],"right_children":[2,4,6,-1,-1,-1,-1],"split_conditions":[1.45E1,1.25E1,-1.95E0,-1.9878275E-3,-5.035582E-3,-2.11424E-3,1.701354E-3],"split_indices":[51,80,77,0,0,0,0],"split_type":[0,0,0,0,0,0,0],"sum_hessian":[6.1242705E3,3.0115564E3,3.1127144E3,1.5083582E3,1.5031982E3,1.00037915E3,2.1123352E3],"tree_param":{"num_deleted":"0","num_feature":"104","num_nodes":"7","size_leaf_vector":"0"}},{"base_weights":[1.4850745E-1,3.5102603E-1,-4.7479436E-2,1.9878276E-1,5.035582E-1,2.1142404E-1,-1.7013536E-1],"categories":[],"categories_nodes":[],"categories_segments":[],"categories_sizes":[],"default_left":[1,1,1,0,0,0,0],"id":11,"left_children":[1,3,5,-1,-1,-1,-1],"loss_changes":[2.4313466E2,6.985751E1,9.891522E1,0E0,0E0,0E0,0E0],"parents":[2147483647,0,0,1,1,2,2],"right_children":[2,4,6,-1,-1,-1,-1],"split_conditions":[1.45E1,1.25E1,-1.95E0,1.9878275E-3,5.035582E-3,2.1142403E-3,-1.7013536E-3],"split_indices":[51,80,77,0,0,0,0],"split_type":[0,0,0,0,0,0,0],"sum_hessian":[6.1242705E3,3.0115564E3,3.1127144E3,1.5083582E3,1.5031982E3,1.0003792E3,2.1123352E3],"tree_param":{"num_deleted":"0","num_feature":"104","num_nodes":"7","size_leaf_vector":"0"}},{"base_weights":[-1.4703658E-1,1.07618555E-1,-2.999595E-1,-4.84902E-2,2.787275E-1,-7.0269704E-2,-4.1808137E-1],"categories":[],"categories_nodes":[],"categories_segments":[],"categories_sizes":[],"default_left":[1,1,1,0,0,0,0],"id":12,"left_children":[1,3,5,-1,-1,-1,-1],"loss_changes":[2.3854547E2,6.141632E1,1.0380258E2,0E0,0E0,0E0,0E0],"parents":[2147483647,0,0,1,1,2,2],"right_children":[2,4,6,-1,-1,-1,-1],"split_conditions":[4.585E-1,5.135E-1,9.5E0,-4.84902E-4,2.787275E-3,-7.02697E-4,-4.1808137E-3],"split_indices":[3,55,103,0,0,0,0],"split_type":[0,0,0,0,0,0,0],"sum_hessian":[6.123736E3,2.2977314E3,3.8260046E3,1.2019062E3,1.0958251E3,1.2999081E3,2.5260967E3],"tree_param":{"num_deleted":"0","num_feature":"104","num_nodes":"7","size_leaf_vector":"0"}},{"base_weights":[1.470366E-1,-1.0761853E-1,2.999595E-1,4.8490226E-2,-2.787275E-1,7.026968E-2,4.1808137E-1],"categories":[],"categories_nodes":[],"categories_segments":[],"categories_sizes":[],"default_left":[1,1,1,0,0,0,0],"id":13,"left_children":[1,3,5,-1,-1,-1,-1],"loss_changes":[2.3854546E2,6.141633E1,1.0380255E2,0E0,0E0,0E0,0E0],"parents":[2147483647,0,0,1,1,2,2],"right_children":[2,4,6,-1,-1,-1,-1],"split_conditions":[4.585E-1,5.135E-1,9.5E0,4.8490227E-4,-2.787275E-3,7.026968E-4,4.1808137E-3],"split_indices":[3,55,103,0,0,0,0],"split_type":[0,0,0,0,0,0,0],"sum_hessian":[6.123736E3,2.2977314E3,3.8260046E3,1.2019064E3,1.0958251E3,1.299908E3,2.5260967E3],"tree_param":{"num_deleted":"0","num_feature":"104","num_nodes":"7","size_leaf_vector":"0"}},{"base_weights":[-1.4558135E-1,-3.4476474E-1,4.7135722E-2,-1.950787E-1,-4.9479544E-1,-2.0786496E-1,1.6793846E-1],"categories":[],"categories_nodes":[],"categories_segments":[],"categories_sizes":[],"default_left":[1,1,1,0,0,0,0],"id":14,"left_children":[1,3,5,-1,-1,-1,-1],"loss_changes":[2.3509714E2,6.753778E1,9.594453E1,0E0,0E0,0E0,0E0],"parents":[2147483647,0,0,1,1,2,2],"right_children":[2,4,6,-1,-1,-1,-1],"split_conditions":[1.45E1,1.25E1,-1.95E0,-1.9507869E-3,-4.9479543E-3,-2.0786496E-3,1.6793845E-3],"split_indices":[51,80,77,0,0,0,0],"split_type":[0,0,0,0,0,0,0],"sum_hessian":[6.123124E3,3.0106587E3,3.1124656E3,1.5082118E3,1.5024469E3,1.0002765E3,2.1121892E3],"tree_param":{"num_deleted":"0","num_feature":"104","num_nodes":"7","size_leaf_vector":"0"}},{"base_weights":[1.4558135E-1,3.4476474E-1,-4.7135714E-2,1.9507869E-1,4.9479544E-1,2.0786496E-1,-1.6793846E-1],"categories":[],"categories_nodes":[],"categories_segments":[],"categories_sizes":[],"default_left":[1,1,1,0,0,0,0],"id":15,"left_children":[1,3,5,-1,-1,-1,-1],"loss_changes":[2.3509714E2,6.753778E1,9.5944534E1,0E0,0E0,0E0,0E0],"parents":[2147483647,0,0,1,1,2,2],"right_children":[2,4,6,-1,-1,-1,-1],"split_conditions":[1.45E1,1.25E1,-1.95E0,1.9507868E-3,4.9479543E-3,2.0786496E-3,-1.6793845E-3],"split_indices":[51,80,77,0,0,0,0],"split_type":[0,0,0,0,0,0,0],"sum_hessian":[6.123124E3,3.0106587E3,3.1124656E3,1.5082118E3,1.5024469E3,1.0002765E3,2.112189E3],"tree_param":{"num_deleted":"0","num_feature":"104","num_nodes":"7","size_leaf_vector":"0"}},{"base_weights":[-1.4414367E-1,-2.7182445E-1,1.5217416E-1,-1.1935883E-1,-4.418011E-1,-8.791853E-2,2.6344866E-1],"categories":[],"categories_nodes":[],"categories_segments":[],"categories_sizes":[],"default_left":[1,1,1,0,0,0,0],"id":16,"left_children":[1,3,5,-1,-1,-1,-1],"loss_changes":[2.3171515E2,1.1086078E2,4.9304237E1,0E0,0E0,0E0,0E0],"parents":[2147483647,0,0,1,1,2,2],"right_children":[2,4,6,-1,-1,-1,-1],"split_conditions":[1.95E1,1.35E1,-2.05E0,-1.1935883E-3,-4.418011E-3,-8.791853E-4,2.6344864E-3],"split_indices":[28,80,77,0,0,0,0],"split_type":[0,0,0,0,0,0,0],"sum_hessian":[6.1224136E3,4.278799E3,1.8436147E3,2.2564822E3,2.0223168E3,5.8392084E2,1.2596938E3],"tree_param":{"num_deleted":"0","num_feature":"104","num_nodes":"7","size_leaf_vector":"0"}},{"base_weights":[1.4414366E-1,2.7182445E-1,-1.521742E-1,1.1935889E-1,4.41801E-1,8.7918505E-2,-2.634487E-1],"categories":[],"categories_nodes":[],"categories_segments":[],"categories_sizes":[],"default_left":[1,1,1,0,0,0,0],"id":17,"left_children":[1,3,5,-1,-1,-1,-1],"loss_changes":[2.3171521E2,1.1086072E2,4.930424E1,0E0,0E0,0E0,0E0],"parents":[2147483647,0,0,1,1,2,2],"right_children":[2,4,6,-1,-1,-1,-1],"split_conditions":[1.95E1,1.35E1,-2.05E0,1.1935888E-3,4.41801E-3,8.7918504E-4,-2.6344869E-3],"split_indices":[28,80,77,0,0,0,0],"split_type":[0,0,0,0,0,0,0],"sum_hessian":[6.1224136E3,4.278799E3,1.8436147E3,2.2564822E3,2.0223169E3,5.8392084E2,1.2596938E3],"tree_param":{"num_deleted":"0","num_feature":"104","num_nodes":"7","size_leaf_vector":"0"}},{"base_weights":[-1.4272085E-1,-3.3880448E-1,4.694537E-2,-2.6608393E-1,-6.382896E-1,-2.0357576E-1,1.65617E-1],"categories":[],"categories_nodes":[],"categories_segments":[],"categories_sizes":[],"default_left":[1,1,1,0,0,0,0],"id":18,"left_children":[1,3,5,-1,-1,-1,-1],"loss_changes":[2.2771994E2,6.539542E1,9.2586365E1,0E0,0E0,0E0,0E0],"parents":[2147483647,0,0,1,1,2,2],"right_children":[2,4,6,-1,-1,-1,-1],"split_conditions":[1.45E1,2.25E1,-1.95E0,-2.6608391E-3,-6.3828956E-3,-2.0357575E-3,1.65617E-3],"split_indices":[51,80,77,0,0,0,0],"split_type":[0,0,0,0,0,0,0],"sum_hessian":[6.1216504E3,3.009518E3,3.1121323E3,2.423046E3,5.864721E2,1.00011957E3,2.1120127E3],"tree_param":{"num_deleted":"0","num_feature":"104","num_nodes":"7","size_leaf_vector":"0"}},{"base_weights":[1.4272082E-1,3.3880442E-1,-4.6945367E-2,2.660839E-1,6.3828945E-1,2.0357578E-1,-1.6561699E-1],"categories":[],"categories_nodes":[],"categories_segments":[],"categories_sizes":[],"default_left":[1,1,1,0,0,0,0],"id":19,"left_children":[1,3,5,-1,-1,-1,-1],"loss_changes":[2.2771991E2,6.5395355E1,9.258636E1,0E0,0E0,0E0,0E0],"parents":[2147483647,0,0,1,1,2,2],"right_children":[2,4,6,-1,-1,-1,-1],"split_conditions":[1.45E1,2.25E1,-1.95E0,2.660839E-3,6.3828942E-3,2.0357578E-3,-1.6561699E-3],"split_indices":[51,80,77,0,0,0,0],"split_type":[0,0,0,0,0,0,0],"sum_hessian":[6.12165E3,3.0095178E3,3.112132E3,2.4230457E3,5.864721E2,1.0001195E3,2.1120127E3],"tree_param":{"num_deleted":"0","num_feature":"104","num_nodes":"7","size_leaf_vector":"0"}},{"base_weights":[-1.4131455E-1,-2.669963E-1,1.5030605E-1,-1.1678677E-1,-4.3453678E-1,-3.1210461E-3,3.2007396E-1],"categories":[],"categories_nodes":[],"categories_segments":[],"categories_sizes":[],"default_left":[1,1,1,0,0,0,0],"id":20,"left_children":[1,3,5,-1,-1,-1,-1],"loss_changes":[2.2441339E2,1.0762103E2,4.804182E1,0E0,0E0,0E0,0E0],"parents":[2147483647,0,0,1,1,2,2],"right_children":[2,4,6,-1,-1,-1,-1],"split_conditions":[1.95E1,1.35E1,5.135E-1,-1.1678677E-3,-4.3453677E-3,-3.121046E-5,3.2007396E-3],"split_indices":[28,80,55,0,0,0,0],"split_type":[0,0,0,0,0,0,0],"sum_hessian":[6.1208223E3,4.277432E3,1.84339E3,2.2562627E3,2.0211698E3,9.688117E2,8.745783E2],"tree_param":{"num_deleted":"0","num_feature":"104","num_nodes":"7","size_leaf_vector":"0"}},{"base_weights":[1.4131455E-1,2.669963E-1,-1.5030608E-1,1.1678678E-1,4.345368E-1,3.1210314E-3,-3.2007396E-1],"categories":[],"categories_nodes":[],"categories_segments":[],"categories_sizes":[],"default_left":[1,1,1,0,0,0,0],"id":21,"left_children":[1,3,5,-1,-1,-1,-1],"loss_changes":[2.2441342E2,1.0762106E2,4.8041824E1,0E0,0E0,0E0,0E0],"parents":[2147483647,0,0,1,1,2,2],"right_children":[2,4,6,-1,-1,-1,-1],"split_conditions":[1.95E1,1.35E1,5.135E-1,1.1678678E-3,4.345368E-3,3.1210315E-5,-3.2007396E-3],"split_indices":[28,80,55,0,0,0,0],"split_type":[0,0,0,0,0,0,0],"sum_hessian":[6.1208228E3,4.2774326E3,1.8433901E3,2.2562627E3,2.0211698E3,9.688117E2,8.7457837E2],"tree_param":{"num_deleted":"0","num_feature":"104","num_nodes":"7","size_leaf_vector":"0"}},{"base_weights":[-1.3992281E-1,-3.3297035E-1,4.674794E-2,-2.6131013E-1,-6.282954E-1,-1.1142529E-1,2.2938828E-1],"categories":[],"categories_nodes":[],"categories_segments":[],"categories_sizes":[],"default_left":[1,1,1,0,0,0,0],"id":22,"left_children":[1,3,5,-1,-1,-1,-1],"loss_changes":[2.2059076E2,6.351935E1,8.994858E1,0E0,0E0,0E0,0E0],"parents":[2147483647,0,0,1,1,2,2],"right_children":[2,4,6,-1,-1,-1,-1],"split_conditions":[1.45E1,2.25E1,5.5E-1,-2.6131012E-3,-6.282954E-3,-1.1142528E-3,2.2938827E-3],"split_indices":[51,80,77,0,0,0,0],"split_type":[0,0,0,0,0,0,0],"sum_hessian":[6.119911E3,3.008183E3,3.111728E3,2.4223E3,5.8588306E2,1.6677689E3,1.4439591E3],"tree_param":{"num_deleted":"0","num_feature":"104","num_nodes":"7","size_leaf_vector":"0"}},{"base_weights":[1.3992283E-1,3.3297035E-1,-4.674794E-2,2.6131013E-1,6.282954E-1,1.11425295E-1,-2.293883E-1],"categories":[],"categories_nodes":[],"categories_segments":[],"categories_sizes":[],"default_left":[1,1,1,0,0,0,0],"id":23,"left_children":[1,3,5,-1,-1,-1,-1],"loss_changes":[2.2059076E2,6.351935E1,8.994859E1,0E0,0E0,0E0,0E0],"parents":[2147483647,0,0,1,1,2,2],"right_children":[2,4,6,-1,-1,-1,-1],"split_conditions":[1.45E1,2.25E1,5.5E-1,2.6131012E-3,6.282954E-3,1.114253E-3,-2.293883E-3],"split_indices":[51,80,77,0,0,0,0],"split_type":[0,0,0,0,0,0,0],"sum_hessian":[6.119911E3,3.008183E3,3.111728E3,2.4223E3,5.8588306E2,1.6677689E3,1.4439591E3],"tree_param":{"num_deleted":"0","num_feature":"104","num_nodes":"7","size_leaf_vector":"0"}},{"base_weights":[-1.3854662E-1,-2.6229125E-1,1.4850622E-1,-1.1434358E-1,-4.2740098E-1,-1.624643E-1,2.3010294E-1],"categories":[],"categories_nodes":[],"categories_segments":[],"categories_sizes":[],"default_left":[1,1,1,0,0,0,0],"id":24,"left_children":[1,3,5,-1,-1,-1,-1],"loss_changes":[2.174276E2,1.0442322E2,4.683133E1,0E0,0E0,0E0,0E0],"parents":[2147483647,0,0,1,1,2,2],"right_children":[2,4,6,-1,-1,-1,-1],"split_conditions":[1.95E1,1.35E1,3.585E-1,-1.1434358E-3,-4.2740097E-3,-1.624643E-3,2.3010294E-3],"split_indices":[28,80,55,0,0,0,0],"split_type":[0,0,0,0,0,0,0],"sum_hessian":[6.1189614E3,4.2758057E3,1.843156E3,2.255997E3,2.0198083E3,3.8290158E2,1.4602544E3],"tree_param":{"num_deleted":"0","num_feature":"104","num_nodes":"7","size_leaf_vector":"0"}},{"base_weights":[1.3854663E-1,2.6229125E-1,-1.4850622E-1,1.1434362E-1,4.2740098E-1,1.624643E-1,-2.3010296E-1],"categories":[],"categories_nodes":[],"categories_segments":[],"categories_sizes":[],"default_left":[1,1,1,0,0,0,0],"id":25,"left_children":[1,3,5,-1,-1,-1,-1],"loss_changes":[2.1742764E2,1.0442319E2,4.6831326E1,0E0,0E0,0E0,0E0],"parents":[2147483647,0,0,1,1,2,2],"right_children":[2,4,6,-1,-1,-1,-1],"split_conditions":[1.95E1,1.35E1,3.585E-1,1.1434362E-3,4.2740097E-3,1.624643E-3,-2.3010294E-3],"split_indices":[28,80,55,0,0,0,0],"split_type":[0,0,0,0,0,0,0],"sum_hessian":[6.1189614E3,4.275805E3,1.843156E3,2.255997E3,2.0198083E3,3.8290158E2,1.4602544E3],"tree_param":{"num_deleted":"0","num_feature":"104","num_nodes":"7","size_leaf_vector":"0"}},{"base_weights":[-1.3718563E-1,-3.2726455E-1,4.654444E-2,-2.5663975E-1,-6.185733E-1,-1.9698875E-1,1.6188975E-1],"categories":[],"categories_nodes":[],"categories_segments":[],"categories_sizes":[],"default_left":[1,1,1,0,0,0,0],"id":26,"left_children":[1,3,5,-1,-1,-1,-1],"loss_changes":[2.1370749E2,6.1718872E1,8.7457565E1,0E0,0E0,0E0,0E0],"parents":[2147483647,0,0,1,1,2,2],"right_children":[2,4,6,-1,-1,-1,-1],"split_conditions":[1.45E1,2.25E1,-1.95E0,-2.5663974E-3,-6.185733E-3,-1.9698874E-3,1.6188974E-3],"split_indices":[51,80,77,0,0,0,0],"split_type":[0,0,0,0,0,0,0],"sum_hessian":[6.117917E3,3.0066204E3,3.1112964E3,2.4214468E3,5.851737E2,9.997584E2,2.111538E3],"tree_param":{"num_deleted":"0","num_feature":"104","num_nodes":"7","size_leaf_vector":"0"}},{"base_weights":[1.3718562E-1,3.2726455E-1,-4.6544448E-2,2.5663975E-1,6.1857325E-1,1.9698878E-1,-1.6188978E-1],"categories":[],"categories_nodes":[],"categories_segments":[],"categories_sizes":[],"default_left":[1,1,1,0,0,0,0],"id":27,"left_children":[1,3,5,-1,-1,-1,-1],"loss_changes":[2.1370749E2,6.171884E1,8.7457596E1,0E0,0E0,0E0,0E0],"parents":[2147483647,0,0,1,1,2,2],"right_children":[2,4,6,-1,-1,-1,-1],"split_conditions":[1.45E1,2.25E1,-1.95E0,2.5663974E-3,6.1857323E-3,1.9698876E-3,-1.6188978E-3],"split_indices":[51,80,77,0,0,0,0],"split_type":[0,0,0,0,0,0,0],"sum_hessian":[6.117917E3,3.0066204E3,3.1112964E3,2.4214468E3,5.8517365E2,9.997584E2,2.111538E3],"tree_param":{"num_deleted":"0","num_feature":"104","num_nodes":"7","size_leaf_vector":"0"}},{"base_weights":[-1.358405E-1,1.034646E-1,-2.7969575E-1,-4.1051596E-2,2.6739553E-1,-5.9857734E-2,-3.9295036E-1],"categories":[],"categories_nodes":[],"categories_segments":[],"categories_sizes":[],"default_left":[1,1,1,0,0,0,0],"id":28,"left_children":[1,3,5,-1,-1,-1,-1],"loss_changes":[2.1063583E2,5.4443134E1,9.511484E1,0E0,0E0,0E0,0E0],"parents":[2147483647,0,0,1,1,2,2],"right_children":[2,4,6,-1,-1,-1,-1],"split_conditions":[4.585E-1,5.1750004E-1,9.5E0,-4.1051596E-4,2.6739552E-3,-5.985773E-4,-3.9295033E-3],"split_indices":[3,55,103,0,0,0,0],"split_type":[0,0,0,0,0,0,0],"sum_hessian":[6.116795E3,2.2966191E3,3.8201755E3,1.2209866E3,1.0756326E3,1.299415E3,2.5207605E3],"tree_param":{"num_deleted":"0","num_feature":"104","num_nodes":"7","size_leaf_vector":"0"}},{"base_weights":[1.3584052E-1,-1.03464566E-1,2.7969575E-1,4.1051652E-2,-2.6739553E-1,5.9857752E-2,3.9295036E-1],"categories":[],"categories_nodes":[],"categories_segments":[],"categories_sizes":[],"default_left":[1,1,1,0,0,0,0],"id":29,"left_children":[1,3,5,-1,-1,-1,-1],"loss_changes":[2.1063582E2,5.4443146E1,9.511481E1,0E0,0E0,0E0,0E0],"parents":[2147483647,0,0,1,1,2,2],"right_children":[2,4,6,-1,-1,-1,-1],"split_conditions":[4.585E-1,5.1750004E-1,9.5E0,4.105165E-4,-2.6739552E-3,5.985775E-4,3.9295033E-3],"split_indices":[3,55,103,0,0,0,0],"split_type":[0,0,0,0,0,0,0],"sum_hessian":[6.116795E3,2.2966191E3,3.8201755E3,1.2209866E3,1.0756326E3,1.2994152E3,2.5207605E3],"tree_param":{"num_deleted":"0","num_feature":"104","num_nodes":"7","size_leaf_vector":"0"}},{"base_weights":[-1.3450886E-1,-2.5536373E-1,1.4571443E-1,-1.10530436E-1,-4.171536E-1,-1.5847391E-1,2.255399E-1],"categories":[],"categories_nodes":[],"categories_segments":[],"categories_sizes":[],"default_left":[1,1,1,0,0,0,0],"id":30,"left_children":[1,3,5,-1,-1,-1,-1],"loss_changes":[2.0718434E2,1.0010196E2,4.480499E1,0E0,0E0,0E0,0E0],"parents":[2147483647,0,0,1,1,2,2],"right_children":[2,4,6,-1,-1,-1,-1],"split_conditions":[1.95E1,1.35E1,3.585E-1,-1.1053043E-3,-4.171536E-3,-1.5847391E-3,2.2553988E-3],"split_indices":[28,80,55,0,0,0,0],"split_type":[0,0,0,0,0,0,0],"sum_hessian":[6.1156074E3,4.2728843E3,1.8427233E3,2.2554778E3,2.0174065E3,3.8284457E2,1.4598787E3],"tree_param":{"num_deleted":"0","num_feature":"104","num_nodes":"7","size_leaf_vector":"0"}},{"base_weights":[1.3450885E-1,2.5536367E-1,-1.4571442E-1,1.10530384E-1,4.1715357E-1,1.5847391E-1,-2.2553988E-1],"categories":[],"categories_nodes":[],"categories_segments":[],"categories_sizes":[],"default_left":[1,1,1,0,0,0,0],"id":31,"left_children":[1,3,5,-1,-1,-1,-1],"loss_changes":[2.0718428E2,1.0010196E2,4.4804977E1,0E0,0E0,0E0,0E0],"parents":[2147483647,0,0,1,1,2,2],"right_children":[2,4,6,-1,-1,-1,-1],"split_conditions":[1.95E1,1.35E1,3.585E-1,1.1053038E-3,4.1715354E-3,1.5847391E-3,-2.2553988E-3],"split_indices":[28,80,55,0,0,0,0],"split_type":[0,0,0,0,0,0,0],"sum_hessian":[6.1156074E3,4.2728843E3,1.8427233E3,2.2554778E3,2.0174065E3,3.8284457E2,1.4598787E3],"tree_param":{"num_deleted":"0","num_feature":"104","num_nodes":"7","size_leaf_vector":"0"}},{"base_weights":[-1.3319209E-1,-3.1914008E-1,4.643278E-2,-2.4976428E-1,-6.0568416E-1,-1.0665043E-1,2.2318818E-1],"categories":[],"categories_nodes":[],"categories_segments":[],"categories_sizes":[],"default_left":[1,1,1,0,0,0,0],"id":32,"left_children":[1,3,5,-1,-1,-1,-1],"loss_changes":[2.042731E2,5.9584167E1,8.421397E1,0E0,0E0,0E0,0E0],"parents":[2147483647,0,0,1,1,2,2],"right_children":[2,4,6,-1,-1,-1,-1],"split_conditions":[1.45E1,2.25E1,5.5E-1,-2.4976428E-3,-6.0568415E-3,-1.0665043E-3,2.2318817E-3],"split_indices":[51,80,77,0,0,0,0],"split_type":[0,0,0,0,0,0,0],"sum_hessian":[6.114356E3,3.0039182E3,3.1104377E3,2.4199023E3,5.8401587E2,1.667048E3,1.4433898E3],"tree_param":{"num_deleted":"0","num_feature":"104","num_nodes":"7","size_leaf_vector":"0"}},{"base_weights":[1.3319209E-1,3.1914002E-1,-4.6432775E-2,2.4976423E-1,6.0568416E-1,1.06650434E-1,-2.2318818E-1],"categories":[],"categories_nodes":[],"categories_segments":[],"categories_sizes":[],"default_left":[1,1,1,0,0,0,0],"id":33,"left_children":[1,3,5,-1,-1,-1,-1],"loss_changes":[2.0427304E2,5.9584198E1,8.4213974E1,0E0,0E0,0E0,0E0],"parents":[2147483647,0,0,1,1,2,2],"right_children":[2,4,6,-1,-1,-1,-1],"split_conditions":[1.45E1,2.25E1,5.5E-1,2.4976423E-3,6.0568415E-3,1.0665043E-3,-2.2318817E-3],"split_indices":[51,80,77,0,0,0,0],"split_type":[0,0,0,0,0,0,0],"sum_hessian":[6.114356E3,3.0039182E3,3.1104377E3,2.4199023E3,5.8401587E2,1.6670479E3,1.4433898E3],"tree_param":{"num_deleted":"0","num_feature":"104","num_nodes":"7","size_leaf_vector":"0"}},{"base_weights":[-1.3188939E-1,-2.5090104E-1,1.4396285E-1,-1.0822093E-1,-4.104077E-1,-1.5574072E-1,2.2261609E-1],"categories":[],"categories_nodes":[],"categories_segments":[],"categories_sizes":[],"default_left":[1,1,1,0,0,0,0],"id":34,"left_children":[1,3,5,-1,-1,-1,-1],"loss_changes":[2.0075888E2,9.7171875E1,4.34888E1,0E0,0E0,0E0,0E0],"parents":[2147483647,0,0,1,1,2,2],"right_children":[2,4,6,-1,-1,-1,-1],"split_conditions":[1.95E1,1.35E1,3.585E-1,-1.0822093E-3,-4.104077E-3,-1.5574072E-3,2.2261608E-3],"split_indices":[28,80,55,0,0,0,0],"split_type":[0,0,0,0,0,0,0],"sum_hessian":[6.113073E3,4.270661E3,1.8424121E3,2.2551174E3,2.0155438E3,3.82799E2,1.459613E3],"tree_param":{"num_deleted":"0","num_feature":"104","num_nodes":"7","size_leaf_vector":"0"}},{"base_weights":[1.318894E-1,2.5090107E-1,-1.4396285E-1,1.0822098E-1,4.1040772E-1,1.5574063E-1,-2.2261608E-1],"categories":[],"categories_nodes":[],"categories_segments":[],"categories_sizes":[],"default_left":[1,1,1,0,0,0,0],"id":35,"left_children":[1,3,5,-1,-1,-1,-1],"loss_changes":[2.0075891E2,9.7171875E1,4.3488785E1,0E0,0E0,0E0,0E0],"parents":[2147483647,0,0,1,1,2,2],"right_children":[2,4,6,-1,-1,-1,-1],"split_conditions":[1.95E1,1.35E1,3.585E-1,1.0822098E-3,4.1040774E-3,1.5574063E-3,-2.2261606E-3],"split_indices":[28,80,55,0,0,0,0],"split_type":[0,0,0,0,0,0,0],"sum_hessian":[6.113073E3,4.270661E3,1.8424122E3,2.2551174E3,2.0155438E3,3.8279904E2,1.4596132E3],"tree_param":{"num_deleted":"0","num_feature":"104","num_nodes":"7","size_leaf_vector":"0"}},{"base_weights":[-1.3060111E-1,-3.1373057E-1,4.621289E-2,-2.4532783E-1,-5.9659624E-1,-1.046211E-1,2.2037195E-1],"categories":[],"categories_nodes":[],"categories_segments":[],"categories_sizes":[],"default_left":[1,1,1,0,0,0,0],"id":36,"left_children":[1,3,5,-1,-1,-1,-1],"loss_changes":[1.9794257E2,5.795511E1,8.1742134E1,0E0,0E0,0E0,0E0],"parents":[2147483647,0,0,1,1,2,2],"right_children":[2,4,6,-1,-1,-1,-1],"split_conditions":[1.45E1,2.25E1,5.5E-1,-2.4532783E-3,-5.965962E-3,-1.046211E-3,2.2037195E-3],"split_indices":[51,80,77,0,0,0,0],"split_type":[0,0,0,0,0,0,0],"sum_hessian":[6.1116924E3,3.0018489E3,3.1098438E3,2.4188005E3,5.8304834E2,1.6667341E3,1.4431096E3],"tree_param":{"num_deleted":"0","num_feature":"104","num_nodes":"7","size_leaf_vector":"0"}},{"base_weights":[1.3060111E-1,3.137306E-1,-4.62129E-2,2.4532786E-1,5.9659624E-1,1.0462111E-1,-2.2037199E-1],"categories":[],"categories_nodes":[],"categories_segments":[],"categories_sizes":[],"default_left":[1,1,1,0,0,0,0],"id":37,"left_children":[1,3,5,-1,-1,-1,-1],"loss_changes":[1.979426E2,5.795511E1,8.174217E1,0E0,0E0,0E0,0E0],"parents":[2147483647,0,0,1,1,2,2],"right_children":[2,4,6,-1,-1,-1,-1],"split_conditions":[1.45E1,2.25E1,5.5E-1,2.4532785E-3,5.965962E-3,1.0462111E-3,-2.20372E-3],"split_indices":[51,80,77,0,0,0,0],"split_type":[0,0,0,0,0,0,0],"sum_hessian":[6.1116924E3,3.0018489E3,3.1098438E3,2.4188005E3,5.8304834E2,1.666734E3,1.4431096E3],"tree_param":{"num_deleted":"0","num_feature":"104","num_nodes":"7","size_leaf_vector":"0"}},{"base_weights":[-1.2932648E-1,-2.4653058E-1,1.4223152E-1,-1.0596084E-1,-4.0381038E-1,-1.5305832E-1,2.197316E-1],"categories":[],"categories_nodes":[],"categories_segments":[],"categories_sizes":[],"default_left":[1,1,1,0,0,0,0],"id":38,"left_children":[1,3,5,-1,-1,-1,-1],"loss_changes":[1.9454323E2,9.434442E1,4.221215E1,0E0,0E0,0E0,0E0],"parents":[2147483647,0,0,1,1,2,2],"right_children":[2,4,6,-1,-1,-1,-1],"split_conditions":[1.95E1,1.35E1,3.585E-1,-1.0596084E-3,-4.038104E-3,-1.5305831E-3,2.197316E-3],"split_indices":[28,80,55,0,0,0,0],"split_type":[0,0,0,0,0,0,0],"sum_hessian":[6.1102837E3,4.2682183E3,1.8420656E3,2.2547217E3,2.0134966E3,3.8274814E2,1.4593174E3],"tree_param":{"num_deleted":"0","num_feature":"104","num_nodes":"7","size_leaf_vector":"0"}},{"base_weights":[1.2932649E-1,2.4653058E-1,-1.422315E-1,1.0596085E-1,4.0381038E-1,1.5305834E-1,-2.1973157E-1],"categories":[],"categories_nodes":[],"categories_segments":[],"categories_sizes":[],"default_left":[1,1,1,0,0,0,0],"id":39,"left_children":[1,3,5,-1,-1,-1,-1],"loss_changes":[1.9454323E2,9.434439E1,4.221216E1,0E0,0E0,0E0,0E0],"parents":[2147483647,0,0,1,1,2,2],"right_children":[2,4,6,-1,-1,-1,-1],"split_conditions":[1.95E1,1.35E1,3.585E-1,1.0596085E-3,4.038104E-3,1.5305834E-3,-2.1973157E-3],"split_indices":[28,80,55,0,0,0,0],"split_type":[0,0,0,0,0,0,0],"sum_hessian":[6.1102837E3,4.2682183E3,1.8420656E3,2.2547217E3,2.0134966E3,3.8274817E2,1.4593174E3],"tree_param":{"num_deleted":"0","num_feature":"104","num_nodes":"7","size_leaf_vector":"0"}},{"base_weights":[-1.280658E-1,-3.0843383E-1,4.5987677E-2,-1.1931754E-1,-4.0837952E-1,-1.8658583E-1,1.561092E-1],"categories":[],"categories_nodes":[],"categories_segments":[],"categories_sizes":[],"default_left":[1,1,1,0,0,0,0],"id":40,"left_children":[1,3,5,-1,-1,-1,-1],"loss_changes":[1.9182271E2,5.6666565E1,7.968524E1,0E0,0E0,0E0,0E0],"parents":[2147483647,0,0,1,1,2,2],"right_children":[2,4,6,-1,-1,-1,-1],"split_conditions":[1.45E1,9.5E0,-1.95E0,-1.1931753E-3,-4.083795E-3,-1.8658582E-3,1.561092E-3],"split_indices":[51,103,77,0,0,0,0],"split_type":[0,0,0,0,0,0,0],"sum_hessian":[6.108781E3,2.9995925E3,3.1091885E3,1.0378937E3,1.9616989E3,9.9888257E2,2.110306E3],"tree_param":{"num_deleted":"0","num_feature":"104","num_nodes":"7","size_leaf_vector":"0"}},{"base_weights":[1.2806582E-1,3.0843386E-1,-4.598765E-2,1.1931754E-1,4.0837958E-1,1.8658587E-1,-1.5610918E-1],"categories":[],"categories_nodes":[],"categories_segments":[],"categories_sizes":[],"default_left":[1,1,1,0,0,0,0],"id":41,"left_children":[1,3,5,-1,-1,-1,-1],"loss_changes":[1.9182272E2,5.6666595E1,7.968525E1,0E0,0E0,0E0,0E0],"parents":[2147483647,0,0,1,1,2,2],"right_children":[2,4,6,-1,-1,-1,-1],"split_conditions":[1.45E1,9.5E0,-1.95E0,1.1931753E-3,4.083796E-3,1.8658587E-3,-1.5610919E-3],"split_indices":[51,103,77,0,0,0,0],"split_type":[0,0,0,0,0,0,0],"sum_hessian":[6.108781E3,2.9995925E3,3.1091885E3,1.0378937E3,1.9616989E3,9.9888257E2,2.110306E3],"tree_param":{"num_deleted":"0","num_feature":"104","num_nodes":"7","size_leaf_vector":"0"}},{"base_weights":[-1.2681909E-1,9.9723E-2,-2.6319948E-1,-3.779588E-2,2.5578645E-1,-5.2434977E-2,-3.720518E-1],"categories":[],"categories_nodes":[],"categories_segments":[],"categories_sizes":[],"default_left":[1,1,1,0,0,0,0],"id":42,"left_children":[1,3,5,-1,-1,-1,-1],"loss_changes":[1.887449E2,4.9287632E1,8.746179E1,0E0,0E0,0E0,0E0],"parents":[2147483647,0,0,1,1,2,2],"right_children":[2,4,6,-1,-1,-1,-1],"split_conditions":[4.585E-1,5.1750004E-1,9.5E0,-3.779588E-4,2.5578644E-3,-5.2434974E-4,-3.720518E-3],"split_indices":[3,55,103,0,0,0,0],"split_type":[0,0,0,0,0,0,0],"sum_hessian":[6.10721E3,2.2950916E3,3.8121184E3,1.2204352E3,1.0746565E3,1.2988026E3,2.513316E3],"tree_param":{"num_deleted":"0","num_feature":"104","num_nodes":"7","size_leaf_vector":"0"}},{"base_weights":[1.2681907E-1,-9.972302E-2,2.6319945E-1,3.779588E-2,-2.557865E-1,5.243491E-2,3.7205178E-1],"categories":[],"categories_nodes":[],"categories_segments":[],"categories_sizes":[],"default_left":[1,1,1,0,0,0,0],"id":43,"left_children":[1,3,5,-1,-1,-1,-1],"loss_changes":[1.8874487E2,4.9287655E1,8.746188E1,0E0,0E0,0E0,0E0],"parents":[2147483647,0,0,1,1,2,2],"right_children":[2,4,6,-1,-1,-1,-1],"split_conditions":[4.585E-1,5.1750004E-1,9.5E0,3.779588E-4,-2.557865E-3,5.243491E-4,3.7205177E-3],"split_indices":[3,55,103,0,0,0,0],"split_type":[0,0,0,0,0,0,0],"sum_hessian":[6.1072104E3,2.2950918E3,3.8121187E3,1.2204352E3,1.0746565E3,1.2988027E3,2.513316E3],"tree_param":{"num_deleted":"0","num_feature":"104","num_nodes":"7","size_leaf_vector":"0"}},{"base_weights":[-1.255846E-1,1.393226E-1,-2.4048045E-1,1.5168315E-3,2.9210737E-1,-9.295087E-2,-3.8242388E-1],"categories":[],"categories_nodes":[],"categories_segments":[],"categories_sizes":[],"default_left":[1,1,1,0,0,0,0],"id":44,"left_children":[1,3,5,-1,-1,-1,-1],"loss_changes":[1.8589865E2,3.890783E1,8.916489E1,0E0,0E0,0E0,0E0],"parents":[2147483647,0,0,1,1,2,2],"right_children":[2,4,6,-1,-1,-1,-1],"split_conditions":[-2.15E0,3.5000002E-1,1.35E1,1.5168314E-5,2.9210737E-3,-9.295087E-4,-3.8242387E-3],"split_indices":[25,77,81,0,0,0,0],"split_type":[0,0,0,0,0,0,0],"sum_hessian":[6.105605E3,1.8469684E3,4.258636E3,9.7161786E2,8.753505E2,2.0890388E3,2.1695977E3],"tree_param":{"num_deleted":"0","num_feature":"104","num_nodes":"7","size_leaf_vector":"0"}},{"base_weights":[1.255846E-1,-1.3932261E-1,2.4048045E-1,-1.5168466E-3,-2.921074E-1,9.295087E-2,3.8242388E-1],"categories":[],"categories_nodes":[],"categories_segments":[],"categories_sizes":[],"default_left":[1,1,1,0,0,0,0],"id":45,"left_children":[1,3,5,-1,-1,-1,-1],"loss_changes":[1.8589865E2,3.890784E1,8.9164856E1,0E0,0E0,0E0,0E0],"parents":[2147483647,0,0,1,1,2,2],"right_children":[2,4,6,-1,-1,-1,-1],"split_conditions":[-2.15E0,3.5000002E-1,1.35E1,-1.5168465E-5,-2.921074E-3,9.295087E-4,3.8242387E-3],"split_indices":[25,77,81,0,0,0,0],"split_type":[0,0,0,0,0,0,0],"sum_hessian":[6.105605E3,1.8469685E3,4.258636E3,9.716179E2,8.753505E2,2.0890388E3,2.1695977E3],"tree_param":{"num_deleted":"0","num_feature":"104","num_nodes":"7","size_leaf_vector":"0"}},{"base_weights":[-1.2436161E-1,-3.0083942E-1,4.57894E-2,-2.3409495E-1,-5.776173E-1,-1.8205452E-1,1.5365614E-1],"categories":[],"categories_nodes":[],"categories_segments":[],"categories_sizes":[],"default_left":[1,1,1,0,0,0,0],"id":46,"left_children":[1,3,5,-1,-1,-1,-1],"loss_changes":[1.8333466E2,5.522824E1,7.6439514E1,0E0,0E0,0E0,0E0],"parents":[2147483647,0,0,1,1,2,2],"right_children":[2,4,6,-1,-1,-1,-1],"split_conditions":[1.45E1,2.25E1,-1.95E0,-2.3409494E-3,-5.776173E-3,-1.8205452E-3,1.5365614E-3],"split_indices":[51,80,77,0,0,0,0],"split_type":[0,0,0,0,0,0,0],"sum_hessian":[6.104023E3,2.995928E3,3.108095E3,2.4153228E3,5.8060504E2,9.984368E2,2.1096582E3],"tree_param":{"num_deleted":"0","num_feature":"104","num_nodes":"7","size_leaf_vector":"0"}},{"base_weights":[1.243616E-1,3.0083936E-1,-4.578938E-2,2.340949E-1,5.7761717E-1,1.8205456E-1,-1.5365614E-1],"categories":[],"categories_nodes":[],"categories_segments":[],"categories_sizes":[],"default_left":[1,1,1,0,0,0,0],"id":47,"left_children":[1,3,5,-1,-1,-1,-1],"loss_changes":[1.833346E2,5.522818E1,7.643953E1,0E0,0E0,0E0,0E0],"parents":[2147483647,0,0,1,1,2,2],"right_children":[2,4,6,-1,-1,-1,-1],"split_conditions":[1.45E1,2.25E1,-1.95E0,2.340949E-3,5.7761716E-3,1.8205456E-3,-1.5365614E-3],"split_indices":[51,80,77,0,0,0,0],"split_type":[0,0,0,0,0,0,0],"sum_hessian":[6.104023E3,2.995928E3,3.108095E3,2.415323E3,5.8060504E2,9.984369E2,2.1096582E3],"tree_param":{"num_deleted":"0","num_feature":"104","num_nodes":"7","size_leaf_vector":"0"}},{"base_weights":[-1.2315423E-1,-2.3622839E-1,1.3855578E-1,-1.00552104E-1,-3.883819E-1,-1.4688556E-1,2.1348709E-1],"categories":[],"categories_nodes":[],"categories_segments":[],"categories_sizes":[],"default_left":[1,1,1,0,0,0,0],"id":48,"left_children":[1,3,5,-1,-1,-1,-1],"loss_changes":[1.8064603E2,8.795E1,3.9429615E1,0E0,0E0,0E0,0E0],"parents":[2147483647,0,0,1,1,2,2],"right_children":[2,4,6,-1,-1,-1,-1],"split_conditions":[1.95E1,1.35E1,3.585E-1,-1.005521E-3,-3.8838189E-3,-1.4688555E-3,2.1348707E-3],"split_indices":[28,80,55,0,0,0,0],"split_type":[0,0,0,0,0,0,0],"sum_hessian":[6.102319E3,4.261288E3,1.8410305E3,2.253494E3,2.0077944E3,3.8260083E2,1.4584297E3],"tree_param":{"num_deleted":"0","num_feature":"104","num_nodes":"7","size_leaf_vector":"0"}},{"base_weights":[1.2315422E-1,2.3622839E-1,-1.385558E-1,1.00552075E-1,3.883819E-1,1.4688556E-1,-2.134871E-1],"categories":[],"categories_nodes":[],"categories_segments":[],"categories_sizes":[],"default_left":[1,1,1,0,0,0,0],"id":49,"left_children":[1,3,5,-1,-1,-1,-1],"loss_changes":[1.8064603E2,8.795003E1,3.942962E1,0E0,0E0,0E0,0E0],"parents":[2147483647,0,0,1,1,2,2],"right_children":[2,4,6,-1,-1,-1,-1],"split_conditions":[1.95E1,1.35E1,3.585E-1,1.0055207E-3,3.8838189E-3,1.4688555E-3,-2.134871E-3],"split_indices":[28,80,55,0,0,0,0],"split_type":[0,0,0,0,0,0,0],"sum_hessian":[6.102319E3,4.261288E3,1.8410305E3,2.2534937E3,2.0077944E3,3.8260086E2,1.4584297E3],"tree_param":{"num_deleted":"0","num_feature":"104","num_nodes":"7","size_leaf_vector":"0"}},{"base_weights":[-1.219591E-1,-2.9580384E-1,4.5547847E-2,-2.2996166E-1,-5.692756E-1,-9.8419674E-2,2.117716E-1],"categories":[],"categories_nodes":[],"categories_segments":[],"categories_sizes":[],"default_left":[1,1,1,0,0,0,0],"id":50,"left_children":[1,3,5,-1,-1,-1,-1],"loss_changes":[1.7769186E2,5.3783783E1,7.440466E1,0E0,0E0,0E0,0E0],"parents":[2147483647,0,0,1,1,2,2],"right_children":[2,4,6,-1,-1,-1,-1],"split_conditions":[1.45E1,2.25E1,5.5E-1,-2.2996166E-3,-5.6927563E-3,-9.841967E-4,2.117716E-3],"split_indices":[51,80,77,0,0,0,0],"split_type":[0,0,0,0,0,0,0],"sum_hessian":[6.1005513E3,2.9932659E3,3.1072854E3,2.4139211E3,5.7934467E2,1.6653352E3,1.4419502E3],"tree_param":{"num_deleted":"0","num_feature":"104","num_nodes":"7","size_leaf_vector":"0"}},{"base_weights":[1.2195911E-1,2.9580387E-1,-4.5547843E-2,2.2996168E-1,5.692756E-1,9.8419696E-2,-2.1177162E-1],"categories":[],"categories_nodes":[],"categories_segments":[],"categories_sizes":[],"default_left":[1,1,1,0,0,0,0],"id":51,"left_children":[1,3,5,-1,-1,-1,-1],"loss_changes":[1.7769191E2,5.3783783E1,7.4404686E1,0E0,0E0,0E0,0E0],"parents":[2147483647,0,0,1,1,2,2],"right_children":[2,4,6,-1,-1,-1,-1],"split_conditions":[1.45E1,2.25E1,5.5E-1,2.2996168E-3,5.6927563E-3,9.841969E-4,-2.1177162E-3],"split_indices":[51,80,77,0,0,0,0],"split_type":[0,0,0,0,0,0,0],"sum_hessian":[6.1005513E3,2.9932659E3,3.1072854E3,2.4139211E3,5.793447E2,1.6653352E3,1.4419502E3],"tree_param":{"num_deleted":"0","num_feature":"104","num_nodes":"7","size_leaf_vector":"0"}},{"base_weights":[-1.2077632E-1,-2.1106546E-1,1.9840315E-1,-6.4146526E-2,-3.5214666E-1,7.306643E-2,3.403554E-1],"categories":[],"categories_nodes":[],"categories_segments":[],"categories_sizes":[],"default_left":[1,1,1,0,0,0,0],"id":52,"left_children":[1,3,5,-1,-1,-1,-1],"loss_changes":[1.758278E2,9.854158E1,2.391465E1,0E0,0E0,0E0,0E0],"parents":[2147483647,0,0,1,1,2,2],"right_children":[2,4,6,-1,-1,-1,-1],"split_conditions":[2.35E1,1.35E1,3.5000002E-1,-6.4146525E-4,-3.5214664E-3,7.306643E-4,3.403554E-3],"split_indices":[51,81,77,0,0,0,0],"split_type":[0,0,0,0,0,0,0],"sum_hessian":[6.0987725E3,4.7542373E3,1.3445348E3,2.3296472E3,2.42459E3,7.148621E2,6.2967267E2],"tree_param":{"num_deleted":"0","num_feature":"104","num_nodes":"7","size_leaf_vector":"0"}},{"base_weights":[1.20776325E-1,2.1106547E-1,-1.9840315E-1,6.4146526E-2,3.521467E-1,-7.306645E-2,-3.403554E-1],"categories":[],"categories_nodes":[],"categories_segments":[],"categories_sizes":[],"default_left":[1,1,1,0,0,0,0],"id":53,"left_children":[1,3,5,-1,-1,-1,-1],"loss_changes":[1.7582782E2,9.854158E1,2.391465E1,0E0,0E0,0E0,0E0],"parents":[2147483647,0,0,1,1,2,2],"right_children":[2,4,6,-1,-1,-1,-1],"split_conditions":[2.35E1,1.35E1,3.5000002E-1,6.4146525E-4,3.5214669E-3,-7.3066447E-4,-3.403554E-3],"split_indices":[51,81,77,0,0,0,0],"split_type":[0,0,0,0,0,0,0],"sum_hessian":[6.0987725E3,4.7542373E3,1.3445348E3,2.3296475E3,2.42459E3,7.148622E2,6.2967267E2],"tree_param":{"num_deleted":"0","num_feature":"104","num_nodes":"7","size_leaf_vector":"0"}},{"base_weights":[-1.19602114E-1,-2.3025382E-1,1.3632172E-1,-9.775187E-2,-3.7909546E-1,-1.4359435E-1,2.0981425E-1],"categories":[],"categories_nodes":[],"categories_segments":[],"categories_sizes":[],"default_left":[1,1,1,0,0,0,0],"id":54,"left_children":[1,3,5,-1,-1,-1,-1],"loss_changes":[1.7271927E2,8.3933105E1,3.790985E1,0E0,0E0,0E0,0E0],"parents":[2147483647,0,0,1,1,2,2],"right_children":[2,4,6,-1,-1,-1,-1],"split_conditions":[1.95E1,1.35E1,3.585E-1,-9.775187E-4,-3.7909546E-3,-1.4359435E-3,2.0981424E-3],"split_indices":[28,80,55,0,0,0,0],"split_type":[0,0,0,0,0,0,0],"sum_hessian":[6.0970786E3,4.256731E3,1.8403478E3,2.2528518E3,2.003879E3,3.8250824E2,1.4578396E3],"tree_param":{"num_deleted":"0","num_feature":"104","num_nodes":"7","size_leaf_vector":"0"}},{"base_weights":[1.1960211E-1,2.302538E-1,-1.3632171E-1,9.775187E-2,3.7909544E-1,1.4359434E-1,-2.0981422E-1],"categories":[],"categories_nodes":[],"categories_segments":[],"categories_sizes":[],"default_left":[1,1,1,0,0,0,0],"id":55,"left_children":[1,3,5,-1,-1,-1,-1],"loss_changes":[1.7271922E2,8.3933105E1,3.7909847E1,0E0,0E0,0E0,0E0],"parents":[2147483647,0,0,1,1,2,2],"right_children":[2,4,6,-1,-1,-1,-1],"split_conditions":[1.95E1,1.35E1,3.585E-1,9.775187E-4,3.7909544E-3,1.4359434E-3,-2.0981422E-3],"split_indices":[28,80,55,0,0,0,0],"split_type":[0,0,0,0,0,0,0],"sum_hessian":[6.0970786E3,4.256731E3,1.8403478E3,2.252852E3,2.003879E3,3.8250824E2,1.4578396E3],"tree_param":{"num_deleted":"0","num_feature":"104","num_nodes":"7","size_leaf_vector":"0"}},{"base_weights":[-1.1844434E-1,-2.889253E-1,4.566857E-2,-2.2425297E-1,-5.581593E-1,-1.7457452E-1,1.4989871E-1],"categories":[],"categories_nodes":[],"categories_segments":[],"categories_sizes":[],"default_left":[1,1,1,0,0,0,0],"id":56,"left_children":[1,3,5,-1,-1,-1,-1],"loss_changes":[1.7057254E2,5.1940292E1,7.134942E1,0E0,0E0,0E0,0E0],"parents":[2147483647,0,0,1,1,2,2],"right_children":[2,4,6,-1,-1,-1,-1],"split_conditions":[1.45E1,2.25E1,-1.95E0,-2.2425295E-3,-5.5815927E-3,-1.7457452E-3,1.4989871E-3],"split_indices":[51,80,77,0,0,0,0],"split_type":[0,0,0,0,0,0,0],"sum_hessian":[6.095167E3,2.9892083E3,3.1059585E3,2.4117244E3,5.7748395E2,9.975065E2,2.1084521E3],"tree_param":{"num_deleted":"0","num_feature":"104","num_nodes":"7","size_leaf_vector":"0"}},{"base_weights":[1.1844433E-1,2.889253E-1,-4.56686E-2,2.2425297E-1,5.581594E-1,1.745745E-1,-1.4989874E-1],"categories":[],"categories_nodes":[],"categories_segments":[],"categories_sizes":[],"default_left":[1,1,1,0,0,0,0],"id":57,"left_children":[1,3,5,-1,-1,-1,-1],"loss_changes":[1.7057256E2,5.1940323E1,7.134941E1,0E0,0E0,0E0,0E0],"parents":[2147483647,0,0,1,1,2,2],"right_children":[2,4,6,-1,-1,-1,-1],"split_conditions":[1.45E1,2.25E1,-1.95E0,2.2425295E-3,5.581594E-3,1.745745E-3,-1.4989873E-3],"split_indices":[51,80,77,0,0,0,0],"split_type":[0,0,0,0,0,0,0],"sum_hessian":[6.095167E3,2.9892083E3,3.1059585E3,2.4117244E3,5.7748395E2,9.975065E2,2.1084521E3],"tree_param":{"num_deleted":"0","num_feature":"104","num_nodes":"7","size_leaf_vector":"0"}},{"base_weights":[-1.1729905E-1,-2.0568044E-1,1.9495137E-1,-6.1986938E-2,-3.43871E-1,7.22998E-2,3.3394295E-1],"categories":[],"categories_nodes":[],"categories_segments":[],"categories_sizes":[],"default_left":[1,1,1,0,0,0,0],"id":58,"left_children":[1,3,5,-1,-1,-1,-1],"loss_changes":[1.6822331E2,9.430577E1,2.2903603E1,0E0,0E0,0E0,0E0],"parents":[2147483647,0,0,1,1,2,2],"right_children":[2,4,6,-1,-1,-1,-1],"split_conditions":[2.35E1,1.35E1,3.5000002E-1,-6.198694E-4,-3.43871E-3,7.22998E-4,3.3394294E-3],"split_indices":[51,81,77,0,0,0,0],"split_type":[0,0,0,0,0,0,0],"sum_hessian":[6.093229E3,4.749298E3,1.343931E3,2.3290012E3,2.4202969E3,7.1473834E2,6.291927E2],"tree_param":{"num_deleted":"0","num_feature":"104","num_nodes":"7","size_leaf_vector":"0"}},{"base_weights":[1.1729903E-1,2.056804E-1,-1.9495131E-1,6.1986882E-2,3.43871E-1,-7.229977E-2,-3.3394286E-1],"categories":[],"categories_nodes":[],"categories_segments":[],"categories_sizes":[],"default_left":[1,1,1,0,0,0,0],"id":59,"left_children":[1,3,5,-1,-1,-1,-1],"loss_changes":[1.6822324E2,9.430577E1,2.2903603E1,0E0,0E0,0E0,0E0],"parents":[2147483647,0,0,1,1,2,2],"right_children":[2,4,6,-1,-1,-1,-1],"split_conditions":[2.35E1,1.35E1,3.5000002E-1,6.198688E-4,3.43871E-3,-7.229977E-4,-3.3394285E-3],"split_indices":[51,81,77,0,0,0,0],"split_type":[0,0,0,0,0,0,0],"sum_hessian":[6.093229E3,4.749298E3,1.343931E3,2.3290012E3,2.4202969E3,7.1473834E2,6.291927E2],"tree_param":{"num_deleted":"0","num_feature":"104","num_nodes":"7","size_leaf_vector":"0"}},{"base_weights":[-1.16161324E-1,-2.842878E-1,4.5572795E-2,-3.4761116E-1,-1.564086E-2,-9.1765866E-2,2.0797549E-1],"categories":[],"categories_nodes":[],"categories_segments":[],"categories_sizes":[],"default_left":[1,1,1,0,0,0,0],"id":60,"left_children":[1,3,5,-1,-1,-1,-1],"loss_changes":[1.6567615E2,5.0813477E1,6.92979E1,0E0,0E0,0E0,0E0],"parents":[2147483647,0,0,1,1,2,2],"right_children":[2,4,6,-1,-1,-1,-1],"split_conditions":[1.45E1,5.05E0,6.5E-1,-3.4761115E-3,-1.564086E-4,-9.176586E-4,2.0797548E-3],"split_indices":[51,77,77,0,0,0,0],"split_type":[0,0,0,0,0,0,0],"sum_hessian":[6.091398E3,2.986305E3,3.1050928E3,2.4164292E3,5.6987573E2,1.6826042E3,1.4224886E3],"tree_param":{"num_deleted":"0","num_feature":"104","num_nodes":"7","size_leaf_vector":"0"}},{"base_weights":[1.1616131E-1,2.8428778E-1,-4.55728E-2,3.4761113E-1,1.564086E-2,9.176587E-2,-2.079755E-1],"categories":[],"categories_nodes":[],"categories_segments":[],"categories_sizes":[],"default_left":[1,1,1,0,0,0,0],"id":61,"left_children":[1,3,5,-1,-1,-1,-1],"loss_changes":[1.6567612E2,5.081346E1,6.929791E1,0E0,0E0,0E0,0E0],"parents":[2147483647,0,0,1,1,2,2],"right_children":[2,4,6,-1,-1,-1,-1],"split_conditions":[1.45E1,5.05E0,6.5E-1,3.4761112E-3,1.564086E-4,9.1765873E-4,-2.079755E-3],"split_indices":[51,77,77,0,0,0,0],"split_type":[0,0,0,0,0,0,0],"sum_hessian":[6.091398E3,2.986305E3,3.1050928E3,2.4164292E3,5.6987573E2,1.6826042E3,1.4224886E3],"tree_param":{"num_deleted":"0","num_feature":"104","num_nodes":"7","size_leaf_vector":"0"}},{"base_weights":[-1.1503724E-1,1.4543706E-1,-2.1808904E-1,-3.06561E-2,2.4570855E-1,-2.0340363E-2,-3.1899825E-1],"categories":[],"categories_nodes":[],"categories_segments":[],"categories_sizes":[],"default_left":[1,1,1,0,0,0,0],"id":62,"left_children":[1,3,5,-1,-1,-1,-1],"loss_changes":[1.6351378E2,3.050336E1,8.708244E1,0E0,0E0,0E0,0E0],"parents":[2147483647,0,0,1,1,2,2],"right_children":[2,4,6,-1,-1,-1,-1],"split_conditions":[-2.45E0,-1.45E0,9.5E0,-3.0656098E-4,2.4570855E-3,-2.0340362E-4,-3.1899824E-3],"split_indices":[25,77,103,0,0,0,0],"split_type":[0,0,0,0,0,0,0],"sum_hessian":[6.089453E3,1.7261119E3,4.3633413E3,6.2652527E2,1.0995867E3,1.4746722E3,2.888669E3],"tree_param":{"num_deleted":"0","num_feature":"104","num_nodes":"7","size_leaf_vector":"0"}},{"base_weights":[1.1503724E-1,-1.4543706E-1,2.1808904E-1,3.065606E-2,-2.4570854E-1,2.0340344E-2,3.1899822E-1],"categories":[],"categories_nodes":[],"categories_segments":[],"categories_sizes":[],"default_left":[1,1,1,0,0,0,0],"id":63,"left_children":[1,3,5,-1,-1,-1,-1],"loss_changes":[1.6351378E2,3.0503353E1,8.708244E1,0E0,0E0,0E0,0E0],"parents":[2147483647,0,0,1,1,2,2],"right_children":[2,4,6,-1,-1,-1,-1],"split_conditions":[-2.45E0,-1.45E0,9.5E0,3.065606E-4,-2.4570853E-3,2.0340344E-4,3.1899821E-3],"split_indices":[25,77,103,0,0,0,0],"split_type":[0,0,0,0,0,0,0],"sum_hessian":[6.089453E3,1.7261119E3,4.3633413E3,6.2652527E2,1.0995867E3,1.4746722E3,2.8886692E3],"tree_param":{"num_deleted":"0","num_feature":"104","num_nodes":"7","size_leaf_vector":"0"}},{"base_weights":[-1.13923594E-1,-2.208769E-1,1.3313903E-1,-1.3500255E-1,-4.3878993E-1,-1.3791813E-1,2.0432314E-1],"categories":[],"categories_nodes":[],"categories_segments":[],"categories_sizes":[],"default_left":[1,1,1,0,0,0,0],"id":64,"left_children":[1,3,5,-1,-1,-1,-1],"loss_changes":[1.6091348E2,7.9461624E1,3.5531956E1,0E0,0E0,0E0,0E0],"parents":[2147483647,0,0,1,1,2,2],"right_children":[2,4,6,-1,-1,-1,-1],"split_conditions":[1.95E1,1.95E1,3.585E-1,-1.3500255E-3,-4.3878993E-3,-1.3791813E-3,2.0432314E-3],"split_indices":[28,80,55,0,0,0,0],"split_type":[0,0,0,0,0,0,0],"sum_hessian":[6.087521E3,4.2484673E3,1.8390537E3,3.0486763E3,1.1997913E3,3.8231705E2,1.4567366E3],"tree_param":{"num_deleted":"0","num_feature":"104","num_nodes":"7","size_leaf_vector":"0"}},{"base_weights":[1.1392359E-1,2.2087689E-1,-1.3313903E-1,1.3500254E-1,4.3878993E-1,1.3791807E-1,-2.0432314E-1],"categories":[],"categories_nodes":[],"categories_segments":[],"categories_sizes":[],"default_left":[1,1,1,0,0,0,0],"id":65,"left_children":[1,3,5,-1,-1,-1,-1],"loss_changes":[1.6091348E2,7.9461624E1,3.553194E1,0E0,0E0,0E0,0E0],"parents":[2147483647,0,0,1,1,2,2],"right_children":[2,4,6,-1,-1,-1,-1],"split_conditions":[1.95E1,1.95E1,3.585E-1,1.3500254E-3,4.3878993E-3,1.3791807E-3,-2.0432314E-3],"split_indices":[28,80,55,0,0,0,0],"split_type":[0,0,0,0,0,0,0],"sum_hessian":[6.087521E3,4.2484673E3,1.8390537E3,3.0486763E3,1.1997911E3,3.8231708E2,1.4567366E3],"tree_param":{"num_deleted":"0","num_feature":"104","num_nodes":"7","size_leaf_vector":"0"}},{"base_weights":[-1.1282331E-1,-2.7757373E-1,4.5501996E-2,-2.1448003E-1,-5.412694E-1,-1.6732384E-1,1.4618222E-1],"categories":[],"categories_nodes":[],"categories_segments":[],"categories_sizes":[],"default_left":[1,1,1,0,0,0,0],"id":66,"left_children":[1,3,5,-1,-1,-1,-1],"loss_changes":[1.5877362E2,4.95114E1,6.6548386E1,0E0,0E0,0E0,0E0],"parents":[2147483647,0,0,1,1,2,2],"right_children":[2,4,6,-1,-1,-1,-1],"split_conditions":[1.45E1,2.25E1,-1.95E0,-2.1448003E-3,-5.412694E-3,-1.6732384E-3,1.4618222E-3],"split_indices":[51,80,77,0,0,0,0],"split_type":[0,0,0,0,0,0,0],"sum_hessian":[6.08549E3,2.9818638E3,3.1036262E3,2.4076143E3,5.742496E2,9.964948E2,2.1071316E3],"tree_param":{"num_deleted":"0","num_feature":"104","num_nodes":"7","size_leaf_vector":"0"}},{"base_weights":[1.12823285E-1,2.775737E-1,-4.5502022E-2,2.1448E-1,5.412694E-1,1.6732384E-1,-1.4618227E-1],"categories":[],"categories_nodes":[],"categories_segments":[],"categories_sizes":[],"default_left":[1,1,1,0,0,0,0],"id":67,"left_children":[1,3,5,-1,-1,-1,-1],"loss_changes":[1.5877362E2,4.951143E1,6.654839E1,0E0,0E0,0E0,0E0],"parents":[2147483647,0,0,1,1,2,2],"right_children":[2,4,6,-1,-1,-1,-1],"split_conditions":[1.45E1,2.25E1,-1.95E0,2.1448E-3,5.412694E-3,1.6732384E-3,-1.4618227E-3],"split_indices":[51,80,77,0,0,0,0],"split_type":[0,0,0,0,0,0,0],"sum_hessian":[6.08549E3,2.9818638E3,3.1036262E3,2.4076143E3,5.742496E2,9.964948E2,2.1071316E3],"tree_param":{"num_deleted":"0","num_feature":"104","num_nodes":"7","size_leaf_vector":"0"}},{"base_weights":[-1.1173608E-1,-1.9717789E-1,1.8981E-1,-4.1077826E-3,-2.944404E-1,7.1887866E-2,3.235935E-1],"categories":[],"categories_nodes":[],"categories_segments":[],"categories_sizes":[],"default_left":[1,1,1,0,0,0,0],"id":68,"left_children":[1,3,5,-1,-1,-1,-1],"loss_changes":[1.5679869E2,8.903696E1,2.117744E1,0E0,0E0,0E0,0E0],"parents":[2147483647,0,0,1,1,2,2],"right_children":[2,4,6,-1,-1,-1,-1],"split_conditions":[2.35E1,9.5E0,3.5000002E-1,-4.1077827E-5,-2.9444038E-3,7.1887864E-4,3.235935E-3],"split_indices":[51,103,77,0,0,0,0],"split_type":[0,0,0,0,0,0,0],"sum_hessian":[6.083356E3,4.740501E3,1.3428549E3,1.5884346E3,3.1520667E3,7.1455493E2,6.282999E2],"tree_param":{"num_deleted":"0","num_feature":"104","num_nodes":"7","size_leaf_vector":"0"}},{"base_weights":[1.11736074E-1,1.9717789E-1,-1.8981002E-1,4.107798E-3,2.944404E-1,-7.188786E-2,-3.2359356E-1],"categories":[],"categories_nodes":[],"categories_segments":[],"categories_sizes":[],"default_left":[1,1,1,0,0,0,0],"id":69,"left_children":[1,3,5,-1,-1,-1,-1],"loss_changes":[1.567987E2,8.903699E1,2.1177452E1,0E0,0E0,0E0,0E0],"parents":[2147483647,0,0,1,1,2,2],"right_children":[2,4,6,-1,-1,-1,-1],"split_conditions":[2.35E1,9.5E0,3.5000002E-1,4.107798E-5,2.9444038E-3,-7.188786E-4,-3.2359355E-3],"split_indices":[51,103,77,0,0,0,0],"split_type":[0,0,0,0,0,0,0],"sum_hessian":[6.0833564E3,4.7405015E3,1.342855E3,1.5884347E3,3.1520667E3,7.1455493E2,6.283E2],"tree_param":{"num_deleted":"0","num_feature":"104","num_nodes":"7","size_leaf_vector":"0"}},{"base_weights":[-1.106542E-1,-2.7315655E-1,4.539355E-2,-2.1078917E-1,-5.343093E-1,-8.7461E-2,2.0249264E-1],"categories":[],"categories_nodes":[],"categories_segments":[],"categories_sizes":[],"default_left":[1,1,1,0,0,0,0],"id":70,"left_children":[1,3,5,-1,-1,-1,-1],"loss_changes":[1.5425099E2,4.841942E1,6.479578E1,0E0,0E0,0E0,0E0],"parents":[2147483647,0,0,1,1,2,2],"right_children":[2,4,6,-1,-1,-1,-1],"split_conditions":[1.45E1,2.25E1,6.5E-1,-2.1078917E-3,-5.343093E-3,-8.7461E-4,2.0249262E-3],"split_indices":[51,80,77,0,0,0,0],"split_type":[0,0,0,0,0,0,0],"sum_hessian":[6.081413E3,2.9787268E3,3.1026865E3,2.405954E3,5.727726E2,1.6812994E3,1.4213872E3],"tree_param":{"num_deleted":"0","num_feature":"104","num_nodes":"7","size_leaf_vector":"0"}},{"base_weights":[1.1065421E-1,2.7315658E-1,-4.539353E-2,2.1078916E-1,5.3430945E-1,8.746101E-2,-2.0249261E-1],"categories":[],"categories_nodes":[],"categories_segments":[],"categories_sizes":[],"default_left":[1,1,1,0,0,0,0],"id":71,"left_children":[1,3,5,-1,-1,-1,-1],"loss_changes":[1.54251E2,4.8419434E1,6.479576E1,0E0,0E0,0E0,0E0],"parents":[2147483647,0,0,1,1,2,2],"right_children":[2,4,6,-1,-1,-1,-1],"split_conditions":[1.45E1,2.25E1,6.5E-1,2.1078915E-3,5.3430945E-3,8.746101E-4,-2.024926E-3],"split_indices":[51,80,77,0,0,0,0],"split_type":[0,0,0,0,0,0,0],"sum_hessian":[6.081413E3,2.9787268E3,3.1026865E3,2.405954E3,5.727726E2,1.6812993E3,1.4213872E3],"tree_param":{"num_deleted":"0","num_feature":"104","num_nodes":"7","size_leaf_vector":"0"}},{"base_weights":[-1.0958848E-1,-1.9382136E-1,1.8756498E-1,-4.7626413E-2,-3.1904E-1,7.20435E-2,3.1871936E-1],"categories":[],"categories_nodes":[],"categories_segments":[],"categories_sizes":[],"default_left":[1,1,1,0,0,0,0],"id":72,"left_children":[1,3,5,-1,-1,-1,-1],"loss_changes":[1.5222519E2,8.671739E1,2.0330894E1,0E0,0E0,0E0,0E0],"parents":[2147483647,0,0,1,1,2,2],"right_children":[2,4,6,-1,-1,-1,-1],"split_conditions":[2.35E1,1.15E1,3.5000002E-1,-4.7626413E-4,-3.1903998E-3,7.20435E-4,3.1871935E-3],"split_indices":[51,80,77,0,0,0,0],"split_type":[0,0,0,0,0,0,0],"sum_hessian":[6.079235E3,4.7368477E3,1.3423872E3,2.1860159E3,2.5508318E3,7.145537E2,6.278335E2],"tree_param":{"num_deleted":"0","num_feature":"104","num_nodes":"7","size_leaf_vector":"0"}},{"base_weights":[1.095885E-1,1.9382139E-1,-1.8756498E-1,4.762644E-2,3.1904E-1,-7.204353E-2,-3.1871936E-1],"categories":[],"categories_nodes":[],"categories_segments":[],"categories_sizes":[],"default_left":[1,1,1,0,0,0,0],"id":73,"left_children":[1,3,5,-1,-1,-1,-1],"loss_changes":[1.5222522E2,8.671739E1,2.0330894E1,0E0,0E0,0E0,0E0],"parents":[2147483647,0,0,1,1,2,2],"right_children":[2,4,6,-1,-1,-1,-1],"split_conditions":[2.35E1,1.15E1,3.5000002E-1,4.762644E-4,3.1903998E-3,-7.204353E-4,-3.1871935E-3],"split_indices":[51,80,77,0,0,0,0],"split_type":[0,0,0,0,0,0,0],"sum_hessian":[6.079235E3,4.7368477E3,1.3423871E3,2.1860159E3,2.5508318E3,7.145537E2,6.2783344E2],"tree_param":{"num_deleted":"0","num_feature":"104","num_nodes":"7","size_leaf_vector":"0"}},{"base_weights":[-1.08529985E-1,9.368479E-2,-2.3079354E-1,1.5051131E-1,-2.1431127E-1,-3.8028825E-2,-3.3113146E-1],"categories":[],"categories_nodes":[],"categories_segments":[],"categories_sizes":[],"default_left":[1,1,1,0,0,0,0],"id":74,"left_children":[1,3,5,-1,-1,-1,-1],"loss_changes":[1.5029495E2,4.012949E1,7.325717E1,0E0,0E0,0E0,0E0],"parents":[2147483647,0,0,1,1,2,2],"right_children":[2,4,6,-1,-1,-1,-1],"split_conditions":[4.585E-1,2.55E1,9.5E0,1.5051131E-3,-2.1431127E-3,-3.8028826E-4,-3.3113146E-3],"split_indices":[3,103,103,0,0,0,0],"split_type":[0,0,0,0,0,0,0],"sum_hessian":[6.077159E3,2.2899636E3,3.7871953E3,1.9336996E3,3.5626407E2,1.2969438E3,2.4902515E3],"tree_param":{"num_deleted":"0","num_feature":"104","num_nodes":"7","size_leaf_vector":"0"}},{"base_weights":[1.0852999E-1,-9.368477E-2,2.3079354E-1,-1.505113E-1,2.1431135E-1,3.8028825E-2,3.3113146E-1],"categories":[],"categories_nodes":[],"categories_segments":[],"categories_sizes":[],"default_left":[1,1,1,0,0,0,0],"id":75,"left_children":[1,3,5,-1,-1,-1,-1],"loss_changes":[1.5029492E2,4.01295E1,7.325717E1,0E0,0E0,0E0,0E0],"parents":[2147483647,0,0,1,1,2,2],"right_children":[2,4,6,-1,-1,-1,-1],"split_conditions":[4.585E-1,2.55E1,9.5E0,-1.5051129E-3,2.1431134E-3,3.8028826E-4,3.3113146E-3],"split_indices":[3,103,103,0,0,0,0],"split_type":[0,0,0,0,0,0,0],"sum_hessian":[6.0771587E3,2.2899636E3,3.7871953E3,1.9336996E3,3.5626404E2,1.2969438E3,2.4902515E3],"tree_param":{"num_deleted":"0","num_feature":"104","num_nodes":"7","size_leaf_vector":"0"}},{"base_weights":[-1.0748485E-1,-2.6677483E-1,4.5301445E-2,-2.0537257E-1,-5.2459365E-1,-1.6098686E-1,1.4285672E-1],"categories":[],"categories_nodes":[],"categories_segments":[],"categories_sizes":[],"default_left":[1,1,1,0,0,0,0],"id":76,"left_children":[1,3,5,-1,-1,-1,-1],"loss_changes":[1.4788464E2,4.6985504E1,6.245215E1,0E0,0E0,0E0,0E0],"parents":[2147483647,0,0,1,1,2,2],"right_children":[2,4,6,-1,-1,-1,-1],"split_conditions":[1.45E1,2.25E1,-1.95E0,-2.0537258E-3,-5.2459366E-3,-1.6098685E-3,1.4285671E-3],"split_indices":[51,80,77,0,0,0,0],"split_type":[0,0,0,0,0,0,0],"sum_hessian":[6.0749565E3,2.9738118E3,3.101145E3,2.4032493E3,5.7056256E2,9.954781E2,2.105667E3],"tree_param":{"num_deleted":"0","num_feature":"104","num_nodes":"7","size_leaf_vector":"0"}},{"base_weights":[1.0748485E-1,2.6677486E-1,-4.5301456E-2,2.053726E-1,5.245936E-1,1.6098686E-1,-1.4285673E-1],"categories":[],"categories_nodes":[],"categories_segments":[],"categories_sizes":[],"default_left":[1,1,1,0,0,0,0],"id":77,"left_children":[1,3,5,-1,-1,-1,-1],"loss_changes":[1.4788464E2,4.6985474E1,6.2452152E1,0E0,0E0,0E0,0E0],"parents":[2147483647,0,0,1,1,2,2],"right_children":[2,4,6,-1,-1,-1,-1],"split_conditions":[1.45E1,2.25E1,-1.95E0,2.053726E-3,5.2459356E-3,1.6098685E-3,-1.4285673E-3],"split_indices":[51,80,77,0,0,0,0],"split_type":[0,0,0,0,0,0,0],"sum_hessian":[6.0749565E3,2.9738118E3,3.101145E3,2.4032493E3,5.7056256E2,9.954781E2,2.105667E3],"tree_param":{"num_deleted":"0","num_feature":"104","num_nodes":"7","size_leaf_vector":"0"}},{"base_weights":[-1.0645212E-1,-2.085174E-1,1.2886375E-1,-1.26209E-1,-4.1840383E-1,3.025516E-1,2.4751846E-2],"categories":[],"categories_nodes":[],"categories_segments":[],"categories_sizes":[],"default_left":[1,1,1,0,0,0,0],"id":78,"left_children":[1,3,5,-1,-1,-1,-1],"loss_changes":[1.4590138E2,7.31366E1,3.3229626E1,0E0,0E0,0E0,0E0],"parents":[2147483647,0,0,1,1,2,2],"right_children":[2,4,6,-1,-1,-1,-1],"split_conditions":[1.95E1,1.95E1,-6.25E0,-1.26209E-3,-4.1840384E-3,3.025516E-3,2.4751844E-4],"split_indices":[28,80,25,0,0,0,0],"split_type":[0,0,0,0,0,0,0],"sum_hessian":[6.0726562E3,4.2356226E3,1.8370337E3,3.0436396E3,1.1919828E3,6.8775665E2,1.149277E3],"tree_param":{"num_deleted":"0","num_feature":"104","num_nodes":"7","size_leaf_vector":"0"}},{"base_weights":[1.0645213E-1,2.085174E-1,-1.288637E-1,1.2620899E-1,4.1840386E-1,-3.0255157E-1,-2.4751814E-2],"categories":[],"categories_nodes":[],"categories_segments":[],"categories_sizes":[],"default_left":[1,1,1,0,0,0,0],"id":79,"left_children":[1,3,5,-1,-1,-1,-1],"loss_changes":[1.4590135E2,7.313663E1,3.3229614E1,0E0,0E0,0E0,0E0],"parents":[2147483647,0,0,1,1,2,2],"right_children":[2,4,6,-1,-1,-1,-1],"split_conditions":[1.95E1,1.95E1,-6.25E0,1.2620899E-3,4.1840384E-3,-3.0255157E-3,-2.4751812E-4],"split_indices":[28,80,25,0,0,0,0],"split_type":[0,0,0,0,0,0,0],"sum_hessian":[6.0726562E3,4.2356226E3,1.8370337E3,3.0436396E3,1.1919827E3,6.877567E2,1.149277E3],"tree_param":{"num_deleted":"0","num_feature":"104","num_nodes":"7","size_leaf_vector":"0"}},{"base_weights":[-1.0542495E-1,-2.6238638E-1,4.4996485E-2,-3.2325584E-1,-5.5548334E-3,-8.4081985E-2,1.9762601E-1],"categories":[],"categories_nodes":[],"categories_segments":[],"categories_sizes":[],"default_left":[1,1,1,0,0,0,0],"id":80,"left_children":[1,3,5,-1,-1,-1,-1],"loss_changes":[1.433634E2,4.6449646E1,6.111435E1,0E0,0E0,0E0,0E0],"parents":[2147483647,0,0,1,1,2,2],"right_children":[2,4,6,-1,-1,-1,-1],"split_conditions":[1.45E1,5.05E0,6.5E-1,-3.2325583E-3,-5.5548335E-5,-8.4081985E-4,1.97626E-3],"split_indices":[51,77,77,0,0,0,0],"split_type":[0,0,0,0,0,0,0],"sum_hessian":[6.070554E3,2.9703333E3,3.1002212E3,2.4010273E3,5.693057E2,1.6799447E3,1.4202765E3],"tree_param":{"num_deleted":"0","num_feature":"104","num_nodes":"7","size_leaf_vector":"0"}},{"base_weights":[1.0542496E-1,2.6238638E-1,-4.4996466E-2,3.2325584E-1,5.554832E-3,8.4081985E-2,-1.9762598E-1],"categories":[],"categories_nodes":[],"categories_segments":[],"categories_sizes":[],"default_left":[1,1,1,0,0,0,0],"id":81,"left_children":[1,3,5,-1,-1,-1,-1],"loss_changes":[1.433634E2,4.644966E1,6.111433E1,0E0,0E0,0E0,0E0],"parents":[2147483647,0,0,1,1,2,2],"right_children":[2,4,6,-1,-1,-1,-1],"split_conditions":[1.45E1,5.05E0,6.5E-1,3.2325583E-3,5.554832E-5,8.4081985E-4,-1.9762598E-3],"split_indices":[51,77,77,0,0,0,0],"split_type":[0,0,0,0,0,0,0],"sum_hessian":[6.070554E3,2.9703333E3,3.1002212E3,2.4010273E3,5.693057E2,1.6799447E3,1.4202765E3],"tree_param":{"num_deleted":"0","num_feature":"104","num_nodes":"7","size_leaf_vector":"0"}},{"base_weights":[-1.0441071E-1,-1.8587607E-1,1.8261558E-1,-5.5825873E-4,-2.7953717E-1,7.067199E-2,3.0987376E-1],"categories":[],"categories_nodes":[],"categories_segments":[],"categories_sizes":[],"default_left":[1,1,1,0,0,0,0],"id":82,"left_children":[1,3,5,-1,-1,-1,-1],"loss_changes":[1.4194998E2,8.206387E1,1.9099976E1,0E0,0E0,0E0,0E0],"parents":[2147483647,0,0,1,1,2,2],"right_children":[2,4,6,-1,-1,-1,-1],"split_conditions":[2.35E1,9.5E0,3.5000002E-1,-5.582587E-6,-2.7953717E-3,7.067199E-4,3.0987374E-3],"split_indices":[51,103,77,0,0,0,0],"split_type":[0,0,0,0,0,0,0],"sum_hessian":[6.0682754E3,4.7269883E3,1.3412872E3,1.5873213E3,3.139667E3,7.1440826E2,6.2687897E2],"tree_param":{"num_deleted":"0","num_feature":"104","num_nodes":"7","size_leaf_vector":"0"}},{"base_weights":[1.04410715E-1,1.8587609E-1,-1.826156E-1,5.583382E-4,2.7953714E-1,-7.0672035E-2,-3.0987376E-1],"categories":[],"categories_nodes":[],"categories_segments":[],"categories_sizes":[],"default_left":[1,1,1,0,0,0,0],"id":83,"left_children":[1,3,5,-1,-1,-1,-1],"loss_changes":[1.4195001E2,8.206381E1,1.909996E1,0E0,0E0,0E0,0E0],"parents":[2147483647,0,0,1,1,2,2],"right_children":[2,4,6,-1,-1,-1,-1],"split_conditions":[2.35E1,9.5E0,3.5000002E-1,5.5833816E-6,2.7953715E-3,-7.0672034E-4,-3.0987374E-3],"split_indices":[51,103,77,0,0,0,0],"split_type":[0,0,0,0,0,0,0],"sum_hessian":[6.0682754E3,4.7269883E3,1.3412872E3,1.5873213E3,3.139667E3,7.1440826E2,6.2687897E2],"tree_param":{"num_deleted":"0","num_feature":"104","num_nodes":"7","size_leaf_vector":"0"}},{"base_weights":[-1.0340369E-1,-2.0332402E-1,1.2675409E-1,-1.2234915E-1,-4.1023695E-1,2.9759753E-1,2.4380628E-2],"categories":[],"categories_nodes":[],"categories_segments":[],"categories_sizes":[],"default_left":[1,1,1,0,0,0,0],"id":84,"left_children":[1,3,5,-1,-1,-1,-1],"loss_changes":[1.3955374E2,7.0837036E1,3.212567E1,0E0,0E0,0E0,0E0],"parents":[2147483647,0,0,1,1,2,2],"right_children":[2,4,6,-1,-1,-1,-1],"split_conditions":[1.95E1,1.95E1,-6.25E0,-1.2234915E-3,-4.1023693E-3,2.9759752E-3,2.4380628E-4],"split_indices":[28,80,25,0,0,0,0],"split_type":[0,0,0,0,0,0,0],"sum_hessian":[6.066109E3,4.2298745E3,1.8362344E3,3.0412715E3,1.1886029E3,6.8731635E2,1.148918E3],"tree_param":{"num_deleted":"0","num_feature":"104","num_nodes":"7","size_leaf_vector":"0"}},{"base_weights":[1.0340368E-1,2.0332399E-1,-1.2675406E-1,1.2234911E-1,4.1023692E-1,-2.975975E-1,-2.4380611E-2],"categories":[],"categories_nodes":[],"categories_segments":[],"categories_sizes":[],"default_left":[1,1,1,0,0,0,0],"id":85,"left_children":[1,3,5,-1,-1,-1,-1],"loss_changes":[1.3955371E2,7.083705E1,3.2125668E1,0E0,0E0,0E0,0E0],"parents":[2147483647,0,0,1,1,2,2],"right_children":[2,4,6,-1,-1,-1,-1],"split_conditions":[1.95E1,1.95E1,-6.25E0,1.2234912E-3,4.1023693E-3,-2.975975E-3,-2.438061E-4],"split_indices":[28,80,25,0,0,0,0],"split_type":[0,0,0,0,0,0,0],"sum_hessian":[6.066109E3,4.2298745E3,1.8362344E3,3.0412715E3,1.1886029E3,6.8731635E2,1.148918E3],"tree_param":{"num_deleted":"0","num_feature":"104","num_nodes":"7","size_leaf_vector":"0"}},{"base_weights":[-1.0240745E-1,-2.5639993E-1,4.4994682E-2,-3.1626785E-1,-4.2813253E-3,-1.5604873E-1,1.4002763E-1],"categories":[],"categories_nodes":[],"categories_segments":[],"categories_sizes":[],"default_left":[1,1,1,0,0,0,0],"id":86,"left_children":[1,3,5,-1,-1,-1,-1],"loss_changes":[1.3767804E2,4.4771454E1,5.9242393E1,0E0,0E0,0E0,0E0],"parents":[2147483647,0,0,1,1,2,2],"right_children":[2,4,6,-1,-1,-1,-1],"split_conditions":[1.45E1,5.05E0,-1.95E0,-3.1626783E-3,-4.281325E-5,-1.5604873E-3,1.4002762E-3],"split_indices":[51,77,77,0,0,0,0],"split_type":[0,0,0,0,0,0,0],"sum_hessian":[6.0639194E3,2.9653008E3,3.0986187E3,2.3960757E3,5.692251E2,9.9437134E2,2.1042473E3],"tree_param":{"num_deleted":"0","num_feature":"104","num_nodes":"7","size_leaf_vector":"0"}},{"base_weights":[1.0240744E-1,2.563999E-1,-4.4994686E-2,3.1626785E-1,4.2812405E-3,1.5604873E-1,-1.4002763E-1],"categories":[],"categories_nodes":[],"categories_segments":[],"categories_sizes":[],"default_left":[1,1,1,0,0,0,0],"id":87,"left_children":[1,3,5,-1,-1,-1,-1],"loss_changes":[1.3767801E2,4.477147E1,5.9242386E1,0E0,0E0,0E0,0E0],"parents":[2147483647,0,0,1,1,2,2],"right_children":[2,4,6,-1,-1,-1,-1],"split_conditions":[1.45E1,5.05E0,-1.95E0,3.1626783E-3,4.2812404E-5,1.5604873E-3,-1.4002762E-3],"split_indices":[51,77,77,0,0,0,0],"split_type":[0,0,0,0,0,0,0],"sum_hessian":[6.0639194E3,2.9653008E3,3.0986187E3,2.3960757E3,5.6922516E2,9.9437134E2,2.1042473E3],"tree_param":{"num_deleted":"0","num_feature":"104","num_nodes":"7","size_leaf_vector":"0"}},{"base_weights":[-1.0142431E-1,1.3575082E-1,-1.9559065E-1,1.9264294E-1,-1.3583419E-1,-1.2115719E-2,-2.898356E-1],"categories":[],"categories_nodes":[],"categories_segments":[],"categories_sizes":[],"default_left":[1,1,1,0,0,0,0],"id":88,"left_children":[1,3,5,-1,-1,-1,-1],"loss_changes":[1.354267E2,2.6656761E1,7.5041794E1,0E0,0E0,0E0,0E0],"parents":[2147483647,0,0,1,1,2,2],"right_children":[2,4,6,-1,-1,-1,-1],"split_conditions":[-2.45E0,2.45E1,9.5E0,1.9264293E-3,-1.3583419E-3,-1.2115719E-4,-2.898356E-3],"split_indices":[25,81,103,0,0,0,0],"split_type":[0,0,0,0,0,0,0],"sum_hessian":[6.0615356E3,1.7225464E3,4.3389893E3,1.4244424E3,2.981041E2,1.4728301E3,2.866159E3],"tree_param":{"num_deleted":"0","num_feature":"104","num_nodes":"7","size_leaf_vector":"0"}},{"base_weights":[1.0142431E-1,-1.3575083E-1,1.9559066E-1,-1.9264294E-1,1.3583419E-1,1.211572E-2,2.898356E-1],"categories":[],"categories_nodes":[],"categories_segments":[],"categories_sizes":[],"default_left":[1,1,1,0,0,0,0],"id":89,"left_children":[1,3,5,-1,-1,-1,-1],"loss_changes":[1.3542673E2,2.6656761E1,7.5041794E1,0E0,0E0,0E0,0E0],"parents":[2147483647,0,0,1,1,2,2],"right_children":[2,4,6,-1,-1,-1,-1],"split_conditions":[-2.45E0,2.45E1,9.5E0,-1.9264293E-3,1.3583419E-3,1.21157194E-4,2.898356E-3],"split_indices":[25,81,103,0,0,0,0],"split_type":[0,0,0,0,0,0,0],"sum_hessian":[6.0615356E3,1.7225464E3,4.3389893E3,1.4244424E3,2.9810406E2,1.4728301E3,2.866159E3],"tree_param":{"num_deleted":"0","num_feature":"104","num_nodes":"7","size_leaf_vector":"0"}},{"base_weights":[-1.0044893E-1,8.047317E-2,-2.2227852E-1,-3.0566769E-2,2.2250105E-1,-4.225431E-1,-1.3778943E-1],"categories":[],"categories_nodes":[],"categories_segments":[],"categories_sizes":[],"default_left":[1,1,1,0,0,0,0],"id":90,"left_children":[1,3,5,-1,-1,-1,-1],"loss_changes":[1.3359569E2,3.8478348E1,6.122357E1,0E0,0E0,0E0,0E0],"parents":[2147483647,0,0,1,1,2,2],"right_children":[2,4,6,-1,-1,-1,-1],"split_conditions":[4.7149998E-1,5.3349996E-1,-1.95E0,-3.056677E-4,2.2250104E-3,-4.225431E-3,-1.3778942E-3],"split_indices":[3,55,77,0,0,0,0],"split_type":[0,0,0,0,0,0,0],"sum_hessian":[6.05924E3,2.4384211E3,3.620819E3,1.3689423E3,1.0694788E3,1.0731439E3,2.5476753E3],"tree_param":{"num_deleted":"0","num_feature":"104","num_nodes":"7","size_leaf_vector":"0"}},{"base_weights":[1.0044892E-1,-8.047317E-2,2.222785E-1,3.056677E-2,-2.2250105E-1,4.2254314E-1,1.377894E-1],"categories":[],"categories_nodes":[],"categories_segments":[],"categories_sizes":[],"default_left":[1,1,1,0,0,0,0],"id":91,"left_children":[1,3,5,-1,-1,-1,-1],"loss_changes":[1.3359567E2,3.8478348E1,6.1223602E1,0E0,0E0,0E0,0E0],"parents":[2147483647,0,0,1,1,2,2],"right_children":[2,4,6,-1,-1,-1,-1],"split_conditions":[4.7149998E-1,5.3349996E-1,-1.95E0,3.056677E-4,-2.2250104E-3,4.2254315E-3,1.377894E-3],"split_indices":[3,55,77,0,0,0,0],"split_type":[0,0,0,0,0,0,0],"sum_hessian":[6.05924E3,2.4384211E3,3.620819E3,1.3689423E3,1.0694788E3,1.0731439E3,2.5476753E3],"tree_param":{"num_deleted":"0","num_feature":"104","num_nodes":"7","size_leaf_vector":"0"}},{"base_weights":[-9.9485286E-2,-2.5029027E-1,4.4680536E-2,-1.9107401E-1,-5.008271E-1,-7.986674E-2,1.9195354E-1],"categories":[],"categories_nodes":[],"categories_segments":[],"categories_sizes":[],"default_left":[1,1,1,0,0,0,0],"id":92,"left_children":[1,3,5,-1,-1,-1,-1],"loss_changes":[1.3171384E2,4.383162E1,5.6839027E1,0E0,0E0,0E0,0E0],"parents":[2147483647,0,0,1,1,2,2],"right_children":[2,4,6,-1,-1,-1,-1],"split_conditions":[1.45E1,2.25E1,6.5E-1,-1.91074E-3,-5.0082705E-3,-7.986674E-4,1.9195353E-3],"split_indices":[51,80,77,0,0,0,0],"split_type":[0,0,0,0,0,0,0],"sum_hessian":[6.0568223E3,2.9598882E3,3.0969338E3,2.3954648E3,5.644234E2,1.6781757E3,1.4187583E3],"tree_param":{"num_deleted":"0","num_feature":"104","num_nodes":"7","size_leaf_vector":"0"}},{"base_weights":[9.9485286E-2,2.5029027E-1,-4.4680536E-2,1.9107401E-1,5.008271E-1,7.986674E-2,-1.9195354E-1],"categories":[],"categories_nodes":[],"categories_segments":[],"categories_sizes":[],"default_left":[1,1,1,0,0,0,0],"id":93,"left_children":[1,3,5,-1,-1,-1,-1],"loss_changes":[1.3171382E2,4.3831604E1,5.6839035E1,0E0,0E0,0E0,0E0],"parents":[2147483647,0,0,1,1,2,2],"right_children":[2,4,6,-1,-1,-1,-1],"split_conditions":[1.45E1,2.25E1,6.5E-1,1.91074E-3,5.0082705E-3,7.986674E-4,-1.9195353E-3],"split_indices":[51,80,77,0,0,0,0],"split_type":[0,0,0,0,0,0,0],"sum_hessian":[6.0568223E3,2.9598882E3,3.0969338E3,2.3954648E3,5.644234E2,1.6781757E3,1.4187582E3],"tree_param":{"num_deleted":"0","num_feature":"104","num_nodes":"7","size_leaf_vector":"0"}},{"base_weights":[-9.853238E-2,-1.7675945E-1,1.7666195E-1,-4.717883E-2,-3.025391E-1,6.908385E-2,2.9918098E-1],"categories":[],"categories_nodes":[],"categories_segments":[],"categories_sizes":[],"default_left":[1,1,1,0,0,0,0],"id":94,"left_children":[1,3,5,-1,-1,-1,-1],"loss_changes":[1.3038838E2,7.684241E1,1.7651588E1,0E0,0E0,0E0,0E0],"parents":[2147483647,0,0,1,1,2,2],"right_children":[2,4,6,-1,-1,-1,-1],"split_conditions":[2.35E1,1.35E1,3.5000002E-1,-4.717883E-4,-3.0253911E-3,6.9083844E-4,2.9918097E-3],"split_indices":[51,81,77,0,0,0,0],"split_type":[0,0,0,0,0,0,0],"sum_hessian":[6.054337E3,4.714535E3,1.3398018E3,2.3228577E3,2.3916772E3,7.142323E2,6.2556946E2],"tree_param":{"num_deleted":"0","num_feature":"104","num_nodes":"7","size_leaf_vector":"0"}},{"base_weights":[9.85324E-2,1.7675948E-1,-1.7666195E-1,4.7178857E-2,3.0253914E-1,-6.908385E-2,-2.9918095E-1],"categories":[],"categories_nodes":[],"categories_segments":[],"categories_sizes":[],"default_left":[1,1,1,0,0,0,0],"id":95,"left_children":[1,3,5,-1,-1,-1,-1],"loss_changes":[1.3038838E2,7.684239E1,1.7651588E1,0E0,0E0,0E0,0E0],"parents":[2147483647,0,0,1,1,2,2],"right_children":[2,4,6,-1,-1,-1,-1],"split_conditions":[2.35E1,1.35E1,3.5000002E-1,4.7178855E-4,3.0253914E-3,-6.9083844E-4,-2.9918095E-3],"split_indices":[51,81,77,0,0,0,0],"split_type":[0,0,0,0,0,0,0],"sum_hessian":[6.0543364E3,4.714535E3,1.3398018E3,2.3228577E3,2.3916772E3,7.142323E2,6.2556946E2],"tree_param":{"num_deleted":"0","num_feature":"104","num_nodes":"7","size_leaf_vector":"0"}},{"base_weights":[-9.758598E-2,-1.9352764E-1,1.2298515E-1,-1.1535699E-1,-3.9421523E-1,2.903584E-1,2.27349E-2],"categories":[],"categories_nodes":[],"categories_segments":[],"categories_sizes":[],"default_left":[1,1,1,0,0,0,0],"id":96,"left_children":[1,3,5,-1,-1,-1,-1],"loss_changes":[1.2811597E2,6.613475E1,3.0789715E1,0E0,0E0,0E0,0E0],"parents":[2147483647,0,0,1,1,2,2],"right_children":[2,4,6,-1,-1,-1,-1],"split_conditions":[1.95E1,1.95E1,-6.25E0,-1.1535699E-3,-3.942152E-3,2.903584E-3,2.2734898E-4],"split_indices":[28,80,25,0,0,0,0],"split_type":[0,0,0,0,0,0,0],"sum_hessian":[6.0519443E3,4.2175586E3,1.8343856E3,3.0364092E3,1.1811494E3,6.864401E2,1.1479456E3],"tree_param":{"num_deleted":"0","num_feature":"104","num_nodes":"7","size_leaf_vector":"0"}},{"base_weights":[9.7585976E-2,1.9352762E-1,-1.2298515E-1,1.1535699E-1,3.942152E-1,-2.903584E-1,-2.2734908E-2],"categories":[],"categories_nodes":[],"categories_segments":[],"categories_sizes":[],"default_left":[1,1,1,0,0,0,0],"id":97,"left_children":[1,3,5,-1,-1,-1,-1],"loss_changes":[1.2811597E2,6.6134766E1,3.0789715E1,0E0,0E0,0E0,0E0],"parents":[2147483647,0,0,1,1,2,2],"right_children":[2,4,6,-1,-1,-1,-1],"split_conditions":[1.95E1,1.95E1,-6.25E0,1.1535699E-3,3.942152E-3,-2.903584E-3,-2.2734908E-4],"split_indices":[28,80,25,0,0,0,0],"split_type":[0,0,0,0,0,0,0],"sum_hessian":[6.0519443E3,4.2175586E3,1.8343857E3,3.0364092E3,1.1811494E3,6.864401E2,1.1479456E3],"tree_param":{"num_deleted":"0","num_feature":"104","num_nodes":"7","size_leaf_vector":"0"}},{"base_weights":[-9.664821E-2,-2.4461746E-1,4.462876E-2,-3.0308375E-1,6.5334915E-4,-1.5316091E-1,1.3467963E-1],"categories":[],"categories_nodes":[],"categories_segments":[],"categories_sizes":[],"default_left":[1,1,1,0,0,0,0],"id":98,"left_children":[1,3,5,-1,-1,-1,-1],"loss_changes":[1.2649684E2,4.238176E1,5.5166534E1,0E0,0E0,0E0,0E0],"parents":[2147483647,0,0,1,1,2,2],"right_children":[2,4,6,-1,-1,-1,-1],"split_conditions":[1.45E1,5.05E0,-2.05E0,-3.0308375E-3,6.5334916E-6,-1.5316091E-3,1.3467963E-3],"split_indices":[51,77,77,0,0,0,0],"split_type":[0,0,0,0,0,0,0],"sum_hessian":[6.049612E3,2.9544639E3,3.0951482E3,2.3855693E3,5.688945E2,9.680974E2,2.1270508E3],"tree_param":{"num_deleted":"0","num_feature":"104","num_nodes":"7","size_leaf_vector":"0"}},{"base_weights":[9.6648194E-2,2.4461743E-1,-4.4628765E-2,3.0308375E-1,-6.5343146E-4,1.5316091E-1,-1.3467965E-1],"categories":[],"categories_nodes":[],"categories_segments":[],"categories_sizes":[],"default_left":[1,1,1,0,0,0,0],"id":99,"left_children":[1,3,5,-1,-1,-1,-1],"loss_changes":[1.2649682E2,4.238179E1,5.516654E1,0E0,0E0,0E0,0E0],"parents":[2147483647,0,0,1,1,2,2],"right_children":[2,4,6,-1,-1,-1,-1],"split_conditions":[1.45E1,5.05E0,-2.05E0,3.0308375E-3,-6.5343143E-6,1.5316091E-3,-1.3467964E-3],"split_indices":[51,77,77,0,0,0,0],"split_type":[0,0,0,0,0,0,0],"sum_hessian":[6.049612E3,2.9544639E3,3.0951482E3,2.3855693E3,5.688945E2,9.680974E2,2.1270508E3],"tree_param":{"num_deleted":"0","num_feature":"104","num_nodes":"7","size_leaf_vector":"0"}},{"base_weights":[-9.57225E-2,-1.7220542E-1,1.7313673E-1,-3.6242133E-1,-8.903449E-2,6.731135E-2,2.9378235E-1],"categories":[],"categories_nodes":[],"categories_segments":[],"categories_sizes":[],"default_left":[1,1,1,0,0,0,0],"id":100,"left_children":[1,3,5,-1,-1,-1,-1],"loss_changes":[1.2439774E2,7.44682E1,1.7088135E1,0E0,0E0,0E0,0E0],"parents":[2147483647,0,0,1,1,2,2],"right_children":[2,4,6,-1,-1,-1,-1],"split_conditions":[2.35E1,-1.95E0,3.5000002E-1,-3.6242132E-3,-8.903449E-4,6.7311345E-4,2.9378235E-3],"split_indices":[51,77,77,0,0,0,0],"split_type":[0,0,0,0,0,0,0],"sum_hessian":[6.0471006E3,4.7081294E3,1.3389714E3,1.4313059E3,3.2768235E3,7.141268E2,6.248447E2],"tree_param":{"num_deleted":"0","num_feature":"104","num_nodes":"7","size_leaf_vector":"0"}},{"base_weights":[9.57225E-2,1.722054E-1,-1.7313671E-1,3.6242136E-1,8.903447E-2,-6.731135E-2,-2.9378232E-1],"categories":[],"categories_nodes":[],"categories_segments":[],"categories_sizes":[],"default_left":[1,1,1,0,0,0,0],"id":101,"left_children":[1,3,5,-1,-1,-1,-1],"loss_changes":[1.24397736E2,7.446823E1,1.708813E1,0E0,0E0,0E0,0E0],"parents":[2147483647,0,0,1,1,2,2],"right_children":[2,4,6,-1,-1,-1,-1],"split_conditions":[2.35E1,-1.95E0,3.5000002E-1,3.6242136E-3,8.903447E-4,-6.7311345E-4,-2.937823E-3],"split_indices":[51,77,77,0,0,0,0],"split_type":[0,0,0,0,0,0,0],"sum_hessian":[6.047101E3,4.7081294E3,1.3389714E3,1.431306E3,3.2768235E3,7.141268E2,6.248447E2],"tree_param":{"num_deleted":"0","num_feature":"104","num_nodes":"7","size_leaf_vector":"0"}},{"base_weights":[-9.480335E-2,-2.4078602E-1,4.445959E-2,-1.8310039E-1,-4.8622087E-1,-7.626423E-2,1.8720831E-1],"categories":[],"categories_nodes":[],"categories_segments":[],"categories_sizes":[],"default_left":[1,1,1,0,0,0,0],"id":102,"left_children":[1,3,5,-1,-1,-1,-1],"loss_changes":[1.22919785E2,4.1702713E1,5.334939E1,0E0,0E0,0E0,0E0],"parents":[2147483647,0,0,1,1,2,2],"right_children":[2,4,6,-1,-1,-1,-1],"split_conditions":[1.45E1,2.25E1,6.5E-1,-1.8310038E-3,-4.8622084E-3,-7.626423E-4,1.872083E-3],"split_indices":[51,80,77,0,0,0,0],"split_type":[0,0,0,0,0,0,0],"sum_hessian":[6.044708E3,2.9507986E3,3.0939097E3,2.3906577E3,5.6014075E2,1.6765243E3,1.4173853E3],"tree_param":{"num_deleted":"0","num_feature":"104","num_nodes":"7","size_leaf_vector":"0"}},{"base_weights":[9.480335E-2,2.40786E-1,-4.445958E-2,1.8310036E-1,4.8622087E-1,7.626424E-2,-1.8720831E-1],"categories":[],"categories_nodes":[],"categories_segments":[],"categories_sizes":[],"default_left":[1,1,1,0,0,0,0],"id":103,"left_children":[1,3,5,-1,-1,-1,-1],"loss_changes":[1.22919785E2,4.170273E1,5.3349392E1,0E0,0E0,0E0,0E0],"parents":[2147483647,0,0,1,1,2,2],"right_children":[2,4,6,-1,-1,-1,-1],"split_conditions":[1.45E1,2.25E1,6.5E-1,1.8310036E-3,4.8622084E-3,7.6264236E-4,-1.872083E-3],"split_indices":[51,80,77,0,0,0,0],"split_type":[0,0,0,0,0,0,0],"sum_hessian":[6.044708E3,2.9507986E3,3.0939097E3,2.3906577E3,5.601408E2,1.6765243E3,1.4173853E3],"tree_param":{"num_deleted":"0","num_feature":"104","num_nodes":"7","size_leaf_vector":"0"}},{"base_weights":[-9.389707E-2,-1.8733081E-1,1.20626256E-1,-1.8726963E-3,-2.692706E-1,2.8527516E-1,2.2046762E-2],"categories":[],"categories_nodes":[],"categories_segments":[],"categories_sizes":[],"default_left":[1,1,1,0,0,0,0],"id":104,"left_children":[1,3,5,-1,-1,-1,-1],"loss_changes":[1.21149124E2,6.3976883E1,2.9762701E1,0E0,0E0,0E0,0E0],"parents":[2147483647,0,0,1,1,2,2],"right_children":[2,4,6,-1,-1,-1,-1],"split_conditions":[1.95E1,8.5E0,-6.25E0,-1.8726963E-5,-2.692706E-3,2.8527516E-3,2.2046761E-4],"split_indices":[28,103,25,0,0,0,0],"split_type":[0,0,0,0,0,0,0],"sum_hessian":[6.042117E3,4.2090356E3,1.8330817E3,1.2901047E3,2.9189307E3,6.85783E2,1.1472986E3],"tree_param":{"num_deleted":"0","num_feature":"104","num_nodes":"7","size_leaf_vector":"0"}},{"base_weights":[9.389707E-2,1.8733081E-1,-1.2062625E-1,1.8726985E-3,2.692706E-1,-2.8527513E-1,-2.204677E-2],"categories":[],"categories_nodes":[],"categories_segments":[],"categories_sizes":[],"default_left":[1,1,1,0,0,0,0],"id":105,"left_children":[1,3,5,-1,-1,-1,-1],"loss_changes":[1.21149124E2,6.3976883E1,2.9762695E1,0E0,0E0,0E0,0E0],"parents":[2147483647,0,0,1,1,2,2],"right_children":[2,4,6,-1,-1,-1,-1],"split_conditions":[1.95E1,8.5E0,-6.25E0,1.8726985E-5,2.692706E-3,-2.8527512E-3,-2.204677E-4],"split_indices":[28,103,25,0,0,0,0],"split_type":[0,0,0,0,0,0,0],"sum_hessian":[6.042117E3,4.2090356E3,1.8330817E3,1.2901047E3,2.9189307E3,6.85783E2,1.1472987E3],"tree_param":{"num_deleted":"0","num_feature":"104","num_nodes":"7","size_leaf_vector":"0"}},{"base_weights":[-9.2995025E-2,-2.3688594E-1,4.413714E-2,-1.7980848E-1,-4.8032406E-1,-1.4884998E-1,1.3196611E-1],"categories":[],"categories_nodes":[],"categories_segments":[],"categories_sizes":[],"default_left":[1,1,1,0,0,0,0],"id":106,"left_children":[1,3,5,-1,-1,-1,-1],"loss_changes":[1.1920679E2,4.0874023E1,5.2460045E1,0E0,0E0,0E0,0E0],"parents":[2147483647,0,0,1,1,2,2],"right_children":[2,4,6,-1,-1,-1,-1],"split_conditions":[1.45E1,2.25E1,-2.05E0,-1.7980848E-3,-4.8032403E-3,-1.4884998E-3,1.3196612E-3],"split_indices":[51,80,77,0,0,0,0],"split_type":[0,0,0,0,0,0,0],"sum_hessian":[6.039741E3,2.9468862E3,3.0928547E3,2.3885872E3,5.582989E2,9.671142E2,2.1257407E3],"tree_param":{"num_deleted":"0","num_feature":"104","num_nodes":"7","size_leaf_vector":"0"}},{"base_weights":[9.299502E-2,2.3688592E-1,-4.4137143E-2,1.7980847E-1,4.8032403E-1,1.4884996E-1,-1.319661E-1],"categories":[],"categories_nodes":[],"categories_segments":[],"categories_sizes":[],"default_left":[1,1,1,0,0,0,0],"id":107,"left_children":[1,3,5,-1,-1,-1,-1],"loss_changes":[1.1920677E2,4.0874023E1,5.2460045E1,0E0,0E0,0E0,0E0],"parents":[2147483647,0,0,1,1,2,2],"right_children":[2,4,6,-1,-1,-1,-1],"split_conditions":[1.45E1,2.25E1,-2.05E0,1.7980846E-3,4.8032403E-3,1.4884996E-3,-1.3196609E-3],"split_indices":[51,80,77,0,0,0,0],"split_type":[0,0,0,0,0,0,0],"sum_hessian":[6.0397407E3,2.9468862E3,3.0928547E3,2.3885872E3,5.582989E2,9.671142E2,2.1257407E3],"tree_param":{"num_deleted":"0","num_feature":"104","num_nodes":"7","size_leaf_vector":"0"}},{"base_weights":[-9.2107125E-2,-1.6655602E-1,1.693223E-1,6.452741E-3,-2.5458905E-1,6.6366814E-2,2.8686234E-1],"categories":[],"categories_nodes":[],"categories_segments":[],"categories_sizes":[],"default_left":[1,1,1,0,0,0,0],"id":108,"left_children":[1,3,5,-1,-1,-1,-1],"loss_changes":[1.1754848E2,7.158841E1,1.618311E1,0E0,0E0,0E0,0E0],"parents":[2147483647,0,0,1,1,2,2],"right_children":[2,4,6,-1,-1,-1,-1],"split_conditions":[2.35E1,9.5E0,3.5000002E-1,6.452741E-5,-2.5458904E-3,6.6366815E-4,2.8686235E-3],"split_indices":[51,103,77,0,0,0,0],"split_type":[0,0,0,0,0,0,0],"sum_hessian":[6.037097E3,4.6992305E3,1.3378663E3,1.5850684E3,3.1141624E3,7.140134E2,6.238529E2],"tree_param":{"num_deleted":"0","num_feature":"104","num_nodes":"7","size_leaf_vector":"0"}},{"base_weights":[9.210712E-2,1.66556E-1,-1.6932227E-1,-6.452724E-3,2.54589E-1,-6.636679E-2,-2.8686228E-1],"categories":[],"categories_nodes":[],"categories_segments":[],"categories_sizes":[],"default_left":[1,1,1,0,0,0,0],"id":109,"left_children":[1,3,5,-1,-1,-1,-1],"loss_changes":[1.1754844E2,7.1588394E1,1.6183105E1,0E0,0E0,0E0,0E0],"parents":[2147483647,0,0,1,1,2,2],"right_children":[2,4,6,-1,-1,-1,-1],"split_conditions":[2.35E1,9.5E0,3.5000002E-1,-6.452724E-5,2.54589E-3,-6.636679E-4,-2.8686228E-3],"split_indices":[51,103,77,0,0,0,0],"split_type":[0,0,0,0,0,0,0],"sum_hessian":[6.037097E3,4.6992305E3,1.3378663E3,1.5850684E3,3.1141624E3,7.140134E2,6.238529E2],"tree_param":{"num_deleted":"0","num_feature":"104","num_nodes":"7","size_leaf_vector":"0"}},{"base_weights":[-9.1223344E-2,7.75267E-2,-2.0527007E-1,1.2871352E-1,-2.0427687E-1,-3.961262E-1,-1.254525E-1],"categories":[],"categories_nodes":[],"categories_segments":[],"categories_sizes":[],"default_left":[1,1,1,0,0,0,0],"id":110,"left_children":[1,3,5,-1,-1,-1,-1],"loss_changes":[1.1617415E2,3.514721E1,5.4819733E1,0E0,0E0,0E0,0E0],"parents":[2147483647,0,0,1,1,2,2],"right_children":[2,4,6,-1,-1,-1,-1],"split_conditions":[4.7149998E-1,2.55E1,-1.95E0,1.2871352E-3,-2.0427688E-3,-3.961262E-3,-1.254525E-3],"split_indices":[3,103,77,0,0,0,0],"split_type":[0,0,0,0,0,0,0],"sum_hessian":[6.03464E3,2.433788E3,3.6008518E3,2.0601294E3,3.7365875E2,1.0606678E3,2.5401838E3],"tree_param":{"num_deleted":"0","num_feature":"104","num_nodes":"7","size_leaf_vector":"0"}},{"base_weights":[9.122335E-2,-7.7526696E-2,2.0527007E-1,-1.287135E-1,2.0427687E-1,3.9612618E-1,1.2545252E-1],"categories":[],"categories_nodes":[],"categories_segments":[],"categories_sizes":[],"default_left":[1,1,1,0,0,0,0],"id":111,"left_children":[1,3,5,-1,-1,-1,-1],"loss_changes":[1.1617415E2,3.5147205E1,5.4819702E1,0E0,0E0,0E0,0E0],"parents":[2147483647,0,0,1,1,2,2],"right_children":[2,4,6,-1,-1,-1,-1],"split_conditions":[4.7149998E-1,2.55E1,-1.95E0,-1.2871351E-3,2.0427688E-3,3.961262E-3,1.2545252E-3],"split_indices":[3,103,77,0,0,0,0],"split_type":[0,0,0,0,0,0,0],"sum_hessian":[6.0346396E3,2.433788E3,3.6008516E3,2.0601294E3,3.7365875E2,1.0606678E3,2.5401838E3],"tree_param":{"num_deleted":"0","num_feature":"104","num_nodes":"7","size_leaf_vector":"0"}},{"base_weights":[-9.035094E-2,4.0462703E-2,-2.3541136E-1,-1.5262905E-1,1.28253E-1,-2.937861E-1,3.0613078E-3],"categories":[],"categories_nodes":[],"categories_segments":[],"categories_sizes":[],"default_left":[1,1,1,0,0,0,0],"id":112,"left_children":[1,3,5,-1,-1,-1,-1],"loss_changes":[1.14492676E2,5.3809956E1,3.982698E1,0E0,0E0,0E0,0E0],"parents":[2147483647,0,0,1,1,2,2],"right_children":[2,4,6,-1,-1,-1,-1],"split_conditions":[5.5E-1,-2.05E0,5.05E0,-1.5262904E-3,1.2825299E-3,-2.937861E-3,3.061308E-5],"split_indices":[25,77,77,0,0,0,0],"split_type":[0,0,0,0,0,0,0],"sum_hessian":[6.032087E3,3.1721782E3,2.8599087E3,9.912403E2,2.1809377E3,2.2973242E3,5.625845E2],"tree_param":{"num_deleted":"0","num_feature":"104","num_nodes":"7","size_leaf_vector":"0"}},{"base_weights":[9.035093E-2,-4.046271E-2,2.3541135E-1,1.5262905E-1,-1.28253E-1,2.9378608E-1,-3.0613127E-3],"categories":[],"categories_nodes":[],"categories_segments":[],"categories_sizes":[],"default_left":[1,1,1,0,0,0,0],"id":113,"left_children":[1,3,5,-1,-1,-1,-1],"loss_changes":[1.1449267E2,5.3809963E1,3.982698E1,0E0,0E0,0E0,0E0],"parents":[2147483647,0,0,1,1,2,2],"right_children":[2,4,6,-1,-1,-1,-1],"split_conditions":[5.5E-1,-2.05E0,5.05E0,1.5262904E-3,-1.2825299E-3,2.9378608E-3,-3.0613126E-5],"split_indices":[25,77,77,0,0,0,0],"split_type":[0,0,0,0,0,0,0],"sum_hessian":[6.032087E3,3.1721782E3,2.8599087E3,9.912403E2,2.1809377E3,2.2973242E3,5.625845E2],"tree_param":{"num_deleted":"0","num_feature":"104","num_nodes":"7","size_leaf_vector":"0"}},{"base_weights":[-8.948702E-2,-1.7981766E-1,1.1755927E-1,2.182939E-4,-2.5960737E-1,2.794806E-1,2.0660868E-2],"categories":[],"categories_nodes":[],"categories_segments":[],"categories_sizes":[],"default_left":[1,1,1,0,0,0,0],"id":114,"left_children":[1,3,5,-1,-1,-1,-1],"loss_changes":[1.1280708E2,6.0319855E1,2.8744648E1,0E0,0E0,0E0,0E0],"parents":[2147483647,0,0,1,1,2,2],"right_children":[2,4,6,-1,-1,-1,-1],"split_conditions":[1.95E1,8.5E0,-6.25E0,2.182939E-6,-2.5960738E-3,2.794806E-3,2.0660867E-4],"split_indices":[28,103,25,0,0,0,0],"split_type":[0,0,0,0,0,0,0],"sum_hessian":[6.029488E3,4.1980737E3,1.831414E3,1.2894902E3,2.9085833E3,6.849497E2,1.1464642E3],"tree_param":{"num_deleted":"0","num_feature":"104","num_nodes":"7","size_leaf_vector":"0"}},{"base_weights":[8.948703E-2,1.7981766E-1,-1.1755924E-1,-2.183298E-4,2.596074E-1,-2.7948055E-1,-2.0660855E-2],"categories":[],"categories_nodes":[],"categories_segments":[],"categories_sizes":[],"default_left":[1,1,1,0,0,0,0],"id":115,"left_children":[1,3,5,-1,-1,-1,-1],"loss_changes":[1.1280705E2,6.0319855E1,2.8744638E1,0E0,0E0,0E0,0E0],"parents":[2147483647,0,0,1,1,2,2],"right_children":[2,4,6,-1,-1,-1,-1],"split_conditions":[1.95E1,8.5E0,-6.25E0,-2.183298E-6,2.596074E-3,-2.7948054E-3,-2.0660854E-4],"split_indices":[28,103,25,0,0,0,0],"split_type":[0,0,0,0,0,0,0],"sum_hessian":[6.0294873E3,4.1980737E3,1.831414E3,1.2894902E3,2.9085835E3,6.849497E2,1.1464642E3],"tree_param":{"num_deleted":"0","num_feature":"104","num_nodes":"7","size_leaf_vector":"0"}},{"base_weights":[-8.8628665E-2,4.0209103E-2,-2.3163836E-1,-1.5077525E-1,1.270194E-1,-2.8918165E-1,3.040802E-3],"categories":[],"categories_nodes":[],"categories_segments":[],"categories_sizes":[],"default_left":[1,1,1,0,0,0,0],"id":116,"left_children":[1,3,5,-1,-1,-1,-1],"loss_changes":[1.11076035E2,5.2608913E1,3.858287E1,0E0,0E0,0E0,0E0],"parents":[2147483647,0,0,1,1,2,2],"right_children":[2,4,6,-1,-1,-1,-1],"split_conditions":[5.5E-1,-2.05E0,5.05E0,-1.5077525E-3,1.2701941E-3,-2.8918164E-3,3.0408019E-5],"split_indices":[25,77,77,0,0,0,0],"split_type":[0,0,0,0,0,0,0],"sum_hessian":[6.027028E3,3.1709922E3,2.8560354E3,9.906988E2,2.1802935E3,2.29345E3,5.625856E2],"tree_param":{"num_deleted":"0","num_feature":"104","num_nodes":"7","size_leaf_vector":"0"}},{"base_weights":[8.862865E-2,-4.020911E-2,2.3163834E-1,1.5077524E-1,-1.2701942E-1,2.8918162E-1,-3.0408318E-3],"categories":[],"categories_nodes":[],"categories_segments":[],"categories_sizes":[],"default_left":[1,1,1,0,0,0,0],"id":117,"left_children":[1,3,5,-1,-1,-1,-1],"loss_changes":[1.11076004E2,5.2608913E1,3.85829E1,0E0,0E0,0E0,0E0],"parents":[2147483647,0,0,1,1,2,2],"right_children":[2,4,6,-1,-1,-1,-1],"split_conditions":[5.5E-1,-2.05E0,5.05E0,1.5077523E-3,-1.2701942E-3,2.8918162E-3,-3.0408317E-5],"split_indices":[25,77,77,0,0,0,0],"split_type":[0,0,0,0,0,0,0],"sum_hessian":[6.027028E3,3.1709922E3,2.8560354E3,9.906988E2,2.1802935E3,2.2934497E3,5.625855E2],"tree_param":{"num_deleted":"0","num_feature":"104","num_nodes":"7","size_leaf_vector":"0"}},{"base_weights":[-8.7781765E-2,-1.598398E-1,1.6491212E-1,-3.05532E-2,-2.719886E-1,6.478806E-2,2.7938622E-1],"categories":[],"categories_nodes":[],"categories_segments":[],"categories_sizes":[],"default_left":[1,1,1,0,0,0,0],"id":118,"left_children":[1,3,5,-1,-1,-1,-1],"loss_changes":[1.0974048E2,6.797833E1,1.5311176E1,0E0,0E0,0E0,0E0],"parents":[2147483647,0,0,1,1,2,2],"right_children":[2,4,6,-1,-1,-1,-1],"split_conditions":[2.35E1,1.15E1,3.5000002E-1,-3.0553198E-4,-2.719886E-3,6.4788054E-4,2.7938623E-3],"split_indices":[51,80,77,0,0,0,0],"split_type":[0,0,0,0,0,0,0],"sum_hessian":[6.0243936E3,4.6879487E3,1.3364451E3,2.178183E3,2.5097654E3,7.137415E2,6.2270355E2],"tree_param":{"num_deleted":"0","num_feature":"104","num_nodes":"7","size_leaf_vector":"0"}},{"base_weights":[8.7781765E-2,1.598398E-1,-1.6491212E-1,3.0553218E-2,2.7198857E-1,-6.478806E-2,-2.7938622E-1],"categories":[],"categories_nodes":[],"categories_segments":[],"categories_sizes":[],"default_left":[1,1,1,0,0,0,0],"id":119,"left_children":[1,3,5,-1,-1,-1,-1],"loss_changes":[1.0974048E2,6.797832E1,1.53111725E1,0E0,0E0,0E0,0E0],"parents":[2147483647,0,0,1,1,2,2],"right_children":[2,4,6,-1,-1,-1,-1],"split_conditions":[2.35E1,1.15E1,3.5000002E-1,3.055322E-4,2.7198857E-3,-6.4788054E-4,-2.7938623E-3],"split_indices":[51,80,77,0,0,0,0],"split_type":[0,0,0,0,0,0,0],"sum_hessian":[6.0243936E3,4.6879487E3,1.3364451E3,2.178183E3,2.5097654E3,7.137415E2,6.2270355E2],"tree_param":{"num_deleted":"0","num_feature":"104","num_nodes":"7","size_leaf_vector":"0"}},{"base_weights":[-8.694157E-2,-2.2433312E-1,4.3579176E-2,-1.6871537E-1,-4.6321338E-1,-6.287749E-2,1.9095375E-1],"categories":[],"categories_nodes":[],"categories_segments":[],"categories_sizes":[],"default_left":[1,1,1,0,0,0,0],"id":120,"left_children":[1,3,5,-1,-1,-1,-1],"loss_changes":[1.0801344E2,3.890741E1,4.8482727E1,0E0,0E0,0E0,0E0],"parents":[2147483647,0,0,1,1,2,2],"right_children":[2,4,6,-1,-1,-1,-1],"split_conditions":[1.45E1,2.25E1,5.445E-1,-1.6871537E-3,-4.6321335E-3,-6.2877487E-4,1.9095375E-3],"split_indices":[51,80,55,0,0,0,0],"split_type":[0,0,0,0,0,0,0],"sum_hessian":[6.021807E3,2.9333367E3,3.0884705E3,2.3807422E3,5.525945E2,1.7935007E3,1.2949697E3],"tree_param":{"num_deleted":"0","num_feature":"104","num_nodes":"7","size_leaf_vector":"0"}},{"base_weights":[8.694159E-2,2.2433317E-1,-4.357918E-2,1.6871542E-1,4.6321344E-1,6.287748E-2,-1.9095375E-1],"categories":[],"categories_nodes":[],"categories_segments":[],"categories_sizes":[],"default_left":[1,1,1,0,0,0,0],"id":121,"left_children":[1,3,5,-1,-1,-1,-1],"loss_changes":[1.0801349E2,3.890741E1,4.8482723E1,0E0,0E0,0E0,0E0],"parents":[2147483647,0,0,1,1,2,2],"right_children":[2,4,6,-1,-1,-1,-1],"split_conditions":[1.45E1,2.25E1,5.445E-1,1.6871542E-3,4.6321345E-3,6.287748E-4,-1.9095375E-3],"split_indices":[51,80,55,0,0,0,0],"split_type":[0,0,0,0,0,0,0],"sum_hessian":[6.021807E3,2.9333367E3,3.0884705E3,2.3807422E3,5.525945E2,1.7935007E3,1.2949697E3],"tree_param":{"num_deleted":"0","num_feature":"104","num_nodes":"7","size_leaf_vector":"0"}},{"base_weights":[-8.611226E-2,-1.7409383E-1,1.1527097E-1,-1.0101723E-1,-3.6367825E-1,2.7463177E-1,1.9950772E-2],"categories":[],"categories_nodes":[],"categories_segments":[],"categories_sizes":[],"default_left":[1,1,1,0,0,0,0],"id":122,"left_children":[1,3,5,-1,-1,-1,-1],"loss_changes":[1.06684296E2,5.801345E1,2.780823E1,0E0,0E0,0E0,0E0],"parents":[2147483647,0,0,1,1,2,2],"right_children":[2,4,6,-1,-1,-1,-1],"split_conditions":[1.95E1,1.95E1,-6.25E0,-1.0101723E-3,-3.6367823E-3,2.7463175E-3,1.9950772E-4],"split_indices":[28,80,25,0,0,0,0],"split_type":[0,0,0,0,0,0,0],"sum_hessian":[6.0191016E3,4.189084E3,1.8300175E3,3.0247188E3,1.1643654E3,6.842219E2,1.1457955E3],"tree_param":{"num_deleted":"0","num_feature":"104","num_nodes":"7","size_leaf_vector":"0"}},{"base_weights":[8.611225E-2,1.7409381E-1,-1.15270965E-1,1.0101719E-1,3.6367828E-1,-2.7463177E-1,-1.995076E-2],"categories":[],"categories_nodes":[],"categories_segments":[],"categories_sizes":[],"default_left":[1,1,1,0,0,0,0],"id":123,"left_children":[1,3,5,-1,-1,-1,-1],"loss_changes":[1.0668429E2,5.8013496E1,2.7808233E1,0E0,0E0,0E0,0E0],"parents":[2147483647,0,0,1,1,2,2],"right_children":[2,4,6,-1,-1,-1,-1],"split_conditions":[1.95E1,1.95E1,-6.25E0,1.010172E-3,3.6367828E-3,-2.7463175E-3,-1.995076E-4],"split_indices":[28,80,25,0,0,0,0],"split_type":[0,0,0,0,0,0,0],"sum_hessian":[6.0191016E3,4.189084E3,1.8300175E3,3.0247185E3,1.1643654E3,6.842219E2,1.1457955E3],"tree_param":{"num_deleted":"0","num_feature":"104","num_nodes":"7","size_leaf_vector":"0"}},{"base_weights":[-8.5287996E-2,3.989243E-2,-2.245003E-1,-1.4683583E-1,1.2472576E-1,-2.8115818E-1,5.890605E-3],"categories":[],"categories_nodes":[],"categories_segments":[],"categories_sizes":[],"default_left":[1,1,1,0,0,0,0],"id":124,"left_children":[1,3,5,-1,-1,-1,-1],"loss_changes":[1.0487482E2,5.0222645E1,3.7194214E1,0E0,0E0,0E0,0E0],"parents":[2147483647,0,0,1,1,2,2],"right_children":[2,4,6,-1,-1,-1,-1],"split_conditions":[5.5E-1,-2.05E0,5.05E0,-1.4683583E-3,1.2472576E-3,-2.8115818E-3,5.8906047E-5],"split_indices":[25,77,77,0,0,0,0],"split_type":[0,0,0,0,0,0,0],"sum_hessian":[6.016556E3,3.168309E3,2.8482468E3,9.895221E2,2.178787E3,2.2858809E3,5.6236584E2],"tree_param":{"num_deleted":"0","num_feature":"104","num_nodes":"7","size_leaf_vector":"0"}},{"base_weights":[8.528799E-2,-3.989244E-2,2.2450028E-1,1.4683582E-1,-1.2472576E-1,2.811582E-1,-5.890715E-3],"categories":[],"categories_nodes":[],"categories_segments":[],"categories_sizes":[],"default_left":[1,1,1,0,0,0,0],"id":125,"left_children":[1,3,5,-1,-1,-1,-1],"loss_changes":[1.0487482E2,5.0222645E1,3.7194244E1,0E0,0E0,0E0,0E0],"parents":[2147483647,0,0,1,1,2,2],"right_children":[2,4,6,-1,-1,-1,-1],"split_conditions":[5.5E-1,-2.05E0,5.05E0,1.4683582E-3,-1.2472576E-3,2.811582E-3,-5.890715E-5],"split_indices":[25,77,77,0,0,0,0],"split_type":[0,0,0,0,0,0,0],"sum_hessian":[6.016556E3,3.168309E3,2.8482468E3,9.895221E2,2.178787E3,2.2858809E3,5.6236584E2],"tree_param":{"num_deleted":"0","num_feature":"104","num_nodes":"7","size_leaf_vector":"0"}},{"base_weights":[-8.447385E-2,1.9682951E-1,-1.4578208E-1,-5.639946E-1,2.1385118E-1,-3.3395472E-1,-6.492606E-2],"categories":[],"categories_nodes":[],"categories_segments":[],"categories_sizes":[],"default_left":[1,1,1,0,0,0,0],"id":126,"left_children":[1,3,5,-1,-1,-1,-1],"loss_changes":[1.0376242E2,1.4065044E1,7.512648E1,0E0,0E0,0E0,0E0],"parents":[2147483647,0,0,1,1,2,2],"right_children":[2,4,6,-1,-1,-1,-1],"split_conditions":[-4.6499996E0,8.5E0,-1.95E0,-5.6399456E-3,2.1385117E-3,-3.3395472E-3,-6.492606E-4],"split_indices":[25,33,77,0,0,0,0],"split_type":[0,0,0,0,0,0,0],"sum_hessian":[6.013869E3,1.0757494E3,4.9381196E3,2.2837519E1,1.0529119E3,1.4832013E3,3.4549187E3],"tree_param":{"num_deleted":"0","num_feature":"104","num_nodes":"7","size_leaf_vector":"0"}},{"base_weights":[8.447385E-2,-1.968295E-1,1.4578208E-1,5.639946E-1,-2.1385115E-1,3.3395472E-1,6.492605E-2],"categories":[],"categories_nodes":[],"categories_segments":[],"categories_sizes":[],"default_left":[1,1,1,0,0,0,0],"id":127,"left_children":[1,3,5,-1,-1,-1,-1],"loss_changes":[1.03762405E2,1.4065041E1,7.5126526E1,0E0,0E0,0E0,0E0],"parents":[2147483647,0,0,1,1,2,2],"right_children":[2,4,6,-1,-1,-1,-1],"split_conditions":[-4.6499996E0,8.5E0,-1.95E0,5.6399456E-3,-2.1385115E-3,3.3395472E-3,6.492605E-4],"split_indices":[25,33,77,0,0,0,0],"split_type":[0,0,0,0,0,0,0],"sum_hessian":[6.013869E3,1.0757494E3,4.93812E3,2.2837519E1,1.0529119E3,1.4832013E3,3.4549185E3],"tree_param":{"num_deleted":"0","num_feature":"104","num_nodes":"7","size_leaf_vector":"0"}},{"base_weights":[-8.366382E-2,1.097738E-1,-1.7167403E-1,1.6295199E-1,-1.401416E-1,-3.540211E-1,-9.284208E-2],"categories":[],"categories_nodes":[],"categories_segments":[],"categories_sizes":[],"default_left":[1,1,1,0,0,0,0],