{"learner":{"attributes":{"best_iteration":"499","best_ntree_limit":"500"},"feature_names":[],"feature_types":[],"gradient_booster":{"model":{"gbtree_model_param":{"num_parallel_tree":"1","num_trees":"1000","size_leaf_vector":"0"},"tree_info":[0,1,0,1,0,1,0,1,0,1,0,1,0,1,0,1,0,1,0,1,0,1,0,1,0,1,0,1,0,1,0,1,0,1,0,1,0,1,0,1,0,1,0,1,0,1,0,1,0,1,0,1,0,1,0,1,0,1,0,1,0,1,0,1,0,1,0,1,0,1,0,1,0,1,0,1,0,1,0,1,0,1,0,1,0,1,0,1,0,1,0,1,0,1,0,1,0,1,0,1,0,1,0,1,0,1,0,1,0,1,0,1,0,1,0,1,0,1,0,1,0,1,0,1,0,1,0,1,0,1,0,1,0,1,0,1,0,1,0,1,0,1,0,1,0,1,0,1,0,1,0,1,0,1,0,1,0,1,0,1,0,1,0,1,0,1,0,1,0,1,0,1,0,1,0,1,0,1,0,1,0,1,0,1,0,1,0,1,0,1,0,1,0,1,0,1,0,1,0,1,0,1,0,1,0,1,0,1,0,1,0,1,0,1,0,1,0,1,0,1,0,1,0,1,0,1,0,1,0,1,0,1,0,1,0,1,0,1,0,1,0,1,0,1,0,1,0,1,0,1,0,1,0,1,0,1,0,1,0,1,0,1,0,1,0,1,0,1,0,1,0,1,0,1,0,1,0,1,0,1,0,1,0,1,0,1,0,1,0,1,0,1,0,1,0,1,0,1,0,1,0,1,0,1,0,1,0,1,0,1,0,1,0,1,0,1,0,1,0,1,0,1,0,1,0,1,0,1,0,1,0,1,0,1,0,1,0,1,0,1,0,1,0,1,0,1,0,1,0,1,0,1,0,1,0,1,0,1,0,1,0,1,0,1,0,1,0,1,0,1,0,1,0,1,0,1,0,1,0,1,0,1,0,1,0,1,0,1,0,1,0,1,0,1,0,1,0,1,0,1,0,1,0,1,0,1,0,1,0,1,0,1,0,1,0,1,0,1,0,1,0,1,0,1,0,1,0,1,0,1,0,1,0,1,0,1,0,1,0,1,0,1,0,1,0,1,0,1,0,1,0,1,0,1,0,1,0,1,0,1,0,1,0,1,0,1,0,1,0,1,0,1,0,1,0,1,0,1,0,1,0,1,0,1,0,1,0,1,0,1,0,1,0,1,0,1,0,1,0,1,0,1,0,1,0,1,0,1,0,1,0,1,0,1,0,1,0,1,0,1,0,1,0,1,0,1,0,1,0,1,0,1,0,1,0,1,0,1,0,1,0,1,0,1,0,1,0,1,0,1,0,1,0,1,0,1,0,1,0,1,0,1,0,1,0,1,0,1,0,1,0,1,0,1,0,1,0,1,0,1,0,1,0,1,0,1,0,1,0,1,0,1,0,1,0,1,0,1,0,1,0,1,0,1,0,1,0,1,0,1,0,1,0,1,0,1,0,1,0,1,0,1,0,1,0,1,0,1,0,1,0,1,0,1,0,1,0,1,0,1,0,1,0,1,0,1,0,1,0,1,0,1,0,1,0,1,0,1,0,1,0,1,0,1,0,1,0,1,0,1,0,1,0,1,0,1,0,1,0,1,0,1,0,1,0,1,0,1,0,1,0,1,0,1,0,1,0,1,0,1,0,1,0,1,0,1,0,1,0,1,0,1,0,1,0,1,0,1,0,1,0,1,0,1,0,1,0,1,0,1,0,1,0,1,0,1,0,1,0,1,0,1,0,1,0,1,0,1,0,1,0,1,0,1,0,1,0,1,0,1,0,1,0,1,0,1,0,1,0,1,0,1,0,1,0,1,0,1,0,1,0,1,0,1,0,1,0,1,0,1,0,1,0,1,0,1,0,1,0,1,0,1,0,1,0,1,0,1,0,1,0,1,0,1,0,1,0,1,0,1,0,1,0,1,0,1,0,1,0,1,0,1,0,1,0,1,0,1,0,1,0,1,0,1,0,1,0,1,0,1,0,1,0,1,0,1,0,1,0,1,0,1,0,1,0,1,0,1,0,1,0,1,0,1,0,1,0,1,0,1,0,1,0,1,0,1,0,1,0,1,0,1,0,1,0,1,0,1,0,1,0,1,0,1,0,1,0,1,0,1,0,1,0,1,0,1,0,1,0,1,0,1,0,1,0,1,0,1,0,1,0,1,0,1,0,1,0,1,0,1,0,1,0,1,0,1,0,1,0,1,0,1,0,1,0,1,0,1,0,1,0,1,0,1,0,1,0,1,0,1,0,1,0,1,0,1,0,1,0,1,0,1,0,1,0,1,0,1,0,1,0,1,0,1,0,1,0,1,0,1],"trees":[{"base_weights":[-1.5318698E-1,-3.659348E-1,5.1737946E-2,-1.8523726E-1,-5.279268E-1,-2.0532843E-1,1.8928221E-1],"categories":[],"categories_nodes":[],"categories_segments":[],"categories_sizes":[],"default_left":[1,1,1,0,0,0,0],"id":0,"left_children":[1,3,5,-1,-1,-1,-1],"loss_changes":[2.6711798E2,8.789249E1,1.10408875E2,0E0,0E0,0E0,0E0],"parents":[2147483647,0,0,1,1,2,2],"right_children":[2,4,6,-1,-1,-1,-1],"split_conditions":[1.45E1,1.15E1,-1.55E0,-1.8523725E-3,-5.279268E-3,-2.0532843E-3,1.8928221E-3],"split_indices":[51,80,77,0,0,0,0],"split_type":[0,0,0,0,0,0,0],"sum_hessian":[6.1255E3,3.005E3,3.1205E3,1.4215E3,1.5835E3,1.0875E3,2.033E3],"tree_param":{"num_deleted":"0","num_feature":"104","num_nodes":"7","size_leaf_vector":"0"}},{"base_weights":[1.5318698E-1,3.659348E-1,-5.1737946E-2,1.8523726E-1,5.279268E-1,2.0532843E-1,-1.8928221E-1],"categories":[],"categories_nodes":[],"categories_segments":[],"categories_sizes":[],"default_left":[1,1,1,0,0,0,0],"id":1,"left_children":[1,3,5,-1,-1,-1,-1],"loss_changes":[2.6711798E2,8.789249E1,1.10408875E2,0E0,0E0,0E0,0E0],"parents":[2147483647,0,0,1,1,2,2],"right_children":[2,4,6,-1,-1,-1,-1],"split_conditions":[1.45E1,1.15E1,-1.55E0,1.8523725E-3,5.279268E-3,2.0532843E-3,-1.8928221E-3],"split_indices":[51,80,77,0,0,0,0],"split_type":[0,0,0,0,0,0,0],"sum_hessian":[6.1255E3,3.005E3,3.1205E3,1.4215E3,1.5835E3,1.0875E3,2.033E3],"tree_param":{"num_deleted":"0","num_feature":"104","num_nodes":"7","size_leaf_vector":"0"}},{"base_weights":[-1.5165782E-1,-3.6228377E-1,5.1220715E-2,-1.833868E-1,-5.226655E-1,-2.0327792E-1,1.87391E-1],"categories":[],"categories_nodes":[],"categories_segments":[],"categories_sizes":[],"default_left":[1,1,1,0,0,0,0],"id":2,"left_children":[1,3,5,-1,-1,-1,-1],"loss_changes":[2.6181036E2,8.615036E1,1.08213745E2,0E0,0E0,0E0,0E0],"parents":[2147483647,0,0,1,1,2,2],"right_children":[2,4,6,-1,-1,-1,-1],"split_conditions":[1.45E1,1.15E1,-1.55E0,-1.833868E-3,-5.226655E-3,-2.0327792E-3,1.87391E-3],"split_indices":[51,80,77,0,0,0,0],"split_type":[0,0,0,0,0,0,0],"sum_hessian":[6.125439E3,3.004951E3,3.120488E3,1.4214951E3,1.5834558E3,1.0874954E3,2.0329927E3],"tree_param":{"num_deleted":"0","num_feature":"104","num_nodes":"7","size_leaf_vector":"0"}},{"base_weights":[1.5165779E-1,3.622837E-1,-5.1220715E-2,1.833868E-1,5.226654E-1,2.0327792E-1,-1.87391E-1],"categories":[],"categories_nodes":[],"categories_segments":[],"categories_sizes":[],"default_left":[1,1,1,0,0,0,0],"id":3,"left_children":[1,3,5,-1,-1,-1,-1],"loss_changes":[2.618103E2,8.615027E1,1.08213745E2,0E0,0E0,0E0,0E0],"parents":[2147483647,0,0,1,1,2,2],"right_children":[2,4,6,-1,-1,-1,-1],"split_conditions":[1.45E1,1.15E1,-1.55E0,1.833868E-3,5.2266535E-3,2.0327792E-3,-1.87391E-3],"split_indices":[51,80,77,0,0,0,0],"split_type":[0,0,0,0,0,0,0],"sum_hessian":[6.125439E3,3.004951E3,3.120488E3,1.4214951E3,1.5834558E3,1.0874954E3,2.0329927E3],"tree_param":{"num_deleted":"0","num_feature":"104","num_nodes":"7","size_leaf_vector":"0"}},{"base_weights":[-1.5014693E-1,-3.5868075E-1,5.0708976E-2,-1.8155612E-1,-5.174851E-1,-2.0124952E-1,1.855199E-1],"categories":[],"categories_nodes":[],"categories_segments":[],"categories_sizes":[],"default_left":[1,1,1,0,0,0,0],"id":4,"left_children":[1,3,5,-1,-1,-1,-1],"loss_changes":[2.5661807E2,8.445386E1,1.0606299E2,0E0,0E0,0E0,0E0],"parents":[2147483647,0,0,1,1,2,2],"right_children":[2,4,6,-1,-1,-1,-1],"split_conditions":[1.45E1,1.15E1,-1.55E0,-1.8155612E-3,-5.1748506E-3,-2.0124952E-3,1.855199E-3],"split_indices":[51,80,77,0,0,0,0],"split_type":[0,0,0,0,0,0,0],"sum_hessian":[6.125259E3,3.004806E3,3.1204531E3,1.4214807E3,1.5833251E3,1.0874818E3,2.0329712E3],"tree_param":{"num_deleted":"0","num_feature":"104","num_nodes":"7","size_leaf_vector":"0"}},{"base_weights":[1.5014687E-1,3.5868064E-1,-5.0708998E-2,1.81556E-1,5.1748496E-1,2.0124952E-1,-1.8551993E-1],"categories":[],"categories_nodes":[],"categories_segments":[],"categories_sizes":[],"default_left":[1,1,1,0,0,0,0],"id":5,"left_children":[1,3,5,-1,-1,-1,-1],"loss_changes":[2.5661798E2,8.44538E1,1.0606301E2,0E0,0E0,0E0,0E0],"parents":[2147483647,0,0,1,1,2,2],"right_children":[2,4,6,-1,-1,-1,-1],"split_conditions":[1.45E1,1.15E1,-1.55E0,1.8155599E-3,5.1748496E-3,2.0124952E-3,-1.8551993E-3],"split_indices":[51,80,77,0,0,0,0],"split_type":[0,0,0,0,0,0,0],"sum_hessian":[6.125259E3,3.004806E3,3.1204531E3,1.4214807E3,1.5833252E3,1.0874818E3,2.0329713E3],"tree_param":{"num_deleted":"0","num_feature":"104","num_nodes":"7","size_leaf_vector":"0"}},{"base_weights":[-1.4865386E-1,1.1288775E-1,-3.065039E-1,-1.032597E-1,2.4410756E-1,-6.1180674E-2,-4.3204394E-1],"categories":[],"categories_nodes":[],"categories_segments":[],"categories_sizes":[],"default_left":[1,1,1,0,0,0,0],"id":6,"left_children":[1,3,5,-1,-1,-1,-1],"loss_changes":[2.52941E2,6.544156E1,1.1763846E2,0E0,0E0,0E0,0E0],"parents":[2147483647,0,0,1,1,2,2],"right_children":[2,4,6,-1,-1,-1,-1],"split_conditions":[4.585E-1,4.495E-1,9.5E0,-1.0325969E-3,2.4410756E-3,-6.118067E-4,-4.3204394E-3],"split_indices":[3,55,103,0,0,0,0],"split_type":[0,0,0,0,0,0,0],"sum_hessian":[6.124963E3,2.3054119E3,3.819551E3,8.70962E2,1.43445E3,1.2934508E3,2.5261E3],"tree_param":{"num_deleted":"0","num_feature":"104","num_nodes":"7","size_leaf_vector":"0"}},{"base_weights":[1.4865385E-1,-1.12887785E-1,3.0650386E-1,1.0325967E-1,-2.4410757E-1,6.1180662E-2,4.3204394E-1],"categories":[],"categories_nodes":[],"categories_segments":[],"categories_sizes":[],"default_left":[1,1,1,0,0,0,0],"id":7,"left_children":[1,3,5,-1,-1,-1,-1],"loss_changes":[2.5294102E2,6.544156E1,1.1763849E2,0E0,0E0,0E0,0E0],"parents":[2147483647,0,0,1,1,2,2],"right_children":[2,4,6,-1,-1,-1,-1],"split_conditions":[4.585E-1,4.495E-1,9.5E0,1.0325967E-3,-2.4410756E-3,6.1180664E-4,4.3204394E-3],"split_indices":[3,55,103,0,0,0,0],"split_type":[0,0,0,0,0,0,0],"sum_hessian":[6.124963E3,2.3054119E3,3.819551E3,8.709619E2,1.4344501E3,1.2934509E3,2.5261E3],"tree_param":{"num_deleted":"0","num_feature":"104","num_nodes":"7","size_leaf_vector":"0"}},{"base_weights":[-1.4717573E-1,-3.5225505E-1,5.032715E-2,-1.7814611E-1,-5.083933E-1,-1.9758518E-1,1.8297097E-1],"categories":[],"categories_nodes":[],"categories_segments":[],"categories_sizes":[],"default_left":[1,1,1,0,0,0,0],"id":8,"left_children":[1,3,5,-1,-1,-1,-1],"loss_changes":[2.4812918E2,8.1608826E1,1.0267829E2,0E0,0E0,0E0,0E0],"parents":[2147483647,0,0,1,1,2,2],"right_children":[2,4,6,-1,-1,-1,-1],"split_conditions":[1.45E1,1.15E1,-1.55E0,-1.7814611E-3,-5.0839325E-3,-1.9758518E-3,1.8297096E-3],"split_indices":[51,80,77,0,0,0,0],"split_type":[0,0,0,0,0,0,0],"sum_hessian":[6.124641E3,3.0043044E3,3.1203364E3,1.4214235E3,1.582881E3,1.0874307E3,2.0329059E3],"tree_param":{"num_deleted":"0","num_feature":"104","num_nodes":"7","size_leaf_vector":"0"}},{"base_weights":[1.471757E-1,3.5225502E-1,-5.0327193E-2,1.7814611E-1,5.083932E-1,1.975851E-1,-1.8297099E-1],"categories":[],"categories_nodes":[],"categories_segments":[],"categories_sizes":[],"default_left":[1,1,1,0,0,0,0],"id":9,"left_children":[1,3,5,-1,-1,-1,-1],"loss_changes":[2.4812918E2,8.160886E1,1.02678276E2,0E0,0E0,0E0,0E0],"parents":[2147483647,0,0,1,1,2,2],"right_children":[2,4,6,-1,-1,-1,-1],"split_conditions":[1.45E1,1.15E1,-1.55E0,1.7814611E-3,5.083932E-3,1.975851E-3,-1.8297099E-3],"split_indices":[51,80,77,0,0,0,0],"split_type":[0,0,0,0,0,0,0],"sum_hessian":[6.124641E3,3.0043044E3,3.1203367E3,1.4214235E3,1.5828809E3,1.0874305E3,2.032906E3],"tree_param":{"num_deleted":"0","num_feature":"104","num_nodes":"7","size_leaf_vector":"0"}},{"base_weights":[-1.4571688E-1,1.1146082E-1,-3.009526E-1,-1.0076236E-1,2.4029955E-1,-5.9496555E-2,-4.2454118E-1],"categories":[],"categories_nodes":[],"categories_segments":[],"categories_sizes":[],"default_left":[1,1,1,0,0,0,0],"id":10,"left_children":[1,3,5,-1,-1,-1,-1],"loss_changes":[2.4456894E2,6.3083973E1,1.1396411E2,0E0,0E0,0E0,0E0],"parents":[2147483647,0,0,1,1,2,2],"right_children":[2,4,6,-1,-1,-1,-1],"split_conditions":[4.585E-1,4.495E-1,9.5E0,-1.0076236E-3,2.4029955E-3,-5.9496553E-4,-4.2454116E-3],"split_indices":[3,55,103,0,0,0,0],"split_type":[0,0,0,0,0,0,0],"sum_hessian":[6.1241504E3,2.3052856E3,3.8188647E3,8.709215E2,1.4343641E3,1.2934064E3,2.5254583E3],"tree_param":{"num_deleted":"0","num_feature":"104","num_nodes":"7","size_leaf_vector":"0"}},{"base_weights":[1.4571695E-1,-1.1146074E-1,3.0095267E-1,1.0076246E-1,-2.4029946E-1,5.9496623E-2,4.2454123E-1],"categories":[],"categories_nodes":[],"categories_segments":[],"categories_sizes":[],"default_left":[1,1,1,0,0,0,0],"id":11,"left_children":[1,3,5,-1,-1,-1,-1],"loss_changes":[2.4456894E2,6.3083984E1,1.1396411E2,0E0,0E0,0E0,0E0],"parents":[2147483647,0,0,1,1,2,2],"right_children":[2,4,6,-1,-1,-1,-1],"split_conditions":[4.585E-1,4.495E-1,9.5E0,1.0076246E-3,-2.4029945E-3,5.9496623E-4,4.245412E-3],"split_indices":[3,55,103,0,0,0,0],"split_type":[0,0,0,0,0,0,0],"sum_hessian":[6.1241504E3,2.3052856E3,3.8188645E3,8.709215E2,1.4343641E3,1.2934064E3,2.5254583E3],"tree_param":{"num_deleted":"0","num_feature":"104","num_nodes":"7","size_leaf_vector":"0"}},{"base_weights":[-1.442725E-1,-3.459802E-1,4.9943972E-2,-1.8530996E-1,-5.098754E-1,-1.9399744E-1,1.8046E-1],"categories":[],"categories_nodes":[],"categories_segments":[],"categories_sizes":[],"default_left":[1,1,1,0,0,0,0],"id":12,"left_children":[1,3,5,-1,-1,-1,-1],"loss_changes":[2.3994974E2,7.902341E1,9.940652E1,0E0,0E0,0E0,0E0],"parents":[2147483647,0,0,1,1,2,2],"right_children":[2,4,6,-1,-1,-1,-1],"split_conditions":[1.45E1,1.25E1,-1.55E0,-1.8530996E-3,-5.098754E-3,-1.9399744E-3,1.8046E-3],"split_indices":[51,80,77,0,0,0,0],"split_type":[0,0,0,0,0,0,0],"sum_hessian":[6.123638E3,3.0035037E3,3.1201345E3,1.5177494E3,1.4857542E3,1.0873441E3,2.0327905E3],"tree_param":{"num_deleted":"0","num_feature":"104","num_nodes":"7","size_leaf_vector":"0"}},{"base_weights":[1.4427248E-1,3.459802E-1,-4.9944025E-2,1.8530993E-1,5.098754E-1,1.9399741E-1,-1.8046007E-1],"categories":[],"categories_nodes":[],"categories_segments":[],"categories_sizes":[],"default_left":[1,1,1,0,0,0,0],"id":13,"left_children":[1,3,5,-1,-1,-1,-1],"loss_changes":[2.3994975E2,7.902341E1,9.940654E1,0E0,0E0,0E0,0E0],"parents":[2147483647,0,0,1,1,2,2],"right_children":[2,4,6,-1,-1,-1,-1],"split_conditions":[1.45E1,1.25E1,-1.55E0,1.8530993E-3,5.098754E-3,1.9399741E-3,-1.8046006E-3],"split_indices":[51,80,77,0,0,0,0],"split_type":[0,0,0,0,0,0,0],"sum_hessian":[6.123638E3,3.0035037E3,3.1201345E3,1.5177495E3,1.4857542E3,1.0873441E3,2.0327905E3],"tree_param":{"num_deleted":"0","num_feature":"104","num_nodes":"7","size_leaf_vector":"0"}},{"base_weights":[-1.4284675E-1,1.1005165E-1,-2.9552716E-1,-4.530664E-2,2.797589E-1,-5.7804655E-2,-4.1724482E-1],"categories":[],"categories_nodes":[],"categories_segments":[],"categories_sizes":[],"default_left":[1,1,1,0,0,0,0],"id":14,"left_children":[1,3,5,-1,-1,-1,-1],"loss_changes":[2.3649509E2,6.0814014E1,1.10474915E2,0E0,0E0,0E0,0E0],"parents":[2147483647,0,0,1,1,2,2],"right_children":[2,4,6,-1,-1,-1,-1],"split_conditions":[4.585E-1,5.135E-1,9.5E0,-4.530664E-4,2.797589E-3,-5.7804654E-4,-4.172448E-3],"split_indices":[3,55,103,0,0,0,0],"split_type":[0,0,0,0,0,0,0],"sum_hessian":[6.1229688E3,2.3051008E3,3.8178677E3,1.2038087E3,1.101292E3,1.2933485E3,2.5245193E3],"tree_param":{"num_deleted":"0","num_feature":"104","num_nodes":"7","size_leaf_vector":"0"}},{"base_weights":[1.4284676E-1,-1.1005165E-1,2.955272E-1,4.530664E-2,-2.797589E-1,5.780472E-2,4.1724482E-1],"categories":[],"categories_nodes":[],"categories_segments":[],"categories_sizes":[],"default_left":[1,1,1,0,0,0,0],"id":15,"left_children":[1,3,5,-1,-1,-1,-1],"loss_changes":[2.3649509E2,6.081402E1,1.10474884E2,0E0,0E0,0E0,0E0],"parents":[2147483647,0,0,1,1,2,2],"right_children":[2,4,6,-1,-1,-1,-1],"split_conditions":[4.585E-1,5.135E-1,9.5E0,4.530664E-4,-2.797589E-3,5.780472E-4,4.172448E-3],"split_indices":[3,55,103,0,0,0,0],"split_type":[0,0,0,0,0,0,0],"sum_hessian":[6.1229683E3,2.3051008E3,3.8178677E3,1.2038087E3,1.101292E3,1.2933484E3,2.5245193E3],"tree_param":{"num_deleted":"0","num_feature":"104","num_nodes":"7","size_leaf_vector":"0"}},{"base_weights":[-1.4143452E-1,-3.398447E-1,4.9554642E-2,-1.8182139E-1,-5.0112003E-1,-1.90668E-1,1.7807764E-1],"categories":[],"categories_nodes":[],"categories_segments":[],"categories_sizes":[],"default_left":[1,1,1,0,0,0,0],"id":16,"left_children":[1,3,5,-1,-1,-1,-1],"loss_changes":[2.3205397E2,7.6451965E1,9.638795E1,0E0,0E0,0E0,0E0],"parents":[2147483647,0,0,1,1,2,2],"right_children":[2,4,6,-1,-1,-1,-1],"split_conditions":[1.45E1,1.25E1,-1.55E0,-1.8182138E-3,-5.0112E-3,-1.90668E-3,1.7807763E-3],"split_indices":[51,80,77,0,0,0,0],"split_type":[0,0,0,0,0,0,0],"sum_hessian":[6.12229E3,3.0024248E3,3.1198652E3,1.5175765E3,1.4848481E3,1.0872325E3,2.0326326E3],"tree_param":{"num_deleted":"0","num_feature":"104","num_nodes":"7","size_leaf_vector":"0"}},{"base_weights":[1.4143454E-1,3.3984467E-1,-4.9554624E-2,1.8182136E-1,5.0112003E-1,1.90668E-1,-1.7807761E-1],"categories":[],"categories_nodes":[],"categories_segments":[],"categories_sizes":[],"default_left":[1,1,1,0,0,0,0],"id":17,"left_children":[1,3,5,-1,-1,-1,-1],"loss_changes":[2.3205396E2,7.6451935E1,9.638794E1,0E0,0E0,0E0,0E0],"parents":[2147483647,0,0,1,1,2,2],"right_children":[2,4,6,-1,-1,-1,-1],"split_conditions":[1.45E1,1.25E1,-1.55E0,1.8182136E-3,5.0112E-3,1.90668E-3,-1.7807761E-3],"split_indices":[51,80,77,0,0,0,0],"split_type":[0,0,0,0,0,0,0],"sum_hessian":[6.12229E3,3.0024248E3,3.1198652E3,1.5175767E3,1.4848481E3,1.0872325E3,2.0326326E3],"tree_param":{"num_deleted":"0","num_feature":"104","num_nodes":"7","size_leaf_vector":"0"}},{"base_weights":[-1.4004081E-1,1.0865972E-1,-2.9022315E-1,-9.6452646E-2,2.3319104E-1,-5.6153025E-2,-4.101225E-1],"categories":[],"categories_nodes":[],"categories_segments":[],"categories_sizes":[],"default_left":[1,1,1,0,0,0,0],"id":18,"left_children":[1,3,5,-1,-1,-1,-1],"loss_changes":[2.2870758E2,5.8921234E1,1.0711661E2,0E0,0E0,0E0,0E0],"parents":[2147483647,0,0,1,1,2,2],"right_children":[2,4,6,-1,-1,-1,-1],"split_conditions":[4.585E-1,4.495E-1,9.5E0,-9.6452644E-4,2.3319104E-3,-5.6153024E-4,-4.101225E-3],"split_indices":[3,55,103,0,0,0,0],"split_type":[0,0,0,0,0,0,0],"sum_hessian":[6.1214473E3,2.304874E3,3.8165732E3,8.708102E2,1.4340638E3,1.2932775E3,2.523296E3],"tree_param":{"num_deleted":"0","num_feature":"104","num_nodes":"7","size_leaf_vector":"0"}},{"base_weights":[1.4004084E-1,-1.0865968E-1,2.9022318E-1,9.645262E-2,-2.3319095E-1,5.6153037E-2,4.1012254E-1],"categories":[],"categories_nodes":[],"categories_segments":[],"categories_sizes":[],"default_left":[1,1,1,0,0,0,0],"id":19,"left_children":[1,3,5,-1,-1,-1,-1],"loss_changes":[2.2870752E2,5.892119E1,1.0711661E2,0E0,0E0,0E0,0E0],"parents":[2147483647,0,0,1,1,2,2],"right_children":[2,4,6,-1,-1,-1,-1],"split_conditions":[4.585E-1,4.495E-1,9.5E0,9.645262E-4,-2.3319095E-3,5.6153035E-4,4.101225E-3],"split_indices":[3,55,103,0,0,0,0],"split_type":[0,0,0,0,0,0,0],"sum_hessian":[6.1214473E3,2.304874E3,3.8165732E3,8.708102E2,1.4340638E3,1.2932775E3,2.523296E3],"tree_param":{"num_deleted":"0","num_feature":"104","num_nodes":"7","size_leaf_vector":"0"}},{"base_weights":[-1.3866061E-1,-3.338541E-1,4.9169403E-2,-1.7840058E-1,-4.926051E-1,-1.872218E-1,1.756379E-1],"categories":[],"categories_nodes":[],"categories_segments":[],"categories_sizes":[],"default_left":[1,1,1,0,0,0,0],"id":20,"left_children":[1,3,5,-1,-1,-1,-1],"loss_changes":[2.2445348E2,7.399866E1,9.332375E1,0E0,0E0,0E0,0E0],"parents":[2147483647,0,0,1,1,2,2],"right_children":[2,4,6,-1,-1,-1,-1],"split_conditions":[1.45E1,1.25E1,-1.55E0,-1.7840057E-3,-4.926051E-3,-1.8722179E-3,1.7563789E-3],"split_indices":[51,80,77,0,0,0,0],"split_type":[0,0,0,0,0,0,0],"sum_hessian":[6.1205894E3,3.0010803E3,3.1195093E3,1.5173607E3,1.4837196E3,1.0870837E3,2.0324254E3],"tree_param":{"num_deleted":"0","num_feature":"104","num_nodes":"7","size_leaf_vector":"0"}},{"base_weights":[1.3866061E-1,3.338541E-1,-4.9169376E-2,1.7840059E-1,4.926051E-1,1.872218E-1,-1.7563786E-1],"categories":[],"categories_nodes":[],"categories_segments":[],"categories_sizes":[],"default_left":[1,1,1,0,0,0,0],"id":21,"left_children":[1,3,5,-1,-1,-1,-1],"loss_changes":[2.2445343E2,7.399866E1,9.332374E1,0E0,0E0,0E0,0E0],"parents":[2147483647,0,0,1,1,2,2],"right_children":[2,4,6,-1,-1,-1,-1],"split_conditions":[1.45E1,1.25E1,-1.55E0,1.7840059E-3,4.926051E-3,1.8722179E-3,-1.7563786E-3],"split_indices":[51,80,77,0,0,0,0],"split_type":[0,0,0,0,0,0,0],"sum_hessian":[6.1205894E3,3.00108E3,3.1195093E3,1.5173607E3,1.4837195E3,1.0870837E3,2.0324255E3],"tree_param":{"num_deleted":"0","num_feature":"104","num_nodes":"7","size_leaf_vector":"0"}},{"base_weights":[-1.3729802E-1,1.0728481E-1,-2.850363E-1,-1.7532852E-1,1.948301E-1,-5.4540467E-2,-4.0316734E-1],"categories":[],"categories_nodes":[],"categories_segments":[],"categories_sizes":[],"default_left":[1,1,1,0,0,0,0],"id":22,"left_children":[1,3,5,-1,-1,-1,-1],"loss_changes":[2.2119324E2,5.707771E1,1.0388269E2,0E0,0E0,0E0,0E0],"parents":[2147483647,0,0,1,1,2,2],"right_children":[2,4,6,-1,-1,-1,-1],"split_conditions":[4.585E-1,3.725E-1,9.5E0,-1.7532852E-3,1.948301E-3,-5.454047E-4,-4.031673E-3],"split_indices":[3,55,103,0,0,0,0],"split_type":[0,0,0,0,0,0,0],"sum_hessian":[6.119582E3,2.3045842E3,3.814998E3,5.4481433E2,1.7597698E3,1.2931945E3,2.5218035E3],"tree_param":{"num_deleted":"0","num_feature":"104","num_nodes":"7","size_leaf_vector":"0"}},{"base_weights":[1.3729799E-1,-1.0728481E-1,2.8503627E-1,1.7532852E-1,-1.948301E-1,5.4540478E-2,4.0316728E-1],"categories":[],"categories_nodes":[],"categories_segments":[],"categories_sizes":[],"default_left":[1,1,1,0,0,0,0],"id":23,"left_children":[1,3,5,-1,-1,-1,-1],"loss_changes":[2.2119315E2,5.707771E1,1.0388269E2,0E0,0E0,0E0,0E0],"parents":[2147483647,0,0,1,1,2,2],"right_children":[2,4,6,-1,-1,-1,-1],"split_conditions":[4.585E-1,3.725E-1,9.5E0,1.7532852E-3,-1.948301E-3,5.454048E-4,4.0316726E-3],"split_indices":[3,55,103,0,0,0,0],"split_type":[0,0,0,0,0,0,0],"sum_hessian":[6.1195825E3,2.3045842E3,3.814998E3,5.4481433E2,1.7597698E3,1.2931945E3,2.5218037E3],"tree_param":{"num_deleted":"0","num_feature":"104","num_nodes":"7","size_leaf_vector":"0"}},{"base_weights":[-1.3594821E-1,-3.279922E-1,4.8776973E-2,-1.6489068E-1,-4.7458345E-1,-1.8397488E-1,1.7329271E-1],"categories":[],"categories_nodes":[],"categories_segments":[],"categories_sizes":[],"default_left":[1,1,1,0,0,0,0],"id":24,"left_children":[1,3,5,-1,-1,-1,-1],"loss_changes":[2.1711044E2,7.16611E1,9.045632E1,0E0,0E0,0E0,0E0],"parents":[2147483647,0,0,1,1,2,2],"right_children":[2,4,6,-1,-1,-1,-1],"split_conditions":[1.45E1,1.15E1,-1.55E0,-1.6489067E-3,-4.7458345E-3,-1.8397487E-3,1.732927E-3],"split_indices":[51,80,77,0,0,0,0],"split_type":[0,0,0,0,0,0,0],"sum_hessian":[6.1185835E3,2.9994841E3,3.119099E3,1.420794E3,1.5786903E3,1.0869093E3,2.0321898E3],"tree_param":{"num_deleted":"0","num_feature":"104","num_nodes":"7","size_leaf_vector":"0"}},{"base_weights":[1.3594818E-1,3.2799217E-1,-4.877699E-2,1.6489063E-1,4.7458342E-1,1.8397495E-1,-1.7329279E-1],"categories":[],"categories_nodes":[],"categories_segments":[],"categories_sizes":[],"default_left":[1,1,1,0,0,0,0],"id":25,"left_children":[1,3,5,-1,-1,-1,-1],"loss_changes":[2.171104E2,7.16611E1,9.045639E1,0E0,0E0,0E0,0E0],"parents":[2147483647,0,0,1,1,2,2],"right_children":[2,4,6,-1,-1,-1,-1],"split_conditions":[1.45E1,1.15E1,-1.55E0,1.6489063E-3,4.745834E-3,1.8397495E-3,-1.7329279E-3],"split_indices":[51,80,77,0,0,0,0],"split_type":[0,0,0,0,0,0,0],"sum_hessian":[6.1185835E3,2.9994841E3,3.119099E3,1.4207938E3,1.5786903E3,1.0869093E3,2.0321898E3],"tree_param":{"num_deleted":"0","num_feature":"104","num_nodes":"7","size_leaf_vector":"0"}},{"base_weights":[-1.3461576E-1,1.05925135E-1,-2.799627E-1,-4.266447E-2,2.682706E-1,-5.3012315E-2,-3.9634925E-1],"categories":[],"categories_nodes":[],"categories_segments":[],"categories_sizes":[],"default_left":[1,1,1,0,0,0,0],"id":26,"left_children":[1,3,5,-1,-1,-1,-1],"loss_changes":[2.1394104E2,5.562097E1,1.0072595E2,0E0,0E0,0E0,0E0],"parents":[2147483647,0,0,1,1,2,2],"right_children":[2,4,6,-1,-1,-1,-1],"split_conditions":[4.585E-1,5.135E-1,9.5E0,-4.2664466E-4,2.682706E-3,-5.301231E-4,-3.9634923E-3],"split_indices":[3,55,103,0,0,0,0],"split_type":[0,0,0,0,0,0,0],"sum_hessian":[6.1174185E3,2.3042637E3,3.8131548E3,1.2034874E3,1.1007762E3,1.2931012E3,2.5200535E3],"tree_param":{"num_deleted":"0","num_feature":"104","num_nodes":"7","size_leaf_vector":"0"}},{"base_weights":[1.3461573E-1,-1.0592514E-1,2.7996263E-1,4.2664487E-2,-2.6827064E-1,5.301223E-2,3.9634922E-1],"categories":[],"categories_nodes":[],"categories_segments":[],"categories_sizes":[],"default_left":[1,1,1,0,0,0,0],"id":27,"left_children":[1,3,5,-1,-1,-1,-1],"loss_changes":[2.1394101E2,5.5620987E1,1.0072604E2,0E0,0E0,0E0,0E0],"parents":[2147483647,0,0,1,1,2,2],"right_children":[2,4,6,-1,-1,-1,-1],"split_conditions":[4.585E-1,5.135E-1,9.5E0,4.2664487E-4,-2.6827063E-3,5.3012226E-4,3.9634923E-3],"split_indices":[3,55,103,0,0,0,0],"split_type":[0,0,0,0,0,0,0],"sum_hessian":[6.1174185E3,2.3042637E3,3.8131548E3,1.2034874E3,1.1007764E3,1.2931012E3,2.5200535E3],"tree_param":{"num_deleted":"0","num_feature":"104","num_nodes":"7","size_leaf_vector":"0"}},{"base_weights":[-1.3329528E-1,-3.2226124E-1,4.8385505E-2,-1.7167065E-1,-4.7628555E-1,-1.8083273E-1,1.71006E-1],"categories":[],"categories_nodes":[],"categories_segments":[],"categories_sizes":[],"default_left":[1,1,1,0,0,0,0],"id":28,"left_children":[1,3,5,-1,-1,-1,-1],"loss_changes":[2.100305E2,6.947067E1,8.7713684E1,0E0,0E0,0E0,0E0],"parents":[2147483647,0,0,1,1,2,2],"right_children":[2,4,6,-1,-1,-1,-1],"split_conditions":[1.45E1,1.25E1,-1.55E0,-1.7167064E-3,-4.7628554E-3,-1.8083273E-3,1.7100599E-3],"split_indices":[51,80,77,0,0,0,0],"split_type":[0,0,0,0,0,0,0],"sum_hessian":[6.1162686E3,2.9976462E3,3.118622E3,1.5167872E3,1.480859E3,1.0867161E3,2.0319061E3],"tree_param":{"num_deleted":"0","num_feature":"104","num_nodes":"7","size_leaf_vector":"0"}},{"base_weights":[1.3329528E-1,3.2226127E-1,-4.8385523E-2,1.7167065E-1,4.7628555E-1,1.8083267E-1,-1.7100601E-1],"categories":[],"categories_nodes":[],"categories_segments":[],"categories_sizes":[],"default_left":[1,1,1,0,0,0,0],"id":29,"left_children":[1,3,5,-1,-1,-1,-1],"loss_changes":[2.1003052E2,6.947067E1,8.771365E1,0E0,0E0,0E0,0E0],"parents":[2147483647,0,0,1,1,2,2],"right_children":[2,4,6,-1,-1,-1,-1],"split_conditions":[1.45E1,1.25E1,-1.55E0,1.7167064E-3,4.7628554E-3,1.8083267E-3,-1.71006E-3],"split_indices":[51,80,77,0,0,0,0],"split_type":[0,0,0,0,0,0,0],"sum_hessian":[6.116268E3,2.9976462E3,3.118622E3,1.5167872E3,1.480859E3,1.0867161E3,2.031906E3],"tree_param":{"num_deleted":"0","num_feature":"104","num_nodes":"7","size_leaf_vector":"0"}},{"base_weights":[-1.3199197E-1,1.0458326E-1,-2.749983E-1,-4.1467108E-2,2.6417717E-1,-6.710985E-2,-3.984167E-1],"categories":[],"categories_nodes":[],"categories_segments":[],"categories_sizes":[],"default_left":[1,1,1,0,0,0,0],"id":30,"left_children":[1,3,5,-1,-1,-1,-1],"loss_changes":[2.069425E2,5.373521E1,9.7780396E1,0E0,0E0,0E0,0E0],"parents":[2147483647,0,0,1,1,2,2],"right_children":[2,4,6,-1,-1,-1,-1],"split_conditions":[4.585E-1,5.135E-1,1.05E1,-4.1467106E-4,2.6417717E-3,-6.7109853E-4,-3.984167E-3],"split_indices":[3,55,103,0,0,0,0],"split_type":[0,0,0,0,0,0,0],"sum_hessian":[6.114962E3,2.3038967E3,3.8110652E3,1.2033794E3,1.1005173E3,1.4202727E3,2.3907922E3],"tree_param":{"num_deleted":"0","num_feature":"104","num_nodes":"7","size_leaf_vector":"0"}},{"base_weights":[1.3199195E-1,-1.04583256E-1,2.7499828E-1,4.1467093E-2,-2.6417714E-1,6.7109846E-2,3.9841667E-1],"categories":[],"categories_nodes":[],"categories_segments":[],"categories_sizes":[],"default_left":[1,1,1,0,0,0,0],"id":31,"left_children":[1,3,5,-1,-1,-1,-1],"loss_changes":[2.0694244E2,5.37352E1,9.7780426E1,0E0,0E0,0E0,0E0],"parents":[2147483647,0,0,1,1,2,2],"right_children":[2,4,6,-1,-1,-1,-1],"split_conditions":[4.585E-1,5.135E-1,1.05E1,4.146709E-4,-2.6417715E-3,6.710984E-4,3.984167E-3],"split_indices":[3,55,103,0,0,0,0],"split_type":[0,0,0,0,0,0,0],"sum_hessian":[6.114962E3,2.3038965E3,3.8110652E3,1.2033794E3,1.1005172E3,1.4202728E3,2.3907922E3],"tree_param":{"num_deleted":"0","num_feature":"104","num_nodes":"7","size_leaf_vector":"0"}},{"base_weights":[-1.307003E-1,-3.1665134E-1,4.7990076E-2,-3.8647202E-1,8.4366165E-3,-1.7772771E-1,1.6873255E-1],"categories":[],"categories_nodes":[],"categories_segments":[],"categories_sizes":[],"default_left":[1,1,1,0,0,0,0],"id":32,"left_children":[1,3,5,-1,-1,-1,-1],"loss_changes":[2.0319142E2,6.801947E1,8.503656E1,0E0,0E0,0E0,0E0],"parents":[2147483647,0,0,1,1,2,2],"right_children":[2,4,6,-1,-1,-1,-1],"split_conditions":[1.45E1,5.3500004E0,-1.55E0,-3.86472E-3,8.436616E-5,-1.7772771E-3,1.6873255E-3],"split_indices":[51,77,77,0,0,0,0],"split_type":[0,0,0,0,0,0,0],"sum_hessian":[6.113672E3,2.9955908E3,3.118081E3,2.4658086E3,5.297822E2,1.0864965E3,2.0315847E3],"tree_param":{"num_deleted":"0","num_feature":"104","num_nodes":"7","size_leaf_vector":"0"}},{"base_weights":[1.3070033E-1,3.1665134E-1,-4.799007E-2,3.8647202E-1,-8.43653E-3,1.7772776E-1,-1.6873255E-1],"categories":[],"categories_nodes":[],"categories_segments":[],"categories_sizes":[],"default_left":[1,1,1,0,0,0,0],"id":33,"left_children":[1,3,5,-1,-1,-1,-1],"loss_changes":[2.0319147E2,6.801941E1,8.503658E1,0E0,0E0,0E0,0E0],"parents":[2147483647,0,0,1,1,2,2],"right_children":[2,4,6,-1,-1,-1,-1],"split_conditions":[1.45E1,5.3500004E0,-1.55E0,3.86472E-3,-8.4365296E-5,1.7772776E-3,-1.6873255E-3],"split_indices":[51,77,77,0,0,0,0],"split_type":[0,0,0,0,0,0,0],"sum_hessian":[6.113672E3,2.9955908E3,3.118081E3,2.4658086E3,5.297822E2,1.0864963E3,2.0315847E3],"tree_param":{"num_deleted":"0","num_feature":"104","num_nodes":"7","size_leaf_vector":"0"}},{"base_weights":[-1.2942341E-1,1.0325914E-1,-2.7013516E-1,-1.6748986E-1,1.871397E-1,-4.974016E-1,-1.5985224E-1],"categories":[],"categories_nodes":[],"categories_segments":[],"categories_sizes":[],"default_left":[1,1,1,0,0,0,0],"id":34,"left_children":[1,3,5,-1,-1,-1,-1],"loss_changes":[2.0018439E2,5.2367607E1,9.540805E1,0E0,0E0,0E0,0E0],"parents":[2147483647,0,0,1,1,2,2],"right_children":[2,4,6,-1,-1,-1,-1],"split_conditions":[4.585E-1,3.725E-1,-1.45E0,-1.6748986E-3,1.871397E-3,-4.974016E-3,-1.5985223E-3],"split_indices":[3,55,77,0,0,0,0],"split_type":[0,0,0,0,0,0,0],"sum_hessian":[6.112297E3,2.3034885E3,3.8088083E3,5.446086E2,1.75888E3,1.2432535E3,2.565555E3],"tree_param":{"num_deleted":"0","num_feature":"104","num_nodes":"7","size_leaf_vector":"0"}},{"base_weights":[1.2942342E-1,-1.0325915E-1,2.701352E-1,1.6748983E-1,-1.871397E-1,4.9740162E-1,1.5985225E-1],"categories":[],"categories_nodes":[],"categories_segments":[],"categories_sizes":[],"default_left":[1,1,1,0,0,0,0],"id":35,"left_children":[1,3,5,-1,-1,-1,-1],"loss_changes":[2.0018445E2,5.2367596E1,9.540802E1,0E0,0E0,0E0,0E0],"parents":[2147483647,0,0,1,1,2,2],"right_children":[2,4,6,-1,-1,-1,-1],"split_conditions":[4.585E-1,3.725E-1,-1.45E0,1.6748982E-3,-1.871397E-3,4.974016E-3,1.5985225E-3],"split_indices":[3,55,77,0,0,0,0],"split_type":[0,0,0,0,0,0,0],"sum_hessian":[6.112297E3,2.3034885E3,3.8088083E3,5.446086E2,1.75888E3,1.2432537E3,2.565555E3],"tree_param":{"num_deleted":"0","num_feature":"104","num_nodes":"7","size_leaf_vector":"0"}},{"base_weights":[-1.2815914E-1,-3.1114438E-1,4.7590237E-2,-3.8013813E-1,9.837344E-3,-1.6459258E-1,1.7184961E-1],"categories":[],"categories_nodes":[],"categories_segments":[],"categories_sizes":[],"default_left":[1,1,1,0,0,0,0],"id":36,"left_children":[1,3,5,-1,-1,-1,-1],"loss_changes":[1.965719E2,6.631827E1,8.22491E1,0E0,0E0,0E0,0E0],"parents":[2147483647,0,0,1,1,2,2],"right_children":[2,4,6,-1,-1,-1,-1],"split_conditions":[1.45E1,5.3500004E0,4.475E-1,-3.8013812E-3,9.837344E-5,-1.6459258E-3,1.7184961E-3],"split_indices":[51,77,55,0,0,0,0],"split_type":[0,0,0,0,0,0,0],"sum_hessian":[6.110936E3,2.99346E3,3.1174758E3,2.4637107E3,5.2974927E2,1.1512684E3,1.9662075E3],"tree_param":{"num_deleted":"0","num_feature":"104","num_nodes":"7","size_leaf_vector":"0"}},{"base_weights":[1.2815914E-1,3.1114438E-1,-4.7590237E-2,3.8013813E-1,-9.837371E-3,1.645926E-1,-1.7184961E-1],"categories":[],"categories_nodes":[],"categories_segments":[],"categories_sizes":[],"default_left":[1,1,1,0,0,0,0],"id":37,"left_children":[1,3,5,-1,-1,-1,-1],"loss_changes":[1.9657187E2,6.63183E1,8.22491E1,0E0,0E0,0E0,0E0],"parents":[2147483647,0,0,1,1,2,2],"right_children":[2,4,6,-1,-1,-1,-1],"split_conditions":[1.45E1,5.3500004E0,4.475E-1,3.8013812E-3,-9.837371E-5,1.6459259E-3,-1.7184961E-3],"split_indices":[51,77,55,0,0,0,0],"split_type":[0,0,0,0,0,0,0],"sum_hessian":[6.110936E3,2.99346E3,3.1174758E3,2.4637107E3,5.297492E2,1.1512684E3,1.9662075E3],"tree_param":{"num_deleted":"0","num_feature":"104","num_nodes":"7","size_leaf_vector":"0"}},{"base_weights":[-1.2690914E-1,1.0195018E-1,-2.6537108E-1,-3.974596E-2,2.5683147E-1,-1.1706786E-1,-4.3081978E-1],"categories":[],"categories_nodes":[],"categories_segments":[],"categories_sizes":[],"default_left":[1,1,1,0,0,0,0],"id":38,"left_children":[1,3,5,-1,-1,-1,-1],"loss_changes":[1.936572E2,5.0575386E1,9.3370056E1,0E0,0E0,0E0,0E0],"parents":[2147483647,0,0,1,1,2,2],"right_children":[2,4,6,-1,-1,-1,-1],"split_conditions":[4.585E-1,5.135E-1,1.35E1,-3.974596E-4,2.5683146E-3,-1.1706785E-3,-4.3081976E-3],"split_indices":[3,55,80,0,0,0,0],"split_type":[0,0,0,0,0,0,0],"sum_hessian":[6.109461E3,2.3030642E3,3.8063967E3,1.2031147E3,1.0999495E3,2.0081019E3,1.7982947E3],"tree_param":{"num_deleted":"0","num_feature":"104","num_nodes":"7","size_leaf_vector":"0"}},{"base_weights":[1.2690914E-1,-1.0195013E-1,2.6537108E-1,3.9745986E-2,-2.5683138E-1,1.1706789E-1,4.3081975E-1],"categories":[],"categories_nodes":[],"categories_segments":[],"categories_sizes":[],"default_left":[1,1,1,0,0,0,0],"id":39,"left_children":[1,3,5,-1,-1,-1,-1],"loss_changes":[1.9365718E2,5.0575363E1,9.3369995E1,0E0,0E0,0E0,0E0],"parents":[2147483647,0,0,1,1,2,2],"right_children":[2,4,6,-1,-1,-1,-1],"split_conditions":[4.585E-1,5.135E-1,1.35E1,3.9745987E-4,-2.5683136E-3,1.1706789E-3,4.308197E-3],"split_indices":[3,55,80,0,0,0,0],"split_type":[0,0,0,0,0,0,0],"sum_hessian":[6.109461E3,2.3030642E3,3.8063967E3,1.2031147E3,1.0999495E3,2.008102E3,1.7982947E3],"tree_param":{"num_deleted":"0","num_feature":"104","num_nodes":"7","size_leaf_vector":"0"}},{"base_weights":[-1.2567237E-1,-3.0576515E-1,4.7196355E-2,-3.7387228E-1,1.0803092E-2,-1.7176142E-1,1.643039E-1],"categories":[],"categories_nodes":[],"categories_segments":[],"categories_sizes":[],"default_left":[1,1,1,0,0,0,0],"id":40,"left_children":[1,3,5,-1,-1,-1,-1],"loss_changes":[1.9020023E2,6.4515045E1,7.997487E1,0E0,0E0,0E0,0E0],"parents":[2147483647,0,0,1,1,2,2],"right_children":[2,4,6,-1,-1,-1,-1],"split_conditions":[1.45E1,5.3500004E0,-1.55E0,-3.7387228E-3,1.0803092E-4,-1.7176142E-3,1.6430389E-3],"split_indices":[51,77,77,0,0,0,0],"split_type":[0,0,0,0,0,0,0],"sum_hessian":[6.1079326E3,2.9910847E3,3.1168481E3,2.4613613E3,5.297233E2,1.085955E3,2.0308933E3],"tree_param":{"num_deleted":"0","num_feature":"104","num_nodes":"7","size_leaf_vector":"0"}},{"base_weights":[1.2567239E-1,3.0576515E-1,-4.719634E-2,3.7387228E-1,-1.0803062E-2,1.7176141E-1,-1.6430387E-1],"categories":[],"categories_nodes":[],"categories_segments":[],"categories_sizes":[],"default_left":[1,1,1,0,0,0,0],"id":41,"left_children":[1,3,5,-1,-1,-1,-1],"loss_changes":[1.902002E2,6.4515015E1,7.997484E1,0E0,0E0,0E0,0E0],"parents":[2147483647,0,0,1,1,2,2],"right_children":[2,4,6,-1,-1,-1,-1],"split_conditions":[1.45E1,5.3500004E0,-1.55E0,3.7387228E-3,-1.0803061E-4,1.717614E-3,-1.6430387E-3],"split_indices":[51,77,77,0,0,0,0],"split_type":[0,0,0,0,0,0,0],"sum_hessian":[6.1079326E3,2.9910845E3,3.1168481E3,2.4613613E3,5.297233E2,1.0859548E3,2.0308933E3],"tree_param":{"num_deleted":"0","num_feature":"104","num_nodes":"7","size_leaf_vector":"0"}},{"base_weights":[-1.24449715E-1,1.0065778E-1,-2.6070866E-1,-1.6207673E-1,1.8206249E-1,-4.8312786E-1,-1.5295729E-1],"categories":[],"categories_nodes":[],"categories_segments":[],"categories_sizes":[],"default_left":[1,1,1,0,0,0,0],"id":42,"left_children":[1,3,5,-1,-1,-1,-1],"loss_changes":[1.8735524E2,4.9298073E1,9.111017E1,0E0,0E0,0E0,0E0],"parents":[2147483647,0,0,1,1,2,2],"right_children":[2,4,6,-1,-1,-1,-1],"split_conditions":[4.585E-1,3.725E-1,-1.45E0,-1.6207672E-3,1.8206249E-3,-4.8312787E-3,-1.5295729E-3],"split_indices":[3,55,77,0,0,0,0],"split_type":[0,0,0,0,0,0,0],"sum_hessian":[6.1063105E3,2.3025798E3,3.803731E3,5.4443134E2,1.7581484E3,1.2402131E3,2.5635178E3],"tree_param":{"num_deleted":"0","num_feature":"104","num_nodes":"7","size_leaf_vector":"0"}},{"base_weights":[1.2444972E-1,-1.0065775E-1,2.6070866E-1,1.620768E-1,-1.8206248E-1,4.831278E-1,1.5295729E-1],"categories":[],"categories_nodes":[],"categories_segments":[],"categories_sizes":[],"default_left":[1,1,1,0,0,0,0],"id":43,"left_children":[1,3,5,-1,-1,-1,-1],"loss_changes":[1.873552E2,4.9298096E1,9.111017E1,0E0,0E0,0E0,0E0],"parents":[2147483647,0,0,1,1,2,2],"right_children":[2,4,6,-1,-1,-1,-1],"split_conditions":[4.585E-1,3.725E-1,-1.45E0,1.620768E-3,-1.8206247E-3,4.8312778E-3,1.5295729E-3],"split_indices":[3,55,77,0,0,0,0],"split_type":[0,0,0,0,0,0,0],"sum_hessian":[6.1063105E3,2.3025798E3,3.803731E3,5.444313E2,1.7581484E3,1.2402131E3,2.5635178E3],"tree_param":{"num_deleted":"0","num_feature":"104","num_nodes":"7","size_leaf_vector":"0"}},{"base_weights":[-1.23238854E-1,1.5401126E-1,-2.321066E-1,-3.8479228E-2,2.5892824E-1,-8.604117E-2,-3.929026E-1],"categories":[],"categories_nodes":[],"categories_segments":[],"categories_sizes":[],"default_left":[1,1,1,0,0,0,0],"id":44,"left_children":[1,3,5,-1,-1,-1,-1],"loss_changes":[1.8432817E2,3.4789413E1,1.0294566E2,0E0,0E0,0E0,0E0],"parents":[2147483647,0,0,1,1,2,2],"right_children":[2,4,6,-1,-1,-1,-1],"split_conditions":[-2.45E0,-1.55E0,1.35E1,-3.8479228E-4,2.5892823E-3,-8.604117E-4,-3.929026E-3],"split_indices":[25,77,80,0,0,0,0],"split_type":[0,0,0,0,0,0,0],"sum_hessian":[6.1047153E3,1.7211362E3,4.383579E3,6.073918E2,1.1137444E3,2.2978086E3,2.0857705E3],"tree_param":{"num_deleted":"0","num_feature":"104","num_nodes":"7","size_leaf_vector":"0"}},{"base_weights":[1.2323884E-1,-1.5401125E-1,2.3210658E-1,3.8479224E-2,-2.589282E-1,8.6041145E-2,3.9290258E-1],"categories":[],"categories_nodes":[],"categories_segments":[],"categories_sizes":[],"default_left":[1,1,1,0,0,0,0],"id":45,"left_children":[1,3,5,-1,-1,-1,-1],"loss_changes":[1.8432812E2,3.4789402E1,1.0294565E2,0E0,0E0,0E0,0E0],"parents":[2147483647,0,0,1,1,2,2],"right_children":[2,4,6,-1,-1,-1,-1],"split_conditions":[-2.45E0,-1.55E0,1.35E1,3.8479222E-4,-2.589282E-3,8.6041144E-4,3.929026E-3],"split_indices":[25,77,80,0,0,0,0],"split_type":[0,0,0,0,0,0,0],"sum_hessian":[6.1047153E3,1.7211362E3,4.383579E3,6.073918E2,1.1137444E3,2.2978086E3,2.0857705E3],"tree_param":{"num_deleted":"0","num_feature":"104","num_nodes":"7","size_leaf_vector":"0"}},{"base_weights":[-1.2203882E-1,4.239832E-2,-3.034874E-1,-1.7471536E-1,1.5787162E-1,-3.7231475E-1,1.0916783E-2],"categories":[],"categories_nodes":[],"categories_segments":[],"categories_sizes":[],"default_left":[1,1,1,0,0,0,0],"id":46,"left_children":[1,3,5,-1,-1,-1,-1],"loss_changes":[1.8214127E2,8.033078E1,6.2803986E1,0E0,0E0,0E0,0E0],"parents":[2147483647,0,0,1,1,2,2],"right_children":[2,4,6,-1,-1,-1,-1],"split_conditions":[5.5E-1,-1.55E0,5.3500004E0,-1.7471535E-3,1.5787161E-3,-3.7231473E-3,1.0916782E-4],"split_indices":[25,77,77,0,0,0,0],"split_type":[0,0,0,0,0,0,0],"sum_hessian":[6.1031353E3,3.2020527E3,2.9010825E3,1.1115659E3,2.0904866E3,2.3799048E3,5.2117773E2],"tree_param":{"num_deleted":"0","num_feature":"104","num_nodes":"7","size_leaf_vector":"0"}},{"base_weights":[1.22038834E-1,-4.239829E-2,3.0348742E-1,1.7471537E-1,-1.5787159E-1,3.7231475E-1,-1.0916783E-2],"categories":[],"categories_nodes":[],"categories_segments":[],"categories_sizes":[],"default_left":[1,1,1,0,0,0,0],"id":47,"left_children":[1,3,5,-1,-1,-1,-1],"loss_changes":[1.8214124E2,8.0330765E1,6.2803986E1,0E0,0E0,0E0,0E0],"parents":[2147483647,0,0,1,1,2,2],"right_children":[2,4,6,-1,-1,-1,-1],"split_conditions":[5.5E-1,-1.55E0,5.3500004E0,1.7471537E-3,-1.5787159E-3,3.7231473E-3,-1.0916782E-4],"split_indices":[25,77,77,0,0,0,0],"split_type":[0,0,0,0,0,0,0],"sum_hessian":[6.1031353E3,3.2020527E3,2.9010825E3,1.1115659E3,2.0904868E3,2.3799048E3,5.2117773E2],"tree_param":{"num_deleted":"0","num_feature":"104","num_nodes":"7","size_leaf_vector":"0"}},{"base_weights":[-1.2085415E-1,-2.282822E-1,1.520632E-1,-8.2456E-2,-3.8848692E-1,2.2709407E-1,-1.0061482E-1],"categories":[],"categories_nodes":[],"categories_segments":[],"categories_sizes":[],"default_left":[1,1,1,0,0,0,0],"id":48,"left_children":[1,3,5,-1,-1,-1,-1],"loss_changes":[1.7895041E2,1.0227443E2,3.271155E1,0E0,0E0,0E0,0E0],"parents":[2147483647,0,0,1,1,2,2],"right_children":[2,4,6,-1,-1,-1,-1],"split_conditions":[2.15E1,1.35E1,2.25E1,-8.2456E-4,-3.8848692E-3,2.2709407E-3,-1.0061482E-3],"split_indices":[51,80,79,0,0,0,0],"split_type":[0,0,0,0,0,0,0],"sum_hessian":[6.1013843E3,4.378174E3,1.7232106E3,2.2927317E3,2.0854421E3,1.3287495E3,3.9446106E2],"tree_param":{"num_deleted":"0","num_feature":"104","num_nodes":"7","size_leaf_vector":"0"}},{"base_weights":[1.2085415E-1,2.282822E-1,-1.520632E-1,8.245601E-2,3.8848692E-1,-2.2709408E-1,1.0061484E-1],"categories":[],"categories_nodes":[],"categories_segments":[],"categories_sizes":[],"default_left":[1,1,1,0,0,0,0],"id":49,"left_children":[1,3,5,-1,-1,-1,-1],"loss_changes":[1.7895042E2,1.0227443E2,3.2711555E1,0E0,0E0,0E0,0E0],"parents":[2147483647,0,0,1,1,2,2],"right_children":[2,4,6,-1,-1,-1,-1],"split_conditions":[2.15E1,1.35E1,2.25E1,8.2456006E-4,3.8848692E-3,-2.2709407E-3,1.0061484E-3],"split_indices":[51,80,79,0,0,0,0],"split_type":[0,0,0,0,0,0,0],"sum_hessian":[6.101385E3,4.378174E3,1.7232106E3,2.2927317E3,2.0854421E3,1.3287495E3,3.944611E2],"tree_param":{"num_deleted":"0","num_feature":"104","num_nodes":"7","size_leaf_vector":"0"}},{"base_weights":[-1.19678855E-1,4.2245585E-2,-2.9847366E-1,-1.7140296E-1,1.558563E-1,-3.6643416E-1,1.1639928E-2],"categories":[],"categories_nodes":[],"categories_segments":[],"categories_sizes":[],"default_left":[1,1,1,0,0,0,0],"id":50,"left_children":[1,3,5,-1,-1,-1,-1],"loss_changes":[1.766366E2,7.7754906E1,6.1111664E1,0E0,0E0,0E0,0E0],"parents":[2147483647,0,0,1,1,2,2],"right_children":[2,4,6,-1,-1,-1,-1],"split_conditions":[5.5E-1,-1.55E0,5.3500004E0,-1.7140296E-3,1.558563E-3,-3.6643415E-3,1.1639928E-4],"split_indices":[25,77,77,0,0,0,0],"split_type":[0,0,0,0,0,0,0],"sum_hessian":[6.0997373E3,3.2012805E3,2.898457E3,1.111174E3,2.0901067E3,2.3772976E3,5.211595E2],"tree_param":{"num_deleted":"0","num_feature":"104","num_nodes":"7","size_leaf_vector":"0"}},{"base_weights":[1.1967887E-1,-4.2245608E-2,2.9847372E-1,1.7140295E-1,-1.5585633E-1,3.6643422E-1,-1.1639926E-2],"categories":[],"categories_nodes":[],"categories_segments":[],"categories_sizes":[],"default_left":[1,1,1,0,0,0,0],"id":51,"left_children":[1,3,5,-1,-1,-1,-1],"loss_changes":[1.7663666E2,7.775492E1,6.1111725E1,0E0,0E0,0E0,0E0],"parents":[2147483647,0,0,1,1,2,2],"right_children":[2,4,6,-1,-1,-1,-1],"split_conditions":[5.5E-1,-1.55E0,5.3500004E0,1.7140295E-3,-1.5585632E-3,3.664342E-3,-1.1639926E-4],"split_indices":[25,77,77,0,0,0,0],"split_type":[0,0,0,0,0,0,0],"sum_hessian":[6.099738E3,3.2012805E3,2.898457E3,1.111174E3,2.0901067E3,2.3772974E3,5.211595E2],"tree_param":{"num_deleted":"0","num_feature":"104","num_nodes":"7","size_leaf_vector":"0"}},{"base_weights":[-1.1851916E-1,-2.0814383E-1,2.0008682E-1,-6.441112E-2,-3.6644956E-1,7.860735E-2,3.3681318E-1],"categories":[],"categories_nodes":[],"categories_segments":[],"categories_sizes":[],"default_left":[1,1,1,0,0,0,0],"id":52,"left_children":[1,3,5,-1,-1,-1,-1],"loss_changes":[1.7419496E2,1.0829315E2,2.2221611E1,0E0,0E0,0E0,0E0],"parents":[2147483647,0,0,1,1,2,2],"right_children":[2,4,6,-1,-1,-1,-1],"split_conditions":[2.35E1,1.35E1,3.5000002E-1,-6.441112E-4,-3.6644957E-3,7.860735E-4,3.3681318E-3],"split_indices":[51,80,77,0,0,0,0],"split_type":[0,0,0,0,0,0,0],"sum_hessian":[6.097883E3,4.7593984E3,1.3384843E3,2.4952544E3,2.264144E3,7.095944E2,6.2888983E2],"tree_param":{"num_deleted":"0","num_feature":"104","num_nodes":"7","size_leaf_vector":"0"}},{"base_weights":[1.1851917E-1,2.0814383E-1,-2.0008674E-1,6.441113E-2,3.664495E-1,-7.860731E-2,-3.3681306E-1],"categories":[],"categories_nodes":[],"categories_segments":[],"categories_sizes":[],"default_left":[1,1,1,0,0,0,0],"id":53,"left_children":[1,3,5,-1,-1,-1,-1],"loss_changes":[1.7419492E2,1.0829309E2,2.2221607E1,0E0,0E0,0E0,0E0],"parents":[2147483647,0,0,1,1,2,2],"right_children":[2,4,6,-1,-1,-1,-1],"split_conditions":[2.35E1,1.35E1,3.5000002E-1,6.441113E-4,3.664495E-3,-7.860731E-4,-3.3681307E-3],"split_indices":[51,80,77,0,0,0,0],"split_type":[0,0,0,0,0,0,0],"sum_hessian":[6.097883E3,4.7593984E3,1.3384843E3,2.4952544E3,2.264144E3,7.095944E2,6.2888983E2],"tree_param":{"num_deleted":"0","num_feature":"104","num_nodes":"7","size_leaf_vector":"0"}},{"base_weights":[-1.17366344E-1,9.822333E-2,-2.4806416E-1,-1.5312794E-1,1.7609705E-1,-3.9263457E-2,-3.5576317E-1],"categories":[],"categories_nodes":[],"categories_segments":[],"categories_sizes":[],"default_left":[1,1,1,0,0,0,0],"id":54,"left_children":[1,3,5,-1,-1,-1,-1],"loss_changes":[1.7182635E2,4.508483E1,8.535481E1,0E0,0E0,0E0,0E0],"parents":[2147483647,0,0,1,1,2,2],"right_children":[2,4,6,-1,-1,-1,-1],"split_conditions":[4.585E-1,3.725E-1,9.5E0,-1.5312793E-3,1.7609705E-3,-3.9263457E-4,-3.5576315E-3],"split_indices":[3,55,103,0,0,0,0],"split_type":[0,0,0,0,0,0,0],"sum_hessian":[6.09622E3,2.3009644E3,3.7952559E3,5.4403345E2,1.7569308E3,1.2919197E3,2.5033362E3],"tree_param":{"num_deleted":"0","num_feature":"104","num_nodes":"7","size_leaf_vector":"0"}},{"base_weights":[1.1736635E-1,-9.822334E-2,2.4806419E-1,1.5312794E-1,-1.7609708E-1,3.9263453E-2,3.557632E-1],"categories":[],"categories_nodes":[],"categories_segments":[],"categories_sizes":[],"default_left":[1,1,1,0,0,0,0],"id":55,"left_children":[1,3,5,-1,-1,-1,-1],"loss_changes":[1.718264E2,4.508484E1,8.535483E1,0E0,0E0,0E0,0E0],"parents":[2147483647,0,0,1,1,2,2],"right_children":[2,4,6,-1,-1,-1,-1],"split_conditions":[4.585E-1,3.725E-1,9.5E0,1.5312793E-3,-1.7609708E-3,3.9263454E-4,3.557632E-3],"split_indices":[3,55,103,0,0,0,0],"split_type":[0,0,0,0,0,0,0],"sum_hessian":[6.09622E3,2.3009644E3,3.7952559E3,5.4403345E2,1.7569308E3,1.2919198E3,2.5033362E3],"tree_param":{"num_deleted":"0","num_feature":"104","num_nodes":"7","size_leaf_vector":"0"}},{"base_weights":[-1.1623047E-1,-2.8668043E-1,4.6971418E-2,-3.5172883E-1,1.444284E-2,-9.3825385E-2,2.1045241E-1],"categories":[],"categories_nodes":[],"categories_segments":[],"categories_sizes":[],"default_left":[1,1,1,0,0,0,0],"id":56,"left_children":[1,3,5,-1,-1,-1,-1],"loss_changes":[1.6957083E2,5.840709E1,7.171291E1,0E0,0E0,0E0,0E0],"parents":[2147483647,0,0,1,1,2,2],"right_children":[2,4,6,-1,-1,-1,-1],"split_conditions":[1.45E1,5.3500004E0,5.5E-1,-3.5172882E-3,1.444284E-4,-9.382538E-4,2.104524E-3],"split_indices":[51,77,77,0,0,0,0],"split_type":[0,0,0,0,0,0,0],"sum_hessian":[6.0942935E3,2.980582E3,3.1137112E3,2.4509597E3,5.296223E2,1.6731495E3,1.4405616E3],"tree_param":{"num_deleted":"0","num_feature":"104","num_nodes":"7","size_leaf_vector":"0"}},{"base_weights":[1.1623049E-1,2.8668046E-1,-4.6971418E-2,3.5172886E-1,-1.4442835E-2,9.382538E-2,-2.1045241E-1],"categories":[],"categories_nodes":[],"categories_segments":[],"categories_sizes":[],"default_left":[1,1,1,0,0,0,0],"id":57,"left_children":[1,3,5,-1,-1,-1,-1],"loss_changes":[1.6957086E2,5.8407074E1,7.171291E1,0E0,0E0,0E0,0E0],"parents":[2147483647,0,0,1,1,2,2],"right_children":[2,4,6,-1,-1,-1,-1],"split_conditions":[1.45E1,5.3500004E0,5.5E-1,3.5172885E-3,-1.4442834E-4,9.3825377E-4,-2.104524E-3],"split_indices":[51,77,77,0,0,0,0],"split_type":[0,0,0,0,0,0,0],"sum_hessian":[6.0942935E3,2.980582E3,3.1137112E3,2.4509597E3,5.296223E2,1.6731495E3,1.4405616E3],"tree_param":{"num_deleted":"0","num_feature":"104","num_nodes":"7","size_leaf_vector":"0"}},{"base_weights":[-1.1510567E-1,-2.0291014E-1,1.9682747E-1,-6.2008493E-2,-3.5830092E-1,3.6494426E-2,2.9523435E-1],"categories":[],"categories_nodes":[],"categories_segments":[],"categories_sizes":[],"default_left":[1,1,1,0,0,0,0],"id":58,"left_children":[1,3,5,-1,-1,-1,-1],"loss_changes":[1.6693146E2,1.0409651E2,2.1114914E1,0E0,0E0,0E0,0E0],"parents":[2147483647,0,0,1,1,2,2],"right_children":[2,4,6,-1,-1,-1,-1],"split_conditions":[2.35E1,1.35E1,4.5749998E-1,-6.2008493E-4,-3.5830091E-3,3.6494425E-4,2.9523436E-3],"split_indices":[51,80,55,0,0,0,0],"split_type":[0,0,0,0,0,0,0],"sum_hessian":[6.0923496E3,4.754406E3,1.3379438E3,2.4941853E3,2.2602205E3,5.0938327E2,8.285606E2],"tree_param":{"num_deleted":"0","num_feature":"104","num_nodes":"7","size_leaf_vector":"0"}},{"base_weights":[1.1510567E-1,2.0291013E-1,-1.9682743E-1,6.2008474E-2,3.5830092E-1,-3.6494434E-2,-2.952343E-1],"categories":[],"categories_nodes":[],"categories_segments":[],"categories_sizes":[],"default_left":[1,1,1,0,0,0,0],"id":59,"left_children":[1,3,5,-1,-1,-1,-1],"loss_changes":[1.669314E2,1.0409653E2,2.1114902E1,0E0,0E0,0E0,0E0],"parents":[2147483647,0,0,1,1,2,2],"right_children":[2,4,6,-1,-1,-1,-1],"split_conditions":[2.35E1,1.35E1,4.5749998E-1,6.200847E-4,3.5830091E-3,-3.6494434E-4,-2.9523429E-3],"split_indices":[51,80,55,0,0,0,0],"split_type":[0,0,0,0,0,0,0],"sum_hessian":[6.0923496E3,4.754406E3,1.3379438E3,2.4941853E3,2.2602205E3,5.093833E2,8.2856055E2],"tree_param":{"num_deleted":"0","num_feature":"104","num_nodes":"7","size_leaf_vector":"0"}},{"base_weights":[-1.1398901E-1,4.241605E-2,-2.8698263E-1,-1.6410688E-1,1.5219475E-1,-3.5289887E-1,1.2948392E-2],"categories":[],"categories_nodes":[],"categories_segments":[],"categories_sizes":[],"default_left":[1,1,1,0,0,0,0],"id":60,"left_children":[1,3,5,-1,-1,-1,-1],"loss_changes":[1.6483142E2,7.257539E1,5.719046E1,0E0,0E0,0E0,0E0],"parents":[2147483647,0,0,1,1,2,2],"right_children":[2,4,6,-1,-1,-1,-1],"split_conditions":[5.5E-1,-1.55E0,5.3500004E0,-1.6410687E-3,1.5219474E-3,-3.5289887E-3,1.2948392E-4],"split_indices":[25,77,77,0,0,0,0],"split_type":[0,0,0,0,0,0,0],"sum_hessian":[6.0905396E3,3.1990264E3,2.8915132E3,1.1101133E3,2.088913E3,2.3703923E3,5.2112085E2],"tree_param":{"num_deleted":"0","num_feature":"104","num_nodes":"7","size_leaf_vector":"0"}},{"base_weights":[1.1398901E-1,-4.2416066E-2,2.8698266E-1,1.6410688E-1,-1.5219477E-1,3.5289887E-1,-1.2948307E-2],"categories":[],"categories_nodes":[],"categories_segments":[],"categories_sizes":[],"default_left":[1,1,1,0,0,0,0],"id":61,"left_children":[1,3,5,-1,-1,-1,-1],"loss_changes":[1.6483147E2,7.25754E1,5.7190445E1,0E0,0E0,0E0,0E0],"parents":[2147483647,0,0,1,1,2,2],"right_children":[2,4,6,-1,-1,-1,-1],"split_conditions":[5.5E-1,-1.55E0,5.3500004E0,1.6410687E-3,-1.5219477E-3,3.5289887E-3,-1.2948307E-4],"split_indices":[25,77,77,0,0,0,0],"split_type":[0,0,0,0,0,0,0],"sum_hessian":[6.0905396E3,3.1990264E3,2.8915132E3,1.1101133E3,2.088913E3,2.3703923E3,5.2112085E2],"tree_param":{"num_deleted":"0","num_feature":"104","num_nodes":"7","size_leaf_vector":"0"}},{"base_weights":[-1.1288859E-1,-2.1998277E-1,1.3634759E-1,-8.35136E-2,-3.745535E-1,3.66479E-3,2.824021E-1],"categories":[],"categories_nodes":[],"categories_segments":[],"categories_sizes":[],"default_left":[1,1,1,0,0,0,0],"id":62,"left_children":[1,3,5,-1,-1,-1,-1],"loss_changes":[1.625685E2,8.982294E1,3.547773E1,0E0,0E0,0E0,0E0],"parents":[2147483647,0,0,1,1,2,2],"right_children":[2,4,6,-1,-1,-1,-1],"split_conditions":[1.95E1,1.35E1,5.135E-1,-8.35136E-4,-3.745535E-3,3.66479E-5,2.8240208E-3],"split_indices":[28,80,55,0,0,0,0],"split_type":[0,0,0,0,0,0,0],"sum_hessian":[6.0884673E3,4.258676E3,1.8297911E3,2.2625925E3,1.9960833E3,9.593225E2,8.704686E2],"tree_param":{"num_deleted":"0","num_feature":"104","num_nodes":"7","size_leaf_vector":"0"}},{"base_weights":[1.1288858E-1,2.1998277E-1,-1.3634759E-1,8.351359E-2,3.745535E-1,-3.664767E-3,-2.8240213E-1],"categories":[],"categories_nodes":[],"categories_segments":[],"categories_sizes":[],"default_left":[1,1,1,0,0,0,0],"id":63,"left_children":[1,3,5,-1,-1,-1,-1],"loss_changes":[1.6256851E2,8.982294E1,3.5477745E1,0E0,0E0,0E0,0E0],"parents":[2147483647,0,0,1,1,2,2],"right_children":[2,4,6,-1,-1,-1,-1],"split_conditions":[1.95E1,1.35E1,5.135E-1,8.3513587E-4,3.745535E-3,-3.6647667E-5,-2.8240213E-3],"split_indices":[28,80,55,0,0,0,0],"split_type":[0,0,0,0,0,0,0],"sum_hessian":[6.0884673E3,4.258676E3,1.8297911E3,2.2625925E3,1.9960833E3,9.593225E2,8.704687E2],"tree_param":{"num_deleted":"0","num_feature":"104","num_nodes":"7","size_leaf_vector":"0"}},{"base_weights":[-1.11797094E-1,-2.7757084E-1,4.6692096E-2,-2.1043508E-1,-5.580839E-1,-9.000595E-2,2.0541802E-1],"categories":[],"categories_nodes":[],"categories_segments":[],"categories_sizes":[],"default_left":[1,1,1,0,0,0,0],"id":64,"left_children":[1,3,5,-1,-1,-1,-1],"loss_changes":[1.5995114E2,5.591855E1,6.7562164E1,0E0,0E0,0E0,0E0],"parents":[2147483647,0,0,1,1,2,2],"right_children":[2,4,6,-1,-1,-1,-1],"split_conditions":[1.45E1,2.25E1,5.5E-1,-2.1043508E-3,-5.580839E-3,-9.000595E-4,2.0541803E-3],"split_indices":[51,80,77,0,0,0,0],"split_type":[0,0,0,0,0,0,0],"sum_hessian":[6.0864688E3,2.974501E3,3.1119675E3,2.4014963E3,5.730047E2,1.6722361E3,1.4397314E3],"tree_param":{"num_deleted":"0","num_feature":"104","num_nodes":"7","size_leaf_vector":"0"}},{"base_weights":[1.117971E-1,2.7757084E-1,-4.6692092E-2,2.1043506E-1,5.5808395E-1,9.000595E-2,-2.0541802E-1],"categories":[],"categories_nodes":[],"categories_segments":[],"categories_sizes":[],"default_left":[1,1,1,0,0,0,0],"id":65,"left_children":[1,3,5,-1,-1,-1,-1],"loss_changes":[1.5995113E2,5.591861E1,6.756218E1,0E0,0E0,0E0,0E0],"parents":[2147483647,0,0,1,1,2,2],"right_children":[2,4,6,-1,-1,-1,-1],"split_conditions":[1.45E1,2.25E1,5.5E-1,2.1043506E-3,5.5808392E-3,9.000595E-4,-2.0541803E-3],"split_indices":[51,80,77,0,0,0,0],"split_type":[0,0,0,0,0,0,0],"sum_hessian":[6.0864688E3,2.9745012E3,3.1119675E3,2.4014963E3,5.730047E2,1.6722361E3,1.4397313E3],"tree_param":{"num_deleted":"0","num_feature":"104","num_nodes":"7","size_leaf_vector":"0"}},{"base_weights":[-1.10717796E-1,-1.9630396E-1,1.9306634E-1,-5.9350383E-2,-3.4764698E-1,2.2776099E-1,-2.3503439E-1],"categories":[],"categories_nodes":[],"categories_segments":[],"categories_sizes":[],"default_left":[1,1,1,0,0,0,0],"id":66,"left_children":[1,3,5,-1,-1,-1,-1],"loss_changes":[1.5825737E2,9.83974E1,1.9928394E1,0E0,0E0,0E0,0E0],"parents":[2147483647,0,0,1,1,2,2],"right_children":[2,4,6,-1,-1,-1,-1],"split_conditions":[2.35E1,1.35E1,2.75E1,-5.935038E-4,-3.4764698E-3,2.27761E-3,-2.3503439E-3],"split_indices":[51,80,80,0,0,0,0],"split_type":[0,0,0,0,0,0,0],"sum_hessian":[6.084429E3,4.7473076E3,1.3371218E3,2.4928582E3,2.2544492E3,1.237314E3,9.9807884E1],"tree_param":{"num_deleted":"0","num_feature":"104","num_nodes":"7","size_leaf_vector":"0"}},{"base_weights":[1.107178E-1,1.9630398E-1,-1.9306633E-1,5.9350405E-2,3.4764698E-1,-2.2776097E-1,2.3503439E-1],"categories":[],"categories_nodes":[],"categories_segments":[],"categories_sizes":[],"default_left":[1,1,1,0,0,0,0],"id":67,"left_children":[1,3,5,-1,-1,-1,-1],"loss_changes":[1.5825737E2,9.8397354E1,1.9928383E1,0E0,0E0,0E0,0E0],"parents":[2147483647,0,0,1,1,2,2],"right_children":[2,4,6,-1,-1,-1,-1],"split_conditions":[2.35E1,1.35E1,2.75E1,5.9350405E-4,3.4764698E-3,-2.2776097E-3,2.3503439E-3],"split_indices":[51,80,80,0,0,0,0],"split_type":[0,0,0,0,0,0,0],"sum_hessian":[6.084429E3,4.7473076E3,1.3371218E3,2.4928582E3,2.2544495E3,1.237314E3,9.9807884E1],"tree_param":{"num_deleted":"0","num_feature":"104","num_nodes":"7","size_leaf_vector":"0"}},{"base_weights":[-1.0964607E-1,4.2276762E-2,-2.7793753E-1,-1.7133236E-1,1.4281942E-1,-3.4273323E-1,1.6197236E-2],"categories":[],"categories_nodes":[],"categories_segments":[],"categories_sizes":[],"default_left":[1,1,1,0,0,0,0],"id":68,"left_children":[1,3,5,-1,-1,-1,-1],"loss_changes":[1.5555112E2,6.870991E1,5.5016632E1,0E0,0E0,0E0,0E0],"parents":[2147483647,0,0,1,1,2,2],"right_children":[2,4,6,-1,-1,-1,-1],"split_conditions":[5.5E-1,-1.95E0,5.3500004E0,-1.7133235E-3,1.4281941E-3,-3.4273323E-3,1.6197236E-4],"split_indices":[25,77,77,0,0,0,0],"split_type":[0,0,0,0,0,0,0],"sum_hessian":[6.082524E3,3.197118E3,2.8854062E3,1.0229958E3,2.174122E3,2.3643845E3,5.2102167E2],"tree_param":{"num_deleted":"0","num_feature":"104","num_nodes":"7","size_leaf_vector":"0"}},{"base_weights":[1.09646074E-1,-4.2276744E-2,2.779375E-1,1.7133237E-1,-1.4281939E-1,3.4273323E-1,-1.619724E-2],"categories":[],"categories_nodes":[],"categories_segments":[],"categories_sizes":[],"default_left":[1,1,1,0,0,0,0],"id":69,"left_children":[1,3,5,-1,-1,-1,-1],"loss_changes":[1.5555109E2,6.870989E1,5.50166E1,0E0,0E0,0E0,0E0],"parents":[2147483647,0,0,1,1,2,2],"right_children":[2,4,6,-1,-1,-1,-1],"split_conditions":[5.5E-1,-1.95E0,5.3500004E0,1.7133238E-3,-1.4281939E-3,3.4273323E-3,-1.6197239E-4],"split_indices":[25,77,77,0,0,0,0],"split_type":[0,0,0,0,0,0,0],"sum_hessian":[6.082524E3,3.197118E3,2.885406E3,1.0229958E3,2.174122E3,2.3643845E3,5.2102167E2],"tree_param":{"num_deleted":"0","num_feature":"104","num_nodes":"7","size_leaf_vector":"0"}},{"base_weights":[-1.08590074E-1,-2.1284795E-1,1.3378069E-1,-8.017587E-2,-3.6347732E-1,3.10221E-1,2.7601276E-2],"categories":[],"categories_nodes":[],"categories_segments":[],"categories_sizes":[],"default_left":[1,1,1,0,0,0,0],"id":70,"left_children":[1,3,5,-1,-1,-1,-1],"loss_changes":[1.5369766E2,8.4955826E1,3.427027E1,0E0,0E0,0E0,0E0],"parents":[2147483647,0,0,1,1,2,2],"right_children":[2,4,6,-1,-1,-1,-1],"split_conditions":[1.95E1,1.35E1,-6.25E0,-8.0175867E-4,-3.6347732E-3,3.10221E-3,2.7601275E-4],"split_indices":[28,80,25,0,0,0,0],"split_type":[0,0,0,0,0,0,0],"sum_hessian":[6.080319E3,4.251585E3,1.828734E3,2.2613523E3,1.9902325E3,6.8632806E2,1.1424059E3],"tree_param":{"num_deleted":"0","num_feature":"104","num_nodes":"7","size_leaf_vector":"0"}},{"base_weights":[1.0859006E-1,2.1284792E-1,-1.3378067E-1,8.017585E-2,3.634773E-1,-3.10221E-1,-2.7601272E-2],"categories":[],"categories_nodes":[],"categories_segments":[],"categories_sizes":[],"default_left":[1,1,1,0,0,0,0],"id":71,"left_children":[1,3,5,-1,-1,-1,-1],"loss_changes":[1.5369763E2,8.495586E1,3.427027E1,0E0,0E0,0E0,0E0],"parents":[2147483647,0,0,1,1,2,2],"right_children":[2,4,6,-1,-1,-1,-1],"split_conditions":[1.95E1,1.35E1,-6.25E0,8.0175843E-4,3.6347727E-3,-3.10221E-3,-2.7601272E-4],"split_indices":[28,80,25,0,0,0,0],"split_type":[0,0,0,0,0,0,0],"sum_hessian":[6.080319E3,4.251585E3,1.828734E3,2.2613523E3,1.9902325E3,6.8632806E2,1.1424059E3],"tree_param":{"num_deleted":"0","num_feature":"104","num_nodes":"7","size_leaf_vector":"0"}},{"base_weights":[-1.0753991E-1,-1.9122314E-1,1.8926688E-1,-3.9167162E-2,-3.221242E-1,2.2585848E-1,-2.0447996E-1],"categories":[],"categories_nodes":[],"categories_segments":[],"categories_sizes":[],"default_left":[1,1,1,0,0,0,0],"id":72,"left_children":[1,3,5,-1,-1,-1,-1],"loss_changes":[1.510332E2,9.4388885E1,1.9317574E1,0E0,0E0,0E0,0E0],"parents":[2147483647,0,0,1,1,2,2],"right_children":[2,4,6,-1,-1,-1,-1],"split_conditions":[2.35E1,1.15E1,2.75E1,-3.916716E-4,-3.221242E-3,2.2585848E-3,-2.0447995E-3],"split_indices":[51,80,81,0,0,0,0],"split_type":[0,0,0,0,0,0,0],"sum_hessian":[6.0783345E3,4.741771E3,1.3365637E3,2.1942302E3,2.5475405E3,1.223306E3,1.13257645E2],"tree_param":{"num_deleted":"0","num_feature":"104","num_nodes":"7","size_leaf_vector":"0"}},{"base_weights":[1.07539915E-1,1.9122316E-1,-1.8926689E-1,3.916717E-2,3.2212424E-1,-2.2585848E-1,2.0447996E-1],"categories":[],"categories_nodes":[],"categories_segments":[],"categories_sizes":[],"default_left":[1,1,1,0,0,0,0],"id":73,"left_children":[1,3,5,-1,-1,-1,-1],"loss_changes":[1.510332E2,9.4388885E1,1.931757E1,0E0,0E0,0E0,0E0],"parents":[2147483647,0,0,1,1,2,2],"right_children":[2,4,6,-1,-1,-1,-1],"split_conditions":[2.35E1,1.15E1,2.75E1,3.916717E-4,3.2212425E-3,-2.2585848E-3,2.0447995E-3],"split_indices":[51,80,81,0,0,0,0],"split_type":[0,0,0,0,0,0,0],"sum_hessian":[6.0783345E3,4.741771E3,1.3365637E3,2.1942302E3,2.5475405E3,1.223306E3,1.13257645E2],"tree_param":{"num_deleted":"0","num_feature":"104","num_nodes":"7","size_leaf_vector":"0"}},{"base_weights":[-1.0650071E-1,4.2412028E-2,-2.7165577E-1,-1.5531945E-1,1.4744787E-1,-3.354232E-1,1.7249197E-2],"categories":[],"categories_nodes":[],"categories_segments":[],"categories_sizes":[],"default_left":[1,1,1,0,0,0,0],"id":74,"left_children":[1,3,5,-1,-1,-1,-1],"loss_changes":[1.4947542E2,6.6414314E1,5.3093674E1,0E0,0E0,0E0,0E0],"parents":[2147483647,0,0,1,1,2,2],"right_children":[2,4,6,-1,-1,-1,-1],"split_conditions":[5.5E-1,-1.55E0,5.3500004E0,-1.5531945E-3,1.4744786E-3,-3.3542318E-3,1.7249196E-4],"split_indices":[25,77,77,0,0,0,0],"split_type":[0,0,0,0,0,0,0],"sum_hessian":[6.076326E3,3.1956755E3,2.8806504E3,1.1084756E3,2.0872E3,2.359662E3,5.209883E2],"tree_param":{"num_deleted":"0","num_feature":"104","num_nodes":"7","size_leaf_vector":"0"}},{"base_weights":[1.06500685E-1,-4.241203E-2,2.7165574E-1,1.5531944E-1,-1.4744787E-1,3.3542317E-1,-1.7249197E-2],"categories":[],"categories_nodes":[],"categories_segments":[],"categories_sizes":[],"default_left":[1,1,1,0,0,0,0],"id":75,"left_children":[1,3,5,-1,-1,-1,-1],"loss_changes":[1.494754E2,6.641431E1,5.3093613E1,0E0,0E0,0E0,0E0],"parents":[2147483647,0,0,1,1,2,2],"right_children":[2,4,6,-1,-1,-1,-1],"split_conditions":[5.5E-1,-1.55E0,5.3500004E0,1.5531944E-3,-1.4744786E-3,3.3542316E-3,-1.7249196E-4],"split_indices":[25,77,77,0,0,0,0],"split_type":[0,0,0,0,0,0,0],"sum_hessian":[6.076326E3,3.1956755E3,2.8806504E3,1.1084756E3,2.0872E3,2.359662E3,5.209883E2],"tree_param":{"num_deleted":"0","num_feature":"104","num_nodes":"7","size_leaf_vector":"0"}},{"base_weights":[-1.0547695E-1,9.404436E-2,-2.2685654E-1,-1.4081387E-1,1.6681013E-1,-4.3211034E-1,-1.283117E-1],"categories":[],"categories_nodes":[],"categories_segments":[],"categories_sizes":[],"default_left":[1,1,1,0,0,0,0],"id":76,"left_children":[1,3,5,-1,-1,-1,-1],"loss_changes":[1.4714478E2,3.9304996E1,7.634999E1,0E0,0E0,0E0,0E0],"parents":[2147483647,0,0,1,1,2,2],"right_children":[2,4,6,-1,-1,-1,-1],"split_conditions":[4.585E-1,3.725E-1,-1.45E0,-1.4081387E-3,1.6681012E-3,-4.3211034E-3,-1.2831169E-3],"split_indices":[3,55,77,0,0,0,0],"split_type":[0,0,0,0,0,0,0],"sum_hessian":[6.0740093E3,2.297557E3,3.7764521E3,5.432457E2,1.754311E3,1.2238909E3,2.5525613E3],"tree_param":{"num_deleted":"0","num_feature":"104","num_nodes":"7","size_leaf_vector":"0"}},{"base_weights":[1.0547695E-1,-9.4044335E-2,2.2685653E-1,1.4081392E-1,-1.668101E-1,4.3211028E-1,1.283117E-1],"categories":[],"categories_nodes":[],"categories_segments":[],"categories_sizes":[],"default_left":[1,1,1,0,0,0,0],"id":77,"left_children":[1,3,5,-1,-1,-1,-1],"loss_changes":[1.4714474E2,3.9305E1,7.6349945E1,0E0,0E0,0E0,0E0],"parents":[2147483647,0,0,1,1,2,2],"right_children":[2,4,6,-1,-1,-1,-1],"split_conditions":[4.585E-1,3.725E-1,-1.45E0,1.4081391E-3,-1.668101E-3,4.3211025E-3,1.2831169E-3],"split_indices":[3,55,77,0,0,0,0],"split_type":[0,0,0,0,0,0,0],"sum_hessian":[6.0740093E3,2.297557E3,3.7764521E3,5.432457E2,1.7543112E3,1.2238909E3,2.5525615E3],"tree_param":{"num_deleted":"0","num_feature":"104","num_nodes":"7","size_leaf_vector":"0"}},{"base_weights":[-1.0446273E-1,-2.6265332E-1,4.6353005E-2,-1.9759296E-1,-5.358393E-1,2.0413165E-1,-8.080722E-2],"categories":[],"categories_nodes":[],"categories_segments":[],"categories_sizes":[],"default_left":[1,1,1,0,0,0,0],"id":78,"left_children":[1,3,5,-1,-1,-1,-1],"loss_changes":[1.4489322E2,5.2575912E1,6.240661E1,0E0,0E0,0E0,0E0],"parents":[2147483647,0,0,1,1,2,2],"right_children":[2,4,6,-1,-1,-1,-1],"split_conditions":[1.45E1,2.25E1,1.35E1,-1.9759296E-3,-5.3583933E-3,2.0413164E-3,-8.0807216E-4],"split_indices":[51,80,103,0,0,0,0],"split_type":[0,0,0,0,0,0,0],"sum_hessian":[6.071735E3,2.9630505E3,3.1086843E3,2.3945112E3,5.685392E2,1.3870485E3,1.7216359E3],"tree_param":{"num_deleted":"0","num_feature":"104","num_nodes":"7","size_leaf_vector":"0"}},{"base_weights":[1.0446274E-1,2.6265335E-1,-4.6353012E-2,1.97593E-1,5.358393E-1,-2.0413165E-1,8.080721E-2],"categories":[],"categories_nodes":[],"categories_segments":[],"categories_sizes":[],"default_left":[1,1,1,0,0,0,0],"id":79,"left_children":[1,3,5,-1,-1,-1,-1],"loss_changes":[1.4489326E2,5.2575882E1,6.240661E1,0E0,0E0,0E0,0E0],"parents":[2147483647,0,0,1,1,2,2],"right_children":[2,4,6,-1,-1,-1,-1],"split_conditions":[1.45E1,2.25E1,1.35E1,1.97593E-3,5.3583933E-3,-2.0413164E-3,8.0807204E-4],"split_indices":[51,80,103,0,0,0,0],"split_type":[0,0,0,0,0,0,0],"sum_hessian":[6.071735E3,2.9630505E3,3.1086843E3,2.3945112E3,5.6853925E2,1.3870485E3,1.7216359E3],"tree_param":{"num_deleted":"0","num_feature":"104","num_nodes":"7","size_leaf_vector":"0"}},{"base_weights":[-1.0345814E-1,-1.85089E-1,1.8576811E-1,-3.6634617E-2,-3.1315294E-1,2.1920004E-1,-2.266536E-1],"categories":[],"categories_nodes":[],"categories_segments":[],"categories_sizes":[],"default_left":[1,1,1,0,0,0,0],"id":80,"left_children":[1,3,5,-1,-1,-1,-1],"loss_changes":[1.4335703E2,9.000452E1,1.8480118E1,0E0,0E0,0E0,0E0],"parents":[2147483647,0,0,1,1,2,2],"right_children":[2,4,6,-1,-1,-1,-1],"split_conditions":[2.35E1,1.15E1,2.75E1,-3.6634615E-4,-3.1315293E-3,2.1920004E-3,-2.266536E-3],"split_indices":[51,80,80,0,0,0,0],"split_type":[0,0,0,0,0,0,0],"sum_hessian":[6.069475E3,4.7337793E3,1.3356962E3,2.1929507E3,2.5408284E3,1.2359736E3,9.972258E1],"tree_param":{"num_deleted":"0","num_feature":"104","num_nodes":"7","size_leaf_vector":"0"}},{"base_weights":[1.03458144E-1,1.8508904E-1,-1.8576814E-1,3.6634658E-2,3.1315294E-1,-2.1920007E-1,2.2665358E-1],"categories":[],"categories_nodes":[],"categories_segments":[],"categories_sizes":[],"default_left":[1,1,1,0,0,0,0],"id":81,"left_children":[1,3,5,-1,-1,-1,-1],"loss_changes":[1.4335709E2,9.0004486E1,1.8480122E1,0E0,0E0,0E0,0E0],"parents":[2147483647,0,0,1,1,2,2],"right_children":[2,4,6,-1,-1,-1,-1],"split_conditions":[2.35E1,1.15E1,2.75E1,3.6634656E-4,3.1315293E-3,-2.1920006E-3,2.2665358E-3],"split_indices":[51,80,80,0,0,0,0],"split_type":[0,0,0,0,0,0,0],"sum_hessian":[6.069475E3,4.7337793E3,1.3356962E3,2.1929507E3,2.5408286E3,1.2359736E3,9.972259E1],"tree_param":{"num_deleted":"0","num_feature":"104","num_nodes":"7","size_leaf_vector":"0"}},{"base_weights":[-1.0246045E-1,-2.0253502E-1,1.2975982E-1,-7.525186E-2,-3.4761325E-1,3.019114E-1,2.6189173E-2],"categories":[],"categories_nodes":[],"categories_segments":[],"categories_sizes":[],"default_left":[1,1,1,0,0,0,0],"id":82,"left_children":[1,3,5,-1,-1,-1,-1],"loss_changes":[1.4105075E2,7.8291626E1,3.258802E1,0E0,0E0,0E0,0E0],"parents":[2147483647,0,0,1,1,2,2],"right_children":[2,4,6,-1,-1,-1,-1],"split_conditions":[1.95E1,1.35E1,-6.25E0,-7.525186E-4,-3.4761324E-3,3.019114E-3,2.6189172E-4],"split_indices":[28,80,25,0,0,0,0],"split_type":[0,0,0,0,0,0,0],"sum_hessian":[6.0673506E3,4.2401846E3,1.8271659E3,2.2594202E3,1.9807644E3,6.856262E2,1.1415396E3],"tree_param":{"num_deleted":"0","num_feature":"104","num_nodes":"7","size_leaf_vector":"0"}},{"base_weights":[1.0246045E-1,2.0253502E-1,-1.2975982E-1,7.5251855E-2,3.4761328E-1,-3.019114E-1,-2.6189178E-2],"categories":[],"categories_nodes":[],"categories_segments":[],"categories_sizes":[],"default_left":[1,1,1,0,0,0,0],"id":83,"left_children":[1,3,5,-1,-1,-1,-1],"loss_changes":[1.4105078E2,7.8291626E1,3.258802E1,0E0,0E0,0E0,0E0],"parents":[2147483647,0,0,1,1,2,2],"right_children":[2,4,6,-1,-1,-1,-1],"split_conditions":[1.95E1,1.35E1,-6.25E0,7.5251854E-4,3.4761326E-3,-3.019114E-3,-2.6189178E-4],"split_indices":[28,80,25,0,0,0,0],"split_type":[0,0,0,0,0,0,0],"sum_hessian":[6.0673506E3,4.2401846E3,1.8271659E3,2.2594202E3,1.9807644E3,6.856263E2,1.1415397E3],"tree_param":{"num_deleted":"0","num_feature":"104","num_nodes":"7","size_leaf_vector":"0"}},{"base_weights":[-1.0147291E-1,4.224188E-2,-2.6119766E-1,-1.6180468E-1,1.3819401E-1,-3.2375118E-1,2.127892E-2],"categories":[],"categories_nodes":[],"categories_segments":[],"categories_sizes":[],"default_left":[1,1,1,0,0,0,0],"id":84,"left_children":[1,3,5,-1,-1,-1,-1],"loss_changes":[1.3925891E2,6.2556313E1,5.077597E1,0E0,0E0,0E0,0E0],"parents":[2147483647,0,0,1,1,2,2],"right_children":[2,4,6,-1,-1,-1,-1],"split_conditions":[5.5E-1,-1.95E0,5.3500004E0,-1.6180468E-3,1.3819401E-3,-3.2375117E-3,2.127892E-4],"split_indices":[25,77,77,0,0,0,0],"split_type":[0,0,0,0,0,0,0],"sum_hessian":[6.065174E3,3.1929783E3,2.8721956E3,1.0210285E3,2.1719497E3,2.3513503E3,5.2084515E2],"tree_param":{"num_deleted":"0","num_feature":"104","num_nodes":"7","size_leaf_vector":"0"}},{"base_weights":[1.0147289E-1,-4.2241886E-2,2.6119763E-1,1.6180468E-1,-1.3819402E-1,3.2375118E-1,-2.1278948E-2],"categories":[],"categories_nodes":[],"categories_segments":[],"categories_sizes":[],"default_left":[1,1,1,0,0,0,0],"id":85,"left_children":[1,3,5,-1,-1,-1,-1],"loss_changes":[1.3925888E2,6.2556316E1,5.0776E1,0E0,0E0,0E0,0E0],"parents":[2147483647,0,0,1,1,2,2],"right_children":[2,4,6,-1,-1,-1,-1],"split_conditions":[5.5E-1,-1.95E0,5.3500004E0,1.6180468E-3,-1.3819402E-3,3.2375117E-3,-2.1278947E-4],"split_indices":[25,77,77,0,0,0,0],"split_type":[0,0,0,0,0,0,0],"sum_hessian":[6.065174E3,3.1929783E3,2.8721956E3,1.0210285E3,2.1719497E3,2.3513503E3,5.208451E2],"tree_param":{"num_deleted":"0","num_feature":"104","num_nodes":"7","size_leaf_vector":"0"}},{"base_weights":[-1.0049973E-1,1.3858381E-1,-1.9490242E-1,-2.2375057E-2,2.3048292E-1,-4.404905E-3,-2.9223433E-1],"categories":[],"categories_nodes":[],"categories_segments":[],"categories_sizes":[],"default_left":[1,1,1,0,0,0,0],"id":86,"left_children":[1,3,5,-1,-1,-1,-1],"loss_changes":[1.368862E2,2.5404385E1,8.061037E1,0E0,0E0,0E0,0E0],"parents":[2147483647,0,0,1,1,2,2],"right_children":[2,4,6,-1,-1,-1,-1],"split_conditions":[-2.45E0,-1.45E0,9.5E0,-2.2375055E-4,2.3048292E-3,-4.4049048E-5,-2.9223433E-3],"split_indices":[25,77,103,0,0,0,0],"split_type":[0,0,0,0,0,0,0],"sum_hessian":[6.0627314E3,1.7160948E3,4.3466367E3,6.239752E2,1.0921196E3,1.4702047E3,2.876432E3],"tree_param":{"num_deleted":"0","num_feature":"104","num_nodes":"7","size_leaf_vector":"0"}},{"base_weights":[1.0049971E-1,-1.3858381E-1,1.949024E-1,2.2375053E-2,-2.3048292E-1,4.4049034E-3,2.922343E-1],"categories":[],"categories_nodes":[],"categories_segments":[],"categories_sizes":[],"default_left":[1,1,1,0,0,0,0],"id":87,"left_children":[1,3,5,-1,-1,-1,-1],"loss_changes":[1.3688618E2,2.540438E1,8.061035E1,0E0,0E0,0E0,0E0],"parents":[2147483647,0,0,1,1,2,2],"right_children":[2,4,6,-1,-1,-1,-1],"split_conditions":[-2.45E0,-1.45E0,9.5E0,2.2375053E-4,-2.3048292E-3,4.4049033E-5,2.9223429E-3],"split_indices":[25,77,103,0,0,0,0],"split_type":[0,0,0,0,0,0,0],"sum_hessian":[6.0627314E3,1.7160948E3,4.3466367E3,6.239752E2,1.0921196E3,1.4702047E3,2.876432E3],"tree_param":{"num_deleted":"0","num_feature":"104","num_nodes":"7","size_leaf_vector":"0"}},{"base_weights":[-9.9533625E-2,-2.526452E-1,4.6127092E-2,-1.8895882E-1,-5.210952E-1,-8.1597224E-2,1.9438274E-1],"categories":[],"categories_nodes":[],"categories_segments":[],"categories_sizes":[],"default_left":[1,1,1,0,0,0,0],"id":88,"left_children":[1,3,5,-1,-1,-1,-1],"loss_changes":[1.3519495E2,5.0426636E1,5.8851883E1,0E0,0E0,0E0,0E0],"parents":[2147483647,0,0,1,1,2,2],"right_children":[2,4,6,-1,-1,-1,-1],"split_conditions":[1.45E1,2.25E1,5.5E-1,-1.8895882E-3,-5.210952E-3,-8.159722E-4,1.9438274E-3],"split_indices":[51,80,77,0,0,0,0],"split_type":[0,0,0,0,0,0,0],"sum_hessian":[6.0603945E3,2.9542715E3,3.106123E3,2.389174E3,5.650975E2,1.668842E3,1.437281E3],"tree_param":{"num_deleted":"0","num_feature":"104","num_nodes":"7","size_leaf_vector":"0"}},{"base_weights":[9.9533625E-2,2.5264516E-1,-4.612708E-2,1.8895881E-1,5.2109516E-1,8.159723E-2,-1.9438273E-1],"categories":[],"categories_nodes":[],"categories_segments":[],"categories_sizes":[],"default_left":[1,1,1,0,0,0,0],"id":89,"left_children":[1,3,5,-1,-1,-1,-1],"loss_changes":[1.3519492E2,5.0426636E1,5.885188E1,0E0,0E0,0E0,0E0],"parents":[2147483647,0,0,1,1,2,2],"right_children":[2,4,6,-1,-1,-1,-1],"split_conditions":[1.45E1,2.25E1,5.5E-1,1.8895881E-3,5.2109514E-3,8.159723E-4,-1.9438273E-3],"split_indices":[51,80,77,0,0,0,0],"split_type":[0,0,0,0,0,0,0],"sum_hessian":[6.0603945E3,2.9542715E3,3.106123E3,2.389174E3,5.650975E2,1.668842E3,1.437281E3],"tree_param":{"num_deleted":"0","num_feature":"104","num_nodes":"7","size_leaf_vector":"0"}},{"base_weights":[-9.857881E-2,-1.960135E-1,1.2721851E-1,-1.1264584E-1,-4.0850696E-1,2.9697827E-1,2.5115151E-2],"categories":[],"categories_nodes":[],"categories_segments":[],"categories_sizes":[],"default_left":[1,1,1,0,0,0,0],"id":90,"left_children":[1,3,5,-1,-1,-1,-1],"loss_changes":[1.3332585E2,7.494147E1,3.1660414E1,0E0,0E0,0E0,0E0],"parents":[2147483647,0,0,1,1,2,2],"right_children":[2,4,6,-1,-1,-1,-1],"split_conditions":[1.95E1,1.95E1,-6.25E0,-1.1264584E-3,-4.0850695E-3,2.9697826E-3,2.511515E-4],"split_indices":[28,80,25,0,0,0,0],"split_type":[0,0,0,0,0,0,0],"sum_hessian":[6.0579976E3,4.2319736E3,1.8260236E3,3.0405886E3,1.1913853E3,6.850811E2,1.1409424E3],"tree_param":{"num_deleted":"0","num_feature":"104","num_nodes":"7","size_leaf_vector":"0"}},{"base_weights":[9.857881E-2,1.960135E-1,-1.2721854E-1,1.1264586E-1,4.0850696E-1,-2.969783E-1,-2.511517E-2],"categories":[],"categories_nodes":[],"categories_segments":[],"categories_sizes":[],"default_left":[1,1,1,0,0,0,0],"id":91,"left_children":[1,3,5,-1,-1,-1,-1],"loss_changes":[1.333259E2,7.494144E1,3.166042E1,0E0,0E0,0E0,0E0],"parents":[2147483647,0,0,1,1,2,2],"right_children":[2,4,6,-1,-1,-1,-1],"split_conditions":[1.95E1,1.95E1,-6.25E0,1.1264585E-3,4.0850695E-3,-2.9697828E-3,-2.5115168E-4],"split_indices":[28,80,25,0,0,0,0],"split_type":[0,0,0,0,0,0,0],"sum_hessian":[6.0579976E3,4.2319736E3,1.8260236E3,3.0405886E3,1.1913853E3,6.850811E2,1.1409424E3],"tree_param":{"num_deleted":"0","num_feature":"104","num_nodes":"7","size_leaf_vector":"0"}},{"base_weights":[-9.7628765E-2,4.1863225E-2,-2.5294173E-1,-1.5722395E-1,1.3544607E-1,-3.1444108E-1,2.3991795E-2],"categories":[],"categories_nodes":[],"categories_segments":[],"categories_sizes":[],"default_left":[1,1,1,0,0,0,0],"id":92,"left_children":[1,3,5,-1,-1,-1,-1],"loss_changes":[1.3123134E2,5.948812E1,4.8819626E1,0E0,0E0,0E0,0E0],"parents":[2147483647,0,0,1,1,2,2],"right_children":[2,4,6,-1,-1,-1,-1],"split_conditions":[5.5E-1,-1.95E0,5.3500004E0,-1.5722396E-3,1.3544607E-3,-3.1444107E-3,2.3991795E-4],"split_indices":[25,77,77,0,0,0,0],"split_type":[0,0,0,0,0,0,0],"sum_hessian":[6.055831E3,3.1907964E3,2.8650347E3,1.0200572E3,2.170739E3,2.3442957E3,5.2073914E2],"tree_param":{"num_deleted":"0","num_feature":"104","num_nodes":"7","size_leaf_vector":"0"}},{"base_weights":[9.762875E-2,-4.1863233E-2,2.5294173E-1,1.5722395E-1,-1.3544609E-1,3.1444103E-1,-2.3991711E-2],"categories":[],"categories_nodes":[],"categories_segments":[],"categories_sizes":[],"default_left":[1,1,1,0,0,0,0],"id":93,"left_children":[1,3,5,-1,-1,-1,-1],"loss_changes":[1.3123132E2,5.948813E1,4.8819565E1,0E0,0E0,0E0,0E0],"parents":[2147483647,0,0,1,1,2,2],"right_children":[2,4,6,-1,-1,-1,-1],"split_conditions":[5.5E-1,-1.95E0,5.3500004E0,1.5722396E-3,-1.3544608E-3,3.1444102E-3,-2.399171E-4],"split_indices":[25,77,77,0,0,0,0],"split_type":[0,0,0,0,0,0,0],"sum_hessian":[6.055831E3,3.1907964E3,2.8650347E3,1.0200572E3,2.170739E3,2.3442957E3,5.2073914E2],"tree_param":{"num_deleted":"0","num_feature":"104","num_nodes":"7","size_leaf_vector":"0"}},{"base_weights":[-9.6694134E-2,-1.7453717E-1,1.7858946E-1,-3.202505E-2,-2.9795787E-1,2.1109918E-1,-2.2216971E-1],"categories":[],"categories_nodes":[],"categories_segments":[],"categories_sizes":[],"default_left":[1,1,1,0,0,0,0],"id":94,"left_children":[1,3,5,-1,-1,-1,-1],"loss_changes":[1.2976796E2,8.3013596E1,1.7441307E1,0E0,0E0,0E0,0E0],"parents":[2147483647,0,0,1,1,2,2],"right_children":[2,4,6,-1,-1,-1,-1],"split_conditions":[2.35E1,1.15E1,2.75E1,-3.202505E-4,-2.9795787E-3,2.1109916E-3,-2.221697E-3],"split_indices":[51,80,80,0,0,0,0],"split_type":[0,0,0,0,0,0,0],"sum_hessian":[6.0532876E3,4.7191895E3,1.3340979E3,2.1907832E3,2.5284065E3,1.2344336E3,9.966439E1],"tree_param":{"num_deleted":"0","num_feature":"104","num_nodes":"7","size_leaf_vector":"0"}},{"base_weights":[9.669414E-2,1.7453717E-1,-1.7858943E-1,3.202505E-2,2.9795787E-1,-2.1109913E-1,2.2216973E-1],"categories":[],"categories_nodes":[],"categories_segments":[],"categories_sizes":[],"default_left":[1,1,1,0,0,0,0],"id":95,"left_children":[1,3,5,-1,-1,-1,-1],"loss_changes":[1.2976794E2,8.3013596E1,1.7441303E1,0E0,0E0,0E0,0E0],"parents":[2147483647,0,0,1,1,2,2],"right_children":[2,4,6,-1,-1,-1,-1],"split_conditions":[2.35E1,1.15E1,2.75E1,3.202505E-4,2.9795787E-3,-2.1109914E-3,2.2216972E-3],"split_indices":[51,80,80,0,0,0,0],"split_type":[0,0,0,0,0,0,0],"sum_hessian":[6.0532876E3,4.7191895E3,1.3340979E3,2.1907832E3,2.5284065E3,1.2344336E3,9.966439E1],"tree_param":{"num_deleted":"0","num_feature":"104","num_nodes":"7","size_leaf_vector":"0"}},{"base_weights":[-9.576468E-2,-2.0087884E-1,1.0480637E-1,-7.441461E-2,-3.4328213E-1,2.365399E-1,-1.3281072E-2],"categories":[],"categories_nodes":[],"categories_segments":[],"categories_sizes":[],"default_left":[1,1,1,0,0,0,0],"id":96,"left_children":[1,3,5,-1,-1,-1,-1],"loss_changes":[1.2761412E2,7.149266E1,3.238648E1,0E0,0E0,0E0,0E0],"parents":[2147483647,0,0,1,1,2,2],"right_children":[2,4,6,-1,-1,-1,-1],"split_conditions":[1.85E1,1.35E1,-4.6499996E0,-7.441461E-4,-3.4328212E-3,2.365399E-3,-1.3281072E-4],"split_indices":[27,80,25,0,0,0,0],"split_type":[0,0,0,0,0,0,0],"sum_hessian":[6.050982E3,3.9702656E3,2.0807163E3,2.1036223E3,1.8666434E3,9.83056E2,1.0976603E3],"tree_param":{"num_deleted":"0","num_feature":"104","num_nodes":"7","size_leaf_vector":"0"}},{"base_weights":[9.576468E-2,2.0087884E-1,-1.0480637E-1,7.441462E-2,3.4328213E-1,-2.365399E-1,1.3281069E-2],"categories":[],"categories_nodes":[],"categories_segments":[],"categories_sizes":[],"default_left":[1,1,1,0,0,0,0],"id":97,"left_children":[1,3,5,-1,-1,-1,-1],"loss_changes":[1.2761412E2,7.149266E1,3.2386475E1,0E0,0E0,0E0,0E0],"parents":[2147483647,0,0,1,1,2,2],"right_children":[2,4,6,-1,-1,-1,-1],"split_conditions":[1.85E1,1.35E1,-4.6499996E0,7.441462E-4,3.4328212E-3,-2.365399E-3,1.3281069E-4],"split_indices":[27,80,25,0,0,0,0],"split_type":[0,0,0,0,0,0,0],"sum_hessian":[6.050982E3,3.9702656E3,2.0807163E3,2.1036223E3,1.8666434E3,9.83056E2,1.0976603E3],"tree_param":{"num_deleted":"0","num_feature":"104","num_nodes":"7","size_leaf_vector":"0"}},{"base_weights":[-9.4845414E-2,4.1838154E-2,-2.4724047E-1,-8.305621E-2,1.8683703E-1,-3.077984E-1,2.4834272E-2],"categories":[],"categories_nodes":[],"categories_segments":[],"categories_sizes":[],"default_left":[1,1,1,0,0,0,0],"id":98,"left_children":[1,3,5,-1,-1,-1,-1],"loss_changes":[1.26022644E2,5.7785816E1,4.7138702E1,0E0,0E0,0E0,0E0],"parents":[2147483647,0,0,1,1,2,2],"right_children":[2,4,6,-1,-1,-1,-1],"split_conditions":[5.5E-1,5.5E-1,5.3500004E0,-8.305621E-4,1.8683703E-3,-3.0779839E-3,2.4834272E-4],"split_indices":[25,77,77,0,0,0,0],"split_type":[0,0,0,0,0,0,0],"sum_hessian":[6.0485874E3,3.1890474E3,2.8595403E3,1.7135303E3,1.4755171E3,2.3388352E3,5.207052E2],"tree_param":{"num_deleted":"0","num_feature":"104","num_nodes":"7","size_leaf_vector":"0"}},{"base_weights":[9.484543E-2,-4.1838147E-2,2.4724048E-1,8.3056204E-2,-1.86837E-1,3.0779842E-1,-2.4834191E-2],"categories":[],"categories_nodes":[],"categories_segments":[],"categories_sizes":[],"default_left":[1,1,1,0,0,0,0],"id":99,"left_children":[1,3,5,-1,-1,-1,-1],"loss_changes":[1.2602266E2,5.7785805E1,4.7138702E1,0E0,0E0,0E0,0E0],"parents":[2147483647,0,0,1,1,2,2],"right_children":[2,4,6,-1,-1,-1,-1],"split_conditions":[5.5E-1,5.5E-1,5.3500004E0,8.30562E-4,-1.86837E-3,3.077984E-3,-2.483419E-4],"split_indices":[25,77,77,0,0,0,0],"split_type":[0,0,0,0,0,0,0],"sum_hessian":[6.048588E3,3.1890474E3,2.8595403E3,1.7135303E3,1.4755171E3,2.3388352E3,5.2070514E2],"tree_param":{"num_deleted":"0","num_feature":"104","num_nodes":"7","size_leaf_vector":"0"}},{"base_weights":[-9.393745E-2,-1.8804273E-1,1.2376225E-1,-3.8309574E-1,-1.0138241E-1,2.894977E-1,2.4126872E-2],"categories":[],"categories_nodes":[],"categories_segments":[],"categories_sizes":[],"default_left":[1,1,1,0,0,0,0],"id":100,"left_children":[1,3,5,-1,-1,-1,-1],"loss_changes":[1.23906944E2,7.133365E1,3.0140125E1,0E0,0E0,0E0,0E0],"parents":[2147483647,0,0,1,1,2,2],"right_children":[2,4,6,-1,-1,-1,-1],"split_conditions":[1.95E1,-1.75E0,-6.25E0,-3.8309572E-3,-1.0138241E-3,2.8949769E-3,2.4126872E-4],"split_indices":[28,77,25,0,0,0,0],"split_type":[0,0,0,0,0,0,0],"sum_hessian":[6.0460317E3,4.2213853E3,1.8246466E3,1.2975251E3,2.92386E3,6.843611E2,1.1402855E3],"tree_param":{"num_deleted":"0","num_feature":"104","num_nodes":"7","size_leaf_vector":"0"}},{"base_weights":[9.393746E-2,1.8804274E-1,-1.2376226E-1,3.830958E-1,1.0138243E-1,-2.8949776E-1,-2.412686E-2],"categories":[],"categories_nodes":[],"categories_segments":[],"categories_sizes":[],"default_left":[1,1,1,0,0,0,0],"id":101,"left_children":[1,3,5,-1,-1,-1,-1],"loss_changes":[1.23906975E2,7.133365E1,3.0140142E1,0E0,0E0,0E0,0E0],"parents":[2147483647,0,0,1,1,2,2],"right_children":[2,4,6,-1,-1,-1,-1],"split_conditions":[1.95E1,-1.75E0,-6.25E0,3.830958E-3,1.0138243E-3,-2.8949776E-3,-2.4126859E-4],"split_indices":[28,77,25,0,0,0,0],"split_type":[0,0,0,0,0,0,0],"sum_hessian":[6.0460317E3,4.2213853E3,1.8246466E3,1.2975251E3,2.92386E3,6.843611E2,1.1402855E3],"tree_param":{"num_deleted":"0","num_feature":"104","num_nodes":"7","size_leaf_vector":"0"}},{"base_weights":[-9.303427E-2,-2.3914623E-1,4.551735E-2,-1.7745835E-1,-5.008399E-1,1.9343407E-1,-7.37239E-2],"categories":[],"categories_nodes":[],"categories_segments":[],"categories_sizes":[],"default_left":[1,1,1,0,0,0,0],"id":102,"left_children":[1,3,5,-1,-1,-1,-1],"loss_changes":[1.22380714E2,4.7408905E1,5.4752678E1,0E0,0E0,0E0,0E0],"parents":[2147483647,0,0,1,1,2,2],"right_children":[2,4,6,-1,-1,-1,-1],"split_conditions":[1.45E1,2.25E1,1.35E1,-1.7745834E-3,-5.0083986E-3,1.9343407E-3,-7.3723897E-4],"split_indices":[51,80,103,0,0,0,0],"split_type":[0,0,0,0,0,0,0],"sum_hessian":[6.0437314E3,2.9412551E3,3.1024766E3,2.3815427E3,5.597124E2,1.384458E3,1.7180186E3],"tree_param":{"num_deleted":"0","num_feature":"104","num_nodes":"7","size_leaf_vector":"0"}},{"base_weights":[9.3034275E-2,2.3914625E-1,-4.551737E-2,1.7745835E-1,5.0084E-1,-1.9343412E-1,7.3723905E-2],"categories":[],"categories_nodes":[],"categories_segments":[],"categories_sizes":[],"default_left":[1,1,1,0,0,0,0],"id":103,"left_children":[1,3,5,-1,-1,-1,-1],"loss_changes":[1.2238074E2,4.7408936E1,5.4752693E1,0E0,0E0,0E0,0E0],"parents":[2147483647,0,0,1,1,2,2],"right_children":[2,4,6,-1,-1,-1,-1],"split_conditions":[1.45E1,2.25E1,1.35E1,1.7745834E-3,5.0084E-3,-1.9343412E-3,7.37239E-4],"split_indices":[51,80,103,0,0,0,0],"split_type":[0,0,0,0,0,0,0],"sum_hessian":[6.0437314E3,2.9412551E3,3.1024766E3,2.3815427E3,5.597124E2,1.384458E3,1.7180186E3],"tree_param":{"num_deleted":"0","num_feature":"104","num_nodes":"7","size_leaf_vector":"0"}},{"base_weights":[-9.214416E-2,-1.6728804E-1,1.7320856E-1,-2.9059947E-2,-2.8736934E-1,2.0517516E-1,-2.2058298E-1],"categories":[],"categories_nodes":[],"categories_segments":[],"categories_sizes":[],"default_left":[1,1,1,0,0,0,0],"id":104,"left_children":[1,3,5,-1,-1,-1,-1],"loss_changes":[1.20507996E2,7.815871E1,1.6837086E1,0E0,0E0,0E0,0E0],"parents":[2147483647,0,0,1,1,2,2],"right_children":[2,4,6,-1,-1,-1,-1],"split_conditions":[2.35E1,1.15E1,2.75E1,-2.9059945E-4,-2.8736934E-3,2.0517516E-3,-2.2058298E-3],"split_indices":[51,80,80,0,0,0,0],"split_type":[0,0,0,0,0,0,0],"sum_hessian":[6.041189E3,4.7082524E3,1.3329363E3,2.1893213E3,2.5189314E3,1.2333003E3,9.963595E1],"tree_param":{"num_deleted":"0","num_feature":"104","num_nodes":"7","size_leaf_vector":"0"}},{"base_weights":[9.214416E-2,1.6728804E-1,-1.7320856E-1,2.905996E-2,2.873693E-1,-2.0517516E-1,2.2058299E-1],"categories":[],"categories_nodes":[],"categories_segments":[],"categories_sizes":[],"default_left":[1,1,1,0,0,0,0],"id":105,"left_children":[1,3,5,-1,-1,-1,-1],"loss_changes":[1.20507996E2,7.8158676E1,1.683709E1,0E0,0E0,0E0,0E0],"parents":[2147483647,0,0,1,1,2,2],"right_children":[2,4,6,-1,-1,-1,-1],"split_conditions":[2.35E1,1.15E1,2.75E1,2.905996E-4,2.8736931E-3,-2.0517516E-3,2.2058298E-3],"split_indices":[51,80,80,0,0,0,0],"split_type":[0,0,0,0,0,0,0],"sum_hessian":[6.041189E3,4.7082524E3,1.3329363E3,2.1893213E3,2.5189314E3,1.2333003E3,9.963595E1],"tree_param":{"num_deleted":"0","num_feature":"104","num_nodes":"7","size_leaf_vector":"0"}},{"base_weights":[-9.126016E-2,4.1553304E-2,-2.3962215E-1,-1.503426E-1,1.3168123E-1,-2.9926524E-1,2.7551001E-2],"categories":[],"categories_nodes":[],"categories_segments":[],"categories_sizes":[],"default_left":[1,1,1,0,0,0,0],"id":106,"left_children":[1,3,5,-1,-1,-1,-1],"loss_changes":[1.1902055E2,5.5152252E1,4.5471558E1,0E0,0E0,0E0,0E0],"parents":[2147483647,0,0,1,1,2,2],"right_children":[2,4,6,-1,-1,-1,-1],"split_conditions":[5.5E-1,-1.95E0,5.3500004E0,-1.503426E-3,1.3168124E-3,-2.9926524E-3,2.7551E-4],"split_indices":[25,77,77,0,0,0,0],"split_type":[0,0,0,0,0,0,0],"sum_hessian":[6.0387764E3,3.186735E3,2.8520413E3,1.0181892E3,2.168546E3,2.3314531E3,5.2058813E2],"tree_param":{"num_deleted":"0","num_feature":"104","num_nodes":"7","size_leaf_vector":"0"}},{"base_weights":[9.126016E-2,-4.155331E-2,2.3962216E-1,1.5034261E-1,-1.3168125E-1,2.9926524E-1,-2.7551001E-2],"categories":[],"categories_nodes":[],"categories_segments":[],"categories_sizes":[],"default_left":[1,1,1,0,0,0,0],"id":107,"left_children":[1,3,5,-1,-1,-1,-1],"loss_changes":[1.1902055E2,5.5152256E1,4.5471558E1,0E0,0E0,0E0,0E0],"parents":[2147483647,0,0,1,1,2,2],"right_children":[2,4,6,-1,-1,-1,-1],"split_conditions":[5.5E-1,-1.95E0,5.3500004E0,1.5034261E-3,-1.3168125E-3,2.9926524E-3,-2.7551E-4],"split_indices":[25,77,77,0,0,0,0],"split_type":[0,0,0,0,0,0,0],"sum_hessian":[6.0387764E3,3.186735E3,2.8520413E3,1.0181892E3,2.168546E3,2.3314531E3,5.2058813E2],"tree_param":{"num_deleted":"0","num_feature":"104","num_nodes":"7","size_leaf_vector":"0"}},{"base_weights":[-9.03887E-2,2.0969056E-1,-1.5513676E-1,-3.6029026E-2,2.6456296E-1,-3.552639E-1,-6.945386E-2],"categories":[],"categories_nodes":[],"categories_segments":[],"categories_sizes":[],"default_left":[1,1,1,0,0,0,0],"id":108,"left_children":[1,3,5,-1,-1,-1,-1],"loss_changes":[1.1733059E2,1.4461723E1,8.5133644E1,0E0,0E0,0E0,0E0],"parents":[2147483647,0,0,1,1,2,2],"right_children":[2,4,6,-1,-1,-1,-1],"split_conditions":[-4.6499996E0,4.5E0,-1.95E0,-3.6029026E-4,2.6456297E-3,-3.5526387E-3,-6.945386E-4],"split_indices":[25,53,77,0,0,0,0],"split_type":[0,0,0,0,0,0,0],"sum_hessian":[6.0360957E3,1.0708643E3,4.9652314E3,1.9554663E2,8.753176E2,1.487582E3,3.4776497E3],"tree_param":{"num_deleted":"0","num_feature":"104","num_nodes":"7","size_leaf_vector":"0"}},{"base_weights":[9.038871E-2,-2.0969057E-1,1.5513676E-1,3.6029026E-2,-2.64563E-1,3.5526392E-1,6.945386E-2],"categories":[],"categories_nodes":[],"categories_segments":[],"categories_sizes":[],"default_left":[1,1,1,0,0,0,0],"id":109,"left_children":[1,3,5,-1,-1,-1,-1],"loss_changes":[1.17330605E2,1.4461723E1,8.513365E1,0E0,0E0,0E0,0E0],"parents":[2147483647,0,0,1,1,2,2],"right_children":[2,4,6,-1,-1,-1,-1],"split_conditions":[-4.6499996E0,4.5E0,-1.95E0,3.6029026E-4,-2.64563E-3,3.5526392E-3,6.945386E-4],"split_indices":[25,53,77,0,0,0,0],"split_type":[0,0,0,0,0,0,0],"sum_hessian":[6.0360957E3,1.0708643E3,4.9652314E3,1.9554663E2,8.753176E2,1.487582E3,3.4776497E3],"tree_param":{"num_deleted":"0","num_feature":"104","num_nodes":"7","size_leaf_vector":"0"}},{"base_weights":[-8.951903E-2,8.762872E-2,-1.979715E-1,-1.2760982E-1,1.5432696E-1,-3.8743725E-1,-1.0818384E-1],"categories":[],"categories_nodes":[],"categories_segments":[],"categories_sizes":[],"default_left":[1,1,1,0,0,0,0],"id":110,"left_children":[1,3,5,-1,-1,-1,-1],"loss_changes":[1.1595938E2,3.2928528E1,6.3641434E1,0E0,0E0,0E0,0E0],"parents":[2147483647,0,0,1,1,2,2],"right_children":[2,4,6,-1,-1,-1,-1],"split_conditions":[4.585E-1,3.725E-1,-1.45E0,-1.2760982E-3,1.5432696E-3,-3.8743725E-3,-1.0818384E-3],"split_indices":[3,55,77,0,0,0,0],"split_type":[0,0,0,0,0,0,0],"sum_hessian":[6.0338413E3,2.291335E3,3.742506E3,5.418488E2,1.7494862E3,1.2022528E3,2.5402532E3],"tree_param":{"num_deleted":"0","num_feature":"104","num_nodes":"7","size_leaf_vector":"0"}},{"base_weights":[8.951903E-2,-8.762873E-2,1.9797151E-1,1.2760979E-1,-1.5432698E-1,3.8743728E-1,1.0818383E-1],"categories":[],"categories_nodes":[],"categories_segments":[],"categories_sizes":[],"default_left":[1,1,1,0,0,0,0],"id":111,"left_children":[1,3,5,-1,-1,-1,-1],"loss_changes":[1.159594E2,3.2928524E1,6.3641464E1,0E0,0E0,0E0,0E0],"parents":[2147483647,0,0,1,1,2,2],"right_children":[2,4,6,-1,-1,-1,-1],"split_conditions":[4.585E-1,3.725E-1,-1.45E0,1.2760978E-3,-1.5432697E-3,3.8743727E-3,1.0818383E-3],"split_indices":[3,55,77,0,0,0,0],"split_type":[0,0,0,0,0,0,0],"sum_hessian":[6.0338413E3,2.291335E3,3.742506E3,5.418488E2,1.7494862E3,1.2022529E3,2.5402532E3],"tree_param":{"num_deleted":"0","num_feature":"104","num_nodes":"7","size_leaf_vector":"0"}},{"base_weights":[-8.86643E-2,-2.3024535E-1,4.5292567E-2,-1.7010705E-1,-4.8672506E-1,1.8888596E-1,-7.04885E-2],"categories":[],"categories_nodes":[],"categories_segments":[],"categories_sizes":[],"default_left":[1,1,1,0,0,0,0],"id":112,"left_children":[1,3,5,-1,-1,-1,-1],"loss_changes":[1.1441527E2,4.5153458E1,5.1558388E1,0E0,0E0,0E0,0E0],"parents":[2147483647,0,0,1,1,2,2],"right_children":[2,4,6,-1,-1,-1,-1],"split_conditions":[1.45E1,2.25E1,1.35E1,-1.7010705E-3,-4.8672506E-3,1.8888596E-3,-7.0488494E-4],"split_indices":[51,80,103,0,0,0,0],"split_type":[0,0,0,0,0,0,0],"sum_hessian":[6.031181E3,2.9317993E3,3.0993818E3,2.376282E3,5.555174E2,1.3832382E3,1.7161438E3],"tree_param":{"num_deleted":"0","num_feature":"104","num_nodes":"7","size_leaf_vector":"0"}},{"base_weights":[8.866429E-2,2.3024535E-1,-4.529258E-2,1.7010705E-1,4.8672506E-1,-1.8888596E-1,7.048848E-2],"categories":[],"categories_nodes":[],"categories_segments":[],"categories_sizes":[],"default_left":[1,1,1,0,0,0,0],"id":113,"left_children":[1,3,5,-1,-1,-1,-1],"loss_changes":[1.14415306E2,4.5153442E1,5.155839E1,0E0,0E0,0E0,0E0],"parents":[2147483647,0,0,1,1,2,2],"right_children":[2,4,6,-1,-1,-1,-1],"split_conditions":[1.45E1,2.25E1,1.35E1,1.7010705E-3,4.8672506E-3,-1.8888596E-3,7.048848E-4],"split_indices":[51,80,103,0,0,0,0],"split_type":[0,0,0,0,0,0,0],"sum_hessian":[6.031181E3,2.9317993E3,3.099382E3,2.376282E3,5.555174E2,1.3832382E3,1.7161438E3],"tree_param":{"num_deleted":"0","num_feature":"104","num_nodes":"7","size_leaf_vector":"0"}},{"base_weights":[-8.781744E-2,2.0651558E-1,-1.5137246E-1,-3.5644658E-2,2.6061657E-1,-3.4755576E-1,-6.760132E-2],"categories":[],"categories_nodes":[],"categories_segments":[],"categories_sizes":[],"default_left":[1,1,1,0,0,0,0],"id":114,"left_children":[1,3,5,-1,-1,-1,-1],"loss_changes":[1.1282209E2,1.4042831E1,8.14814E1,0E0,0E0,0E0,0E0],"parents":[2147483647,0,0,1,1,2,2],"right_children":[2,4,6,-1,-1,-1,-1],"split_conditions":[-4.6499996E0,4.5E0,-1.95E0,-3.5644657E-4,2.6061656E-3,-3.4755575E-3,-6.7601324E-4],"split_indices":[25,53,77,0,0,0,0],"split_type":[0,0,0,0,0,0,0],"sum_hessian":[6.0285503E3,1.0701719E3,4.9583784E3,1.95489E2,8.746828E2,1.48276E3,3.4756184E3],"tree_param":{"num_deleted":"0","num_feature":"104","num_nodes":"7","size_leaf_vector":"0"}},{"base_weights":[8.781742E-2,-2.065156E-1,1.5137245E-1,3.5644658E-2,-2.6061657E-1,3.4755576E-1,6.76013E-2],"categories":[],"categories_nodes":[],"categories_segments":[],"categories_sizes":[],"default_left":[1,1,1,0,0,0,0],"id":115,"left_children":[1,3,5,-1,-1,-1,-1],"loss_changes":[1.1282209E2,1.4042831E1,8.1481415E1,0E0,0E0,0E0,0E0],"parents":[2147483647,0,0,1,1,2,2],"right_children":[2,4,6,-1,-1,-1,-1],"split_conditions":[-4.6499996E0,4.5E0,-1.95E0,3.5644657E-4,-2.6061656E-3,3.4755575E-3,6.76013E-4],"split_indices":[25,53,77,0,0,0,0],"split_type":[0,0,0,0,0,0,0],"sum_hessian":[6.0285503E3,1.0701719E3,4.9583784E3,1.95489E2,8.7468286E2,1.48276E3,3.4756184E3],"tree_param":{"num_deleted":"0","num_feature":"104","num_nodes":"7","size_leaf_vector":"0"}},{"base_weights":[-8.69734E-2,4.154797E-2,-2.3085648E-1,-7.6799944E-2,1.7888789E-1,-2.8958067E-1,3.1257827E-2],"categories":[],"categories_nodes":[],"categories_segments":[],"categories_sizes":[],"default_left":[1,1,1,0,0,0,0],"id":116,"left_children":[1,3,5,-1,-1,-1,-1],"loss_changes":[1.1146555E2,5.1772842E1,4.3782455E1,0E0,0E0,0E0,0E0],"parents":[2147483647,0,0,1,1,2,2],"right_children":[2,4,6,-1,-1,-1,-1],"split_conditions":[5.5E-1,5.5E-1,5.3500004E0,-7.6799945E-4,1.7888788E-3,-2.8958067E-3,3.1257825E-4],"split_indices":[25,77,77,0,0,0,0],"split_type":[0,0,0,0,0,0,0],"sum_hessian":[6.0262363E3,3.1834126E3,2.8428237E3,1.7101721E3,1.4732406E3,2.3224062E3,5.204176E2],"tree_param":{"num_deleted":"0","num_feature":"104","num_nodes":"7","size_leaf_vector":"0"}},{"base_weights":[8.6973384E-2,-4.154798E-2,2.3085646E-1,7.679994E-2,-1.7888792E-1,2.8958067E-1,-3.125786E-2],"categories":[],"categories_nodes":[],"categories_segments":[],"categories_sizes":[],"default_left":[1,1,1,0,0,0,0],"id":117,"left_children":[1,3,5,-1,-1,-1,-1],"loss_changes":[1.1146554E2,5.177285E1,4.3782486E1,0E0,0E0,0E0,0E0],"parents":[2147483647,0,0,1,1,2,2],"right_children":[2,4,6,-1,-1,-1,-1],"split_conditions":[5.5E-1,5.5E-1,5.3500004E0,7.679993E-4,-1.7888792E-3,2.8958067E-3,-3.125786E-4],"split_indices":[25,77,77,0,0,0,0],"split_type":[0,0,0,0,0,0,0],"sum_hessian":[6.0262363E3,3.1834126E3,2.8428237E3,1.7101721E3,1.4732406E3,2.322406E3,5.204176E2],"tree_param":{"num_deleted":"0","num_feature":"104","num_nodes":"7","size_leaf_vector":"0"}},{"base_weights":[-8.6143084E-2,-1.7511854E-1,1.1907E-1,-9.7987704E-2,-3.7384856E-1,2.7858928E-1,2.3233974E-2],"categories":[],"categories_nodes":[],"categories_segments":[],"categories_sizes":[],"default_left":[1,1,1,0,0,0,0],"id":118,"left_children":[1,3,5,-1,-1,-1,-1],"loss_changes":[1.1002232E2,6.438559E1,2.7858038E1,0E0,0E0,0E0,0E0],"parents":[2147483647,0,0,1,1,2,2],"right_children":[2,4,6,-1,-1,-1,-1],"split_conditions":[1.95E1,1.95E1,-6.25E0,-9.79877E-4,-3.7384855E-3,2.7858927E-3,2.3233973E-4],"split_indices":[28,80,25,0,0,0,0],"split_type":[0,0,0,0,0,0,0],"sum_hessian":[6.02353E3,4.2018535E3,1.821676E3,3.0280889E3,1.1737649E3,6.829677E2,1.1387083E3],"tree_param":{"num_deleted":"0","num_feature":"104","num_nodes":"7","size_leaf_vector":"0"}},{"base_weights":[8.614311E-2,1.7511857E-1,-1.1906998E-1,9.798773E-2,3.738486E-1,-2.7858925E-1,-2.3233967E-2],"categories":[],"categories_nodes":[],"categories_segments":[],"categories_sizes":[],"default_left":[1,1,1,0,0,0,0],"id":119,"left_children":[1,3,5,-1,-1,-1,-1],"loss_changes":[1.1002231E2,6.438559E1,2.7858036E1,0E0,0E0,0E0,0E0],"parents":[2147483647,0,0,1,1,2,2],"right_children":[2,4,6,-1,-1,-1,-1],"split_conditions":[1.95E1,1.95E1,-6.25E0,9.798772E-4,3.7384857E-3,-2.7858925E-3,-2.3233966E-4],"split_indices":[28,80,25,0,0,0,0],"split_type":[0,0,0,0,0,0,0],"sum_hessian":[6.02353E3,4.2018535E3,1.8216759E3,3.0280889E3,1.1737649E3,6.8296765E2,1.1387083E3],"tree_param":{"num_deleted":"0","num_feature":"104","num_nodes":"7","size_leaf_vector":"0"}},{"base_weights":[-8.5317016E-2,-2.2320417E-1,4.4894587E-2,-1.6438162E-1,-4.7529995E-1,1.955827E-1,-6.0310755E-2],"categories":[],"categories_nodes":[],"categories_segments":[],"categories_sizes":[],"default_left":[1,1,1,0,0,0,0],"id":120,"left_children":[1,3,5,-1,-1,-1,-1],"loss_changes":[1.0813367E2,4.329657E1,4.912629E1,0E0,0E0,0E0,0E0],"parents":[2147483647,0,0,1,1,2,2],"right_children":[2,4,6,-1,-1,-1,-1],"split_conditions":[1.45E1,2.25E1,1.25E1,-1.6438162E-3,-4.7529996E-3,1.955827E-3,-6.0310756E-4],"split_indices":[51,80,103,0,0,0,0],"split_type":[0,0,0,0,0,0,0],"sum_hessian":[6.0210894E3,2.9240073E3,3.097082E3,2.3721548E3,5.518525E2,1.2729486E3,1.8241334E3],"tree_param":{"num_deleted":"0","num_feature":"104","num_nodes":"7","size_leaf_vector":"0"}},{"base_weights":[8.531704E-2,2.232042E-1,-4.4894587E-2,1.6438164E-1,4.7530004E-1,-1.955827E-1,6.0310755E-2],"categories":[],"categories_nodes":[],"categories_segments":[],"categories_sizes":[],"default_left":[1,1,1,0,0,0,0],"id":121,"left_children":[1,3,5,-1,-1,-1,-1],"loss_changes":[1.0813371E2,4.3296555E1,4.9126293E1,0E0,0E0,0E0,0E0],"parents":[2147483647,0,0,1,1,2,2],"right_children":[2,4,6,-1,-1,-1,-1],"split_conditions":[1.45E1,2.25E1,1.25E1,1.6438164E-3,4.753E-3,-1.955827E-3,6.0310756E-4],"split_indices":[51,80,103,0,0,0,0],"split_type":[0,0,0,0,0,0,0],"sum_hessian":[6.0210894E3,2.9240073E3,3.097082E3,2.3721548E3,5.5185254E2,1.2729485E3,1.8241334E3],"tree_param":{"num_deleted":"0","num_feature":"104","num_nodes":"7","size_leaf_vector":"0"}},{"base_weights":[-8.450271E-2,2.021436E-1,-1.4646061E-1,-3.5938155E-2,2.5536832E-1,-3.3869898E-1,-6.462212E-2],"categories":[],"categories_nodes":[],"categories_segments":[],"categories_sizes":[],"default_left":[1,1,1,0,0,0,0],"id":122,"left_children":[1,3,5,-1,-1,-1,-1],"loss_changes":[1.0693451E2,1.3571339E1,7.78565E1,0E0,0E0,0E0,0E0],"parents":[2147483647,0,0,1,1,2,2],"right_children":[2,4,6,-1,-1,-1,-1],"split_conditions":[-4.6499996E0,4.5E0,-1.95E0,-3.5938155E-4,2.5536832E-3,-3.3869897E-3,-6.4622116E-4],"split_indices":[25,53,77,0,0,0,0],"split_type":[0,0,0,0,0,0,0],"sum_hessian":[6.01842E3,1.0692599E3,4.94916E3,1.9542429E2,8.738356E2,1.4768666E3,3.4722935E3],"tree_param":{"num_deleted":"0","num_feature":"104","num_nodes":"7","size_leaf_vector":"0"}},{"base_weights":[8.450272E-2,-2.0214358E-1,1.4646062E-1,3.5938147E-2,-2.5536832E-1,3.3869898E-1,6.462213E-2],"categories":[],"categories_nodes":[],"categories_segments":[],"categories_sizes":[],"default_left":[1,1,1,0,0,0,0],"id":123,"left_children":[1,3,5,-1,-1,-1,-1],"loss_changes":[1.06934525E2,1.3571335E1,7.78565E1,0E0,0E0,0E0,0E0],"parents":[2147483647,0,0,1,1,2,2],"right_children":[2,4,6,-1,-1,-1,-1],"split_conditions":[-4.6499996E0,4.5E0,-1.95E0,3.5938146E-4,-2.5536832E-3,3.3869897E-3,6.462213E-4],"split_indices":[25,53,77,0,0,0,0],"split_type":[0,0,0,0,0,0,0],"sum_hessian":[6.01842E3,1.0692599E3,4.94916E3,1.9542429E2,8.738356E2,1.4768666E3,3.4722935E3],"tree_param":{"num_deleted":"0","num_feature":"104","num_nodes":"7","size_leaf_vector":"0"}},{"base_weights":[-8.3691485E-2,8.967102E-3,-2.731872E-1,-1.8270998E-1,9.6247256E-2,-3.3220434E-1,-1.0998202E-2],"categories":[],"categories_nodes":[],"categories_segments":[],"categories_sizes":[],"default_left":[1,1,1,0,0,0,0],"id":124,"left_children":[1,3,5,-1,-1,-1,-1],"loss_changes":[1.05652115E2,6.7639206E1,3.0572418E1,0E0,0E0,0E0,0E0],"parents":[2147483647,0,0,1,1,2,2],"right_children":[2,4,6,-1,-1,-1,-1],"split_conditions":[2.55E0,-1.95E0,5.3500004E0,-1.8270997E-3,9.624725E-4,-3.3220435E-3,-1.09982015E-4],"split_indices":[25,77,77,0,0,0,0],"split_type":[0,0,0,0,0,0,0],"sum_hessian":[6.016043E3,4.041033E3,1.9750099E3,1.2640165E3,2.7770164E3,1.6119114E3,3.6309857E2],"tree_param":{"num_deleted":"0","num_feature":"104","num_nodes":"7","size_leaf_vector":"0"}},{"base_weights":[8.3691485E-2,-8.967105E-3,2.731872E-1,1.8270998E-1,-9.624726E-2,3.3220434E-1,1.0998171E-2],"categories":[],"categories_nodes":[],"categories_segments":[],"categories_sizes":[],"default_left":[1,1,1,0,0,0,0],"id":125,"left_children":[1,3,5,-1,-1,-1,-1],"loss_changes":[1.05652115E2,6.763921E1,3.0572433E1,0E0,0E0,0E0,0E0],"parents":[2147483647,0,0,1,1,2,2],"right_children":[2,4,6,-1,-1,-1,-1],"split_conditions":[2.55E0,-1.95E0,5.3500004E0,1.8270997E-3,-9.6247264E-4,3.3220435E-3,1.0998171E-4],"split_indices":[25,77,77,0,0,0,0],"split_type":[0,0,0,0,0,0,0],"sum_hessian":[6.016043E3,4.041033E3,1.9750099E3,1.2640165E3,2.7770164E3,1.6119113E3,3.6309857E2],"tree_param":{"num_deleted":"0","num_feature":"104","num_nodes":"7","size_leaf_vector":"0"}},{"base_weights":[-8.289065E-2,-1.7860752E-1,9.875561E-2,2.5768952E-2,-2.5548702E-1,2.660735E-1,1.8768027E-2],"categories":[],"categories_nodes":[],"categories_segments":[],"categories_sizes":[],"default_left":[1,1,1,0,0,0,0],"id":126,"left_children":[1,3,5,-1,-1,-1,-1],"loss_changes":[1.0458975E2,6.1902145E1,2.7781921E1,0E0,0E0,0E0,0E0],"parents":[2147483647,0,0,1,1,2,2],"right_children":[2,4,6,-1,-1,-1,-1],"split_conditions":[1.85E1,7.5E0,-6.45E0,2.576895E-4,-2.5548702E-3,2.6607348E-3,1.8768027E-4],"split_indices":[27,103,25,0,0,0,0],"split_type":[0,0,0,0,0,0,0],"sum_hessian":[6.01352E3,3.93829E3,2.07523E3,1.0766879E3,2.861602E3,6.704524E2,1.4047775E3],"tree_param":{"num_deleted":"0","num_feature":"104","num_nodes":"7","size_leaf_vector":"0"}},{"base_weights":[8.289065E-2,1.7860754E-1,-9.875563E-2,-2.5768936E-2,2.5548705E-1,-2.660735E-1,-1.8768054E-2],"categories":[],"categories_nodes":[],"categories_segments":[],"categories_sizes":[],"default_left":[1,1,1,0,0,0,0],"id":127,"left_children":[1,3,5,-1,-1,-1,-1],"loss_changes":[1.0458978E2,6.190213E1,2.778192E1,0E0,0E0,0E0,0E0],"parents":[2147483647,0,0,1,1,2,2],"right_children":[2,4,6,-1,-1,-1,-1],"split_conditions":[1.85E1,7.5E0,-6.45E0,-2.5768936E-4,2.5548704E-3,-2.6607348E-3,-1.8768053E-4],"split_indices":[27,103,25,0,0,0,0],"split_type":[0,0,0,0,0,0,0],"sum_hessian":[6.01352E3,3.93829E3,2.07523E3,1.076688E3,2.861602E3,6.7045233E2,1.4047775E3],"tree_param":{"num_deleted":"0","num_feature":"104","num_nodes":"7","size_leaf_vector":"0"}},{"base_weights":[-8.209624E-2,9.260825E-3,-2.6915872E-1,-1.8034366E-1,9.554516E-2,-3.2736573E-1,-1.10951E-2],"categories":[],